{"biases": [[[0.19837621529518953], [-0.9819668542157516], [0.18407907972045906], [1.1279577633994264], [1.0434647060569218], [0.27007227570864345], [0.49124072504381394], [-0.17287376942267613], [0.7818821591082141], [1.2339213601315873], [1.1198934505640137], [-0.5180808545540466], [0.984433140883057], [1.0237172240207846], [1.064710147571016], [0.23818040467432783], [1.3892399714606767], [0.7823620712770826], [0.9169947509104615], [0.2865091627095334]], [[1.87454912610581], [1.7565767083393542], [-1.6236413602819821], [0.24826046298308935], [-0.11982610884849713], [-0.19747366014572632], [-0.05821332528364322], [0.17585582507069564], [-0.1541133013676051], [-0.6134046063469542]]], "weights": [[[0.496530009214494, -0.014783073329498748, -0.3244156533626904, 1.4193565826693149, -0.7231541978177054, -2.2905730955035555, 0.14387584436201975, -1.1066343071877838, 0.6497152286790152, -0.4322209640722531, 0.4251222995666237, 0.9999421492302584, -1.1793661867096283, -0.3807086642486085, 2.007657927260546, -0.5362750174763977, 1.2374039745657714, -0.2685228285631719, 1.173358070247644, 0.28704915698533606, 0.08572131763644214, -1.2491847023065368, 1.1605824162347853, -1.225810022847567, -0.7740524564185349, 0.179789218672008, 0.2861154001390878, 0.013190971938321389, -0.6804619696818262, 0.18836736830175044, -0.029249111386772313, 1.2285240038947984, -0.9251211357365986, 0.09372535747459211, -0.844903107496936, 2.5860720108338846, 1.189756306423025, -0.3810964999694355, 0.14715195991026794, 0.5101366095724765, 0.1633176338149577, -1.679235489301423, 1.1540423482192217, -0.5280021464171251, 2.4598314150939182, 1.9336121467130831, -0.3932810184806987, 0.38784305476998204, 1.0736463109826633, 0.04897628365493602, 0.4961878413007594, -1.2054284689890291, -0.412407376521134, -0.1651855665630157, -0.5048856501481581, -0.3426930669425208, 0.4848941789019317, 0.48842251268913595, -0.08991797900268461, 1.5662546828373585, 0.2982133901841418, -0.6319103976472973, -1.2407324245607547, -0.39603537604288613, 1.0020379131759503, -0.04630571051052781, 1.5418722997935497, -0.4565409055887633, 3.216150607298415, -0.07433961415824716, -0.333680382600513, 0.24690363055832557, 0.9014666097351152, 1.9738466001424655, 0.426803847788033, -1.421381966824749, -1.1490303279942158, -0.2777220110172995, 1.0774441623908946, -0.7935069254787633, -0.32485149854840284, -0.2701640045143366, -0.457982959227996, 0.003997246038042729, -0.02953722972993644, 0.07965455394191594, 0.3959861978576564, 1.3135866309955382, -0.17233362412329936, -0.8187225471593395, -2.392074804330409, -0.07417961986213392, -0.7077585233801326, 0.7091982385731452, 0.9334171422160813, -0.49770614923246626, 0.22367057031917695, -0.42199675877389853, 2.0809188211619776, -0.28623472104919967, 0.7281162482846619, -0.07153799467668635, 0.565655860608648, 1.4363895781646758, 1.4062921775519897, -0.5170453596435431, 1.202161762850092, -1.563510686261967, 0.3587296031408361, -0.5681366548153549, 1.7241005292497436, 1.1738767284824674, 0.1084878107762051, 0.4747973227323765, 1.6338416368714945, 1.4338214796218962, -0.21170375869269387, 0.8187127949766333, -0.24515230649219757, -1.3752013108579302, -0.09582738081518041, 0.2738847729754367, -0.00012736583541474994, 0.43205374605682684, 1.2571616778970294, -1.9707271214476223, -1.7895386716426969, -0.8343024357524705, -1.3674209972370344, -0.0347452932332679, -0.13412110797509358, 1.788790189599386, -2.018901660466356, -2.658787126092843, 1.107272110880894, -0.4077988449010142, 0.5876869159161294, -0.49248129804761187, 0.17710823495798217, -1.256800961039604, 0.003915408300398734, -0.832092104478058, -3.3315290534287763, 2.2711579054337165, 0.7455007157586004, -0.8109854320711899, -0.46760927564123056, -0.8655275900560638, -0.9397257339560204, 0.7740535836458857, -0.10911518889841026, -2.254712980511137, -0.6868283371617315, 0.1052288483453983, 2.5214776377390606, 1.3920984688387126, 0.6636127903009559, -1.1203724049019337, -0.0762811896809708, 0.10310898707145415, -1.4605237491702816, -0.9790072433996965, 0.4814290192507447, 1.4789155705713133, 1.4573348997064177, 0.5399988116211155, -0.6423140524119536, -0.7011268696046039, 1.387057771625553, 1.0124409476624836, -1.3078651913279853, 0.5598875453057539, 0.37852136770540057, 0.4543513774575976, -0.6868663205450714, -0.9514114286157128, 0.5063945405066057, 1.1353632601967292, 1.22356315864508, -1.0168345441238245, 0.7419199491568126, 1.9988043466188705, 0.6875884296039024, -0.283857209366639, -0.9078441990162418, 0.8030563403733632, -0.5900359969065092, -0.26010804835502993, 0.023513381934899127, 0.5063027211156274, 0.9503616202802103, 0.6131541717358127, 0.818448064189321, 0.7268803584130857, -0.4635952445220664, -0.1916442658431265, -0.2995425455153738, 1.5439495303018045, 0.41147858275840193, 1.417376905744476, -1.2040687784267747, -2.1392311990295387, -0.1475746812859527, -0.4654640265771226, 0.40528608359311763, -2.056932558287501, -0.5922942120199817, -0.6733971284399332, 1.2630813975151596, 2.2047115298826094, -0.459551114064846, 0.06467603587033163, -0.7782554369777915, -1.0208877943001278, -0.7141946449463962, -0.6065562768093057, 0.7843385941354833, 0.4764769019688191, -0.6347117280759365, 0.11041443838430648, 0.6114267296254242, 1.3103061350578586, 0.5488226155914891, -0.20383862031115052, -1.4701022071580447, 0.6312488665084623, -0.8814755656904646, -0.5611906268186567, 1.4357745728776155, 0.3457449505171107, 1.108089953415832, 0.30571848987535366, -1.04961269060802, 0.4332525042439248, 1.964165315781854, 0.5112311106010989, 0.8009438048478136, 0.7487651438161208, -0.2968929746494853, -0.15326226630416956, -0.9085540561449351, 1.0553361441488316, -0.8023785186477652, 0.6979676937704231, 2.8333993827255495, -0.7341128764918696, -0.2546530065262668, 1.0908159581962562, 0.17000588233614577, -1.3186692402030498, 0.6147362130588006, 1.148188437672188, 1.1282141713888478, -0.007941893829671177, -0.36551602539980727, -1.3785630820638113, -1.0967545213206034, -0.48656788236462467, -0.23404909326103088, 0.45179112207773287, -3.086088830086811, 0.6783769132429062, 0.5584008547627258, 0.539690225417514, 0.3772833266051274, -0.29106367074475076, 0.8320837412757197, 1.8740674447398895, -0.6112176774477299, 0.6283045616601536, 0.5857009808971698, -2.992507338694201, 0.05760139226972031, -1.6202329105604052, 0.9686355895043187, -3.1156025731563326, -0.616761280416271, 0.4575187886299794, 0.8057907826718602, -0.6885015835137279, 0.010853478379437183, -2.0319252068598246, 1.3788550104471604, 0.5209320347968883, -1.4252166148757106, -1.5549369502191552, -0.3030388848719497, -0.6526384690153765, -0.5312487660408391, 1.7486750369154986, -0.2570074798713517, 0.21985002464222206, -1.4942251436153045, -0.1214537547648631, -1.2043294031090093, -0.48359376875596227, -2.1744953302134955, -0.9738834787557502, -0.6387907149987062, 1.0261713766440548, 0.1136878656978313, -0.587316120813248, -0.6168859611728723, 0.1678168508751802, 0.8057675166092629, 1.1826517389859608, 0.04484314202510349, -0.48776212172726857, -0.39899316467538637, -1.3471295768631528, -1.1233398243710537, -2.2179069928265838, -0.47235562789145685, -0.6735434579139101, -1.6561961211945206, 0.5292084712618155, -2.056481449382843, 0.8649127426303028, 0.6260576385800957, 0.9757824115256251, 0.04815767052417956, -0.40252674343729056, 1.980404635577818, 0.10550631743973721, 0.722056497469956, -1.3907954416553296, -0.5872796799379595, 0.2521536922637133, 0.2301709028974632, -1.0070876844693917, 0.4866580857188081, -0.6765248548422167, -0.10457205884891325, -1.2223995870197353, 0.31311122990012513, 1.8599098710130777, 0.022886445135712627, 1.453302966631996, -0.848574892571101, -0.9038051068298527, -0.2665982779778336, -0.06818863767488624, 0.08864148739445225, -0.2552127496438105, -0.6043702851291514, 0.14928052397404018, -1.0932720171053627, 1.4062958267353378, -0.3284090672040943, 0.05298008041358704, 1.0172728103842659, -0.711525482005607, 0.7604841410392279, 0.023043650866590486, -0.40967727454181424, -0.9026236102150086, 3.185179234237805, 0.2921854065591909, -1.3983789789338579, -0.24690284954787955, -0.8241653853767649, 1.4232946792775647, 0.6474957590948576, 0.42974063631776716, -0.13550195714155944, -0.18177865433704063, -0.9519107196156248, 0.036011583978720486, 0.6890936386955787, -1.721282642598085, -1.282941946919383, 0.4380666172135205, -0.4895509270706274, 0.2660953071669027, 0.18257459966695183, -0.07918559291162365, -0.5758873765483783, -1.0015565300177256, 0.3265563672204481, 0.8562204233358707, -0.10838898183340308, -1.4146142531670016, -1.0365839802316994, -0.3189697054869626, 0.015468170406141858, 0.7089185042066293, 0.7755735911698447, 2.3199156503236593, 0.7209945524485617, 0.10638587170762942, -0.6743952638776144, -0.3800729464253889, 0.5626895796123901, 1.8885863640225606, -0.37665520032689354, -0.005373631370404954, 0.537787372969853, 0.7585182017779848, -0.9846692217561717, 1.0472934557788334, 0.03145234031502916, -0.5318566018117216, 0.04657334763721392, 0.08855766544488612, -0.8065838071077829, -0.5204476763921622, 0.24162570388919116, 0.3854521637994312, 0.487470361854705, 0.6203808082417921, -2.8455230431031433, 1.2367032826827145, 0.1918822432192315, 0.2882784115678426, -1.2613609207095036, -0.6804039956654854, 0.4506327561235215, -0.03327697287811832, -1.3743125773892657, -0.43614371182924017, -0.2132380706962753, 1.2631152127359826, 0.23690336699401743, 1.451014578540518, -1.3240048940632796, -0.27170385412791004, -0.8988873978786451, 0.12956700319270603, -1.6210639420750503, -0.5756359681643686, 0.9294155479903368, 0.9379663024406542, -1.7594967005675808, -0.7684166564017731, 0.5129509378024938, -0.872123189892139, 0.6119211171662161, 0.33522197723279673, 0.9953636705949046, 0.3042465266954894, -0.7564181119022743, -0.4754177212299495, 0.046542074810442216, -0.9735518578494476, 0.11948128363108375, 0.9551463508043263, 0.7361349219868356, -0.6004577119009911, -0.12562013421254273, 2.4667632879467702, -0.44799939133658556, -1.2300088589841702, -0.8831288686776093, -0.8495671440085805, 1.1647690038339142, 0.3483382496272084, 1.7241300176533272, 0.6374754235919262, -0.5992028859034378, -1.33109036052609, -1.8049792343283944, -0.664764693293884, 0.561480862657225, -1.5977613732865859, 1.4781966360647443, 0.017811472261299074, -0.8717840163552277, -1.0158223704821936, 0.9858381274663524, 1.0551081728104343, 1.8742718014042168, -0.070518111148202, 0.5965481643498161, 2.6602340844452956, -0.379700665055667, 1.269796741979685, -0.46688026541077415, -0.122993874619087, 1.706056037866322, 0.6349584455759945, 0.11631981590677577, 1.01504050424012, 0.176351487176158, 0.5083233333431788, 1.4376162533562555, 0.7867518172307767, 0.05312386115088062, -0.692367177766843, 0.20185337077817553, 1.5839227284119568, -0.7537050280102342, 0.11067889747709957, 0.04494626935540756, 0.20313290704963766, -0.9755072349221894, 0.9443856422619596, 0.70299702835463, 0.884527871682134, 0.06422578297276932, -0.8823127728758078, 1.3328069421714535, 0.002724601344653354, -0.9584767113914584, 0.04562550600372983, 0.8531475039932477, 1.6712820836518294, -0.07984427192769522, -1.293973806516826, -0.39527311205320503, -0.9020352732448847, -1.0939259128362049, 1.827123235226469, 0.5768382715988257, 0.6947596609879483, 1.2546530138271519, 0.340651792426522, -1.7195644277066284, 0.25778642982881295, 0.9856584563438524, -1.437160789151147, 0.5470740445105879, 0.8862222454868178, -0.8117031302082693, 0.40837285092673853, -0.04747204437426202, 0.2274721572797647, 0.699181412933535, 0.39457438914501874, 0.46025709122359815, 0.32327667978624497, 0.5054920863623917, -1.9932236374524261, -1.2120748825633512, -1.1031739140584491, -1.8202998221924531, -1.073249893190582, 0.15811784460098918, -1.0821329754751106, -0.8198842407535146, 0.46564484784743576, -0.38885256878056046, 0.48494577022129054, 0.21713046497940672, -1.013339866287289, 0.717074632803299, -1.032907087687611, -2.0220461428644754, 1.3820538873277497, 0.15768487643162135, 0.43581924613702033, -1.3086798385647214, 0.9719921095848699, 1.3538908600480637, 0.18057360878554368, 0.5975442764107318, -0.24962119575513553, -0.37372143527561985, 0.7192557643051304, -0.9657240441118041, -1.6496281002028261, -0.44972028610607045, -0.5021805637289505, -0.3989691077589687, -1.0811727862700762, 0.2652342847170572, -0.08047677811675652, 2.144696140949981, -0.22189727942675372, 0.040320917310458566, -1.3458847931806024, -1.8175155157945948, -0.0666715431712767, -0.5487777259786873, 0.19373047735601623, 1.607778159231792, 0.894326766355455, 0.298882447627812, -1.6875846716612242, -1.5596137928109277, -1.1396236600684517, -1.660900102985555, 0.40865506625977116, -0.5199351886338315, 1.0657546501932453, -1.483665606423181, 0.6852890630776145, -0.711216643191105, -0.14705642078069803, -0.009622151472762866, 0.18040096716335444, -1.5844985399170604, -0.9845975743898114, -1.5710864567313398, 0.5352748892207997, -0.051739986475889774, 0.42917569717680343, -0.7112787839546382, 1.5083363993131704, 0.41445952737439173, -0.4796574205462007, 1.2228102754790118, -0.7295004135924209, -0.5131423326284222, -0.3232245441405768, 0.09581204996329215, -1.9792880175506893, -0.9843522552178329, -0.5011884221743406, -0.37146601850395017, 1.6209196959875805, 0.6042211038420283, 0.18124222121617506, 1.0947075988931998, -0.89410594509636, -0.5084351877442901, 0.8129166184403859, 1.1378530589963534, -1.6099118178371628, 0.10804211379790077, 2.4421430802316917, 0.39385998833075614, -0.11692786803647645, -0.6260784015119165, 2.4733978399058714, 0.42214674780735306, 1.5012615528938058, 1.3797372026667505, 0.866101083849409, -0.34108258685173176, -1.640857580127389, 0.7178603781668628, -0.7299579714288894, -0.07975675399584144, -0.7938060004004954, -0.05298295829806695, 0.6562988323238387, 2.323055070101419, 1.3289605121578292, 1.179498683458192, 0.7262045270690897, 2.001896826236982, -0.17274723038467293, 0.8860560547078001, 2.1537867583603356, 0.05899547308974848, -1.6181787065952362, -0.8828540926084893, -0.5387749462635051, -1.7947967694725402, 0.3305549798277234, 0.457819128274894, 0.7688261150163958, 0.13369965355929977, -0.6278292960815256, 0.3316036531794702, 0.003346011369839503, 2.613427725701399, -1.0054115761964248, -1.2204849534803563, -0.6326629080457541, 0.20209737137345823, 1.0203247786300358, -0.7254181882469334, -1.0002750979952193, -2.55001409830103, -0.4049425535874018, 0.3691580853394966, -0.36921451169021907, -1.5975355144152816, 1.9001138547539425, -1.7548906992496585, -0.1667406788606897, 1.2164437578387595, -1.482353251749213, 0.4675681611340398, -0.3762159806404446, 0.9571636211834591, 0.7574544777665786, -0.6397275961490919, -1.1794733854286443, 0.2469474271548803, 0.8713857681314368, -0.8724493241679466, -2.5411744932585343, 1.0698569139597576, 0.4357919073406406, 0.3832770841955404, -0.48796515032650883, 1.025873802023481, -0.5370637059065145, -1.0648884269339143, 1.1483540899397464, 0.16292392359018104, 0.11750077973629365, -0.7649452082594321, 1.8484006024230148, 0.7106484640856346, 0.7302354154190164, -0.5164421209607577, -0.41827062940791787, 0.5415892817890218, 0.6283103829677703, 2.2617981773566105, 0.1471790341833537, 0.5570823052750093, -0.7355077093073322, -1.3368848802061826, 0.3241065152073444, 0.7386571645274301, -1.304188143923351, 0.37349881594938167, 0.6470027533289543, 0.13371636084849386, -0.13932320386363453, 0.5716754311848311, 1.1264653471635007, -0.07122391633165416, -0.457257754039755, 1.4010964572267908, -0.12245661696378726, 0.4271288818960608, -0.40815326863694334, -1.4443003514716481, 0.12893807318812495, -0.7590077132994871, -0.12249311552820223, 0.6285919339729054, 0.3120512244087742, -1.6067243245663263, 2.1295663707606645, -1.1984290368871753, 1.3042404254809445, -0.39786503787625377, -0.13760895260703337, 0.3342731746893417, 0.48264972953168395, 1.391502147496773, -1.3266371329434752, -1.3263114928668827, 0.9307780548675489, -0.8915927135977032, -0.25581575157461733, -1.8252702683856545, 1.119806755358173, 0.22805209415004984, -0.8022852720228374, 0.5640340631064731, 0.9784404888277967, -1.2105106249381, 1.609951357657532, 1.0627312750082356, 2.6743803314966987, -1.625062060214597, -0.10498544431676556, -0.24862240826202553, 0.7216242456472065, 0.2948442836079131, -1.0841037243176306, -0.20395393594255723, -2.8727037511865414, -0.4345525323005999, 1.2232283549319862, 0.3669412767900509, -1.7575885634767126, 2.0189744895077166, 0.2992878701020463, -0.90768405875452, 0.6393126493966217, 2.1498201257494065, 0.34645296174602647, -0.26366778461980805, 0.23419643331838452, 0.5727859262325558, -0.718986130635729, -0.34245075775339107, -1.8988864296426162, 0.5610287411918337, -0.9331408831613589, -1.2388766454985911, 1.5980014890271905, -0.21220685536089015, -0.030228258280240627, -0.8370028823333989, -1.2580216329422982], [0.08774750453065817, 0.4843689442580515, 0.7113910079766624, 0.07305897611047417, 0.8464667294508228, 1.1233150499327085, 0.5567014743909079, 1.151058834863466, -0.9560854963090754, -1.7566093235397766, 0.6433950837572937, -0.45138815584963776, -0.40812902711399357, -1.2432343571081452, -0.953290618326144, -0.8822041449435037, 0.193622534816277, 0.21901867240338285, -0.25871795956344573, 1.190892134416859, -1.8757956136591991, 1.3635316741158336, 0.049133322158531695, -0.16309994315114903, 0.9063341879149039, -1.395268377082589, -0.5061436997356741, -0.46798958913913846, -1.2414083454787177, 0.11266652399175227, -1.0552181644184664, -0.08409774971778657, 0.26785549991206375, 0.07974878680527456, 1.0767232370409907, 0.42037482802357434, -1.802232152349439, -0.8429237096914769, 0.011194777235804669, 0.8103868213182698, 0.7460390613844677, -1.5084106873943997, 0.49845935104777933, 0.31602256118262567, -1.1263877373092548, 2.456379819989953, 0.2008473306765507, 2.8231213565553674, -0.5745983370067353, -1.3810580457804154, 0.273773639981754, -1.7986417400957642, 1.452413224959338, 0.6000003140696517, 0.8645220193900082, 0.1839043966010093, -0.3082085213671038, -0.12237550055284192, 0.4152699318668462, -0.44368408926956193, 1.8843639791092874, -0.3057070629755114, -0.9033716041084917, -0.7608724722000625, -0.017170589030043128, -0.5152228368828449, 1.4023210593602222, -0.6033710779683626, 0.5775440250544812, 0.8485358697077938, -0.2616466560040676, -2.344001192235191, -0.49890519814706247, 0.16465077461859773, 1.3536491012184544, -0.25810710734010645, 0.3156866280378697, -0.012821576845244934, -0.439325699297494, 1.2014873778986814, -0.023567725287828377, -1.4294807995075751, -2.9433387783793052, -1.077694960545601, -0.24769523413599426, 0.08116396753184142, -0.38993384060719166, 0.7654247086364352, 0.2932932558031511, -0.7365068006024543, -0.10240797660167376, -1.4353828736864, 1.436205510161701, -1.2187185550579136, 1.2219381403046037, -0.27433761630738585, 2.2953710339745084, -0.35089260115207827, -0.8685873890512946, -0.17995882046633685, 0.3723867855150503, -0.7575371614173206, -0.6680087131582628, -1.1191189619588138, 0.5831810066128602, 0.35162488317963214, -0.2718628334725009, 0.7010364572384292, 1.588144251281858, 0.439817502771777, -0.40826528379094673, -0.06140063636854369, -0.34607548062676247, -0.2796939654165296, 0.235098053649506, -0.07438393357139306, -0.057060427826871804, -2.2254189998358234, -0.04550879812478802, -0.21981601470603332, 0.8383347476426805, -0.43225207796209086, -0.07915287750631939, -1.0468858996429822, -1.9606884022297526, -0.6686285335306613, 0.7751929340668118, 0.31210383758764615, 0.28514605895806744, 0.9256234852809274, 0.5586185625806378, -0.21765824257914854, -2.943439401457138, -1.2322682940356149, -0.2500802422435098, -2.7028619001139074, -1.7116155116597087, 0.14051695270604675, 0.5087670604891943, 0.2197118205862402, -3.3951497772125117, 1.017754141673691, -0.009663702325492957, 0.25221801530798876, -2.1507759618564206, -2.285887258485324, -0.5446344661662299, 1.0199479933850235, -1.2391567591106516, -0.9536716551397127, 1.3085750457076042, 1.2480000844704013, -1.2785202492012284, 0.7792848901686124, 0.3854381837073009, -0.6250612616162291, 1.1564730811149035, 0.80299116578445, 0.20387328811879035, -0.6606700795087431, 1.7331773977432712, 0.08805283091883809, 1.398097200380842, -0.767946632540377, 1.6713316703434387, -0.32072217610624265, -0.22954762921884525, -1.3170759524236404, -0.6991877894603798, 2.5433193477697102, -1.1280729787920882, 0.013611752477818546, 1.3600550562619504, -0.1797767037109787, -0.27928103167368107, 0.8949949769115245, 0.4405757934905984, 0.2888529495515115, 0.43888951062192716, -0.20243957089687875, -0.6452098173174777, -1.0207505008050852, -0.789483997918449, 0.4331430954342132, -0.697681629265355, -1.1083521889336838, 0.5289626583559143, 1.6801897880000656, -0.5804326604233583, -0.09677061876955494, -0.38946785888303515, 0.22645957883012938, -1.7644873862894563, 0.09372700254309295, 0.4348822210012385, 1.5896231810064523, -1.6299207629543413, -1.0743758231585046, 1.8535375448921125, 0.27310686385362043, -0.8319255255290274, 0.09159376015600215, 2.0329350248817124, 0.5384472547878032, 0.586305317217014, -0.38502574545710555, -0.7310836197085444, 0.8361870053704392, 1.204623731529398, 0.2946616311161294, -1.6879842453478653, -0.11358200271580562, 0.9155009962634217, 1.659524232712462, 0.1868718636491169, 0.5988064312487036, 0.15148029645050068, -0.420930708454864, -1.4746240866267257, 0.37114120959958136, 1.0506945078858547, 0.5039467545460212, -1.3185442303702928, 0.4089471450698305, 0.7259726332921509, 0.26330470574720277, -0.1509281074507681, -2.062342679507924, -1.319657279497426, -1.0994925183650202, 1.9803325186601475, 0.5360300916083245, 0.3266953565035496, -1.7211054940757928, 2.0598669004218166, -1.6763784274132842, -0.27720077436961077, 1.276617311182027, -0.037837501342890364, -0.8783123433662589, -0.32513987039904546, 1.5688398394526686, -0.3541914068790004, 0.7012237124358455, -1.472806506402407, -0.9081594435004947, -0.40716882314691116, -0.6363304048482145, 0.9565303614955702, -0.31026211369784706, 1.6922467149826985, -1.0607746627539667, -2.133118860773366, 0.49092199080666055, 1.6322832439104658, 0.2404259089681567, 1.0668770524178552, -1.7216304255469865, 1.5381706198076792, 0.43204190075111953, 0.6809687383958858, 0.23688352135877222, -0.366422540253493, 1.3560606569439326, -1.9639797261232297, 0.8258096697676125, 1.5639920427491494, -0.9461612185647931, 0.7538312656026538, 0.927480212747803, 1.652344126765415, -1.6436446473482125, -0.44910365308177924, 0.46903480552281335, 0.3784235957228849, -0.612579170286438, 0.9370647925075679, -0.0962153524895904, -1.8375190598729838, 1.0655536375171122, 0.8683370105611706, 0.6708566929722446, 0.3435047678543737, 0.7668328915274638, -1.4086462812888465, 0.960653729859511, 0.296272481597338, -0.7694317425945675, 0.1851619676806854, 0.31789048218435073, -1.2415484435543829, -0.375621958843668, 1.2466320380353242, 0.14329466687610354, 0.89339613140751, -0.47183005213012885, -0.23207740759736614, -1.8781134654209786, -0.7697387218583178, 1.3386372900895074, -2.084102125662478, -0.8803483830830299, -1.8206230967233752, -0.7569716661964715, -0.349477792684451, 1.1682603689820032, 0.7851865530858684, 2.3065239379571687, 0.05051833404123163, -1.097830721006849, -0.9129976579873452, -0.4016021477510456, 0.020378333904471743, -0.3538960697724808, 0.3007356943586272, 1.1207558400519007, 0.10704513315994671, -1.0667001124489586, 0.6795801054054716, 0.2597957552790917, -0.20944140279130416, 1.125554503426554, -0.6037236218018625, 0.06966324924040714, -0.38348729320112085, 0.20064969069978983, 2.7945954445443513, -0.18798066925651924, 1.3926266724617746, -0.6453606020634213, 0.8900676665883904, 0.25956069550073624, 0.07716192133390402, -0.6485316576876944, -2.6672066234951335, -0.6227339654103156, 1.8023370563654366, -0.06829665755211789, 0.7992440469222424, 0.27440776554113344, -0.33979303654021525, -0.43249083165912355, -1.0144893508441601, -0.6928834621745558, -1.3058646665083864, -1.1827668135209513, -0.8433460375224455, -1.075500958848584, -1.2312420089322411, -2.2730048147598585, 0.26044937499816234, -0.04144172342274156, 0.1912571552200821, 0.037697128022380205, -0.4819676825813097, -1.4857404422937395, -0.8744388310437768, 0.6129300676259045, -0.9817655715963529, -0.006809250124381639, -0.48912258656604507, -0.3377640025696396, -0.5880105481930177, -0.09453613040668829, 0.9067404653834082, 0.8744896417613524, -1.508376187616566, -0.1380654289309124, -0.47643579484859794, -1.0796594510852129, -0.8308938427390833, -1.086044874057293, 0.3256490779847423, 0.10712606388036884, 0.6578134435869343, -0.9788313801115692, -0.09016101281084997, -1.5206194979043801, 0.3391311169921064, -1.0118356663464099, 3.0497300591769467, 0.4666049384103687, 1.1524157508741888, 0.6887175574306742, -0.980719620680672, -0.14320333955180864, -0.43796416872041216, -0.6368538634819412, -1.5559274480865426, 1.1053924091160912, 0.2850642298224917, -0.31502129518199323, 1.0041935443059329, -0.6232918766465984, 0.6485745263411988, -1.2653430223508093, 1.1272682724975114, 0.5706946889835132, 0.9910457983640689, -0.7350972169436863, -0.819058997650014, 0.4764653627261858, -0.9654304602762517, -0.868158171028291, 0.4932787510382954, -0.4275815067737559, -0.6730672346179863, -0.48857822673771956, -0.5084555342383273, 0.8423105833735444, 1.1980373314821262, -1.2246629910970186, 0.004109977067106752, 0.4244712505236175, 0.7680575488285516, -0.22730173307604656, -0.2881823863433218, 0.3587650066069374, -0.13043496776521452, 0.7424234637795388, 0.27755383069261713, -0.15120116785114898, 2.3361443666024893, 0.11104743857385854, -0.565849296187438, 1.5363440431017803, -0.22544329487703815, -0.9067591269080714, -0.8489934642741246, -1.5479167664357045, 1.425190504283865, -1.4336051779584855, 1.2147326334407986, 1.3335930011651467, 1.979514337032117, 1.1511072836857976, -0.6300171645399418, 0.4513483075451529, -0.14045774925984827, 1.2517250818669805, -0.3673056031245416, 0.021878341729253577, 1.0967069192190642, -0.8854912378101734, -1.1350489098849776, -0.2558486492164648, -0.16890616018100973, 0.8298056218666149, 0.17138726256364262, -0.9493416696420313, 0.49992465578107387, -1.492730808190351, -0.21242584390172303, 1.0099738988830465, -0.433329951349631, -0.1075332410856389, -0.7334849823866458, 0.8271325689425651, 0.25058018700525087, -0.9805386833002743, -0.012568076286855174, 0.04764004658667023, 1.396866463908497, -0.7932682351131706, -0.7334704218828465, -0.36986480220929824, -0.5156450117966987, 0.17689040793949423, -0.7425893863597404, -0.5262058228174759, -0.359098971427843, 0.5916139753767413, 1.6250670327254384, -0.4922583099206305, -0.1567649383930882, 0.54138815090707, -0.01835746546756158, -0.12053199600278588, -0.584513673410405, 1.1747477398767479, 2.4887747298069938, -1.0301600982208665, 0.41969258689802175, -1.4837527369253203, -2.166288125006161, 0.09307879133921765, -0.1622121714598348, 0.1735779554055497, -0.050881241279260934, 1.3486776852678835, -0.25324454775110083, -0.36712775757905514, 0.6838725297015222, 0.12677354621879958, -1.9340815282346473, 0.3766636439070291, -0.46639551372968757, -0.032516040968574626, 1.3997430524333958, -0.8000154252350701, -0.5001026550896448, 0.31390566613275045, 1.3065337539841537, -0.6665295845168, -0.3066762232838363, -0.4585818627415746, 0.09122947888829418, 0.5398715474729328, -0.18898380661200714, 1.955989893976489, -1.090512790972253, -0.27550975363653984, -0.8377827424789223, 0.27334745192559406, 0.8619533155415013, -1.0350087349070118, -0.2685653202284257, 1.2469088562588067, 0.08633627848772156, 0.36477012335688147, 0.6553877317637408, -1.8827772026916472, -0.34610813970097437, 0.4209733467539912, -0.5101208194782539, -0.35257807012839526, 0.11994788725044846, 0.5514939699295517, 1.6935697733454325, 0.8251208173367391, -0.012080949198105916, -0.5028452495636068, -1.0620247275237047, 1.504312332832597, -0.8606631887489469, 0.17373625416548608, 0.9175375681844505, -0.20290304072593343, 0.21407932570389304, -1.2794242617548786, 0.17245315727829869, -0.7526291609258635, 0.0031102408861409915, -0.20380119787356007, -0.6631124601969309, 0.603251747004865, 0.5442243115853658, -1.207928000035707, 0.8949751122236339, -0.2511626867276197, 1.6310247478514863, 1.0713573843912148, -1.131703461432164, 1.0945424189594535, -0.16432741760770217, 0.8424651795146746, 0.15948543171983132, -0.7878652615051495, -0.07664574113242502, -0.3844290092605237, -0.8305986932131411, 1.3405861828713745, 0.13435901454976804, 0.5157397195437431, -1.6809159994146494, 2.1588367722033834, -0.41634097470856146, -1.453144083054704, -0.4912012396929351, -1.6660652706159487, -0.6272493984909974, -1.1408532179005233, 1.1893534422661636, -0.4037156545068983, -1.559002292147818, -0.5370356456668662, -0.5558053352791258, 1.6225023769048628, -1.6552241643810846, -1.6140230565188454, 0.6303012815224103, 0.9036508233657283, 0.4140109280676618, -0.04709923353871504, 0.3859030979827897, -0.9992400815237529, -0.05199609622949418, -0.35378076818683674, 0.08979743220795464, -0.88229304442818, 0.08218322908526317, 0.30910920628861804, -0.11355525598539513, 0.32762830429512835, 1.3445187303092998, 0.9998948136108053, -0.14643795789785158, 0.2993413470377811, -0.989969110853464, 0.0794795760058658, 0.1861604578931333, -1.216680791367848, -0.5259199136650633, -1.1050692728329043, -1.2905491978303052, -0.936824294606663, 0.34793992036895305, -0.7885663275366199, -1.2035402047466344, 0.6464633802228961, 0.8689674776738788, 0.6413745581367145, 0.4075287964765701, 0.30305027913876786, -1.3084188370597816, 0.6711719202368274, -0.6347865632794826, 0.005631041096440398, -0.3175655101831062, 0.7188268572715646, 0.7357770778828756, 1.495815932165708, 0.8896275108659922, 0.003305206360917512, 0.90588535414474, -1.6242462329540552, -1.6044607821651395, 1.3248674147974453, -0.41906270102912274, 0.3334944273682026, -0.8583803386344245, 0.053427799233665904, 1.3327143722505226, 0.9807825829126422, 0.9198022547160695, -0.39145030147834314, 1.8621573064408266, -0.16632179366642638, 0.014359615988775, 2.372851494266785, 2.1268756678220027, 0.28232478852464943, 0.9216758926907206, 0.483615075649656, -0.6486960480033788, -0.8332674553869921, -0.3713839318138178, 1.580670264159253, 0.25061662842545623, 0.36720337842205203, 1.77246433150795, 0.44557844537247004, 0.9435729466883559, -1.3580975424333601, 0.3319779065682879, 0.823565017944165, 0.34646304376180315, 0.9148172974608577, 2.0546216999491302, -0.3866226006111895, -0.8036646158403601, -0.07954873168735085, -0.8670094506311576, 1.2166387262032898, -1.3704126043647333, 1.192901099753502, -0.005574699486680026, 0.06227143458507366, 0.8978306197329214, 0.19412819232489242, 1.158810499975492, 0.5082725266955448, 1.1396158693026326, -0.48070467806098444, 1.178601282552662, 0.9498722884098012, 1.6334045444178362, -0.37823260664597835, 0.06806859812960402, 0.9412563014970354, 1.5412573614062548, -0.6774370862375116, 0.22064170850820986, 1.5940189361787083, 1.154064810500747, -1.5028339044894243, -0.043389708734327806, 0.6508548915781535, 0.1840419109197846, -0.5124485125864687, 0.5551017305780523, -0.4361172865130445, 1.7061057873736318, -1.5010298497242358, 0.6765998510074256, -1.3213860898725227, -0.29754965122819793, 0.41711641604380445, 0.7467189221560383, -0.5450955575600548, 0.8153818436221498, -0.5008948741169862, 0.26748184369797484, -0.2922630064987967, -0.5671019509572364, 0.33047506494915285, 0.6346741767618783, 0.8393057724264915, -0.034752828946448586, 0.5994882575941012, 0.21258820287029864, -0.9604042803978154, -2.5575808897232766, -0.04944687318593611, -0.7492762234570755, 0.379473631195752, -0.4231171113554248, -1.4299144555294852, -0.22449530607817467, 0.14388822339496005, 0.8786322797775024, -0.8577548737838484, -0.3921798594088047, 1.929406126962625, 0.44621402865608084, 1.246996972729516, 0.4992857325426198, 0.5922193353978484, -1.0046818368211232, 0.5282742181658587, 0.55002005480454, 0.6276953837895515, -1.0304696095546892, -0.09455137952761133, -1.1426727479621053, -1.4029811458367198, 0.014541991360224368, 0.35106816427554566, -0.6804174082277457, -0.9726362159154897, -0.3833710046145179, -0.5281346704337441, -0.29738666093122357, -1.1023934451989683, -0.026469215388419984, -1.8988049396277886, 0.5979649512773718, 0.6557274117064049, -1.1323399974343176, 0.3020465754685443, 1.8997949398719651, 0.10394576273530655, -0.8334433768469505, -1.0979400532816486, 0.37950437098514767, -0.4024243727983763, 1.3121819871292761, 0.3385127102108855, -1.5787863693912734, 0.3512540052189249, -0.7699909462494937, -2.0002685783528906, -0.011492474770531887, -1.7164090978638047, 0.14185846878021294, -0.985857329435088, 1.2592487106802548, -1.525736395542102, 1.761124044853395, 0.7321847550028341, -0.21395639224357463, 0.9322600473239775, 0.6624823583734107, 0.47303785763530953, 0.879770925700342, -0.05688296362725387, 0.4757839751853468, 0.24396872590908886, -1.4275363809603758, 0.937652508615173, -1.6394387326151278, -1.070268132692738, -2.055858168033105, -2.512764204453914], [-0.21399865144361171, -0.027331876521886452, -0.21018799119417966, 1.6952060919069074, 1.1216066647399912, -0.13151311383260095, 0.2758696474473046, -0.6212718337362901, -0.03856633247855369, 0.10257982616719472, 0.26164294674592214, -0.030289311534511427, 1.3303532442979362, -1.8820920967544867, 0.5501210805432605, -1.78700670943906, -0.5613773240992455, 0.3850611336733576, 0.8143444984926064, -0.14009486047787942, 0.5127699761140149, -0.12338074031069925, 1.40062896063156, -0.8693728560434137, -0.8255837950175736, 1.4683105312347144, 1.4755654309216417, -0.424782862187489, 1.1424931413748534, -0.18983305125056021, -0.7307916590422467, 0.5015359025609631, 0.5492053947368127, -0.4771752606440348, -0.010015841307327206, -0.553723505931083, -0.8171840060800856, 1.601311937773822, -0.6986348082889582, -1.291442186101563, -0.06894651324325916, 0.5969750635736876, -0.4424982727683007, -0.7164687028087499, 0.586895618142699, 1.0681795810940786, -0.8464864500194279, 1.4320812497602713, -0.12727866546322766, -2.089593407321318, -1.848198836944078, 1.3200935448064905, -0.17155003775473385, 0.5231451039709615, 1.441709736789301, -0.3430889833350098, 0.22922326391566353, -0.03724162552876336, 1.0788970417748456, -0.9745055738272826, 1.8229677149969932, 0.49705924933855905, 0.4794329812497018, 1.0835991267697462, 0.7264939151658859, 0.2512198604867767, 0.7142020963376098, 0.23723357290131525, 0.8280948698230057, -1.2361121125324857, 1.7161503555409166, -0.2795412236250732, 0.029409729465885243, -0.7396286247652849, -0.3359303890724273, 0.3674500569480578, 1.309022174298158, 1.6607496520287142, -1.1068876837418662, 1.0826871971287648, 1.3046540549391692, 1.3952500438470872, 0.6119827506084117, 0.26127829054608664, -0.8970449534457705, -0.9837407951386059, 0.7467738961331176, -0.1039434644901034, 0.14258327884088287, -0.27260532294174566, -1.1240683346878322, -1.81398902669793, -0.1091232539140719, -0.7696139698610099, 0.40666444817328185, 1.2902633393696175, 0.10888353333183971, -1.66333404499119, 2.353913134963467, 1.5716898035157996, 0.5535738763115859, 0.9196977737915654, -0.14248818153878026, 0.6956121584753904, 0.06464275428374554, 1.1493406909479498, 0.7806055061975904, 0.22635200984140355, -1.3333049194761515, -1.3532399720122583, 0.3394972130985335, -1.620163335819843, -0.4729342061400402, -0.14888478032476343, 0.024427724572946466, -1.02829241182677, 2.1199720167709186, 1.0850043070342066, 1.301489297685296, 0.33370861027657467, -0.0912152981050977, -0.693259416630259, 1.4264324739901044, 0.5093872162973776, -0.49863996663897037, 0.8906731218870143, 0.7209650568261343, -1.0796703970157397, 1.6484993968477928, -0.843309919619483, 0.43396295710592486, -0.8007961117881621, 0.5785453697869576, 0.34711725044582936, 0.664706165340919, 0.3949408544123285, 1.9467158765911217, -1.098450087894558, 0.28782325540342546, 0.28226937195744367, -0.5066221211312729, 0.9024989899238123, -1.505022826182897, -1.0472127995905123, -1.5914012807967683, 1.3864108903769663, -0.3972313576470568, 0.8893639742109974, -0.08672979228189379, 0.9035575828309196, 0.4353542575410085, -0.5924065612207283, 2.2936334225323574, -1.1944173570891656, -0.11238588001168266, 0.5686419590810535, 0.8569824882454197, -0.4329224719555685, 0.37634888523448645, -0.40585963193461183, 1.2713950529049505, 0.4860256063525208, -1.0986575975426394, -1.9414911257209337, 0.2898817474032546, -1.1308191711531244, 0.3039740814247734, 0.2254829852608511, -0.864666017924356, -2.6105521730983914, -0.031004490063284283, 1.2504397388151702, -0.474506414583412, -0.30030383571665736, 0.2290171159412573, 1.1203055056707938, -1.1103351782850661, 0.0020848617910340585, -1.5729651522766472, 0.5476760998235879, 0.517735084629581, -0.859207040645315, 0.3578400775540902, -0.2700301600291192, 0.27697798309524163, 1.1808723375185346, -1.3088721300172605, 0.39593781011550716, -1.5688554881006371, 0.32941771522013297, 0.3491994504057663, 0.5202477649672003, -0.9324917665296955, -0.056729887742847845, 0.50291828753998, 0.24962900764241297, 0.24592063310841142, -0.47963498706042046, -0.17132219547847455, -1.33111431754605, 0.4524834802337411, -0.11025712616932166, 1.316789755395126, 1.316799477087987, 1.718123256263907, 0.4696508803210641, 0.41067007147691226, 0.024364083352909217, 0.6539421836678754, 0.48506862889397157, 0.043000812476474456, -0.767758343405946, 0.5453897145428628, -1.9212380537795037, -1.0003516067411673, -0.5122703576627864, -0.6761768119463131, 0.6582603175245417, 0.9091625645501688, -0.6553380478640594, -0.16674963990078642, 1.8531914712870998, 0.15740591133966958, -0.003176569880638639, -0.04463755317738229, -0.4177996601305881, -0.0717908310986155, 1.102695967737524, 0.8007475429526554, 2.6404395371500624, -0.42350626110277323, -0.87801278659742, -0.11012007464238967, -0.47686405462320597, 0.0841902507914428, 0.48858310814613537, 1.4589093035073006, 0.2502181796784769, 0.8869641356910326, 3.13835049454616, -0.6320096588998706, 2.2937217080075087, -0.48179105327520105, 0.472404037751952, 1.5359330345995819, -0.10776876831061642, 0.34775901104667006, -2.2039676577272833, 0.688765082044797, -0.0965535350980693, 1.8535947571292024, -0.005900525920616244, 0.37025722343782697, -0.4796010162600114, 0.5334348898842951, -2.1765362160602955, 0.32718414540882845, 1.4223751666186482, -0.18682504345895365, -1.1556122021843365, 1.3703797616225388, 1.579786292609185, -1.720271502604662, -0.2359716720857682, 0.23243154210287592, -0.22681521691570844, -0.38981145518401894, 0.06528697107906951, -1.9654324292168848, 0.6143975352093944, -0.31736172999600076, 0.2219534477379253, 1.193647321452726, -0.24270700765691924, 0.20459782146545044, 2.409156455296828, -0.23884694292909858, 2.0988980018489958, -0.7554765258578765, 0.576385963761877, -0.7196287856980641, -0.19900252235545213, -0.22327310382217205, -0.5044908254598803, -0.9181909087935154, 0.3085400407141106, -0.9122453484391759, -0.16669176318783407, -1.7463261910323797, 0.2587805903421013, -0.27453174288075904, -0.04668643901920662, -0.5741909236191781, 0.21070352029104364, 0.2934254748104499, -0.5446876342962098, 0.7224849738625609, -0.8601741733072913, 0.1828012357398445, -0.8094230965170595, 0.20752179452271793, -0.9755735657429129, 0.0725220916276862, -1.1530594420370621, 0.5523595755267502, 0.023082996542804154, 0.9518258235993804, 1.474792555594369, 0.1401957628773, 0.600304871169758, 0.7654197624320315, -0.5750091455038401, -0.4217367713534376, 0.6296760528462578, 0.6415056009602587, -2.7416604442257113, -1.165545760718247, 1.5644509565322664, 0.9098020586401462, -1.4219994705886763, -0.1623204094529474, -0.3417837071306985, 0.08978220845425805, -0.40291059533135093, -0.31388717614508144, -1.0136297294171188, -1.6422463542105667, -1.6452417730145885, -0.11994542332945685, -1.1348306002665636, -0.39670632819054386, -0.5602323085970491, 0.750352415502519, 0.57716133555376, 1.4673566724829423, 1.3971715700490197, 1.6251922876536877, -0.6613830290716111, 0.8711493151406056, -1.0764503824527447, 0.4200838778122821, -1.5270708133978785, 0.31797433256235047, 1.449819339746887, -1.3673050999278968, -0.8370026952094397, 0.6563733918525213, 0.7459211325692674, 0.08912078856299331, -1.2137161627054727, -0.5755908932104288, -1.6262458255953074, 0.8159327836196064, -0.6746764380619211, 1.7304959167342566, 1.8097345062557721, 0.20712019941945942, 0.9851551549446655, 0.02545320840728225, 0.9026851664977742, 0.4384857408150824, 0.038832494859498606, 0.8630190231422428, -0.29648548065813535, -0.3160474617082343, -0.5275591696811218, -0.5272916452230102, -0.12949200284825738, -1.0264927398254984, 1.2027085674078457, 1.6071145062922947, -0.5667355336599864, 0.061772514750239156, 0.9967136077436614, -0.8220384377777848, 0.018211162408381915, -0.5826366971446767, -1.1706330622292769, 0.2359790589806055, -1.097385567155855, -0.09934675612284334, -2.263679065564651, -0.7727776432648742, 1.1161692335920237, 1.700691413194053, 0.6993097800772333, 1.2158294156613862, -0.652882730885432, -1.9066566266724916, -0.8294829500556946, -2.5016023077446063, 1.4312314675130469, 0.50616074005286, -0.18177827746503414, 1.8058697008059468, -0.4483955166859396, -1.0986692365120692, 0.9450233543452115, 1.888449611915958, -0.23421593796409437, 0.45551660205316374, -0.9888329504371568, -1.1676040904316765, 1.8098271006535225, -0.9736322278315563, -0.04646006229647249, 0.7525464573991811, -0.7530905911163556, 1.5509684876321856, -0.5822760520515603, 0.033355993395274945, 0.306925211469605, -0.0533683232393698, 0.2915754780466954, -0.320919653451408, 0.3263962663588798, -0.6516582587168462, 0.47008839850236045, 0.41348154554686517, 0.651990991547838, -0.16446256917610613, -1.1314305574732246, 0.9493558411098085, -1.4292514021076486, -0.7571197006805415, 0.49388796890795317, -0.6277004977610245, -0.6009627074460211, -0.999969223920136, 0.1205969469117757, -0.6002955577517479, 0.40648243767804915, 0.0320307001593004, -0.6766809013558192, 0.668154203326104, -0.4190768916022815, 0.6273534947161442, -0.5971012263472669, -0.23683288671460898, -0.6127530577932502, -0.6068538058519735, -1.5787322400243478, -0.3808777149734999, 0.9439457450898249, 0.6392798185897105, 0.5595001159729711, -3.7815477089053564, 0.40034419672046767, -0.6171694638212868, 0.5567541219698369, -0.32385867114363537, 0.418406274066025, -0.327817073951091, -0.07188698968641269, -0.5425178925939783, -1.583187657073218, -0.6151063946265288, -0.6284511192802698, 1.6898504005102704, 0.11289305044628893, 0.6687215868465184, 0.14161103771679473, -1.1503678379150581, 0.15479527084212397, 3.7839533466297177, -1.0698525540541541, 0.20669448580432406, 0.6537607173883004, 1.4018309013948589, -1.4501283743587352, -0.7919361601993815, 1.766860268359135, 0.5351657467425185, 0.045645003710770654, -0.6392670891481811, -0.6757617483574871, 0.5053188710342233, 0.7811724793837193, 0.34256715136031557, -1.005032302285365, 0.670437812585028, 0.9553180013292806, 0.12269131765913477, 1.3587099600374979, 0.08429576749495196, -0.5263982405850574, 0.6382698560445856, 1.5473643488970794, 0.04853116965886515, 0.3512271562737575, -0.7484495352847309, 0.034667973489460296, -0.4067242013652509, -0.2053381422422925, -0.26954692192080804, -0.053935229964218734, -0.3836449542949884, -0.09302088126127009, -0.010776433448344173, -0.27376262705897314, 0.7345284124905991, -0.5366863238678554, -0.3010093348881263, -0.7231196281176674, -0.708588489363346, -1.4495439026338035, -0.7059323837915716, -1.0454315203697009, -0.9653200617496187, -1.0505629074506482, 0.9465476912497208, 0.09667028649283614, -1.0571554282757556, 0.37199506952555456, -0.0610218444825845, 1.0068424012907344, -1.6443218182823545, 0.9540303389642474, 1.024740748418616, 0.5630472349639734, 0.8884252742266733, 0.5772147032289981, 0.6126766382085252, -0.09385677934727223, -0.13213713715539338, -0.7472444086122898, 1.7548013963651574, 0.3997267079506279, 0.2667437207631511, 0.3404330236864965, -0.8747192179092121, -1.509013064230002, 1.3200047283527372, -0.1319904472917858, -1.5683179113306667, -0.6749218627021847, -0.6290710460817517, -0.8272600681089615, -0.40778725567669694, -0.9902188835974929, -0.42169020042016836, -0.3134705607966308, -1.7594903691714563, 1.224878679254285, -0.41260155583572106, 0.2666405419048637, -0.584044271940345, -0.17013177224959974, 0.7056445070052668, -1.724991166676211, -1.0375170181163174, 1.0179572621591684, -0.05590256989582916, 0.6603707859898119, 1.6813282936578164, -0.32492904014870955, -1.810113012553925, 2.058362668372195, -0.23192283062372937, 1.1801396636073742, -1.4510135067199244, 2.253463077980108, 1.1253681339427704, 0.4881958353171999, 0.6280123016047264, 0.5472257357064044, -2.0224277870371687, 0.19534097752349502, -0.41590523983795014, -0.440204387356168, -0.1178142292389384, 1.649738579181697, -0.987158181021465, 0.3898198747366078, 0.5398809363705637, 0.6675850570161633, -0.9455968994005111, -1.7338631144711616, 1.0041161700327248, -0.2229233603902974, -0.2643274540349736, -0.3436857695299673, -0.969055328284419, 0.41250155128402805, -0.36851959343036034, -0.7321322845787676, 0.8036712331937986, -1.005397010957754, 0.3349439381419802, -0.22771555748423217, 0.024139913316823726, -1.331238940243315, 0.8804137870253514, 0.524757419745091, 0.2648830471199996, -0.236277059845584, -0.12277381833272283, 0.8913559716343064, 0.03858586447106065, 0.5903556193675169, 1.2895868331561484, 0.9038249616844852, -2.4944513303131126, -0.3366513722136899, 1.272134025006501, -0.8143028188600032, -0.14042850070794818, 1.0683726261994342, 0.9039606525432855, -1.6762492472942019, 0.08282414635723948, -0.5433047655419324, 0.46232544334237097, -0.09241142241917104, -0.44731432236177104, -0.9871917641319802, -1.202845301840564, 0.0832386019987512, 0.30292488579403903, -0.7866102549968793, 0.34472708730301255, -0.42159093743529347, 0.6183262982492, 1.2792568411279461, -0.5304096476099905, 0.6921168387254116, -0.5692726399490886, 0.87767449667511, -1.921539824572629, 0.1283457062926416, -0.564744232506128, 1.4444803732246219, -0.2769493904339329, -1.0861516803413893, -0.16636593976717293, 0.8198514960123425, -0.958536721895396, -0.7428343294012913, -0.1682805550695034, -0.33510008025121474, -1.8333019870729867, 0.6564881080836964, -0.40859525660249085, -0.16525053666313214, 0.32978203926372734, 0.7302549044723132, 0.8472770120181919, 0.13378150223412733, 0.11988509268799283, -0.6358828819389694, 0.9795360681059186, -0.12984906930567208, 1.5189776498226786, 0.10375129509780887, 1.2901535608499033, -0.21209600191347536, 0.2679429515279529, -0.45497970424910206, 1.3386742013815853, 1.7562701491447879, 0.30050471962189484, -0.3354498172690841, -2.177229063109001, -0.8197294724965253, 0.7521805914425712, 1.0566545398421348, -0.7105198444675122, 0.6986507921883662, -0.5190203651795912, 1.110473372536487, 1.1409793758357507, -0.3493216223022164, -1.1327846141165956, -0.3351660319980187, -0.22105456928218403, -0.4927703053572396, -0.11966709962803211, 1.3392227004594393, -0.8080503689679996, -1.0938636577979066, 0.4786544764453691, 0.7974314680181216, -0.9909173449528303, 0.5998611953037449, -0.2638078774477966, -0.694733322609062, 0.8127957364415885, 1.0009164769443746, -0.07767399015867128, 1.99244672770544, -0.1050127743192783, -0.22873078291637444, -1.1256916415987464, 0.5530176359457531, -1.3979267602998993, 1.118046738413119, -1.0991653852063572, -1.328725032311204, -0.7966110468936953, 2.739311675957941, 0.006509248214257524, 2.069988719268655, 0.9560231337172124, -0.9393785978536942, 1.1338761336709966, 1.7122057049060566, -0.028617640838677915, 0.9346514632694698, -0.9515137303007359, -0.059656747570015704, 0.031867099380366415, -0.8424693964769757, 0.7971373195753051, 2.0709616193352542, 0.09923030283674188, 0.5682346014611548, -0.5335203248570232, -1.0305629169002228, -0.42591842006935876, 0.12273811303513506, -0.4762215875183051, 0.44582260452905187, 2.7341805885355086, 1.2829651378857072, 0.13246392793941164, -0.8603773268337654, 0.0428543346198631, 1.2056517732289063, 1.4127798620702285, 0.015724778189540645, 1.781326629591015, 0.28717231689341893, 0.8447270494986435, -0.7976474080173493, -1.6820407634593375, -0.9493012192439765, 0.5962415414192688, 0.842908738989521, -0.3559747525427529, -0.6802850804667326, -0.9004278888854963, -0.40619488766283474, -1.5814228800186645, -0.8020377214797234, 1.4996136096735695, -1.249341077984266, -0.8497056553952234, -1.8141869864270441, -0.555700355028748, -0.29739999672487466, -1.1630906050811374, 1.050299731497238, 0.6340395216016573, -0.5655799586210182, 0.4294229569338025, 0.021476062911362285, 0.05333500922364881, 0.14975401631944155, -0.5161008998582626, -0.34551815431908567, -0.7164299565228521, 1.2092607933095778, 1.5206742064060697, -1.1729776947122044, -2.4067984738445127, 1.33383475242034, 0.05897150930966169, 1.343977627948065, 1.4766078438349226, 0.39208477734165875, 0.10239334620640195, -1.3721339898891411, -2.051855158736164, 0.9397107612121179, -1.5530586123187053, 0.48023448976419314, 0.5212736202658683, -0.004906074478406186, 0.8426953628534851, -1.5926034983398991, -0.5023065067604748, -0.7560266810643622, 1.7818918190460171, -1.1255122575312397], [1.7482438081903704, -1.4546402276609036, 0.3481868354402501, 0.9542828828631845, 0.7203381377008982, -0.23297904297008978, -0.17935539681087767, -0.4129019278913865, 0.5371277398577307, -1.1164847216452942, 0.124230541719745, -0.5315189104946467, 0.8585238631442101, 0.9471534590858561, -1.3169336276680421, -1.875453970512819, 1.079542626829573, -0.6116878499318837, -0.20671382646469114, 0.4312779910071509, -0.9293506176943548, -0.27887266992976906, -1.0181146550236437, -1.4598302414621165, -0.4117437554146709, -0.036547649758017935, -1.069836247426812, 0.17816990898227797, -0.5331538282667312, -0.5970697991882151, -1.3570732352068118, 0.009117898998799182, 0.7038022569662976, 0.43295391650889076, 0.5386876813870758, -0.8153823457927597, -0.4162379977820336, 0.9602977180742882, 0.493759720033554, 1.075606603984084, 0.39668841113556336, -0.7340888492094894, -0.2815684196022518, 0.33565422211004536, -0.36802769542437425, 2.2024385185749145, -0.3865071121248253, -1.169292613327129, 0.7528255383811858, -0.9891880554137887, 0.5307228900639953, -0.14058604684163542, 0.9286962295472101, 1.1783545757292686, 1.3164274824996547, 0.9174210428587481, -0.03930673513299776, -0.6161521057935196, -0.17618165416920664, -0.49927142149542003, 0.391354352690103, 1.263926036388026, 0.255555541894755, -0.9361407815527387, -0.3326735087724766, 0.5763268674417101, 1.8254319391560232, 0.12774900382565665, 0.36507736816110087, 1.0703143373161235, -1.5765642345490352, -1.2008505114556005, 0.07849203440670575, 1.0910201867817577, 0.7769324096283874, -0.7402611665009035, -0.2727893529858261, 0.9905753951736991, -0.12176760014719004, 0.0001460818858908734, -1.7136850298217263, 0.48411872167284986, 1.4132831838155069, 0.5283375249380577, -1.2668228699093462, 1.490017896752811, -1.7319251119297592, -0.8943672610030238, 0.5642331370172852, -0.18097309806429332, 1.1433154013163624, -2.058976913436225, 1.4848513888598414, -0.09520552558417936, 0.055345448843310587, 0.0048677784179173775, 0.8591101737085169, -0.13305596493952282, 0.5814966469009692, -1.2987106483254889, 0.8729832214982489, 0.4699472959470236, 0.20504927974146725, -0.4964920934067869, -0.05972583773759099, -0.8945187630809374, -0.5255813735675839, 0.9895176089520065, -0.4223363267335937, 1.2601751379227917, 2.34885383648867, -1.3860068201422668, -1.2918641576561258, 2.531073837757376, -1.4117838787678145, 1.8868491939728922, 1.0632552369733652, -0.12406794550871034, -1.0413418512730925, -0.3056397433066672, -0.7091573145528483, -0.3063365671855215, -0.047564991513075555, 0.3669376145997994, -0.5146983678441438, 0.6203959708979753, 0.6824449275881893, 0.752199402994556, -0.4828097251057254, 1.0346269655989653, -0.6065662602888161, 0.8656041976337434, 0.4122000345784523, -2.23523147541533, -2.6756563463681333, 0.7908943549597375, 0.15481826539261975, 0.2764454040588924, -1.0998962132522747, -1.5878299296281475, -0.6812143254452786, -1.2573222558391277, 0.3995860188498006, -0.14516882065324885, -0.5884974915949283, 1.2414103757038177, -1.286488116393772, -0.3519411324716569, 0.4002494714941775, -1.3947030008644912, -0.5557350770196996, 0.4940999821893821, 1.6499613283117092, -1.6217071310148152, -0.3426788044298984, 0.9976217477794148, 0.2478883392859325, 0.050694430787208956, -0.6285450065281727, -0.7343188915761489, 0.8481605147862871, -0.7162141664925105, 0.08223866096754119, 0.3453001135335377, -0.24839938402288497, -0.18100936265663553, -0.6028375395952271, -0.40032176296123356, 0.5238244061129951, 0.31546115594694746, 0.5963346231546571, 0.11905253933097079, -0.07843297706673823, 0.6727873026014894, 0.26758389564803164, 1.1404555459464982, -2.1405154324101057, 1.0791391906329801, 1.2102951786655511, 0.6061242464002079, 0.8989813301876878, 0.7647567117208559, 0.07423680722213197, -0.1455416288527358, 0.13754873746847746, -0.2055487893635838, -1.6628742407938961, 0.8618409367779777, 0.6016622859175963, -0.4874651254967829, -0.40239710477378904, -0.052009237973264996, -0.9540594444890137, -0.737177228895737, -0.16565030478301934, 0.8644522558461389, -0.5086416256300159, -0.6514010665198333, -0.24613725002528972, -0.6229445537711953, -0.7978012466355505, 0.7289485211457968, -1.6265231790555268, -0.3818138351794525, 1.7725542389675686, -0.4829636633397784, -1.0007209088251794, -0.18603177007721375, 2.4492717868495655, -0.2507145040532362, 0.281714803189204, 1.436211109091357, -0.8770912171017773, 0.5682494091774904, -1.6166016537600836, -0.1589636574856671, -1.0001451873089762, -0.5664322551665462, -0.7711427164615754, 0.49335439131436293, 1.03828422218573, 0.9806944495369473, 1.6650198827785483, -1.7874922660112, -0.9868556147729677, -1.7057397269834207, 0.5024496619715557, 1.1832417307038328, -0.2674996474510959, 1.1768571465665485, -0.12165566755522357, -0.7737447509116896, -0.04611655141740449, 1.322795263748584, 0.23826733374347514, 1.5875943641840609, -0.4399055759156462, -0.028590563028930368, 1.7632256389090568, 0.06495615193124929, -0.6226791678234992, 1.490728175793542, -0.8533342382267829, 1.0128787335396063, 0.23004819360409248, -0.06437731126059691, -1.1775910736403339, 0.27192794996806013, -0.03042864702985524, 0.3787655850380662, -0.982456821550972, 1.979992477723422, -1.387799341474426, -1.0003402725423927, -0.11010032727672461, 0.7630774585742008, 0.21766878302440737, -0.32733748095691795, -1.13829878444641, -0.8048479015449569, -1.955290257096509, 0.6501005744642262, 0.9604057553103331, 1.588706382146417, 2.5385310078848313, -0.7758970895453906, 0.6140629024887635, 0.7850921951854967, 0.6689511687823967, -0.5965110602969667, -1.2012629710851899, -0.49138596759936515, 0.28541914065178575, -0.5333394782426791, 0.17241176585249637, 0.7031840435349882, -0.5081538557635696, 1.6444110381993402, -0.9537279526103669, -0.4165563182084451, -0.5839369288283441, -1.053612750636609, 0.8998936344374647, 1.1870320803267556, -1.1031872607309685, 1.703206088783538, -0.5234041453230849, 0.42931976044652254, -0.48914885133801306, -0.4416845394211641, 0.04126652106361168, 1.4806842935051008, 0.4306991122073613, -0.018624332736877774, 0.7263766114725517, 0.26232376343364733, 1.4733125081400855, -0.9518977697647057, 1.6762434092014145, 0.12932468693788796, -1.011453887089095, 1.0899994275720954, -0.9768250782494632, 0.847918523545226, 0.017957904983630504, -1.064781662032717, -0.7261832400275539, -0.09711034828274581, -0.19297495201000392, 1.16840592653003, 0.42961407512916183, -0.19308395060494832, -1.238527917921627, 0.046792520220883135, -0.9252683043035754, -0.24831609707488422, 0.3574859165577012, -0.16266776776243108, 0.2971801909104764, -0.6513505039237443, 0.6472332416625122, -0.8507824875107562, 2.175684235948057, 0.6622456912168295, -0.10981632299512237, -0.6698336278854853, -0.7501617812374437, -0.886447795155809, 0.9379782710684774, -0.8522404835503686, 0.4687174683201729, 0.9724111734166854, 1.5340971194801347, -0.689303323553129, 0.754519485806156, 0.07034687264724687, -0.979205567839609, 0.23320839709473173, 0.03764628148851243, 0.14339508576329532, -2.791897998692278, -0.8537721613946482, 0.04809993798277389, -1.8193010297562147, -0.031287151297227936, 1.4243648248445842, 0.1849377332840749, 0.0057727051854345865, 0.14824723533919923, -1.5163070346813035, -0.45896804377142175, 0.5042237294850902, -2.9769067739893313, 0.1789321687395218, -1.2598376740541963, -1.1097324859994897, -1.3482755596075995, 0.1286806709020231, -0.45198516267563327, -1.214883497124825, -0.5952979037325289, -0.6061397070984141, -1.036313901845799, -0.8369021280405297, 2.1031456854526853, -0.008437505654295716, -2.345645070621433, 0.8495136136718071, -1.215079738557355, 0.9760112921576658, 2.5301100681429376, 1.747589848296072, -0.16800757076203096, 1.5103978441727872, -0.02216695125638228, 0.3188937740505427, 1.9664740761658621, -1.0902158215913036, 0.6041239145349446, 1.5008918598885292, 0.16159970769543602, 1.0373999845317703, 1.3472225454510942, -0.9391919099229661, -1.4942087167890645, 1.659857402297395, -0.9456758247430402, -1.6218301424917718, -2.5281938533995993, 0.7480768186794415, -1.6758961743816074, 0.5249850822853764, -0.15276610132220458, -1.2648539626622692, 1.2626332233814475, 2.2534277496446884, -0.6849315444485602, 0.584702228658249, 1.4023302732749212, 0.6839424419662108, 0.6852951392511955, 1.7201754555088251, -0.5961434371612432, 0.41145748486529293, 1.1116913219588889, 0.9052346692891142, 1.495224298645946, -0.5714371738763341, 0.9567747139536762, -0.4567727805107036, 0.694072515626463, 1.9336798370364965, 1.8716740255055047, 0.7979467991782666, -0.6870458067338617, -0.30683554300426935, 0.33616542394829724, -1.1654764488562155, -2.189377569215878, -0.16406421058363427, -1.037804999843943, -1.311636792810293, 0.8918215069813085, 1.306015320628091, -1.010911505531801, -0.3117421616575101, 0.8597423056014106, 0.004481839056952681, 0.31325192235927046, -0.6063943014143787, 0.4924494913250272, -0.20764710329849723, 0.13923895144422235, -1.258689160577419, -2.6219337579514908, -1.6911404444198546, 0.5501571469770473, 0.5469974924450236, 0.02255095460648035, 1.9974943240992387, -0.1158973337254827, 0.8569788474868997, 1.033367505903124, -0.15272575457159157, 0.20641382139819325, -1.5024695047294152, -0.4239229097454986, 1.0816120505592883, -0.9361398683682189, -1.4605634724802257, -0.13837073570693634, 0.026268077383316154, 1.2470969992625118, 2.6523444089953263, -0.7938128490566525, 1.214734156036463, 0.055444690709258344, 0.31339573320868436, 0.04100089035323485, -0.3070017027849665, -0.3949515242987713, 0.5636800006302459, 0.38577370772188424, -0.25993481921499667, 0.7857889854360978, 0.2936687396421244, 0.39047368996216864, -1.7487932165163713, 0.4683232856098839, -0.5187772701961652, -0.04458139522565254, 1.5671768714978855, 0.2524552475414066, -0.37190008323013085, 0.4251879684822017, -0.4777010115331409, -0.8243633676629499, 0.4036447431280592, -0.9356922971001457, -1.0225978012867993, 0.5321885258159196, 0.3480104986252224, 0.2733462704703026, 1.107979096349823, -1.0161444968956914, 1.2119503368298432, -0.8773415425173009, -1.373838935772488, 0.8827714518904068, 1.0998210677185778, -0.2455453213927288, -0.5197324066640087, 0.3597176582953327, 2.103775080114034, 1.0588960089157726, -1.2128785621387708, 0.9794454143606058, -0.20483880646862807, -1.6701379134315026, 0.6957780925399067, -0.6897311344249255, 0.1873323840577604, -2.006833330117012, 0.4272117631255213, 0.20464848314177062, 1.3983518746608583, -1.6221724563856723, 0.2019707202850087, -0.6568429884259829, -2.130696919149618, 1.1066137439155757, 0.41850420832594476, 0.4123336527959014, -0.5290621290432814, -0.29912559501136693, 0.036037108292943314, 0.760944366627768, 1.0226618671276282, 1.6198760225184505, 1.0733930234767386, -0.784108569635206, -1.3629718688769445, -1.9820281847425312, -1.9113386262770833, -0.05516111818144817, -0.3543773931420722, -1.0078702286132792, 1.2782700608128807, 0.3032367420949018, -0.07201608062433494, -1.0541868898239084, 0.46333360235979576, -0.9224988420766771, -1.0664483913340757, 0.7357902621781579, 1.5568209775819284, 0.24001261409460123, -0.8968930566041545, -0.27966881956403555, -0.5264592400360587, 0.039761613757021884, -0.8616420935422189, -0.4619213819858967, -0.15649254722593467, -0.223094015592346, 0.9887017159968, -0.36231227722324155, 1.4816164963270975, -0.8922993043233135, 0.6347953731786193, 0.6410564231132052, 2.167381291733705, -1.9102892130083489, -2.0489114088592926, 1.800877269383694, 0.5997723424668336, -1.3559887645471442, 1.8054780295429547, 0.9719138094789658, 0.9795010793081254, -1.0470815109202107, 0.42856640236656773, -0.6473501364083455, -0.6075507725282814, 0.8938802285926767, 1.6501167845812734, -0.04573920659839021, -0.4909423382910238, 1.6295194776522857, 0.2742878728100713, 0.10115123469904554, 0.09864648400486531, -0.3901009251410653, 0.5275080848485998, -2.1326999440714123, 0.3507012182265153, 0.7320378595964567, 0.12209848197030344, -1.20673433870907, 0.3661067222408104, -0.8339835452883703, 0.1913547551661559, 0.22874106392727261, 0.41417842797516685, -1.208025810083297, -0.3264587328997249, -1.0280678359947006, 1.2376662355359502, 0.023200004668983962, 0.25675955478082024, 0.9385646319457335, 0.2248668943157213, -1.1600931332068367, -1.249573500922764, -1.1680233812959933, 1.035840946883367, -2.7427795954703513, -2.2287272861294394, 0.27636192613560295, -0.2046740640017356, 1.0319099203291744, 0.5134206866609523, -0.6972810370892476, -0.6812871573805951, -0.26125341588021256, -0.39264200074537137, -0.14263123474959216, 0.9500726211573634, -0.014356280859218685, 0.8772207209169389, -1.0405395540345002, -0.2771211593471598, -0.46482497593226524, 1.7113508088502558, 0.7656265248482582, -1.8603407250638397, 0.901261028087252, -0.6221475062401319, -0.21670022029802494, 0.7282992029707744, -1.2327309190765416, -0.4091395302901028, -1.2140410758234919, 0.8056856661458583, -0.33575941291064243, -1.91834018479773, -0.4157627043453861, -0.2715912382715279, -1.2921165396877135, -0.47151330474037356, 1.3679293798544647, 1.019166136161362, -0.05281380716883533, -1.2652241181211386, -1.0598549272300335, -1.682050188775135, 0.18674826292495872, 1.98526908512377, 0.7064372707832545, -0.42942840382688013, 0.39445099837555203, 0.19523467247675205, 0.14080688085889329, -1.017075469820482, 0.41441768791998645, 0.9551259391693505, -0.5530587166681532, -2.219136139544002, -1.4019740175520607, 0.6190303673973206, -0.3325193777626319, -0.05877386938141345, 0.14421652490673573, -1.3807512810021452, 1.2259637450922707, -0.43156961875177885, -1.2068049862448877, -0.9868176691268681, 0.8849811256463347, 0.22910857475263785, -0.3951706552649401, -0.5152074402924626, 1.0621203240317805, -0.5334446096131559, -0.2709518688501044, 0.2620644286121597, -0.22609706461151938, -0.48801798811100083, 0.5085652228004727, -0.9104459332807255, 0.13972677009963883, -2.0657793564199625, 0.860217393406154, -0.22630509086017203, 0.9168243388970506, -1.2476359314707535, 0.9662811326051599, 0.30561369886770134, 0.033553940496014956, -2.249752365890408, 1.0312477742374149, -0.832591087877565, -2.102338552041593, 0.6164338794231239, -1.6410237178913445, -0.5277919385547232, -0.48082420676298204, 1.2927605775596291, 1.707065328618573, -1.5984437530720703, 1.599468195493251, -0.043691458681763384, -0.40374213425526767, 0.8776543638442489, 1.2774518654096834, 2.4278230744807057, -0.022289539904328033, 0.6205965567721397, 0.4254396498316365, 1.082225079646164, 0.5535975149612427, -0.30097537481070263, 1.1323175714263207, 0.5734922991655187, -1.3463158920093576, 0.3966258458796968, 0.1290658740298916, -0.5800015721483692, 0.7829894605694226, -0.17269934410229512, -1.0772564499744228, 0.9379259151821716, 1.0826324404487013, 2.737032744469146, 0.47382471628037287, 0.09803196004075852, -0.11189560201231842, -0.27478333880580674, 1.109390830834118, -0.08115021706489435, -1.7037089564779133, -1.339091964358189, 0.6096945860540252, -1.04639115526309, 0.20897750691385777, 0.6425622580807546, -0.6408267653585218, -0.4039948165673748, 1.4556487769149955, -1.4166180151242094, 0.6822618007696019, -0.5412866885113359, 0.7238634808432045, 1.0281328832222911, 0.9737555606157194, -1.5344000213385136, -0.5652179764393652, 0.19638250305678556, 0.29054808541214305, -0.8051517886415595, 1.0058857113086677, -0.4872778696787593, 1.5153594556195789, -0.14386239852443983, -1.5821540981019953, 0.023360033954023092, 0.694932130055705, 0.15594079804140926, 1.1138709472995802, -1.441708857365656, -1.4405442100203771, 0.09847500788552303, -0.8170816065779513, -0.10078880600278224, 0.10583325644185948, 0.9744621826994149, 2.5239255977172426, 0.2635563603588934, -1.6368805502960606, -0.9044945895478389, -1.677931652424506, -0.7423570526567441, -1.0983536569770924, 0.48203071837981926, -1.4395431865980253, -1.6366388840368336, 0.11146185735280335, 0.01829362687950599, -0.4109159093423321, -1.7041146340974378, -0.4203818962462388, -0.7317906524002248, 0.008049008959315379, -0.9387654777791942, -1.2215814372882143, -1.6383960769246007, 0.135179211500375, -0.21021829059638736, -0.6076878885792147, 0.9322009581329709, 0.05284388664333126, 1.3170083727843023, 1.063952886790285, -0.49232925740163264], [-1.1325119483591575, 0.19537276983272533, -0.9558835413635655, 1.057258757655638, -0.21621691219243752, 1.2989559562478232, -0.5164209769172734, -1.0536083269665764, 0.5778019626062181, -0.8664369103285013, -0.5279727981236751, -1.2450239637454348, 0.7206182078967592, -0.15454120546439173, 0.9420608713808136, 1.1396840829292247, 0.09432266720764754, 0.34740644159793405, 0.23773394959001923, -1.3244987928122107, 0.586786571725769, 0.16364368160839543, 0.7947427242649348, -2.166487857649497, 0.20492022416635275, 0.038329931052705726, -4.5835639939097215, -0.3138167569980539, -0.9416991079984793, 0.9784586830988563, 0.9160723194526909, -0.5798614227686951, -0.03648580915987198, -0.3276815663403487, 0.021808692749759464, -0.9423454491532749, -0.29913790532778245, 0.6530946090888666, 0.17957661691825147, -0.07965347804005068, 0.1457927820906146, -1.3126380363565482, -0.446280696027276, 0.9077402309642905, -0.4514175058107671, -1.541483621095243, -1.2019388330250615, -0.9440654060426211, 2.0487044340204963, 1.2012807995145425, 1.0351602951485004, -1.2554068313709819, 0.009174790360530103, -1.8251902187232396, -0.23196113896382908, -1.4844545428017142, -2.298738926155574, -0.8959169380792831, -1.4444378366382742, 0.8573367482368387, 0.7259205000540764, -0.6944774103804862, -0.11542079439419892, -0.9586306554059584, -0.4723934698286928, -0.016676649444371375, 1.0285150783792274, 0.8326391263727624, 0.3279648975522557, 0.7582588065406098, 0.2713311011432739, -1.1827140201898, 2.047500366758093, -1.0357573137934344, -0.6735453359420623, 0.5261989275210894, -0.5210792353972274, 1.5110637126530706, -2.0177266896160857, 0.3432364688514575, 0.05337394268904938, 0.28805487804594276, 0.7951737090253644, 0.32043456271699167, -2.1738462815362816, 0.253171742692282, -1.1896827853500247, 0.9918457764696011, -0.7862605705305612, 0.9297973496463177, 0.28112188850099007, -0.0784934313227213, 0.652077175700826, -1.6009643170151986, 1.8396790382090018, -0.37083080805418356, -1.0011813071285798, -0.9198538738352382, -1.9502937262505087, 1.0799027157989505, -0.16474855722483017, 2.478176614634387, -0.5308842843812697, -0.13743800255879893, -0.47852158589497745, 0.4871372977001734, 0.09562012732454911, 0.9455025549262328, -1.0536934529331607, -0.7947994603795823, -0.15467812772493697, 0.484167151613711, -0.6439234426027199, 1.3463023634309508, -0.4503134569584155, 0.8147823058051366, 1.8225989900784108, 1.0364478579679683, -0.8036903521270204, -0.42180091343565274, -1.1080228896309738, -0.17640858192714284, -1.819129212159972, 1.7723036959963914, 0.03082412515010933, -1.7059353228514598, 1.0362973562918505, 0.25097380890982446, -0.5813716256909766, -0.3721371573910936, -0.7600365491256247, 2.0426418110318707, 0.3101748758309899, 1.1022916298833303, 1.665958137888211, 0.6356680297245808, -1.3896578742392904, 0.9158805786226163, -0.9715221251015452, -0.6227044531074857, -0.9794312218321619, -0.3162019257264384, 0.2426559882284211, 1.001968379401212, -0.22436692700003497, 2.4233743944076975, -0.644697577726987, 0.8009805983401107, 0.07934394634308868, 1.498869337540469, 0.6741187980024396, 1.7010132326997602, -0.6417558116328095, -0.5307976339424108, -0.0674303066295936, -0.9947572226313532, 2.1030512689478877, -1.8330954167988869, -1.2704077472051085, 0.37247326073183856, -1.6747832862064824, 0.019190729353944416, -0.29604170573630534, 0.2882959389398382, 0.39898570302680497, -1.242742881692413, -0.1629382683718039, 0.9303765147700335, 0.9883976443931075, 1.9595509091114283, 0.18959399699258409, 0.20322617348513947, 1.8240762554554397, 0.5156232006498587, -0.011540252978534976, -1.5984450861834152, 0.3753959060762972, -1.1112762240248415, -0.6936865746091785, 0.12275439438139539, -0.7741201664834011, -0.657953893918005, -1.1121614889743905, 0.8082930888624508, -0.569352998985152, 0.06657467759344635, -0.19162563551717968, 1.4316765301393501, 0.9533548510017926, 0.4739250497389479, 0.17283892356322536, -0.7994233656505927, 0.8078457391830761, 1.2826314188095576, 1.5355457893554663, 0.33313080954867136, -0.5499983532063999, -0.3570443931882443, 1.5550973388069087, 0.9522534406492299, -0.378434078512753, -0.8983807954206269, -0.13645146968272548, -1.7461961751271564, 0.8978506689328802, 0.8276112727746834, -0.968246185352828, -1.007829843392097, 1.2699491024402496, -1.8264267731614847, -1.7535022302025638, 0.10249189640256925, 1.062629677712085, 1.07041954061055, -1.907220001275232, -0.003926753879367604, -0.9661906414056363, -0.7337995687278113, -0.6627939707772457, -1.9479227993785042, -0.220914343884071, -0.11900622232076127, 0.564164408138408, -0.9673612992246685, 1.993370894247375, 2.009987922507094, -0.27728649352081114, 0.8222743446522752, -0.7247496092704752, -0.7188009545629453, 0.586605002533729, 0.601714301009637, -0.23724897898159542, 0.5011247411256867, -1.5980418539681667, -1.7278394996867223, -1.127561344938601, -0.6627041285258125, -0.9339533023879737, 1.0461689938910426, 0.5703199221453028, 2.2259430994680782, -0.024793826416548634, -0.04428594876624175, -0.5860544937763735, -2.575359376895398, 0.917608650651399, -0.8743596072298055, 0.903236396208216, -0.12546716581297912, 0.0978384773306691, 1.284372220208747, 1.7612256822898995, -0.5039184506853837, 0.34356062879904503, -0.855668543130632, -1.052049252479744, 1.0110549488602347, -0.16732021599721122, 1.2339232463524916, -0.1827910656792211, 0.42392082410138265, -0.6756706605396672, 1.4935935234781277, -1.8710975146753563, 0.7465898114575622, -1.1381894779121908, 0.6704430695774457, -0.2594594937900991, 1.6632989051693463, -0.1386183861330365, -0.764169288547911, -1.4566811361938037, -0.0860541306603317, 0.35714144626771105, 0.15805757642473384, -0.14545699678885488, -1.2290119661581913, 1.2719772452823257, -0.22040621498963492, 0.20416056270523344, 0.3405184334705415, -1.0225082411973514, 1.127718328701323, 0.07010540550874281, 0.29166753199360224, 0.16989989028254412, -0.04452775428682047, -0.12226956877561054, 0.641723194845755, 0.8552754561423739, -1.5000768977388694, -0.3396618702652785, 1.3870894239511211, -1.3141362146384308, 0.49497611442008305, 1.4272403167963867, 2.5278951812826485, 1.8754998233579174, 0.4481945234189396, 0.9294255586795597, 2.054726258518927, -0.002830065513991242, -1.6474958012159118, 0.7889087062542928, 0.11624897042410995, 0.5073515069275715, 1.2206601424996877, 0.4623681684373162, 0.7625185107464794, -0.4793498048161249, 1.209185148330254, 2.230495446955345, 1.15325028286644, 1.1103963299510395, -1.7690215885155307, 0.8040636993362624, 0.11410616054031428, 2.252772514340555, 0.21120119487324424, 1.5779117625435786, 0.719921929458953, 1.192905714372406, -0.09330671026403607, -0.021779877503316784, -1.5894970027394906, 0.12559760301372822, -0.05225587364530715, 0.2814001244179475, 0.6681665326467324, -0.8318151681005888, 1.3102299895045593, -0.7523826395239186, -1.8456475981392375, -0.5581481975116144, -2.6977638940666675, 1.1546664313355515, -1.6506517600420847, 0.45947734042537847, -0.2744828683586819, -1.8820576261835715, 2.161874824009917, -1.1079197408674462, -0.7606892336143789, -0.249174825874934, -1.197113614866408, -0.5062368879464854, 1.3993462710346105, -0.4962968494098733, 1.7791236541101785, 0.24318677822661164, 1.691229777246652, -2.3779695165955883, -0.9698545908491908, -0.9602679233008474, -0.08090777854679948, 0.9525775721506677, 1.0952096301376084, -0.45774776551888546, -0.5336410228439528, -0.6666591010701441, 0.7906707852602394, -0.995727761161156, 0.0036452109061656576, -0.5200295565057449, -2.035787898220211, -0.19630819147325648, -0.5545972154331146, 0.5626658584753288, -0.5261003332461275, 0.42531340963762865, 0.938668661857876, -0.1981051304564078, 0.36708556392360336, -0.396617155076359, -0.6808330158854187, 0.11152789596449572, 0.663447406421885, 2.0137779017849304, 0.8298038667772643, -1.2903846687807334, 0.2446671791233295, 0.1492919717698197, 0.6139105302499607, -0.42184294729545097, -0.5387890641311651, 1.3962430736387799, 0.43690371685499857, 0.42685996173399504, -0.7294823968753238, 1.6265745202151862, 0.5103538845926021, -1.6967320283117884, -1.173432285867375, 0.7749341793985243, 0.001970268696275955, -3.0015555375918836, 1.5865327639761002, 0.15435229980292547, 0.16862811671208683, 0.591809540173074, 1.4164975450082598, 0.9326148327963959, -1.038266375925455, 0.7361253677314415, 1.697312591257218, -1.195038365759031, 0.18689710741644674, -0.07475519697388408, 0.33179042429869415, -0.8460664656169484, -0.7238863461676368, -0.4290862667536936, -0.6417946975123485, 0.34448674595353096, -2.154426473895581, 0.07189305889848852, -0.26936901751444886, 0.35931367180948315, 0.24999185894637468, -0.5429235828815121, 0.32959279609933145, 0.7580877955693748, 0.12934213537584185, 0.5632849220484113, 1.294170861236651, 0.11408921480961808, 1.126953020317442, 1.1269931844027774, -0.09724423709945929, -0.05052084642368582, 0.6722622850412558, 0.3663778338000404, -0.3347805640111814, -0.14835472530679783, -0.7406587008704698, 0.4026987227275203, -1.7423903709867126, -0.3656772446971431, -1.8846037383698826, -0.9809924666073561, 0.09207146781336412, -0.09406918289597707, -0.5780284341577924, 0.7839734842330844, 1.1292159808246802, -1.6335830425578204, -0.41634903069716134, -0.23958375882966396, 1.0076846180618864, -1.755462325673546, 0.07158014612737242, 0.050825135722955675, 0.4683900785785002, 0.7052602605553306, 2.2583586195400613, -0.43810156759903696, 0.9817446839145405, -1.8980911678106165, -1.2750050478404802, -1.3224201898420702, 0.05574386908770094, -2.4176992005779545, 0.10968647391948082, 0.1308562328544371, -0.3058195405370464, 1.3838930934094986, 0.2144911326642076, 0.8093414771696297, 0.5567886325725617, -0.006203702504081585, 0.17297310657699033, 0.1090960085606078, -1.795464636295233, -0.23741062529596632, 0.9647909626682913, -0.46026430217900594, -0.7155631948721788, 1.0884855434456748, 0.622849835974775, -0.21169328679680674, -0.4114580819237394, 0.6731298474849953, -0.7965150418612114, -0.3983620864957107, 0.11094730609451918, 1.0618658011598028, 0.10335509099749496, 0.6493179148155908, -0.6454865566798271, 0.8275565073243485, 0.8692984862268048, -1.10243627648702, -1.0059619474965693, 0.6042381619954574, 0.5644977554595276, 1.3281697999514464, 0.4260478414818136, -0.5016698900945554, -0.43874398822720906, -0.0945984631172093, -0.7544895616458505, -1.5119324480355005, 0.5631677381960484, 0.8704614428697037, -1.6145375797368615, -0.42879905315475314, 0.5807651904743032, 0.6011195188959649, 0.668448665010935, -0.734989393691999, -0.29942598792677383, 1.0297543753041427, 0.16102592230269627, 0.5967030593797977, 0.30949252447644204, 0.1587245965624593, -1.0082339003488305, -0.4299165214657098, -0.10614936750671257, 1.0274000037534747, -0.9224377204806945, -0.5294585536093921, -1.2597425695339957, 1.0117212183307591, 0.2598285812514253, 0.01675497573330219, -0.8598975152565118, 2.0016785902132233, -1.1304624458889931, 1.7192162913852356, -1.3389402481989003, 1.2450316647026864, -0.32549884531916234, 1.6432460825337125, 1.2031211986808994, 0.206375777048943, -0.223017150290441, 0.6912649915864877, 0.5779314767091641, -0.5027913792400488, -1.5628028432732681, -1.0157593390316468, 0.7058012460237927, 0.6462014509366052, 0.19617897716676588, -0.20278309352641619, 0.2359492840222839, 0.11697718213048622, 0.6089826748227782, 0.44443054983033103, -0.6445530309991077, 0.5380531042347981, 0.771000238031269, -1.9012529254346897, -1.051575439335911, 0.7750023746205935, -1.0516537596967754, -0.8971087128354339, -1.2551798101306895, 3.042142159571743, 1.6599349739840075, -0.14881604991511418, 0.21814003552576353, 1.5606144005755365, 0.20505069880255522, -1.6110553479761127, 0.5231777263429925, -0.06136001256462137, -0.262844559567493, 0.18316091020440223, 1.2913594507961244, 1.3360550069357127, -0.05159433137750642, 0.3445899138959422, -0.6041520231071114, 0.6323098148953412, -0.8233646684483968, -1.1882254513287165, 0.9354426029308004, 0.6695531270130646, 0.8645814101131272, -1.0647303485596724, 1.9637208897548315, 1.019292333566005, 0.5820523230531127, 0.08175707686144941, -0.6668288074519562, 1.2968675809598496, 2.341166086820662, -1.1036197089373876, 0.7426537072589604, -0.4848916675349838, -0.48887550787439116, 0.5234529641979228, -0.3973432403779375, -2.1513579103402707, 1.2378304577813855, 0.1865830167056091, -1.3742647578741547, 0.22915545961742276, -1.1958239116671268, -1.29923108267056, -1.2762553540268948, -2.030026401474159, -0.3294987751070372, -0.47448234188012456, -0.8024702956352168, -0.3085993401944964, 1.3898686935735545, -1.747708101619239, -0.34440247136927366, -0.5393233276784873, 0.33442601503714153, 1.053293698502525, -1.0061107102030886, 0.16515559564287402, -0.369411540196637, -1.0938990212893454, 0.6960910315791581, 0.2769457060175064, -0.05759470609803742, -2.7954205847000924, 1.1141313224159237, 0.08479209542680101, -0.520924379895909, 0.13203583088387588, 1.5279994910961243, 0.6974536261654153, -1.4611056568433032, 1.2777056737378676, 1.8243685445410465, -1.5751540444942949, -0.5729104105760616, -0.9856819052668864, -1.5543967185893541, -0.36086978422546, -0.4895487042955098, 0.4827739601299761, -0.308292297504563, 0.3784273389014159, 1.5515707929085418, 0.5220485002810844, 0.4214218723034145, 0.33913864828092916, -0.4437601860437407, 0.8576587121430423, 1.1085362019592662, 0.07022201816561707, 0.5232962070025656, 0.2538684842176454, 1.21704288181352, -0.2419354281155698, -1.3660353138255064, 1.4797208159141642, 0.9368868495172445, 0.0471190090605394, 0.11528014868397314, -0.6553285388228728, 1.6991967546807183, -0.5725005975609992, -0.29358983224648477, -0.2959548704861455, 1.4049816774325818, -0.23368139657139325, -1.0414439954204497, 0.26787846896414513, 2.548436702607151, -0.19159413350306936, -0.48704232640045014, 0.3479961581672167, 1.7904506103124789, 0.9622016166228353, -0.9783676926560451, -1.4944960487970886, -0.75978336999903, 0.8371603154594326, 0.8457896407866248, -0.8168246517353839, -2.3994570683961043, 0.5831095084632779, 1.077979765816943, -0.3033254629775021, -0.9407743891333887, 0.9521049205370777, -0.7012854923185589, 1.1793212081737185, -0.543865061023913, 0.11394767197480478, 0.3409749728440874, 0.46975251467468576, 0.21536500953020624, 0.23342076489193644, 1.517356293907992, -0.889972868642937, -0.6044063895543728, -0.05401013224220454, -0.06555430768989103, 0.4434255913579771, 0.010373651819439247, 1.6264128082451672, -0.80216879933732, -0.9666860724504915, -0.8956124885080012, -0.42080617691222466, -1.1036445304298805, 1.5131234324206744, 1.7073113402039255, -0.5014391091102103, -0.29355988543318096, 0.9552589533284226, 0.2557649265783902, 0.7363498532157116, -0.7578969453692073, -0.9480812978861544, -0.590127242338708, 0.1342319577581388, 0.3403084137214474, 1.191700653660148, -1.4626990670464337, -0.6287970703916591, 0.758820895252983, 0.4396800255026355, 0.6877010655385052, -0.7168750680062554, -1.5836152361362998, -0.04348744377523786, 0.5325484293618923, 1.3412477948213666, -1.6492603267301147, -1.3611941474789893, -0.4454852446718334, -0.8875759390509129, -0.905183689221263, -1.2789123134134635, 0.049174704240259395, -0.5814057483533379, 0.3920915227511955, -0.11763120183419264, 0.9470591353397148, -0.3752612376304348, 0.6933044934416032, -2.430647423207832, 2.30627991733272, -0.7179786948314344, 0.24494738102626407, -0.1425015193478133, -0.26306359367614346, -0.5905277373094825, -1.5087587846506807, 0.19384218127317812, 0.7718767507591957, 0.3964503047479792, 0.2859833127293415, -0.556168658045316, 0.6776118440304143, -1.8720642362522917, -0.611902130670702, -0.9064848477886878, -1.2032464888762333, 0.16822820510591532, 0.6973704996272274, -1.413226038227324, -0.9603270950404267, -0.5566870962595308, -0.3614445114827963, -0.8364750169847658, -2.0216888365981833, -0.9572357046097901, -0.011821808753730711, 0.45619622042090774, 0.2857767515077943, -2.03324615657038, 0.060106410672067685, -1.236036512958356, 0.5724170969083365, 0.40911836707375615, -0.25557857630521474, -0.39480269430320225, 0.38264045842025524, 0.6011702311002627, -0.6054440971590256, 0.5265964682151513, -0.31430499272820955], [-1.950806723341441, -0.41059789588336326, 2.392035961669274, -0.4423123105136591, 1.1396985408311664, 1.0338420546875777, -0.767352419821081, 0.9262486908629186, -0.8457257177425836, 2.1361305479343606, -1.530784384581141, -0.19194537819184515, -0.24478059772922067, -0.05810832937887745, 2.148720317408049, 2.257999763214195, -0.28188427153180545, 0.4914459312125129, 2.063378135012265, 0.6870493443211962, 0.2968776468643804, 0.942160231077106, 0.07578160938053614, 2.1375005626506103, 1.008875750604449, -0.17442629503494084, -2.058156924661623, -0.8833685022916618, -0.018025314856220154, 1.2896930291232778, 0.681760471515768, -0.502638636324433, 1.6710676891089409, 0.13873511632173435, 0.500807242434865, -0.6891731765138369, 0.020219614317215567, 0.6981976957956204, 1.4134175132650302, -0.46601803094531213, -0.18950913488337284, -0.975008042094333, 0.30520583009157853, -0.8206608006485103, 0.5826458626181907, 0.6038916256190862, -0.8252224887834615, -0.0038598870104948426, -1.2311978278331865, 1.0739646029816288, -0.45732956695112653, -0.5538579573716608, -1.332582174609252, -1.8284728317726437, -2.860888380177798, -0.1428456419946806, 0.5319660342490399, 1.2142039951275696, -0.7038472402082617, 0.33774557418772505, 0.05510143047442453, -0.6715386798042776, -0.502713583151339, 0.924564471511603, -0.44324313275205957, 1.1945197365037923, -2.457703145085539, 0.77492035511793, 2.128388903588968, 0.47162259561385983, 0.23989686360613785, 0.6954716654346127, 0.678412296103436, 0.49076766251035453, -1.8698319323835948, -1.6444171542983992, 0.6900624217425668, 0.4530888554377471, 0.2007871113812341, 1.3639635401488133, -0.6514441411586765, 0.05603532414711025, -0.26309254287981315, 1.4234918537510608, -0.3501893371669192, -0.1950253533899333, 0.0449897762051693, 1.5947194579314257, 0.5723771029761564, -0.4007323077357751, -0.28402675373713315, 0.45813598087712537, -0.7813988766070102, 0.6274424609882695, -0.7278111721547637, 0.07246847258232256, -0.9772299252373413, 0.5890578984616068, -1.5880304469404618, -0.46494853625966986, 0.6455514778175416, -0.7045468495952636, 0.5839209986165071, 0.6770279007556383, 0.6102742098499829, 0.6053743413916889, -1.127196178165708, -1.0694444236966427, -0.6704721053201764, 0.3013810771247117, -2.022478913137086, 0.32975978055310917, 1.4090047428997412, 0.18277778474969633, 0.20125896554133554, 0.7513137394375238, -1.5335119119896228, -0.8866156774196418, -0.9571138971178395, 0.09740338808207472, 0.5519202888053046, -1.7165098500801583, 1.8999525386363747, 0.9550192810195117, 0.08545123351609858, -1.8012153984405812, 1.3135700365318328, 0.957380815835679, 0.12398221025292466, -0.17304883629228687, 1.2082640814293135, 0.820908760004012, 0.8142633246650365, -0.7270533724967042, -0.12729648649622796, 0.3946671430873469, -1.1623571423828403, -0.8618464059860186, 2.1452458632101954, 0.6656467016062049, 1.0064830858157525, 1.7958824920784577, -0.2318222660388977, -0.945006005480573, 0.03482040917637059, 0.7226211035833671, 0.2837028742155313, 1.8309428333862279, 0.4649599980823206, -0.31892029012962125, 0.44869021849529045, -2.1875944121162334, -0.8436968729762284, -0.7444373545067835, -0.9229462766337915, 0.2755063009088821, 2.454799350049508, -1.1557258921038163, -0.0317213293018713, -0.9056111836504271, -0.7629121415569555, 1.2196077903580957, -0.16849067274307514, -0.6338866851440876, -0.45497396853399763, 0.10643723448006025, 0.6556979826243041, -1.4738644632714701, 1.4188262464666976, 0.5799222556308843, -0.4681560271113237, -1.1660436714597526, -0.6505233970196238, 0.5764732361752674, 0.10935173683583631, 0.6009564758665977, 1.1841642883186594, 0.1841229132342228, -0.9199867717205937, -1.1622150596966152, 1.4003992061511423, -0.43138177952869633, -0.6890634306361388, 0.8877392482509096, -1.0896731500955346, -0.7351159216692716, -0.4088576171253564, -0.7761929115891074, 0.02782767784089799, 0.2815845273994737, -0.16900703777390252, 0.34590217752427044, 0.07054829066221448, -0.3749004385663853, -0.39428980634817756, -0.31752009360075784, 0.07664964414361107, 0.32711219880142195, -0.48567746828970504, -0.5033522828808358, 0.07045860446997856, 0.7785037157504844, 1.0163926844490867, 2.136781953624502, -1.4505476799828958, -0.6422709897259311, 0.6394043969214234, -1.014270127447987, -0.4260193045848307, -1.3546677455252365, 0.6174464282101308, 0.5320501336906845, -0.13432537593068, -0.9995426994031217, 0.9542314570861826, 1.545596265472654, -0.8368733201238325, 0.3974776826317032, -0.643153801357185, -1.0251877219620813, -0.37750474989969357, -0.2696057436528103, 0.3034762496841605, 0.9105165524878741, -0.6561111566689215, 0.3943533371582335, 0.6709679675757539, 0.3293055021265446, -0.69181547983892, 2.0045776082124087, -0.8529556481363498, 0.4396904211386607, -0.49665063378837326, 0.8293402110259355, 0.9632411259833942, -0.622606640527182, 1.4984842002029874, -0.5563825800561412, 0.269752561595219, -0.6216629280749826, -0.2673500780043849, 1.334020885865256, 0.18617225840303958, -1.0701329550144447, -0.29762941035809, -0.3961367262462417, 1.6854934410787916, -1.6332958455029396, -0.1686596029558337, -0.05319373500820082, 0.8355222813604125, 1.5820385811351194, -1.4839875420352109, -0.17521611574202345, -0.4805052496493837, -0.022504371941463354, -1.063116296648322, -0.3696509647934228, -0.8548396901455714, 0.2080524863656647, 0.8056356664205037, -2.3952950375529363, 0.3661528827958839, 2.3231657839295754, -1.1853345710262715, 0.6751334490768056, -0.5156838108617614, -1.8519027977752518, 0.23550252217628148, -0.8986521777736787, -1.4983918438535333, -1.0226320456781657, -0.04623307186835803, 1.2073362122253328, 0.9061520611107677, -0.25731124843413183, 1.3525084880169058, 1.181029077449863, 0.2865023043527067, 0.17566561142941237, 0.7875073441925622, -0.6345211650135519, -1.4981340384984974, -0.7289378969110356, -0.33240248977608855, -0.3376059873500416, 0.8445942501127992, -1.2348209072352325, -0.5900027099966885, -0.12674899024167857, -0.24552740191954814, 0.5809493685043676, -1.1741651082199647, -0.8218625137200746, 1.5779064888771075, -0.348303832207079, 0.6273665843461916, -1.0708622680693254, -0.1068009725809751, 0.9947643818359875, -1.0505639928874895, 1.8349833041684194, -0.49638408496589115, 1.4062989851361447, -0.5219149057958921, -2.1827729424124436, -0.5358769563127755, -1.0598706792112078, 0.9469131876418662, 0.6792866563432604, -0.11678549310835395, 1.9002504225450316, 1.9385841510531474, 0.921907609327618, -1.1565158230957675, 0.8592951616916974, -0.24991470022690962, 1.2171920975273052, 1.2373959625185695, -2.227680223535881, 0.1101467444050599, 1.3209512489380488, 1.1306193873769494, -1.1878046634770356, -0.28763816130469594, -1.0496822561534789, 0.747879847197314, 0.5093476457689385, -1.3524470072678343, -0.34739169786000035, -0.2712837007882051, -0.6806822479447079, 0.5177380266486635, -0.6220659202596971, -0.3722492641715747, 0.21932150663098995, -0.27369234175739804, 0.2739600179134033, -0.21664631550197133, -0.471415712117668, -0.8359361482676566, 0.9963020147951356, 1.6362435756789055, -1.1052619039891034, -0.13482670623627324, -1.5656862732233763, 0.1833288829980168, 0.6097824656806393, 0.22087214545158254, 0.540249251847945, 0.6843469565872499, -0.31845396292839506, 0.043021327600140775, -0.6233059316052806, -1.4681762010462762, 0.5286841861878748, -0.056846998608547014, -0.6390173334410905, -1.117021428581534, -1.0592347709813528, 1.7634513428492296, 1.7112899207954306, 0.2529957722334122, -0.0541595618474164, 0.8644414530536072, 0.13214404384872672, 0.47230307763327195, 0.7695132355735228, 0.08620104619512307, -1.0269248815353282, -0.5852969763158926, -0.4004958022513537, 0.6053144425407324, -1.7811277163175678, -0.28651148057702086, 1.335103012619549, -1.876766401476901, 0.8045432783100784, -0.32044707593430366, -0.5071845010468446, 0.9021949205924686, -0.46237578940482793, -0.14465877858906018, -0.6298812804332852, 0.19215939496357987, -0.07676287607043479, 1.5187274837306344, 2.2892069392453758, -0.8036580316461384, -0.8389523741345, 2.586030446737899, -0.9203507362074065, 0.27518613283369897, -0.9253234589483547, -2.037597848122876, -1.4293244248624406, -0.7391598101622724, -0.03798390228091436, -0.602335031043083, -0.6019819574617509, 0.6308687853470325, 0.25990568553934357, -0.0503621356368684, 2.1031700076361513, 0.4179870932072421, 0.07979364581526378, 0.9607365749974695, 1.1655764588458388, -2.104277921749235, -0.8865332094778152, -0.9383672086946098, -1.4532704630613504, -0.47816945359204355, -2.3642366489220765, 0.02050723033374772, -1.1399427783063696, -0.9139771935184134, -0.42775619901109496, 0.32982412449150755, 0.27878816404982515, 0.6350979655053431, 1.1844760764656665, 1.2058226636508165, -0.2843049717495038, 1.1540808128076483, 0.5279401029532924, -0.0426009495306128, -1.0518758552804353, 1.1667012938999366, -0.7384018282406501, 0.6441316693722479, 2.064246837204007, 1.3624683663228128, 1.2026009773773436, -0.4935371946025278, -0.5535424409373798, 1.0520455019727355, 0.14766971488125266, 1.7804807605534823, -0.03426382393607851, -0.5410241751002366, -0.6422252589231902, -0.3854683264182019, 0.6539733377417433, 0.3587174568945691, 0.6988130082219294, -0.27056498133628526, 0.7153244945637434, -0.6254753513268958, -1.2869597311534058, -1.1571939917744805, -0.648644663570861, -0.040162445048262475, 0.732141622572011, -2.0098050127786276, 0.7761779862571188, 1.0617130475147738, -0.8084168301160218, 0.6605277653423953, 0.11123989862493695, 0.8857476786541396, 1.401365438120824, -0.5165123842908848, -1.3978920176569631, 1.1607906820428717, -0.6648901191646355, -0.7788314604664469, -1.052248924050207, 0.11223117016287117, 0.6259707648848566, 0.20853871375839808, 1.0698240024038363, 0.09768250817646566, -0.19997356988436266, -0.3100872858842874, -0.46796495563491064, -0.6243512422285995, 2.938829924313556, -0.7684225716603467, -0.3353445078619986, -1.2488578945909414, -0.8990525757125744, -0.5623063488431758, 0.045386431004314276, -0.6277071839926379, -0.03570812824830377, 0.8425124377605948, 0.9490857602981789, 0.21762775473578452, -0.5105168122156728, 0.5433018475105231, 0.6312769445209633, 0.4523993415817928, -0.19355811358269673, 1.2636271551599625, 0.9197152731988741, -0.8316960709931902, -0.6774399655593966, -1.4950630530990954, -0.3780125668481659, 1.7457871710203634, -0.19349115819695334, 1.0366618399751923, 1.2737765608460696, 0.021972180692330003, -2.1351832809081057, 0.8288294961030457, -0.40649750263532375, -0.29267411599758547, -0.7510091867673259, 0.18779920845330927, 1.0781655666873504, -0.21003071484161284, 0.28168083796168464, -1.8160353038219565, 0.924167247408368, 1.8220766128824, -0.7418066709489641, -0.4518285255863478, -0.34580621796161276, -0.5862286759144594, 0.17576476835008628, 1.0766601715366397, 1.1157191524891197, 1.0343557543780377, -0.5896839598745006, -0.6468801994233444, 1.2883255599977457, -0.4412761869917438, -0.6391403854566302, 1.9743238689556661, 0.4338222418862836, 0.08143228963856057, -0.21974947592317046, -0.9379569415082778, 0.6729377398603197, -0.14385210466090181, 0.3061814557320969, 0.7711092275430107, -0.45658331009914677, -0.1781792514190994, 0.6678070761404707, -1.3655784118789132, 0.774500707116319, -3.0730755452121024, 0.7486951886222963, 1.010016118437949, -0.7609804161240142, -0.24598852638316798, -0.9320243916712878, 0.4004283828826161, 1.6202104227984642, -1.7606433745915773, -2.2381572664066542, -0.15195721094875417, 0.8700655225058221, -0.5467331889072417, -0.892192107507273, -1.4675575448095508, -0.4825410845476244, -0.010001185637286468, -1.1264618773304713, 0.4631889920447879, 1.1344359806273097, 0.21169512467337367, 0.2247349467277922, -0.8531682372089886, -0.8482650235903952, 0.45718579328916487, -0.34093370737031387, -1.2372082535151703, 0.665468858840995, 0.9109613593506926, -0.22558998381505282, 1.3615591148922248, -0.6039498475087646, -0.9715349069974789, 0.75789613243396, 0.10584438971394826, -0.5434218694940028, -0.4495229613955017, -1.22854477121197, -0.7164926959363666, -0.17155736111988545, -0.7577799133685338, -0.9709846290395909, -1.5226363313974234, 0.020305463980539912, 0.326769808220546, -0.35800684903593116, 0.37015353910358634, 0.25407300125093507, 0.5773263336673995, -0.8086738243450038, -0.7281676851042362, -0.10949285099797441, -1.7494544589161773, 0.2906786253620486, 0.6881171204000935, 1.7125174220861419, 0.4285796374754188, 0.4649492989572827, 0.9414345540286942, 0.4197878151063141, -0.45311964558785006, 1.5381839881238482, 0.7196069227093136, -1.0266660107446195, 0.7915089829670827, -3.1992088881305993, 0.12525895158660208, -0.660404819881728, 0.0906326728434205, 1.1915387981864596, -1.5087633124613937, 0.9732913605572818, 1.4463081119696162, -0.6411286817663295, 1.1505138762883693, 0.2676807740550753, 1.3387135660660645, 0.237758114012786, 1.4964040842030721, -1.655940044236162, -0.603844963297702, 0.20257931037391722, -0.8702831707842464, 0.7697171690536684, -0.06122011134853829, 1.090175610235658, -0.4382371350226339, 1.007148622741962, 0.4260357514835241, 1.7314839786743703, -1.3563124786410699, -1.244709937100939, 1.8530705262084757, 0.35204815252016625, -1.4417667079086642, 1.3389955956507005, -1.8471695235125631, 0.899241676108093, -0.9454486399991772, 1.4050369019524065, -0.737958089975393, -0.08903472895991948, -0.07513541627980785, -0.11639766110808078, 1.4643539606994627, 0.1517260838554116, 2.4839342403015037, -0.27102525130304256, 0.153947316862368, -1.365873789056163, 0.15262131745468682, -0.7140557120386701, 1.0638938304708867, -1.0656558634892133, 0.5540881493801242, 0.7312725032339353, -1.3909654655800399, 1.1340730732949587, 1.8480930101418305, 0.28542090547107885, -0.06739589054823525, 0.29089108132245867, -0.5647941271102369, -0.05437132563991337, -1.6973793453948915, -2.266166244782266, 0.6586819130763586, -1.2331279379209659, 0.8609559501496061, -0.04067696487838958, -1.5770221230209933, 0.008457351754426615, 0.7708591867205323, 0.7212251917027475, -0.7435929341509108, 0.8540267038261428, 0.4261832872688667, 0.2204539406372043, -0.6200673567168326, 0.454820717850397, 0.4143137031534209, -0.590817633261944, 1.2959801489595157, -0.2860460138872335, -0.09489550046111182, 0.7379953743471922, 0.758258931813953, 0.964171795444717, -1.7631404446314944, 0.684494926581646, 0.03214890803127218, 1.411270771996737, -0.5551469466281731, -1.0004920964868373, -1.0069744162442582, -0.6293529978903851, -0.7183710489888406, 0.6565378873422766, 0.9210039416613388, 1.1251305944175607, -2.759874738157148, -0.31594914694899634, 0.9988664926635449, -0.5243708632056535, -1.0445859281066423, 1.0921053573152806, 1.0359914221437942, 0.46743720252458504, 1.9980348587636996, 0.4488096478341632, 0.19059315205178376, 0.10990698747708394, 1.1288585968248377, 0.13677049486180698, -0.4168169290310384, -0.4204548192805321, -0.03958651935271948, 1.8419081798491361, -0.17940866550180448, -1.6047170129902495, -1.3266953643438155, 0.9650683135698328, 0.7657273642792543, -0.014482746200571323, -1.8463166391242571, -0.743330174397974, -0.40404432022933745, 0.4889144074331731, -0.12904509658160823, 0.941225915703052, 0.6933898453692228, -2.789809075545899, 1.7155227674246525, 0.7170203756768999, 1.920220691823255, 0.35656026593953577, 0.788261730080337, -1.1033183885017057, 1.4173545263545329, 1.044284822486402, 0.5755154075841431, -0.8118963529766587, -1.3851063515533608, -1.5337511892041567, -1.1160826026356723, -0.4664601481662657, 0.16701208164523076, -3.1366050901706997, 0.11489751769764263, -0.6468606318042925, -0.37556522299258743, -0.7699491301663386, 1.1319991805445564, -0.9542789370118855, 1.2670426751379302, 0.7262045600627588, 0.760705168887947, 0.7143086249186062, 0.21723919892146756, 1.404108385945768, -1.120386018133289, 1.3844354804751675, -1.1212966786829717, 1.1708805977150247, -0.6686386289819076, 0.950104650693443, 1.560804471319436, -1.3195489581713973, 0.42523278589956726, -1.1828801599512833, -0.02969799709259762, 1.2367981593195345, 0.13250878656681414, 0.631238872573674, -1.23307740184016, 0.42923175514720463, -0.503902988303524, 2.4669848695468795, -0.46365148692185193, 1.3335736113602414], [0.8096368525856695, -0.8846849840223018, 0.684128011328631, 0.6047382637505965, 0.12147624973857912, 2.194991711925431, -1.6590106842385695, 1.0399216866572207, 1.4188524404157647, -1.5544321960852319, 0.7244494432307103, 3.4860230529466296, 1.6883411768406134, 0.2234711199858641, 1.0208586280039489, 1.2427366376198556, 2.0911955542871614, 1.201587605233098, -1.4364377442496135, 0.5243958276675729, -0.8400486976748391, -1.3698619631724314, -0.6530382151707932, 0.28301184307102223, -0.05796792176774745, 1.1811122574360982, -0.09741922971788708, -0.31233119674125787, 0.2912680957084013, -0.23827906325760193, -0.8703190473124592, -0.3346936565078863, 2.823603939357909, -0.3396864002554183, -0.3840933993858332, -0.13327504663491113, -0.5519716580073529, 0.6676504504903155, 0.17195995855458496, -0.03257934177971207, -1.167440732072452, -0.10715406307297687, -0.4146101873652203, -0.3049488240226952, -0.3558391846883657, -1.3189601862027933, -1.0375699497249862, 0.6660140790572394, -0.06305192148095687, -0.14588121763168566, 0.842758031668581, 0.5210949099360156, 1.0692799984458035, 1.0723698341884464, -0.8431266696496144, 1.7275447330769356, 0.4606280490130221, 0.3989909804088031, 0.6112262883185856, -1.008347296894941, 1.6022712569533468, -0.1741848478138837, 0.1096198229607304, 0.23091500896016232, -0.02027009837695302, 0.45134202799395207, -0.29983096441912493, -0.9652432755050517, 3.108434909537066, 0.4803343125534231, 0.5082929286706652, -1.0804826553053122, 0.502476819077658, -0.2126394947036166, 0.3691414357923594, -0.03919203584075807, -0.4031288523430691, 0.6671732193058673, 0.46338478101627173, -0.19940444943633331, 0.7762958682804038, -1.599931555001417, -0.8345021703680895, -0.764317442357965, 0.5561711983989331, 0.4583393506236482, 0.6943179479742128, 0.024559482407833358, 0.4578332128051762, 0.7054163709407503, 2.2738860984551543, -1.726062968421618, 0.4073522663920506, -0.9189388303371457, 0.11919332851610388, -0.3786397522386175, -1.5535798023572902, 0.3442417071675411, 0.6278357799512964, -0.4812360187584516, 1.1760328735539973, 0.7228222522854487, -1.3185122693524949, 1.1626446483320294, 0.686756477232128, -0.06319414834003415, -0.7572310727570647, 0.3127282598816975, 0.41461458011934776, 0.09471840030729549, 