{"biases": [[[-0.3616307252732148], [2.2255156757483405], [-0.23340345487947003], [0.15088721535002253], [-0.4760421447078015], [-1.3458258064812463], [-0.0658274227383374], [-0.8596749012794523], [-1.3699059739484565], [-1.462321429677217], [0.8591026532044937], [0.5466438059017704], [1.947008855822363], [-0.6898567380412558], [-1.9490770079506672], [-0.5939601693651851], [0.3276448831340082], [0.7535201408035628], [-0.07925273175058942], [0.8210502917937486]], [[1.0206100590622877], [-0.7548007293285265], [-0.04232142923641681], [-1.136010475257623], [-0.4376616671458889], [0.3091504336227678], [-0.17194127220781136], [0.5789363368764394], [-0.513663185263278], [-1.0763585706055543]]], "weights": [[[-1.3000129433038072, 0.425832537258513, -0.21788450344471685, -1.7927430277748808, 1.105341598492852, -1.1874105927450669, 0.73658022352693, 0.25711907703724146, 0.03956254572616706, -1.1562359447949142, 2.0474620776214043, 0.19274281595957862, 1.9890453322826167, -0.20592541315136545, -0.14192371458121922, 0.13179573629289973, -2.005964554522625, 0.6714833469573225, 0.21649705448452472, -0.2812501160940814, 1.1869106747376912, -0.10985347071925733, 0.9983529304487453, 1.4668888681697698, 2.124617901029491, -1.7434457731683806, 0.48368111558867166, -0.24307808977533749, 0.3390383891682579, 0.5114533891518959, -0.8336853215585375, 0.4515416247427241, -0.22274802539503985, -0.2525659678867188, 0.3237674427333881, 0.5734411397526443, -0.002847590927838881, -1.1613402568215285, 0.7556718768410439, 0.23568022846257738, 2.0439037126322135, -1.4532262946035621, -0.5813712213266584, -2.151903988576474, -0.9570686890821654, -1.204743169982621, 0.251736048299713, -1.7614945222090574, 1.7148878594640855, 0.9180621985229753, 1.7259218851700966, 1.6851391268715685, -0.2309277111724676, -1.21890473168924, -1.2699211164633668, -0.6163956191358098, -1.2395971204430825, 0.3828059665094522, 1.2715828453999019, -0.4910140793852127, 0.8431398176699509, -0.5624464370142187, -1.082502853519094, 0.10360226024290586, 1.6483613139286082, -1.3984035321017863, 0.669460341738938, 0.6141784789161122, 0.03774450140209905, 1.177379414997495, -0.14583279441212413, -1.6201726926397968, -0.7926558387975718, 0.4495488432366521, 1.3649242844727287, 1.117200776041159, 0.6981202120806487, -0.32428060604812337, -0.41034855049825264, -0.6957884215229653, -0.021910791097841397, 0.29351377614689683, -0.8973815775212174, -0.96798071617044, 0.6056942914605729, 0.34480356318760924, 0.07575193865394775, -0.6574026746758378, -0.7666721316318789, -0.5408070299304624, -1.415853073936113, -1.156558733824998, -0.1005284409277865, -0.5153765171966649, -1.1390490250732686, -1.3129083814542446, 1.4001594404528, 0.43482224268357933, -0.040389970834076, -0.0971309249366981, 1.4914637062944733, -0.6487492200438113, -0.28298035493594853, -2.351906867334939, -0.14489014367641476, 0.07973310079957596, 0.7957000418948664, 0.4977170809290247, -0.4389254523465764, -1.8165208196244722, 1.8844202317388272, -1.1995521172565522, -0.33428988913939084, 3.114665678549036, -0.7151638452155898, -1.4926637766607234, -0.644799763595679, -0.9579744073405434, -0.842683527231889, 1.5860087432109926, 0.678219256569525, -0.7099464072898657, -1.321630160070359, 1.0266073073638593, 0.40323393896666243, 0.5246666525827215, -1.5216576011930079, -1.7618095953219395, -0.10506126599036981, -0.051724759304793325, 1.3961226693840174, 0.17150912406266847, -0.5874115538838705, 0.07357481771539698, 0.2892879579216987, 0.805212509730064, 0.15524912913872865, -1.2702597143827592, -0.689167480513609, -0.35103683610560976, 0.9816545932935237, -0.5399287712081251, -0.6043998922387146, 1.9505178126027432, 0.16951664149291487, 0.8626297499731287, 0.8060228469353766, -1.487690823789719, 0.5591699872132503, -0.16059674631045634, -1.0563535596035265, 0.3764525541383257, -1.5887396356953931, 1.2805462594556989, 0.9245044896724784, -0.540058659039143, 0.10949266751824271, 0.1154179949818163, 0.28336527434709197, -0.50000052274615, -1.0821895729774187, -0.07396040927675644, 1.1500315815183515, -0.7053317580409011, 0.13335531727645275, 0.2871315554200021, -1.0003639153185329, -0.19160080697972404, -1.400776050919617, -0.03561702965462816, -1.7226683426518, -0.26425879050085044, 1.0274023901474918, 0.25354893052670113, 0.6343451942941194, 0.3368336649552388, -0.07740162870389748, 0.5098725921860555, -1.8875262419276888, 1.8329921184804472, 0.9371415017259012, -0.3581834448451406, -1.3778839195333445, 1.6246757455474334, 0.7650988606729878, 2.656448400546137, 0.324558373206336, 0.8072853194941964, 1.1228625140901864, -1.7258078956245062, -0.4441968950837835, 0.13853111311148175, 0.7274521744201362, 0.6538478992233591, -0.060373826347463105, -2.3068585170180937, -0.3276696365724573, -0.378905882316703, -0.27566974901393876, 0.2325873988058903, 0.24796264930566114, 1.479319665640829, -0.4787837710747256, 1.2737300229502413, -0.5881358457610628, -1.4105031912604145, 1.3378184377127926, 0.2605102330969983, -0.8204366760947865, -0.5772976025321852, -1.558447869037081, -3.47326491761227, -1.4427228313049867, 1.4198333625723611, 1.397999569756934, -1.1902028393944732, -0.19257016702461108, -1.2409130824893715, -2.3133463906970615, -0.47532923975719416, 1.886021875977993, -0.42368121936742614, -0.003458083409673672, 0.7197304643258798, -0.5020498432403318, 0.5943128543196067, 0.1528755836762442, -0.6105659933867176, -1.4844259341264316, -0.3824483846669849, -1.6789080870955957, 0.981945996894469, -0.15066500238700054, -0.8454394014879544, 0.5692450105123562, -0.48255033108048084, -0.18996929160335618, -2.5168833369875623, 1.164673856712705, 0.8678450615772315, 0.427133751647335, 2.0362664124054284, -0.4386015796433666, 0.7323915185030451, 0.22569050053550632, -0.6882635026234281, -0.6115885050216859, -0.3158577154608517, 2.4236132531496466, 1.9838886504988396, 2.774702303843175, -2.4822278088482426, 0.12022213628018656, -0.3996787548406316, -1.5780597197912132, -0.3259492546071676, 1.5121804851312695, 1.092339420783651, 1.09143464991547, 2.637407602928136, -0.4316423604931339, 0.9729390669876997, -0.6017463569375249, -1.13126623110152, -0.7120788028507684, 0.04383354370406533, -0.4702120749847363, -0.3004697290933714, -1.45425413739544, -0.7319196525595258, -0.7390364762247642, 0.6894188881943492, -0.5082672800141271, 0.33857678051272716, 0.4623535888992078, 0.4737432255594318, -0.7214970611610246, -0.5505864423832956, -0.5975199233155751, -0.059812816436956275, -0.11101588852985331, 1.1126042242079284, -0.6759694235992183, 0.6742862567143423, 1.0508628831269742, -1.1281769356821865, 1.4702070254950366, 0.6363874900591073, -2.405858993415721, 0.11436278435525807, -1.0043787676199722, 0.07621065867871471, -1.3109298899286292, 0.36640662299983356, 1.5359253638678605, 0.363024904588823, -0.7916815930710995, 0.43282623147941096, -0.8623080791192499, -1.5162806021303485, -1.5798762752093298, -2.432289198665606, 0.31182963771604577, -0.15324696478099387, 0.47335628622626047, -0.05743934935411313, 0.3326375426801984, 0.522265517271199, -2.2689915125708526, 0.3872185530617418, 0.19577177884274874, -0.22535518860222892, 1.45166759054933, -0.364070145757426, 0.09928242445963867, -0.06042136618964742, 0.7508203544602347, -1.742177213282596, 0.6053068910861602, 1.9627022723053646, 2.3688713108468447, 1.4967892578133692, 0.6836416946851467, -0.2007481036714886, -1.1604897169824568, -0.5767880085926673, 1.7644080762844148, -0.2669069905910608, -0.2726076097963299, -0.8558006549990268, 0.7714086914323653, 0.3449123397760204, -1.6529030652690282, -1.7327735884645252, -1.7007612736519975, -0.24515752955252265, 0.9384435929612023, 2.1349699683458505, 0.19209612539997734, -2.0131709899152037, -0.10379530343830712, -1.3245806823376045, 1.5539695694247493, -0.9080281474051092, -0.12967687631108216, -0.5653610337119765, -0.7691533694657512, 0.9680078280146233, 0.45569442115328684, 0.2706145513518805, 0.9073134274705068, -1.047661962474452, -0.013207892620571619, 1.6520086795215685, -0.37011735418784053, 2.2000814126033714, -0.7242777516380451, -0.8988638804892685, 1.1151038045773272, -0.11166297146099152, 0.4096886686842369, -0.07959126230593491, 1.8013909674941009, 1.3284022118233745, 0.17266778368159352, -0.33714696386191156, -0.9789299232351296, 0.05067878352557552, 0.2864282971002722, 0.34460398916766233, -1.2855218650663496, 1.1421386734705423, -1.2025972657459056, 0.3724342829996449, 0.4303744460220956, 1.0007794247778135, -1.246473885036996, -0.6612487506048128, -0.4527223869978965, -1.9113621275740686, -0.18946841522653632, -0.22342159135992462, 1.24739115123949, -0.21337452461431333, -1.9488996968846253, -1.754960168191657, -1.3848874079356746, -0.6210448962825492, 0.16110316449436562, 0.5376401379994484, -0.6917210963763907, 1.3147543461547635, 0.1432885503688985, 0.8186016897088023, -0.16332393967549588, -1.7138904453581736, -0.99377794943239, 0.37422221268981176, 0.19385837992102162, 0.9981348196823708, 0.8071424208167469, 1.687080068037663, 0.04858378024853304, 1.5419778162458024, 0.5805573362692082, 0.05849872769428684, 0.7405758297849847, -0.5732868473577707, 0.4090832839971035, -1.2172689028197168, 0.8137943296452828, -0.2612977012338543, -0.8045677991084178, -0.46810332682799166, 0.10806584834069932, -0.5450417666259045, 0.20960616957234318, -0.39782206344162546, 1.5561513895958752, -0.1607467143394041, 2.416404431985286, -0.5764614746659676, 0.9675236086594992, 0.8076458644264809, 1.3691700573291783, -0.7113746364760107, -2.429451149451213, 1.2111527599160903, 0.5700440883297984, -1.1017610937756113, -0.08707826960236509, 1.170139953835259, -0.34310957128852704, -0.7578235124523539, 0.35901434695463996, 1.1485165937501578, -0.013679811745210983, 0.6906212697312581, -0.9156292589106141, 1.3238245179332127, 0.5790853993257098, -0.061873161772077565, -0.7609686234452921, -0.2106319860108611, -0.794565534579189, -0.4242899047366683, 1.5844971788065891, -0.4023793045404237, -0.18595367679837727, -0.6265846592553124, -0.4642288816617241, 0.6952923702541334, -1.6264385152463692, 1.3182818016632325, 0.7302333975450656, -0.26473343266196075, 0.6934129897471768, 0.8320118113992783, 1.8197303691404436, 0.16988587478298225, -0.5701517632480307, -0.82114474130779, -0.5397445407459465, -1.3845618108501494, 1.2725885671566033, 0.8265677700012543, 1.514749507182684, 0.5161209610661585, -0.6238789873048096, 0.4744063483620243, 1.0681196794163375, -0.5033267201181552, -0.1996980818167667, 1.419788694581533, 1.9385548344052137, 0.3855700550702529, -0.6770376147066445, 0.43547014056631134, 0.31243349977862983, 0.6630129836497867, 2.1323856486593673, -2.068796977351299, 0.9315241938822649, 0.9068897884951296, 1.1438848453949382, -0.28989098597136986, -1.0321124705912708, -0.4858207590090867, 0.6306495929211872, -0.37058256756241675, -1.845155641292368, 1.0506595185112888, 0.3718573119829484, -1.6626275988125685, 0.6110062673042493, 0.27386206965768195, -0.9684165381010357, 0.6906445276549171, -0.3849921630553745, 0.13039894195573762, -0.009744686225328827, 0.23294883033085848, -1.179801729557236, 1.3458888185745712, -0.3110199445423288, 0.039965539260726324, 0.9389197016734103, 0.6208537194195568, 1.899588589711625, -0.9689436729681031, 0.19156086942231115, -0.16355789802643456, -0.6844893791616926, 0.3578146571297441, 0.12944068212590956, 1.131994557846403, -0.19610688327880668, -0.8148964334209265, 1.8273415419813859, -0.24827174713582703, -0.2930835649686098, 0.010125208012878327, -1.3164341844386616, 0.5957625526127991, 1.5181714100972359, 2.241891388175518, 0.20137657829841893, 0.07402661783036911, 0.9764950283563478, -0.5827304731607998, 0.3129581721891491, -1.6280718692106038, 1.4080733642745031, 0.5801107046156815, 0.9525817577738829, -1.7519499855379987, -1.933667639875455, -0.15997511145089727, -0.429953339649125, -1.2778665758871868, -1.2434325645305577, 0.10510011004045447, 0.5167053386519384, 1.8785826221035868, 0.3953832013684464, 0.6867396611551149, 1.5366574921535743, 0.7820217660847534, -0.08069200660503291, 0.5201135842589248, -0.06239526564146314, -1.7622081773730087, -0.21467189281371662, 1.2980321217214112, 0.13574617793456392, 0.12201773325148478, -0.7896631079699538, 1.839999755310291, 0.5826960045559075, 1.1182668008612722, -0.424722017858448, 1.1867249729326637, -0.03139146598143948, 0.6345261882252429, 0.1284211881402834, 0.3489872319046117, 0.6152427227330552, 0.32837660360350485, -1.8330520270244548, 0.3549368479541056, -1.3210332567899499, 0.06492765810451157, 0.3018678078847096, -0.4248657159112557, 0.6235776278597227, 0.35732333831795005, -0.696146797685, -0.8662652403529724, 0.7969911979479513, 0.60763029101385, 0.23824390759693329, -0.3939768134418476, 1.4747365851966, 0.08185350424910233, -1.5162940881711449, -0.18187391586039123, 0.5696207664699952, -0.8107043560315169, -0.22651274736002708, -0.5971303498302011, -0.2411054601319233, 1.5619026310172524, 0.32805113191210894, -0.40332610506187905, 0.3136459367912491, 0.9611377966284496, 0.6132701348695997, -0.18976417555031472, -1.3597436033670065, -0.6842686923187558, 0.11156483792504372, 1.0301280297987856, -1.1514820246466724, 0.025100699787810977, -0.10177917130223478, -0.701582685470493, 0.648550976007233, -0.6822226457814786, 0.36863765256818093, 1.6534637264513499, 1.1097553262450661, 0.648262164427533, -0.3431811719161959, 1.082836247563205, -1.8064524310461783, 0.5903807675687587, 0.36463849847060337, 0.2951224825570671, -0.7634381236956654, 0.012743988183326511, -0.2499372684866942, -2.0347884570625054, -1.7276243803763083, 0.0658390924111428, -0.03639989452884251, -0.8238465671602543, 1.4873411910739502, -1.1847832073247453, -0.1803683600474128, 1.4054323803064777, 0.7406230900963462, 0.6677028542114049, -0.4471437454050937, -1.3422180632974328, 1.4413942305264682, 0.5792737797476102, 0.05733457937605474, -2.0234983152051225, 1.2650356970980898, -0.08005284017436617, 0.35158752764819184, -0.5076684979602127, 1.1926191666532546, 0.43435566301098677, -0.5732212783486297, 0.3574342399482985, -0.3068270157092951, 1.1588632580613705, 0.19300151124512868, 0.5601034890216885, -0.29332842040471685, -0.027855655509946117, 0.9699399589778728, -1.4167649334387171, 1.796128368850503, 1.0327875896445204, 0.017409590267852406, -0.8743609922841482, 0.8990872158379873, 0.31981817436889004, -0.03521618370740256, -0.6010526188637302, -0.8207826822411161, 1.1578216591567525, -0.8561257357874326, 0.014311885500660286, 0.3803144689507505, -0.09676420945033094, -0.8676682600981023, -0.4559228152186655, 0.7102607346423211, -0.43668667798948396, 0.2832950076443116, 0.45777338465919726, 1.855850801674456, -0.22252961556318682, 0.5008996890356859, 0.827638659668146, 1.317251894570131, 0.804856500600478, -0.16111869732879291, 0.07226403788612569, 0.7482552503775265, -1.383974200090868, 0.13052417565946978, -1.4119491151075818, 0.6961732256900074, 0.03707781525323247, 0.290667337029349, 1.6329598722250414, 1.2002339168896394, -0.2937407774337921, 0.12581593414696135, -0.5728476632254984, 0.2069047150224154, 0.7868062986594037, 0.17673129621398664, -0.9236319395479177, -0.3070085798968171, 0.23674178557612485, 1.0112369210783023, -1.0697141495168005, -0.10564333957013522, -0.6195524847989424, -0.019638470645758726, 0.5825348691522657, 0.5146225723305553, 0.6923586979166304, -0.7951555752234485, 1.7007966346474879, -0.42019666547786044, 0.4817253914311364, -0.3819147488088148, 1.4812026795710116, -0.5577714890687642, 0.9593931742501891, 0.4953898016882956, -0.4102098865579542, -0.7342348633576375, -0.15304258949843066, -1.0922135549018084, -0.853964544235548, 1.9272376072461128, 2.2972045905027305, -0.2290229314323356, 0.081818899998532, 1.306305533946442, -0.5159759377615577, 0.01116634676083294, 1.4286513576498332, -0.9378252403210239, -0.3737272640482642, 0.06752553779073531, -1.0111871368416074, 0.5271099735991331, 0.3888855297056554, 1.0340555497169355, -1.7337242520992042, 0.04627973597591862, -1.2986109234183938, 0.2315525865351238, -0.16814164490781397, -0.2946723567112584, -0.5456473905033563, -1.699180988987537, 1.5471387826456033, -0.39885565259861594, -0.7619854395927833, 0.0144358576109196, -0.6636196196591998, 0.37671316375354214, -0.12944862881476013, -1.3018497263379054, 1.9418931521693321, 1.023122314461703, 1.304039823108164, -0.6237767348897394, -0.580538810035668, -0.7451605778397818, -0.6563816963441083, -0.5750630906370557, -0.5639371142105555, -1.0341290735360331, -0.6369081487640945, 2.105158947867121, 0.1794477181464069, 0.20247899716149872, -1.4914637310701373, -1.3806405026849922, -1.6191409318591823, 2.6972398983995065, 0.016041675634566765, -0.4016451774575181, 1.2710752919745159, -0.7514207752658759, 0.5582126346836604, 1.0712907104033098, 0.12308871113840324, 0.20655534430849712, -0.47992608464123904, -0.2637922573433014, 0.24322422758149193, -0.16901697344224564, 1.7471402500696351], [0.17904122480924822, 0.9216332430670867, 0.141996806986957, 1.7409348626719365, -0.5462504294727252, 0.07519382354219266, -1.3517306610033923, -0.1596305053927934, 0.7406694998081736, 0.5623963612423731, -0.4484048545374811, 0.7410196361043199, 0.9002958545313304, -1.616654626034788, 0.5897253951246098, -0.29418864482783946, 1.0386436853963137, 0.5378917151007545, -0.3756837837259215, -0.8860493597222695, -1.338029231339903, -0.4382037859694353, 0.7079827143362348, -0.4305781462690547, 1.7077177690900798, 1.4629741744340024, -0.8534160105494543, 0.3141496020748645, 1.7924561188778145, -1.965854683866433, 0.1533966916929477, 1.0011033299402117, -1.0042764989134867, -0.5370236438963376, 0.04719372031629873, -0.026413397202091404, -0.6997516845185232, -0.3644957715548267, -1.9954532481931018, 0.5371319543496692, -0.5932603614229581, 0.8781317126610013, -0.860950313829192, 0.39686239118237276, -0.7859756119683908, -0.3524934338186143, -0.4105251087262877, -0.5277587502908709, 0.07618706966082665, 0.2387828504756271, 0.23615750299765448, 0.020473461741850465, 1.1635569110387463, -1.0015402828449957, -0.6893006557886285, 0.9706264799987591, -1.3253498205659973, -1.0720465042992005, -0.11146814367233251, -0.527011159968518, -1.5339331552368694, 0.5870522588138944, 0.002404224815997038, 1.5300884699959092, -0.8983705170133591, -0.7282262986281, 0.8500953495325402, 0.0035086235064588855, -0.9084830898399767, 0.1306378689002977, -0.528698607087652, -0.6119785273778179, 0.6541051369720695, -1.6632240036305492, -0.7271520370991316, -0.7411467604829481, 0.11736152299176185, 0.7177294207570074, -0.9188046451298427, -0.5730731529041662, 1.9261713632334347, 0.12743575601152346, 1.1409093430341983, -1.6020768000695391, -0.6469060691755696, 0.5918859731700168, 0.28949698515028105, -0.9030870181732708, 1.0574620427046242, -2.1252171917497225, -1.6781885390526745, 1.2707869465759207, 0.24423870780728105, 1.0599758285033347, 0.4731586952772562, -0.14152285900297765, 1.4093898024087708, 0.29636799907525796, 1.9143827525720163, 1.3972335233918138, 1.8144705459498314, -0.5040243747804903, -0.11555768904550427, -0.09392090417157797, -0.03702796835224012, 1.416723508471836, 1.3230158936642524, 0.09325958403598973, -0.4350053925195775, -0.1030789334974433, -1.4799083193647253, -0.634145261345523, -1.5071071733476271, 0.22342559414565394, 0.9609003855464608, -1.13916816785294, -0.8084219679383856, 0.9381288194499384, 0.861720095598423, 0.8548297698601487, 1.4670126503718413, -1.320772222585257, 1.1861362391410146, -1.123903889100154, -0.8401625428416606, 1.0812306390016146, -1.1618798193919289, 1.701708917273195, 0.345837228466393, 0.24489500832568065, -0.24412817599886363, 0.10019647489456913, -1.1398992255542582, -0.2630437766129028, 0.6308710606996317, -0.5311248464221477, 1.9223617457645854, -0.2936264793911324, 0.8335438425129097, -1.1809113442805588, -0.40832119157980523, 0.8036616124995526, 0.8724247866074412, -1.0652164105012591, -0.6008612792984157, -0.08267784908130459, -0.234930309497107, -1.1851544845088375, -0.3066946172431126, -0.06765398958325572, -0.08520179510044616, -0.9188198192276643, -1.4069895385338524, -0.017047727708735257, -1.4883300446910166, -0.07921728640994241, -0.523913576772499, -0.6296969235167829, -0.0926580088371538, -0.29024667197692583, 0.035972693477377964, 1.2640930677031301, 1.661606658861651, -1.0072251572601256, -0.18312067139610363, -0.6847105612236042, 0.007822764425461409, 0.2630373267188929, 0.8722827401593402, 0.17089986933725035, 0.7930294682745502, -0.7041591540161782, 0.18255268691038096, -0.09282138263601594, -2.7144307384221187, -0.08714915796379502, 0.8704864843259783, -0.2694677075666847, 0.26379536298632933, -0.20252153217284216, -0.4335100584794306, -0.49440771471311074, -0.9783872072408587, 1.415320279716574, -1.1250192726034798, -0.4939173141627081, -0.5153957907771286, -1.8659096828728117, 1.3381675188808817, 0.6035337297825888, 0.6017290064730458, 1.0074402976369845, -1.538140101135764, -3.0885390836748363, -1.121700645438611, -0.45431823611901795, -0.4589081130282533, 0.8949738104604386, 0.2320570069826099, 0.8562762110069841, 0.2976531229525916, -0.16381680572206894, 2.100423083154574, -0.6493277047966396, 0.50188617052978, -1.679944297251918, -0.48230253533410217, -1.298908592662303, 0.05280717124597115, -0.8599093238822897, -0.20005757936686294, -0.6333239127186034, 0.4939720969481669, 0.38226212480633986, 0.33969352197688146, -1.013757983505031, -0.6272943607689783, 0.3721371883186142, 0.9255243589682791, 2.0968801369353467, -2.1453491047235884, 0.3344767491576372, 1.2199401107133465, -0.2441379050120272, -1.6763605227925018, 0.25462885341345864, 0.5642492961175961, 1.2818648587136652, 0.2805869940687581, -0.5778620335093614, -0.8283305865710862, 1.1244506237953777, -0.5385692275614, -0.44316315012767676, 2.5340675420846557, -0.22425569780544508, 0.8019123954309193, 0.9991757122613708, 1.5978226947290188, -0.8361746805770317, 1.524430621482992, -0.06587577153285441, 1.1463823038238907, 1.4288184813157572, -0.8623497189195645, 1.004564684395466, 1.5623513444890091, -0.4794017080176444, 0.8285697137273239, -2.8558248657409595, 0.5986398926348148, 0.9529459728165948, -0.8921853667859951, 0.6285701880918936, 0.07022965776979603, 0.63122294322306, 0.6498989351745407, 0.15960281346023752, 0.7929946683143423, -0.6052975405074782, -0.9450115741219289, 0.17182108332496882, 1.7337806073994597, 0.8624746541942423, -0.6399497188943711, 1.5821170386387615, 0.9759041282454326, 1.1036475904436895, 0.09296942105595657, 1.4263959940202582, -1.0564597509236608, -1.0172646503640437, 0.35115645120333217, -0.4436778120267679, 0.19743585006032488, 1.7811217775684396, -0.6497719400010638, 0.17064574664952986, 0.8768161575553858, 1.5265630925663838, 0.5593802233665865, -0.25178212867047617, -0.43602289412634077, 0.07955889540226711, 1.0171643601430322, 0.6996138631302689, -0.4840603346679586, -0.04372319390125452, 0.22061852510493205, 0.6635894364549111, -0.47053369707327986, -2.174717452041021, -2.057217448738299, 0.36193413285385473, -0.7106195279104455, 1.5665394301715811, -1.4862228589152988, 0.3855106772621082, 9.646106205269592e-05, 0.3177668054443764, -0.12540736362306662, 1.3813180242559842, 0.945973207609561, -1.4653455862582567, -0.26869098172365613, -0.861532150761858, -0.7885044584264072, -0.7452223983897636, -0.7514127499585929, -1.1853417615827446, -0.7433631219096393, 1.2196017677504642, -1.998177409116024, 0.015291839135092954, 0.40750924945868283, -0.9584975887563482, 0.687457830429558, 0.7565382810538658, 1.2981954336191268, 2.509420802132585, 1.1562136572882282, -0.7340664731021317, 0.6923951870459426, 0.11558160367322966, -0.4750325637620921, -0.28854592915428456, 0.07642693235112573, 0.03166224375207977, 0.474909829229112, -0.24381553208503856, 0.872239278847108, 0.5416395134652067, -0.9708930514309466, 0.7175607834557309, 2.133628250391692, -2.34724139536817, -0.013702280155315556, -0.6925041554805424, -2.021906166405496, -0.0016325988909377807, 2.1737477650302637, 0.7912398584086424, 0.6544007983376275, 0.7210611191471017, 0.5647645338261233, 1.0339394849116483, 0.4644174283573077, -0.9937551910584158, 1.031874461855169, -1.1837122427945326, -0.014550385523577307, -1.322510467049766, 2.003053089620018, 0.15768920958117205, 0.44996644289655635, -0.5724070256251652, 2.735659144549129, 0.15903054009244713, -1.0033307632429174, -0.6347369209675398, -0.11819583421557535, 1.2284963047143609, -0.7035320610545048, -0.5835666951532078, 0.44697186993393534, -0.8006287842229021, -0.5542116118104708, -0.003426328538507034, 0.5558130770045868, 2.261783001883747, -0.908166699481092, -0.5608083787606288, 1.2533371993590978, 1.2553493226506671, 0.477609509839961, 0.7805780355089572, 0.4921195789427021, 0.6548062125015255, 2.319123608775866, 0.8920688345965473, 0.17393857327977802, 0.4112928342419462, -0.7016733502391432, 0.872992326004255, 0.9384356150919159, -0.7779582026684891, -0.3321708383325898, 0.14182582319632583, 2.2133226445247107, 0.11633534803614583, 0.5893493429792251, -1.1610689331392958, 0.6318613691642383, 1.0466183704899266, -0.7156002419601489, -0.8017750633176379, 0.20565684903696915, -0.23520477677737597, 0.7910329757559414, -0.24380057222311105, 1.3089189665413485, -0.7824222504348392, 0.8900507946046344, -0.24337295793782743, -0.029991952254638656, 0.5019571252406904, 1.15968147370789, -0.603404633196178, 0.06685557753742685, -1.0840624778246561, -0.30154456314579986, 0.40132083788802164, -1.002067412999628, -0.8597799023570429, -1.030615888412634, 0.7862702302457772, 0.15334736326089873, -0.9447717731856279, 1.7744682192132688, 0.40280998633455967, -0.9169003524398398, -1.219898343791061, 0.7035817233304054, 1.2949924354312408, -0.694313717714926, 0.10044048539022288, 1.3001882587145908, -1.4737209308493426, 1.0220041998006077, -1.0757939306450752, 2.0808017408777557, -0.660984006273103, -1.2843068027788989, -1.181929201102995, 0.4932348925770711, -0.8999811975904125, -0.7372717644539536, 0.2602642125805823, 0.990257478156277, 0.0772663533318589, -1.1589597883076852, 1.5189193433555763, -1.4950569584254925, -0.8074620928827044, -0.2312519635121311, -1.1811552896630375, -0.7309162366001025, -0.5111809507251421, 0.9661873123979602, -0.33354227735987535, -0.7050336939246805, 0.2685715226932572, -0.18059041331322354, 0.6841652831809611, 0.9433698094167201, 0.3741416730590542, -1.4531874117982484, 0.883109022239277, 0.7939010611287922, 0.6635740453516462, -1.014556573427763, -1.4420185608142715, 0.2537882046805211, -0.5111360522769054, -1.3264019042351596, -2.004411283080404, -0.33607684691244555, -0.2770445390469898, 1.3863991790040657, -0.4282876811592818, -0.3515139453093905, 1.5520810318954776, 2.015935106198101, 0.4719420240888616, -1.3599077185838526, -0.31849078162122757, 1.1211274109705254, 0.06341973851968018, -0.7661145074412419, 0.09857261719251065, 1.806850844588433, -1.8611883663596516, 0.32501547833685246, -1.3298437418260112, -0.22598791588381548, -0.48916746450703197, 0.9530394507273721, 0.12257117004983036, 1.8373335927793997, -2.1685310486802125, 0.7455950089232581, -0.6894072188782708, 0.4227084925053127, 1.0140597010523333, -0.38092523642679665, -0.2964124751679231, -1.3014343082965336, 0.0848538905819037, -1.4320557308039876, -0.8477566788135079, -1.409843150074449, -0.654722895806229, -0.549253681893509, -0.1653856334416544, 0.3240726301717326, -0.8710676871168652, -1.5219950869475585, -1.4886273495847466, 0.0117902701173894, -0.5068408346213344, -1.8120474706246545, -2.966067239798138, 1.397034017100218, 0.9414860603744081, -0.605821052417713, 0.32169816523660477, 0.8826254588141076, -0.16377943809138898, -0.5876703368465198, 0.23461917420671352, -0.6674865257448505, -1.7542745739874013, -0.527260091837215, -0.8936473701501654, 1.8574033889049841, -2.7145709502499153, 1.2605504042324012, 0.4209208210825631, -0.48682028686769396, 1.6662405771684445, -0.1599903672120319, 1.718917879983686, -1.60696201609262, 0.046168930018639344, -0.30102713928068886, 0.4374929646458934, -0.19838870980539067, 1.1924484983602957, 0.6847005544429043, -0.8094758764867462, 1.1163077147713516, -1.0307852323217095, 0.0995500312537748, 2.242543953473743, 0.7448921453225089, -0.18760654172228144, -0.8573198074468029, 0.9065728163181487, 0.4664894082085195, -0.6055840084954639, 0.4329608943463795, 0.17336086538572573, -0.5064231347623385, -0.011803816329615073, -3.440412838701194, -0.42261344598562156, -0.09334431809757118, 0.7578851672287659, 0.30474080283447535, -0.4169174237910277, -0.6531457207977599, 1.1158948678264333, -0.7240239589823783, 0.03576116443683116, -2.320954417466529, -0.2599617981856012, 1.1912550000175448, 0.4759477843192131, -1.5187768167762175, 0.39348371915222047, -1.6200629905817006, -1.2138001113180763, -0.3796404889736442, 0.3210925557735731, 0.3508243026646334, 0.8487234048258164, 0.058279259957689955, 0.9525178200510265, -0.4482638818976907, -1.279458491697001, 0.20242067199205058, 0.6887675490947027, 0.7356592421760804, -0.6919373131385647, 1.2410201286207, 0.5223300125955518, -0.9641573584020381, 0.10739244353566364, 0.22785848743489634, -1.629517435052982, -1.2374363223776375, 1.5011969595306514, 0.8830913899821147, 0.18931945779627246, 0.0749741303706761, 0.7862484546560025, -0.5122523963740313, -0.4191787330943218, -0.6463591803062979, 1.5733329820266837, -0.8121376427088579, -1.2503472725353129, 0.2236303108528666, 1.102516083128567, -0.10561773181111808, 0.003312419382896093, 1.0150035568325717, -0.4352446993391539, 0.7446184372875293, 1.1927367564419689, -0.058815107334286174, 2.0281598593666157, -1.4861046355772278, -0.43991457794009436, -0.5237234770158226, -0.19170776710795423, 0.9349430312488072, 0.5503600432596568, 1.9574253823810668, 2.582567169698741, 1.074850739775519, 0.4519269862515565, 0.8570910598691822, -0.9335563660786873, -1.4436997906974358, 0.8957653925526244, 0.8345474634499019, 0.3919801116641333, 1.3133529216866262, -0.1680634080492525, 0.7453817622830616, 1.8375962937429504, 1.6012486585619032, -0.058258800840786246, 0.29668530188024417, -0.07628009117157707, 0.1424312545176709, -2.1972743595105517, -0.3832574708562454, -0.10463865666313993, 0.29490817722972756, 1.0658465062681937, -2.2054593866064844, -0.553621099457037, -0.5359952917433093, 0.5276143990127304, -0.1254644469437698, -1.0798134073171572, 0.9785409804522145, -0.35509880132173144, 0.6795256735781733, 0.046786064437115346, -0.4732580248068733, 0.33436348397766635, 0.10389638095131297, -0.44818058907642055, -0.07315203182006101, 0.5069299271839165, 1.1221950541365227, -0.6275263928209398, 1.319467567274304, 1.5746810810876144, -0.6768833898999294, -1.102131045821051, -0.8168315948064171, -0.7335067096039553, 0.020025018718069457, 0.2760801937002602, 0.30369639007947385, 0.4511406198505524, -0.9319506517107815, -0.17111354836332643, 0.25056573491769074, 0.5074977932445518, -1.134615639003998, -0.46855539321967565, 1.1088816721540333, 0.5229116241932003, 2.215618663209599, 0.39574805932386464, 0.4326933197663075, 0.5085896384363271, 0.11472908003346168, 0.5305068505429968, -1.586397796329709, 1.874626448613311, -0.5204131236542159, 0.6657481743967604, 1.1239496553898152, 0.2977938005109597, 1.7771159414441828, -0.7429933004846638, 0.20325453516214784, -1.2677558103072106, -0.644164796684494, -0.34962281089153957, -0.9299012187953668, 2.0184245708155992, -0.05785468745901879, -1.437777638391804, -0.917639266371308, 0.41428788098684427, 1.0884823031830682, -0.8575180759293551, 0.49891573995110583, 1.4882498957928523, -0.887873802653137, -0.3508293848602791, -0.2787573726849628, -1.519274714055797, 2.3245466607206655, 1.309429410286666, 0.5905148063304222, -0.7580415392064715, 1.3916394966369603, 0.09799396752824228, 1.3169835017862448, 0.48927148949452776, 1.71724224168326, -0.17462336125666814, -1.1678699191090087, 0.5555009734336442, 2.1294545294202836, -0.31496084507364713, 0.24439028098576013, 0.03684168044310522, 1.8812934145833118, 0.43591637926422, 0.0384764833780051, -1.4171710383538973, -1.2002528787289801, -0.8074363558835601, 1.91830583231923, -0.2808573685321346, -0.1260203824067027, 0.07003328340328004, -1.1100609059767537, 0.13775039558511962, 0.3908579101048967, 0.8158404849573146, 0.07813067308328336, -0.42060028682236034, -0.6542656001900372, 1.0738590016974503, -0.2785089146681877, 0.86281812765815, -0.33284825073980706, 1.772735449625265, 0.2473904269855086, 1.4490823264284065, 1.893200297212351, 0.0750576531299059, -0.918600214813664, 0.6489893579306346, -0.12506841834436552, -0.15007238236442524, 0.13310513564492152, -0.19892448802821336, 0.0023532321519099345, -0.7569064046224384, 1.5233105980829564, 0.07530526432525869, 0.35567070275317586, -0.9285793428412886, -0.5020011039943963, -0.35916196019700053, -0.15501368650565953, 0.6570403542005933, 0.23658075985963492, -1.9359945531723812, -0.7803561732747823, -0.48049274906391004, -0.9010782672129293, -0.7541646082403491, -1.5212553197287, 1.636151273640341, 1.5671753209821924, 0.5299974817176913, 0.21331392391020018, -0.7779547212651248, -1.5774134376901756, 1.5520033344528803, -0.5201982180001945, 1.9501908223540219], [0.3825389921081145, 0.04156340465197526, 0.33388332484974137, 0.38345194375756636, 1.8042610845686435, 0.9297038251698582, 0.24003514332371637, -1.3460810356173676, -0.5352554261066808, -0.4794142396659468, -1.2652628706267404, 0.3548095081701347, 0.5840967095437677, -0.32328169215211566, -1.5613655717838872, 1.4898025907810986, -0.9087301596296818, 0.7425462527085592, -0.13805651235709154, -0.1397763608413517, -2.4516339831481697, 1.3528079911093935, -0.3804996716872486, 1.762654448078309, 0.3546720366983773, -1.7722825439276984, 1.3121598349254988, 0.41565500724597065, 0.33195757430966755, -0.3651500759832737, 1.2999253948047915, -1.936793634106465, 1.887081892503908, -0.5026707859526716, -0.913575109030462, 0.13716943295631817, 0.5299306588880681, -0.401501639450031, -0.2934258915792276, -0.5990416436358135, 0.5768011397710853, -0.8777370215983473, -0.6735680887610588, 0.7170468532363123, -2.005308458925273, -0.5922271511108589, 2.8565998657309866, -0.949895972714234, -0.6918330479772509, -0.7540329539210108, -0.5886557516701865, 0.7322130815260922, -0.6321406315679404, -0.20355742819284872, -0.7438252486405722, 0.7772062816162344, 0.1006537570454425, 0.9663047043854536, -0.7826845965089637, 0.5817793407540168, -1.0168006647140477, 0.3835552674049261, 0.31871107078102057, -0.71147149021941, -0.28843349653621353, -1.1350296445399302, 0.48179721667794995, -0.3622726637772766, -1.8944869649241884, 1.329574587883713, -0.4006652256390776, 1.1179987869694004, 0.4531350737815881, 2.6185985592728804, 0.2763483008802583, 0.055594030477670926, -2.142702984161706, -0.3520341430911847, -1.2234094234340074, 0.14805694270624958, -0.991741985822005, -0.14371225224526404, 1.3854770064692887, -0.43366940369572277, -0.3164563002242485, 0.7263152251705344, 0.5114342380084633, 0.3095348084751197, -0.31096644109007643, -0.6980169383509853, 0.5397396604874667, 0.6291308693160259, 0.500461366160139, -1.7243122357744898, -0.9774069609896151, -0.7648493134318753, 0.01008161341892266, 0.8499681905052275, 0.7003109407968309, 2.5561085311092477, -2.19394962883563, 0.4172355660522423, -0.0702946229174217, 0.47851606633038235, -0.03512467887748699, 0.8998210267223031, -0.5585322266122043, -1.0163588588909325, -0.9366713400933376, 0.24024086164245273, 0.012706992426109986, 0.3546584091736376, 0.06876846737208708, -2.2556289049590927, 0.83645034453257, -0.4748245101486741, -0.2705190201598183, -0.051220833341085986, 0.27735679326837337, 0.7641172744011984, -0.1436692617289146, 0.29811959548297756, -0.043627154980875806, 0.9451285708504678, 0.3035648348205025, 0.4804490907537663, 1.5938980040931652, -0.10299505967213105, -0.08604578810524235, -1.4548270641564316, 0.35942671219330974, 0.788869677026618, 0.7001752887245813, -1.8615418949570304, 0.4427506668840386, -0.1757459899513789, 0.5815075195758443, 1.015554773594467, -0.14688134059967095, 0.7715982158174929, 0.7994489753904717, 0.7155713585689488, -2.048956855596589, 0.6894484470428635, -0.4880766833211851, 0.8087684251936584, 0.14071326285766025, 0.3852216701917329, 1.3389808959048692, -0.25287179498574525, 0.1299809953328487, 0.7144733049328847, -0.3140601290632432, 0.1431357090787109, -0.12064655430453095, -2.2866305377247587, -0.12842664799030798, -0.5624714681849541, 0.5362950786336544, 1.0511231076841325, 0.36365282412723526, 0.4859210506689068, 2.6649355391880647, 1.6308358093972606, -1.586004714749331, 0.5430175835454281, -1.3730954592135916, -1.6513250538901199, -2.8385827388386238, -0.49496368552939773, -0.1702968433727833, -1.6160735384157179, 0.27989292657247794, 0.2148672383421474, -0.0943393357292981, -0.6487188426596487, 0.7530761420556813, -1.2234172492824262, 0.5377863365074365, -0.18533093649092267, 0.5141087637636585, 1.086062987367962, 0.48274330683889055, -0.25894512868790226, -0.537050895408928, 0.1034360730229943, 0.8604692706234869, -0.5175564606069512, -1.112834775748143, -0.9021644036426092, -1.5054157177011653, 0.3872279989430098, -1.3990484120097142, 1.0214968391724182, 0.33183098454803733, 0.1264875459427033, -0.3820352579317776, -0.27629193815373726, 0.4543005953212319, -0.46685933293961496, -0.21363067176970668, 0.28701619405917606, 0.3618153049870505, -0.945551570584844, -0.6758824043754026, 1.5994554115488464, 2.4774158214140103, -0.7558175338699868, -1.4491431464147946, -0.1417733376533642, -1.0799705264999544, -0.6600451610423349, 0.4720641936839703, 0.012119280695679227, -2.3698723049661257, -0.593638220347105, -0.24989501503216976, 0.7367608335170578, -0.3001439295160595, 0.002146654857743137, 0.5242447348312566, 0.12573469807157567, 1.618389083746348, -0.2522413867782718, 0.42190839693494386, -0.2648324139484107, 1.8131247394048509, -0.31035213257190813, 1.07288776278911, 1.0307649436602029, 0.030643654817170726, -0.9718608961525999, -0.2723749110773392, -0.7208289297391959, 1.7193282915009778, 1.2178629845335318, -0.4388857199977018, 0.6000950923115138, -0.2998408919344445, 0.45307824038183536, 0.5302797825337056, 1.4156322268265205, -0.07925828512102066, -0.5153776313376333, -0.6919196159739214, -1.2864546721443502, 0.8354774019236311, 1.0813047115766967, -0.08852156072761623, -0.8375227900397586, -1.2803707203497787, 0.3528666851442196, -0.45671145060445145, -0.6762778969880614, 1.3568222917745083, 0.007795969480378734, 1.2893191569343314, -0.773499146779531, 0.9494784312664896, -1.452105544673658, -0.0111423111578313, 0.6314071294429667, -0.255055102307672, -0.3783514221411484, -1.0417976588155926, 0.4575725468829151, -2.352827894025657, -0.2699280523729663, 0.16583460869161692, 0.8133965681521007, -1.2757787422420617, -0.3333115503052458, 0.49690208601965236, 0.3414199342147425, -0.14397863433829308, -0.8156372677200837, -0.00039580950250772684, -1.032444550869995, -1.128338305173385, -0.15791989092720915, -0.5155295485933911, 1.3957942486746622, 0.6046839456318635, 0.022608102554891592, 0.8843779860572466, -0.14159930627778367, 1.249879018383903, 1.002691367093508, 0.36641526222537396, -0.8982387547136466, -0.7500337569275953, -2.3929168196098045, -0.8491856311070666, -1.2075234224639868, -1.386325835372639, 2.1837085938304486, -0.7542503775092372, 0.5737383208059709, -0.1900692683852814, 0.4535877738166137, 0.5515839895512294, -0.4180358971068742, -0.08845205373933075, -0.7145625274018862, 0.4131277972356069, -0.3168764107347778, 0.7375785078203856, 0.17901173835624656, 0.5752946497943325, -1.4645838657726082, 1.243832419682174, 0.5490715797366017, -0.9188684474135268, 1.5232141208727004, 0.6841938332733806, -1.0803021411206084, 0.13486678596738225, -0.03170025524350244, -0.5850696108783551, -0.7248396199479061, -0.7217966067787834, 0.27946683228452884, 0.008115919511615983, 0.31984794127666616, -0.49074176931582975, 0.9339731197855647, 0.5543243114999291, -1.0372630255178685, 0.7760731717975906, -0.466495646760538, -1.5159368221685816, 2.091302480554326, -0.6652029193068644, 1.1257885061831627, 0.30728213267391574, -1.1846279266281186, 1.421731558812353, -0.09100344152522269, -0.1245567279962451, 1.2676782177559947, 1.5314188166482088, 0.016691226913028732, -0.7944050968574434, 1.9938700622240064, -0.012165683120174941, 0.07143054987010561, 0.4945072411551253, -1.3981480336660699, -0.6720839352903036, -0.3181918887396776, -0.4949208717740584, -1.0790812626493806, -0.4141423038209292, -0.1789894364738682, -0.9761596532936827, -0.5519737229570796, -1.3552390842324678, 1.9319804213708698, -0.5765901370231407, 1.0763642437593113, -0.3924609281931691, -0.944937275482707, 0.6292614330040261, 0.9368338134780202, 2.367538134200001, 0.30215527980261375, 1.514602383171759, -0.34727180792717166, -2.3835595146329673, -0.18984119367219018, 1.149532256917062, -1.022127113835321, -1.445761805734785, -1.172787560768982, -0.1256584044572443, -1.3075593012545357, -1.475755126418545, 0.04702074180954405, -0.8852664254986328, 0.11958562963570953, 1.121174043909803, -0.7091769897984834, -1.379359982624562, 0.8628997911085617, 0.5706139661598794, -0.4961265326069332, -0.01765666675803675, 0.8404810180014526, -0.09090095342547799, -0.3192949652298094, -0.09824061696425139, 0.503975448150535, -0.10264786413555736, -0.3485173762266732, 2.1615665168389597, 1.4698628563556568, 1.3801484924741632, -1.3380262677271606, -1.8374635873084297, 0.48278845062190073, -0.7415229525292633, -0.6924265477911541, 1.3875812236682261, 0.8281050360848504, -0.3687516278089217, 1.374667356431375, 1.0034919084265321, 0.6292552262969238, -0.8648646896133199, -0.058316478586322266, -1.0923782628863123, 0.6860764709860727, -0.7682717634163412, -0.23752927339146904, 0.304376441534443, 0.9183939054983701, -0.5029438456914342, -1.846844155234362, -1.2229992889847012, -0.3857635920006445, -0.29267070060506095, -0.05473261107649193, -2.111829731761882, -0.44453506057047165, -0.4496592977405006, -0.46892941569707197, -0.2535482481586414, 0.7190036512062129, -0.17763516949415578, 0.11264172852026333, 0.8063582402007363, 1.0903569254078056, 1.0546033502244099, -0.36699254621380556, 1.4611703928994453, 1.1539440046265483, 0.19569356203732277, -0.9046815426860837, -1.4176318623859254, -1.208013435083663, -0.2767813762003896, 0.6798545289431815, 1.2353016287812562, 0.6823033302194995, -0.4426261077819534, 0.175466238804425, 1.9746826633941652, 0.8652561008781324, 0.27328667991452466, 1.0944666457501326, 1.082830336949581, 0.3793313506266779, 1.9367105094983221, -1.0513660621590313, -0.041712493486977135, -0.666399369984545, -0.9310347829374367, -0.009814211979843819, 1.7369388504130978, -0.1358777241678584, 0.04814479159388642, 1.7477716745083403, 0.25968971890945886, -1.7388236600232025, -0.386926111458392, 0.7987835152659973, 0.7187741978517534, 0.6809369042289488, 0.46965187260923896, 0.7074166826746361, 0.2884026874991482, 0.9295954291809179, 0.25528021660836436, 0.21363473448836592, 0.1706745948186526, 1.7358856261085542, 0.719453592955697, 0.11164631695396042, -0.824723765820148, -0.11901746734692709, 0.8908657463309592, -0.7222797605495556, -0.5177696772173521, -0.9157118884258689, -1.7726981572364204, 1.1530176718433482, -0.45905070179646545, 0.024349409446792633, -0.41926832890312565, -0.5510086637368907, 1.133520412434324, 0.5221275782260744, -1.0589132698669168, 0.30420718544347797, -1.2939347875576541, -1.3843496451179698, 0.7273618695768418, 0.20621663986873634, 0.399385576185962, 0.3787990084892159, 1.1744983977403172, -0.036938497915984726, 0.4422640664558954, -0.05410908175998872, -0.410849938814, -0.07715976976682873, 1.097336618843774, -1.4897106019968314, -0.08732322801552599, 0.4372892272396778, -0.09311904905598388, -0.02932802054214601, 0.891117107219049, 1.0082102697822948, -2.1311600237872357, -0.14680681253527636, -0.500259903725168, -0.7312304373600496, -1.353850442510923, 0.6951228318130512, 0.5781806747204747, 0.06021301720982198, 0.02236752560273719, -0.5149740311254044, 0.11807020934339502, -0.1727452282180642, -1.803347657587785, 0.4285960415048352, -1.7089601476775325, 0.21954870622997968, 0.20703638695462237, 0.6106687968074247, -3.1058704875409915, -0.03343969917246862, -0.18425311630021288, 0.2726478343514531, -1.948970775316533, 0.9884844142917728, 0.8860203353490248, -0.9379982125106482, 0.10035510488339167, 1.032888778168149, -0.7120737633427546, -0.1727945505076106, 0.7981699267428761, -0.0019177194929690343, -0.39138957733138546, -0.7515790646192828, 0.9345797232938041, -1.547666406143328, -0.5377509509350509, -1.0408053094925747, -0.8206636659023603, -0.3921055013880934, -0.6145651268939742, -0.36809605503196835, -0.12490119510998704, -0.3201967340004797, 0.5134639475264497, -1.2359927108064979, 0.1430235668973324, -0.7451053299684889, -0.3071247093779192, -0.1319015773666773, 1.4603349566309838, -2.286748493056331, 1.4865099696227544, -0.7392370238960303, 2.350468527500726, 0.9708454285108103, 0.7062914090181284, -1.0917488776498194, 0.061986219138362136, -1.4409319872710877, -0.3745495996027035, 0.8164456761118724, 1.339393553462675, -0.32951611818591775, -0.29607784017050776, 1.890278237826302, -1.5268634041785414, -1.4794268950668954, 0.7901260927472995, -0.4040747011795802, -0.6803571042680197, -2.5666847857816197, -0.6392765918218779, 0.08243455032632079, -0.594319928864698, -0.7407102232287768, 0.22901764705188682, -1.5928687089968003, 1.8676147954207776, -0.13169045632320234, -1.7966645895328333, 1.6444749425077503, 0.4565484239165614, -0.40847704375227, 0.5235036088452637, 1.3334826532427824, 1.4019518117035255, -1.403955529343903, 1.5203773233162996, -0.5825504314668263, 0.7794401740424415, -0.2566956173657835, -1.0781393474603829, -0.0178839288251511, 2.306895326294121, 1.637580676533572, -2.831558454377805, 0.20820253506028708, -0.8948563713405404, -0.4366875812027324, 0.514827347315383, -0.788212240337362, 0.47158457934776093, 1.2009371937054987, 0.21622481670448862, 0.7538617825667512, -1.1657893319795294, -0.2109495076009696, -1.6024365472096609, 1.042021508146213, -0.4109619014790587, 0.3807671800200494, -0.9496427376749037, -2.6757744042793603, 0.7752737747418913, -0.17249126136378962, 1.5742538650120665, 1.3078614542694218, -1.4460110065074911, -0.7309277355000077, 0.2834077456919441, 0.40833265114042777, 0.7644358938921678, 0.9654843262133409, -1.2078936059277614, -1.1179777118738776, -0.32991468517420236, -1.735841611381242, -1.2045178653357562, 0.8125355446564604, 0.32518718735155483, 0.07952438789901563, -0.7113358478739099, 1.5617941190877775, 0.791634254483311, 1.1293787391310952, 0.04725267665775265, 2.281920605666772, -0.9036695070015667, 0.026518504371190063, 2.227613911853106, -0.11844572670928141, -0.08109127362779943, 0.6270150822529736, 0.829868871514266, -0.24073517908763664, 1.1615061044049457, 0.4471305407862989, 0.7631018837204602, 0.8889968084274419, -0.8401033881118917, -0.15754764115857442, -0.5952156570154095, -0.44340187022581895, -0.6291244634664042, -0.6657596357598586, 0.07247048724514384, 0.4848855506293525, 0.11252571353786336, 2.2135248295910914, 2.491179303660264, -0.5309846436885809, -0.429389343690086, -0.14386870578882616, -0.19639637786793365, -0.5549890635275474, -0.5631813407226318, -0.10431979716332289, 0.4018045618478248, -0.2966246322696903, -0.12137442950795219, -1.25761777134488, 0.5947056172930346, -1.8290553580768587, -2.005875108981204, 1.624723456191974, -0.16090559192130527, 1.1143643839286894, 1.5546028350971637, -0.3160018065729304, -0.5203508379925635, 0.35685641029523546, 0.2513712385551178, -0.1947699796958447, 0.4053195570899285, 0.15374953208806313, 0.28347997234093475, 1.7054263028591088, -0.6778056761281688, 0.9122556041147868, -0.492871129540951, 0.24242916921142932, -0.2502925768952349, 0.1378483012484717, -0.03425100065506118, 1.0086581990461474, 0.32525259232806164, 0.04986325994646657, 0.04380996650952998, -0.8049277476907296, 0.307116942048818, 1.5418598043633163, -0.2485775549270676, -0.9480349385572372, 0.6589513095485995, -0.6716170592300221, 0.7669695161142667, -0.4370719893576811, 0.4012572860356413, -0.9157586026526933, -0.17337988407276067, -0.28023402137345815, -0.5649545664379261, -0.7967731846263854, -0.8426791351443454, -0.1258684898484686, 1.3447572983230929, 0.9941674744178669, -0.929941752914923, 0.7548055451029383, -1.4888218834615217, 0.6629347074760735, -1.391506827617927, -0.5337544642066808, -1.3136052143761436, -0.2891115355888303, -0.2304023329525227, -0.09175798199958159, -0.27473502399610905, -0.6659780468275649, 0.03757067063845057, 1.1744775276292436, 1.07386028627606, -1.4210591469733784, 1.5831731760035614, -0.127180223263178, -0.8444467293571534, 1.068873445901726, 1.4603227036003905, -0.3674396222073935, 2.2279287450577185, 0.35628588923718246, 1.1868794185877327, -0.6415077809999891, 1.020368778963551, 0.34277951864599876, -0.3789229037394932, 0.3530947931053486, 0.31497242060665503, 0.08396059591720717, -0.22898494991295917, 1.639586787300941, -1.2360277920943392, 0.8188666366745502, 2.1248235904173254, -1.2113256980569167, 1.2240173247546462, -0.7153013917348949, 1.162828375761274, -1.6344716362741718, -0.5123055064519815, 0.9800336248334065, -0.9794193463483035, -0.03229959041921602, 1.7024770702273495, 0.621489967789344, -0.6326262725434089, 0.0543379262079242, -1.0485441474595099, 0.10352265634285034], [-1.0027096687227077, 0.37261027406668873, -0.33881598342008756, -0.7150715470003984, 0.7808184704029906, 0.06120998189334544, 1.5498187578547409, -1.274689672020087, -2.350609731610235, -0.4994381418981865, -0.7621538706401684, 0.09118300484528925, 1.9887336073537067, -0.3894767247467195, 0.22200187036845975, 1.6698935383648261, -1.3386609425033038, -1.4214284348994122, 0.6529003902754706, -0.1755556723817718, 0.40277965201295274, -0.17916501317693362, -1.2607595440264858, -0.683873688006392, -0.8302651361642607, -0.29380146869572193, 1.7666070749975449, 1.058182575715712, -0.01787559839891525, -0.9595717717693033, 0.8374233345991252, 0.3607271588400831, 1.3155325102805047, -0.16057522148016912, 0.14868419592658702, -0.8633254128225454, -0.7598065975400311, 0.6920620720389756, -0.35601665268060706, -1.0330277444876244, -0.3495293350300587, 1.7586655837543004, -0.5270847057533303, -0.7599160686025087, 1.003945761617071, 0.400874690294703, 1.23045149392447, 1.8178492908071693, 0.8060030987280341, -1.6004903161619182, -1.0037855787910688, -0.10696787617582316, 0.6406022574870227, -0.9719632221295847, 0.3855150631966314, 1.2580662671826313, -0.5339424746598875, 0.08115911483999624, 0.05117988849098661, -2.0736915895158097, -1.1832062775384047, 1.8647143107853503, 1.29426819014977, 0.40683978751219113, -0.27317769504475964, 0.08470853742323611, 1.1153525493687888, -0.43003868690465197, 0.36733993543814464, -1.0550624502236288, -0.21160607750708127, -1.799250235418094, 0.25014757581011665, -0.874720694438714, 0.4650949087346315, -0.08528495672943784, -0.645525995504278, -1.5017780212523908, 1.6827902027458033, 0.4526089735111225, -0.4297739908486409, -0.2458387727381004, 1.0121770725841406, -0.33832445723690946, 2.380889418922219, -0.24871134847845103, 0.3340762250436842, -1.6146555207268205, -0.8779645495882462, 2.2151324650422235, 0.2205270545784626, -0.9247823197011134, -0.08385827339148091, 2.0158397564499775, 0.31338403087391653, 0.5696235934790909, -0.37675183996220185, 1.5713937815115402, -0.9190566357048496, -1.7862942903507495, 2.7778787983037923, -0.6310560253175124, -0.003619437185275014, 0.30310457870358737, 0.7855913721215287, -0.2414315568077781, 0.7250082174436386, 0.2678581448323556, 0.16119731902645024, 0.8384853817687685, -1.4591169148638736, -0.984646877386745, 0.1674871168966274, -1.2839507639686356, -0.03154475104582718, -1.6262084496249916, 2.2594382701613127, -1.0914459254592912, -0.7208104943422492, -0.8353993490641748, 0.34875407189154994, 0.7381721317706466, -0.43666921742106135, -0.09666790479553129, 1.9655187647190735, -0.6379908177837097, -0.6337888548458469, 0.8241096791224254, -0.10827691515995126, -0.5803855658013901, -1.0661383792197765, -0.5999929541227441, 0.13787392341146346, 0.7467080345878641, -1.6247956626415188, 1.1091571764665624, 0.034944146910438185, -0.7842585158521441, -0.09836385926740461, -0.8361008170754454, -1.7504552420099109, 0.06723866036308106, 0.191763594876012, 0.45259734649004846, 1.7680972399711112, 0.1761241973967046, -2.309546542997493, -1.5647345155936088, 0.3479331087155439, -1.5945289581282223, -1.125855315219595, 0.5637937573743939, 0.9477839613659382, -1.046123059697929, 0.765488821501692, 1.8745816525162349, -1.0036305953837548, -0.4938458920095004, 0.8610655543396225, -0.250326778102886, 0.23962995057322506, -0.2040165054670243, 0.31230138309011735, -1.950916206775135, -1.075735038811898, 1.1217786855811107, -2.220740984966037, -0.07568109451183352, -0.2247155857062444, 3.250967690363797, 0.07538699343406993, 0.9525738663074943, 0.868430401728949, 0.4162951979095055, -0.2163174937774942, 0.2947208742177537, 0.8632727935484757, 1.3076848010414883, -1.0608432520667428, -0.08634165749966206, 1.1720358505318775, 1.1947806116091888, 0.9281014877735387, 0.06576044292701705, -0.7844941337223446, 0.9328672938074126, -0.3151519510496443, -0.6234910720659143, -1.473810556758809, -0.6227397171205177, -0.5148124233580379, 2.5385504584511884, 0.25134881116369323, 0.7873118301723809, -0.5840296397774608, -1.9448665062277886, 0.7097134938367425, 0.7529817788219229, 0.5604481068172071, 0.9316212052724466, -0.9930533373894032, -0.44545910663874316, 0.5469665741229273, -1.329726836673406, -0.14818660589806718, 0.04344511678038648, 1.5155626551299304, 0.5286475174065889, 0.13635031000104672, 1.1869168930335892, -1.911922028230855, 0.5901754077224831, 0.8448305646411609, -1.0209205718212562, -0.2213247057937315, -0.6732744717951415, -0.4926668523830945, -0.4321841659586394, 0.816110534890706, 0.7570001321628814, 0.11307777617394699, -0.618042656288715, 0.179357751587738, 0.2279183533993595, 0.23585774791842373, 0.4032997070531484, -0.5940413609384246, 1.0834167569029984, 1.7371920110178576, 1.2573871089295703, 1.342383741093433, -2.2593548363756475, -1.6640837136976077, 0.5554577307711279, 0.7020000875268936, -1.8358997667666808, -0.7114215803301375, -0.42766866228203704, -0.3865993926048142, 0.32027593711713936, -0.026644711444165525, 1.0577748723620555, -0.2441614683776473, 0.30061087469987136, 0.6654046194904155, -1.4305963298706383, 0.3438873134176785, 1.5083653916519064, 2.0972163639928167, -0.11458764153619075, 0.6766248121564, 0.40369049528165357, -1.1954446496896083, 0.0008641947693716694, 0.4677687968371768, -1.807394613956813, 0.6813194407404808, 0.8218183755699345, -0.9934568294818528, 1.129450759382689, 0.7771050419692132, 0.8039707572079579, 0.5509706683150217, -1.247185626143938, -1.215953781000581, 1.3077386855792694, 0.47986390500295567, 1.8558475682403215, -0.5750449398420955, 0.06725574644023674, -0.531054938716368, 0.519918194458577, -0.4496237828355299, -0.3136009217689581, -0.11383469451314683, 0.5366733758610094, -0.26290916225992145, 0.3842575428124549, -0.30197266116487065, -0.6565770146012646, -0.07316638006408237, 0.18872088159099626, -0.15696418880236515, 0.9257348172380546, 0.40582901285655537, -0.6813160880878657, 0.45568618764205376, 0.9070040318644451, 0.5737580142373558, 0.11599050746736156, -0.49581112855705334, 0.38656961895672387, -0.8981915073280623, 0.5733233691831016, 0.6223821483529498, -0.11229146377481801, 0.8920298858425366, 0.9331837765293994, -0.2282061910201976, 0.9840365463952289, -0.7189952610543165, 1.9893501802081974, -0.349941558707495, -0.6816871266772507, -0.9062739633662309, -1.8158418216571424, 1.5399586500614557, 1.1340951752433253, 0.7870226809722907, 1.06696181270023, 0.4715274153050427, -0.20323842315394355, -0.6153608667789073, -1.3617890645966584, 1.9448194721988235, -0.073867060997862, 1.5871772662648138, 1.6128894820561157, -2.211184235224745, -1.5524148486308942, 0.1663469451742836, 0.6979206885448568, 1.6925698445921147, -1.1322684993677017, 1.2250458135092386, -0.3767815941017445, 0.2591952504477772, -0.2619058779679857, 1.9830954549586883, 0.8338464698294306, -0.9293359207057281, -0.6630103629746699, -2.1483225550300493, -0.6880345370631381, -0.36436914662253594, 0.5996295351817473, -0.8388831556171702, -1.189362215335125, -0.37180220200568026, 0.43244400090340707, 1.1010164074520759, 1.0277943144349047, 0.49021249112705156, 1.5723322553487964, 0.06929936923299149, -0.32770204706520056, 0.20310293963204196, -0.1577558014681322, 0.13772821075654068, -0.09378625951410047, 1.1343930252905752, -2.08468721092968, 0.6113769994245578, -0.1488018742540059, 0.505234291013001, 0.6626567666723897, -0.8131516857524183, -0.430746004425553, -1.7229602757591742, 0.6950746237465235, -1.0811389577453174, -0.8096616453534246, 0.09309644722162506, 0.09067231594489898, 0.13744084130343653, 0.5388116405503922, 0.12153854092453656, -0.2681124123004468, 0.15349433533923743, -0.753298372993145, 2.1487449677079695, -1.0497643694870729, 1.295691343775021, -1.543642963361457, 0.5893756277043205, 0.537322395988639, 0.2985163096369312, -1.3293683986826208, 0.3351380142042876, 0.02068312535517241, 1.9257958407430145, 0.021641589033576644, 0.007569330468595979, 0.07861645426224965, -1.376927560816513, 1.5509608766182748, 1.4306574351541563, 1.0306902910229423, -1.2200294481592806, 0.5155200243685008, 0.6965566928565566, -0.8992680179264368, -2.1742735387436882, 0.5226891253852611, -0.9352136816730876, -0.5670293193504472, 0.18780872304729598, 0.6927171189760869, 0.8991849277285501, -0.009429345970899866, -0.43690827798232573, -0.12062456400691915, -2.062803044477139, 0.15194826493598027, 0.19049127018995984, -1.5762650552018105, -1.2427410038581441, -0.3438271973503717, -0.1657788423109199, -0.48973741941371685, 0.5203200196383369, 0.5698326506588232, -0.18605969467084452, 0.20194663902034848, -0.8646767223955565, -0.32060912192410246, 0.9524886239517087, 1.6300169192644285, -1.3871741149002743, 1.7707339161583902, -1.32781325904541, 0.2601852125781469, -0.2502292851588406, 0.46187492935373126, -1.0658607708164802, 1.6668922002277566, 2.1909152937828096, 1.7185652027592822, -1.7046170658896398, -0.3755541269552158, -0.9103795697006153, -1.657297697081421, -0.033929886859608675, 0.5242001501791154, -1.1509423462921509, 2.0591029354276307, -0.2793052372635475, 0.32860764090364974, -1.6113786038515245, -1.675475236200725, -1.6887153783534599, -1.7819547168509546, -0.9654797901535186, 0.6162899079589278, -2.4589170374383786, 1.1201135592542923, 0.35823317182036196, -0.9667402734162946, 0.01870573257005155, -0.04843353179419227, 0.5954918993141479, -0.7561110646666085, 0.9685348513803914, -2.217084503970692, 0.36281261485523614, 1.6092503263440996, 0.5440467935294181, 0.5646702237111675, 0.5846329323713605, -0.32451366434254486, -0.10704211545952114, 0.969000580727532, 2.281272604078898, 0.4385398322025999, -1.5164506285674872, 0.993841478070058, 0.3386279049184509, 0.41733788217788315, -0.7464610405662991, -0.07746231859599231, -1.1674306974141182, -0.027718148936839108, -0.3228870714937595, 2.259327873683062, 0.7327090763400346, 0.45448789889947866, -0.38490501635300817, -0.8650818067770393, -0.24460410775513813, 0.46300145208954024, -0.4564009017018045, 0.4316041547492134, 0.9181975141208664, 2.027806895950745, -0.028113685405049754, 0.9760822556544797, -1.3132760916770847, 0.6917164869797623, 0.20896389225324463, 0.7656037725223405, 0.9652768781309397, -1.477489135466024, -0.3719697493849897, -0.7713753366395689, 0.6886927806096126, -0.7019768847489827, -0.9528543327684669, 0.14086169202320242, -0.42015583923380645, -0.2554196179919174, 0.20224849059493027, 1.2313932885462044, -0.24248026416923743, 0.9912791627469947, -2.0249619337173015, 1.2944826462043932, -0.31349995223460075, -0.2635182510023675, -0.04057585688551634, 0.055701733047529296, -0.3156680753024954, -0.0006201764566110849, -0.2595047050359736, 1.1161704584689214, 1.7170553229475298, -0.8934486860321444, 1.6289656992702592, 0.24577750066292953, 0.9657846003198546, 0.6126340650682883, -0.013376257499667756, 0.3238371473348289, 1.0024186785155151, -0.5671583900735676, -1.063208978374072, -1.7884067996269988, -1.5412008304796574, -1.3880002487484386, 0.7221959122556336, 0.4046103438902109, 1.2942768905822781, 0.11575634384359157, 0.7454549231432814, -0.3179649485701334, 0.23608926738440714, 0.35042452006032043, -0.8185031321190738, -1.0995932321322441, -0.5399106646683988, -1.1635536094493233, -1.1546408205224643, 0.14873179183081103, 0.9857170210161423, 0.6681040062563124, 1.0479907779744444, 1.3170328177602566, 0.0712410456819819, 1.439343575420674, -1.4191111820066264, 0.4956095288391543, -1.433870538214102, 2.745381750278741, 0.354578611426164, -0.23945134317892408, 1.057803490150385, -0.8020000909992794, -1.5575622656943255, 1.8100265270649911, -0.805353561904922, 1.3903541183359527, 0.14009544337171492, 0.006021090676729772, 0.6806635574094629, 0.9411833360374541, -2.5319806168552716, 0.817577962293162, -0.18756365279429538, 0.10865692410898677, 0.8798045814382346, -0.9324059205151878, 0.6009098964468883, -0.9227511727881456, 1.1920291292168503, -0.517326474949933, -0.026336874495772242, -0.40307743256795087, 1.206579161939237, -0.6598510084781788, -1.165279596516421, -0.5380781523695365, -1.1980654730236686, 1.4848567027902853, -0.022665809652664452, 0.3046942793230296, 0.858810600918306, -0.24569012353340414, 0.15985515203752343, 0.8443975278982376, -1.1406279087294007, -0.08826768143103363, -0.6735573536962983, 1.2085090055555758, -0.002316820554939668, 1.540283274119239, -0.33348678894836764, 0.5633013475281918, 1.1836854464173245, -1.2363449649590454, -0.6613006552917484, -1.1464478798150237, 0.550430277634986, -1.4046114998114758, -1.8327193038568668, -0.13583622893245975, 0.5854598567805881, -0.3805643882335804, 0.9489954183127541, -0.5085815768484677, -0.4578305238769244, -0.4898785719719112, -1.434609506046023, 0.8249644108438962, -0.34828647752666453, -1.3773420848165876, -0.9129248751089597, 0.1593226054218817, 1.384215574237493, 0.19815175972047563, -1.2122366795585948, -1.8427538401087538, 1.1951555412127546, 0.19491710188173153, 0.471030168572266, -1.0122525898655008, -0.2655066035945453, 0.23971101088870936, 0.946553412859228, -0.46874565233946364, -1.8444675608048515, -0.04012913653178473, -2.2459594171967017, -0.5814810913099391, 0.1717699561485842, 0.25144773811773136, 1.1217477541361798, 0.12658515095113382, -1.5839363749916673, -1.2066357777509529, 1.4356785712986277, 1.3448915682698568, -0.062254236116148595, -0.33881816705685386, -0.8597312280566493, 0.3004065744647775, -2.463701727869208, 0.6146718880907943, -0.4667178410283431, -0.03608228646723206, 0.6100443669918177, 1.181767220676599, 0.9567003986347076, 0.7634250473133207, -0.5028169348795914, 1.0338539260650312, -0.9267733587968732, 1.9623872505135802, -0.26146412530713303, -0.08442678223929631, 1.1479835744961289, -0.9369969207516752, -0.21198992233503286, -0.5253049264622903, 0.5118134937439583, 0.800581644228427, -0.471776368376802, -0.5869860651770261, -0.48652710782563513, 1.1990737649981769, 0.724509862955591, -0.06682514341469299, 0.6437709494702263, 0.010404118338943424, -0.13468548896877947, -0.03749836348959159, 1.4410267570913486, -2.253980811266704, 1.384008579059802, 1.0640964649646483, 0.6316535773096011, 0.03831769017383609, -0.5503536352061936, -1.1031914659232953, -0.1266627711148317, 2.1897331313970856, -0.3946987494424299, -1.924570546902887, 1.0204225871961021, 1.1503582304693183, -0.5350919971025769, 0.11921194723894586, -2.489413870715487, -1.2385403593453101, -0.4981928460982432, -2.280067630558748, -0.22711652234477264, 0.44380538556682736, -0.12919862663723766, -0.5120484933509585, -0.1949962122839048, 1.8429062914386938, -0.35265621698355115, -0.9829311673731017, 1.728500848225547, 0.6995570751467813, 0.37053580649986945, 0.25544511342690474, 0.23860252622080047, 0.42850787074281355, 0.9970158901389937, 0.29742094464911245, 0.3757411952903186, -2.7850736835328553, -1.0074457012270015, -1.041224488836455, -2.1063582196998185, 0.6097273892259194, 0.477932373085168, -0.009656100828762273, -0.9925394352992163, 1.8057836058916548, -0.7096746903179023, 1.0785505970621083, -0.28346624838154366, 0.05130728278760215, -1.0428070204399464, -0.3913316727029623, -0.935099710832194, 1.1374473248957642, 2.7410188876899384, 1.9615178568675808, 0.618849285555484, -0.8761606385354589, 0.297867963837007, -0.755352994488996, -0.6645589212049886, 0.6678942736807968, 0.6037852757111919, 0.15872450743727312, -1.6596822791723755, 0.32123009867332014, 0.97178005277129, 1.2350669404252577, -0.637751993860181, 1.314022838675179, -0.9584956496532872, 1.083293344999067, 0.9695539914302936, 0.30867177667360884, 1.6037692053274981, -1.9535762065749294, -0.1260105424575985, 2.832315707437118, -1.173183255750894, 0.8325376906531842, -0.07283226459339405, -0.7970599816278606, -1.0217287123927348, 2.6182109224324845, -0.02448026331072194, -0.3404915422764697, -0.17131780136910021, 0.3674010022834497, -1.8686148535779883, -1.3980880706043817, 1.3479487676103061, 1.1941666956957404, 0.10104912395148015, 0.7989844840906783, 0.5484869554522617, 0.06128026916288368, 0.04976559595397472, -1.2346793570321521, -0.3695695174504274, -0.6381096041411819, 0.22538841178923485, 0.20828906545739997, -0.40772768746480775, 1.2876720895702347, 0.23971041253823744, 1.7507316373775406, -0.6057753342437854, -0.10765454935889018, -0.3469242599985426, -1.5075774815828966], [1.1625688578321707, -0.3768282670821721, 0.28600318578161815, -1.1152543868603941, -0.14925663968455563, 1.1042300730135783, 0.8182174616845939, 1.1301260135965912, 0.9602079138921467, -0.151363423459521, -0.4889273744858559, -1.294577533342649, -1.6886382580815744, 1.1889770324110611, -0.4791978519077981, 0.4523693290443594, -0.9506619620333245, -0.6770218540295474, 0.9136649304261483, -0.8853294927268527, 0.05356825074531786, -0.296394351680695, -0.9761405657742345, 0.34311291451330206, 0.17022077817271955, -1.202775988464588, -1.2269544975379583, -0.31227864694122787, 0.7225222881493137, 1.3673025917027017, 1.2762016149483948, 0.42082435812151636, -0.6664149166088597, -0.26879021087434635, 0.2671390054481158, 1.8482627127673243, 1.6266074142383538, 0.4471391344453556, 2.661112644205536, -0.2811965736977231, 0.13363309570519724, 1.4012681438035774, -1.7655796990358597, -0.7129134761337882, -0.5840732617966561, 1.5862246259133967, 1.1896663081307202, -0.40272815636255377, 0.9371188343442464, -3.158961398253581, -2.0857443977078964, -0.07598209964258582, 0.3115105174272024, -0.4794373392325431, -2.0320895117066575, 1.604208895706508, -1.7714637437073772, -0.4383489655912702, -0.13263474963213298, -0.9604053940336404, 0.4780952260736664, 0.3325561117814615, 1.6844206778432123, 0.2113379775560606, -0.6173127755142186, 0.07643152020379397, -0.4206490326884188, 0.026056653034860176, -0.3901225713070536, 0.4992165113898905, -0.017746724416336488, 0.1082289003714607, -1.79774745615037, -0.16771479980686602, -0.8760312010565137, 0.32738511863774855, -0.8423676778049527, -0.7547172157604853, -0.26142027869471574, 0.22027981321000906, -0.5001228716764231, -0.900659243731698, -1.3116245750626467, -0.8806185379717512, -1.5770534759044594, -1.5022145072500412, 0.1693019800483229, -1.2506280512532773, -0.9486103395104515, 0.019083628354521008, 0.9411009946226204, 0.26658603793219476, -0.014884084966105179, 0.6256165622513993, 0.4137992718004944, -0.9054102105018023, -0.38751341244160115, -0.106125269179789, -0.6922109601497042, -0.17137608623880743, 0.7254671515218691, -1.3966322134260338, 0.6130671656696105, 1.1178433126234473, -2.0061637177471647, -0.8680899391021464, 0.8952207486407436, 1.0641390581884365, 0.46375751642264446, -0.8172972799617374, 0.33841953256412005, 0.21370257279812063, -0.07105467535880375, 0.01601140412117724, -1.1790859488985477, 0.14699810600531715, -0.8620788117165353, 1.1961354570717984, -1.3206190683072145, 0.22373700529140583, -0.48747346846668155, 0.24044167628138188, -1.127711486692351, 1.116591535126382, 0.6648976990944805, -0.6124136235964664, 0.5703987872299361, 0.22092010825873012, 1.4404017330801546, -0.9789644089265962, -0.4297213453128236, -0.7619974479177596, -0.4226902668828524, -0.30892068683699586, -1.4723236949324179, -1.051389017678647, -1.2240355095961886, -0.2777342487902095, 1.5175485986168922, -0.12289191175106803, 1.4591428026834121, 0.6091008841829061, 2.9676026715756603, 0.945519805749445, 0.9683818087282815, 0.19176459517603456, -1.423249510752053, 0.6310993310004553, -0.10203463252254116, -0.05130008612396561, -0.19704034610654514, 0.07774766344774056, -0.5363083869080061, -0.8292751556214107, -0.6771584530548939, -0.6391890489721487, 2.3773921996708256, 0.8598649717110963, 0.5342898724166889, -0.35956243124930465, -0.09341039130423322, -0.5963127528655752, -3.3228730150056633, -1.216765684739925, -0.07433074651342439, -1.2809029357426127, -0.8002702149066051, 0.2719872572534191, 0.6206003759529953, 1.7493179997499397, 1.391043419751787, 0.3344289791840155, 0.052332673229010127, 0.9834504742508589, 0.18495740413373707, -0.1398710213964489, 0.17963453718630548, 1.4000613218067741, 0.4824746616689316, -1.3755820812350437, 0.4591108491216139, 0.09768441626592105, 0.6685880092744101, 0.12162609824566431, 0.21215712099217807, -0.10200313513027646, 1.3552075602757465, -1.483785817981438, -0.4591684198856666, -1.8355777369413315, 1.6980770263252967, 0.10510725681130673, 1.658725560237836, -0.22605362692038253, -0.0670788023129282, -0.22099390435523147, -0.353769688175634, -0.4558309471683857, 1.2833981208353928, -1.7171529121198532, 0.3715306687895303, -1.04526755193787, -0.913244715071532, 1.654224948621607, 2.01337493642257, 1.548108242615806, -0.7910627723514594, -0.20475578685547638, 0.48610849239744663, -0.6669372587754278, 0.24192282047595418, 0.1946196955071626, 0.6356616950438946, -1.5312675990361213, -0.15874207252184114, 0.01728587086142951, -0.14544352669066726, -0.15116850200560542, 2.0100556207435227, 0.6773353550915956, 2.4564713436273307, -0.2681090148937657, 0.7620908142417945, -1.6735798139267883, -0.5512232675976555, -1.5395936533321533, -0.4016203034718267, -0.04478993961985061, 0.15382075034870438, -1.00065628280375, -0.13826672855759917, 1.3113018145554673, 1.4072740588414712, -0.28314129530176607, 0.2030702345747932, 1.0443387873313006, 0.5511774559116079, -0.9198249303453992, -1.2243886401123536, 0.18134397909487593, -1.5178921901188944, 0.8407529509783985, -0.6449181994377852, -1.0468869621244081, -0.7336224155257483, 2.0566338385489447, 1.1629303785563472, -1.7664418374917366, -0.9205350768018634, 1.432468655487957, 0.19459509438024342, 0.8003608201648013, 0.40979836145506476, -0.42476625727492595, -0.39858165978197724, 0.4955241645424033, -1.6993913125595412, -1.3276942430826137, 2.4346454286036296, -1.65913675358497, 0.27161420012196563, 0.5924967265277052, 0.8343286066795905, 1.4074873581728906, 0.6798284882567684, 0.7034082536398393, 0.5241215322734383, -0.9458597358502164, -1.1674140999427913, 0.35890866576145214, -0.628996743651693, -0.9950499907205599, 0.9252334617714046, -1.4684597548693892, 0.24542299919274094, -0.2672884533613986, 1.3470837931691393, -1.294180373891425, 1.4565702717210902, -0.6126775784752838, -0.9756444607695377, -0.28726713388584646, 1.3001581427126103, -1.1768660781150944, 0.46086592407779653, 1.1243481386117589, 1.6601462668943667, 0.8496271174206174, -0.047243740774604207, -0.605026977717106, 1.0480219894194276, 2.1170876470076454, -1.4759221617487994, -0.478774969780263, -0.05777272182140301, -0.7357295143421606, 0.8416984039747226, -0.4594785301714441, 0.0008588687118666845, 0.6633335938987446, -0.3663329088880311, 0.2751146215925373, -0.9171527235027795, -1.0599709511693929, 2.084534517441779, -0.6171194976575824, 0.4317604469303292, -1.1138742736088674, 0.8880061085376094, 0.9785292317231906, -1.5108394226413235, 0.15172887441018676, 0.6154411126567375, 1.5909687415067502, -0.3391079864470727, -1.61051609362407, -0.2773632899306226, 1.640925713333927, -1.488777471016106, 1.6745596071915911, 1.8532788230495552, 0.7250489677216609, -0.5695545313125172, 1.5562084314669464, 0.7796536784246235, 1.1258668552525009, 2.1775983383857778, -0.946704741654151, 0.16779500078324233, -1.1237190692103844, 0.6288680225170286, -1.0648319150120575, 0.6908224128887513, 0.5176647884359, 0.7061829262141721, -1.7800834906291234, 0.3992550731472467, 0.1205390840212066, 2.347033274596093, 1.6675858792886111, -1.1396565030600534, 0.15837475820152816, 1.788751770815685, 0.1469264293629312, 1.7956028571801987, 1.1574578313608828, 0.2675928401741525, -1.5151690732985743, 1.4494306514372146, -0.06316655246450596, 0.4403218146583583, 0.8814584730167746, -0.16991722505058643, 0.5938353151389771, 1.7269901838736634, 0.4489671793386271, -0.254751235190654, 0.32281788902886505, -0.23230340784579553, -0.7460451808138485, 1.0582024423446326, 0.4769573082116555, -2.21814685983586, -0.6343073629892091, -0.47973578181462834, -1.3087307916573168, 2.003220994822267, -1.282557156795419, 1.5251678747925093, -0.5805902343352505, -0.7414350695009598, -0.5713701471669912, -0.19312458486879694, -1.9570215730008194, -0.6765274400342993, -0.5536519492521519, -0.046805236777399145, 0.05730064618113895, 0.5349166749923571, 2.2302807530708577, -0.35325182536421323, 0.5074733695975453, 0.15363353736747343, 0.7941353059709331, 0.7874207754879035, 0.3193632038923924, 0.8869523246850538, 0.6606070810780742, -0.16822263470617344, -0.7576594447639086, -0.3100061459862094, 0.9086552928783209, 0.05923567267133066, -0.06383372485478765, -0.34698561240265635, -0.24756262442064686, 0.21458506632246105, 0.30929232800213696, -0.17095976831972637, 1.3768733932946093, 0.4345776801398256, -0.8438468525134776, -1.1339419093251937, 0.30739507514749664, -0.31699699261139597, 0.2051938738593472, 1.028094333558635, -0.4091711307390113, 0.2536674223852374, -0.2534176287532347, 1.549116484304063, 0.4728517084345661, 1.7390817325809422, 0.5473448268761344, 1.870369701128343, 0.44339479140498184, 0.9773062469029635, 0.9735439217222206, -1.1042405304682572, 0.23204265844829572, -0.7405163652554559, 0.24761752038927298, -0.844864442995498, 0.8430290850756403, -0.8326343852493595, -0.12081011545436644, -0.3082086215370597, -0.8583566721491264, 1.1490310758843016, -1.2520138343814304, -0.20387647890170632, 1.3539131882195499, 0.9911596088585626, 1.3815022628197562, -0.9457324722185906, -0.1558814546194542, -0.9512728076702175, -0.4892567959002604, -0.038806588049041774, 1.7452352730795353, 1.2184441709917875, -0.07285990727408292, -0.48005473517785296, 1.0100135753528792, -0.7716176095015391, 0.6813414956659732, -0.18772089947788412, 1.1594553514041344, 1.0693370174313028, 1.0197621222919828, -0.9155368595363855, -1.2128283261122066, 0.19971527459120034, -0.941016749391757, 0.8109495830803196, 0.8022546038612587, 1.4505012629621992, -0.1119281808141164, 0.04358743588442293, 0.3708696905529935, -1.363146233202892, -0.9441037017955556, 0.8371979977341213, -1.6935354202319168, -2.1425094590417286, -0.9932082711715359, 0.842889916607007, 0.5498495546184381, 0.5431843631543166, 0.9552341357340882, 1.1143908838507688, -0.7940963723405774, 1.0624597145798866, 0.6493456300089101, -0.6944453473847302, -0.045523135613164976, -0.3496458407162947, -2.0266323194000355, -1.7472116053643887, -0.0633746147051111, 1.0569801009338622, 0.7283316821276026, -1.508496081864916, 1.0840407492448654, 0.4762616746481366, -0.491936430603414, 0.10248706109993869, -1.0820016240103796, 0.31124002746055807, 0.9989638983236823, 0.7675859198903067, -0.14276441609784352, 0.5405418087744629, 0.10829152004112941, 1.7673342107333212, -0.5603839937469004, -0.22165086428861697, -1.2169586891987694, -0.22692472539887815, -0.16672205620182845, -0.47487168814940034, -0.14730189475390698, -1.250667961627838, 2.5002685408748277, 0.054904266938626836, 0.991017635201706, -1.0004468800967463, -0.11580850579867709, -2.3455297081316386, -0.4019982066760329, 1.366327538180417, -1.1832522162872232, -0.9086621219729708, 1.5424789843757516, -1.2012588169773664, 0.9497061209041343, -0.3343760320062225, -0.2611203004024269, 1.3557176551678036, -0.03183474502506514, 0.725587635853976, 0.27606743541934187, 1.3998997548306145, 0.293911022802224, 0.5656491482097926, -1.069044911734242, -0.5566603074858708, -0.2557307102903771, -0.9723215316101769, -0.8779271129954519, -0.44871475675634503, -0.9312956825252916, 0.8198045000366454, -1.8117148084571189, -0.027007376652619614, -1.1811138638312215, 0.9208910883751387, 0.10574397940001687, -0.27644322754722267, 2.0497302082389663, 1.67330950234261, -0.15520104055124315, -0.21905809193275963, 0.21248326335984216, 1.2718404668524583, 1.2890235111920292, -0.3667030008464593, -1.301222612111175, -0.4214550170666131, -1.2113835749989843, -0.3462541075055689, -1.159232012834865, -0.2056559292662489, 1.2307569461628984, 0.5955402274477863, -0.8083621995926521, 0.5108204819752016, -0.38036803242634804, -0.24214364820403003, -0.9281522926739355, 0.1753665434026955, -1.0804971154884397, -0.6167142677445231, -0.5578453796478942, 0.5323916964582032, -0.7174820847765403, 0.10078318105021364, -0.2633786872058869, 0.4163204833919538, -0.354956332638287, 0.1699315779967436, -0.7437182478205602, 0.6998840757005996, -1.0016314021482098, 0.1042440686367708, -0.4536987913190863, -0.5712198422741349, -0.3133430686099197, 1.6441545274989302, 0.7404356014318506, -0.006348174474117252, 1.536327401434655, -1.3440118907899037, -0.04808429100591342, 1.2869954716053418, 1.5878991041765662, 1.024023895322875, 0.8161163426589889, -0.7615404178672649, 2.445485268858231, 0.5619728824888096, -1.122509494304147, -1.3711027736390535, -1.1135647183954835, -0.790934580184555, 0.11982104516361483, 0.9381046662463022, 0.5141326039822315, -1.226996687041435, 0.9884352498357958, 0.4138387484859652, 0.17384615492418537, -0.14107335614906952, 0.555581998148608, 0.4673476311321171, 0.6078300178666832, -1.1993366737079487, 0.921582326635635, -0.7967920344465941, 1.0596064408098282, -1.1668657669854219, -0.7932574292373035, 1.1954589188323659, 0.5136946666626373, -1.3448811177465267, -0.33953925226160553, 0.8285774482716475, -0.7915387237800047, 0.26129083946448955, -2.9066598254036684, 0.4681166885721345, -0.20277865792499214, 1.1708999774412483, 1.0124653829075168, 0.9827841275016043, -1.7566607169498452, 3.2740546335056258, -1.5278700332559343, 0.019174570987639035, 0.3367293366867243, 0.03886635029823674, 0.9446458517008383, 1.2972924922148206, 0.1969076582126073, -0.2593225132152705, 0.15010235550400344, 0.22602640622149836, -0.1989631081256276, -1.8081280261214805, 1.119238542964641, -0.8960880505742171, -0.6919132618135831, 1.3406733595431153, -0.4451290572778334, 0.43836198236596785, -0.9176906741566273, -0.2789946706756615, -0.9705197231019479, 0.4955583253896044, -0.12363224104060383, 1.0649816337314308, -1.249597251226348, 1.0367771268023944, -0.8554166391812332, -0.594913421289723, 1.3526882253837995, -0.08908925899049777, 2.585344795937291, 0.3601817780159345, 2.882096062140341, 1.8109770476152414, -0.07327518958719749, 0.33325590135324934, 1.0821422342464333, 0.5816944815168881, -0.5173099456438323, 1.091172237202024, -0.2112776678617863, 0.0953293448367909, -2.4451369379415477, -0.39819526218421103, 1.1687534247543037, -0.25044755919626294, 0.44072733189694224, -0.5953012964588469, 1.3746323519479189, -1.0753212896477293, -0.8314881021316768, -0.21767768467096446, 1.989818317608967, -0.5626270795696154, 0.23110440565809323, 0.7039959307131148, 2.8054735268670408, -0.5842958601648973, -0.7773249844949971, -2.698744009989575, 0.2712102483463976, 0.6111156390180037, -0.5236012619531264, 1.7486559652165694, 0.7995510172640283, 0.27455244112971816, -0.7214155559485675, -0.4517703329375394, 0.13367093506592911, -0.8592473009771601, 1.0678475693374667, -0.026797154332945525, 1.031830935388161, -0.7168141723124845, -0.936879968755335, -1.1403710816650263, -1.5802002079800408, -0.4000292227906389, 0.5371910560322677, -0.7053722435204285, -0.23901274246953713, -0.267385824967112, -0.19696389725888616, 0.03968194876486758, -0.8723645731384362, 0.5643975280389095, 1.5604874883284494, -0.541828826483862, 0.3640245555129652, 1.316333012255551, 0.887412893267029, 0.2184402505731848, 0.9505068749657433, -0.9748761325525215, 0.3347374384647181, 0.6544222444648558, -1.020240094765099, -1.3967034776123761, 1.367481600390498, -0.7775988670961574, -0.5804287637097437, 0.2679556806386889, -1.3782247032360275, -2.1767137324555565, 0.2033525528772794, -1.7665646868596254, -0.8312509676452907, 0.5101502768400933, 1.0630211600077881, 0.8136229683937682, -1.9753685972912582, 1.1524035393519854, -0.8126206911493306, -0.17159422462433047, 0.9461381460529669, 0.38169950989623064, -0.8541634954060678, -0.920627267285071, -0.250053456257141, -0.6181605055336696, -0.9254989749236392, -0.02528838882067888, -0.21537348329488182, 1.2948177862779529, 1.1219897664916816, 0.6324172231916874, -0.737353701710011, 1.2330656069682193, -1.6266518026877779, 0.41946828821711846, 0.05157430845955343, 0.7836029396794542, -1.0639944418558798, 1.0284503555780624, 1.3853411151486899, 0.8483465661524162, -1.4812156743313896, -1.8304070069291267, 0.5092784158333937, -1.2087736975008267, 0.5409468049363678, -0.1296394945648168, -0.00592347587395053, -0.1634849804793362, 0.34283106555275517, -0.9425240806951957, -0.87800499270993, -0.5530238266939433, 0.9407440103284356, 1.3604864768688294, 0.7424339212166101, 2.639441689592817, 1.1239626207273485, -1.100209073098712, -0.6652423180319782, -1.4367452541334784, -0.9498780452107777], [1.6959891629925543, -1.8338548286535612, -0.36882446182892364, 0.8053303104752964, -1.3257071366428326, 0.6238748956859033, 1.0270918791458619, 0.07604715875082399, 0.8380241975552372, -0.47794667218284703, -0.680497917026505, -1.5323545768508904, -0.6465277585964103, -0.9895957135388044, -0.7514514748123858, 0.9739355821967892, -0.338502830585988, 0.5018585743943534, 1.3727656599719793, -1.6120558954795834, -1.6271275377237393, -1.473017043981868, 0.8717805956630219, 0.9141270177794842, 0.2929747402742032, -0.5056358009570547, 0.23209015810233824, -0.5444048301627012, -1.4780040955855422, 1.9520850537513463, 1.140352079759243, 0.4119414942601625, 0.3539705781925823, -0.17651686905456718, 0.5680510954409206, 1.605129844302598, -1.6233357744427903, 0.36861150158429123, 0.26151946120513025, -1.9032293131067708, -1.309036779948093, -1.2176687406068094, 0.9687832069318004, 0.5505685026484795, 1.1469960103883738, -0.15420857959548154, -0.08602417366242535, 0.3816747687542378, -0.17298636668978457, 1.2463425950998503, -0.20661266871255496, -2.10683201406018, -0.6215528800209992, 0.1375005977264693, -2.1172271944398684, -1.4605719915121356, -0.29226001695282167, -1.184381485868872, 0.13753156981383213, -0.19347461666533564, 1.7739354878729527, -0.6920592274090407, 1.122303685058462, -0.4370940425890941, 0.2399426567051558, 1.7248072862794452, 0.15270037911916892, -1.07014126452496, 0.5975175108908245, -0.79813156605802, 1.7282982191963545, -0.5447223955653027, 0.13104898794630818, 0.039922857331239875, -0.05215536340596866, -1.1213760962549353, -0.13803889751960327, -0.20279212166500954, 0.09510817257509976, 0.1347441109233263, 0.5480489160958192, 0.06362248845317629, -0.4668096438615342, 0.31775311708899606, 0.22707015121273064, 0.07169614008729729, 0.5606506967393305, -0.8416450962513817, 0.43003888050248185, 1.0843537294541086, 0.21843464861628875, -1.4421229208832451, 0.0034491513448706304, -0.81332126771974, -0.1303926104879725, -0.3063184714128895, 0.413254042697292, 0.7764058134377022, 1.425008646480042, 0.6056527095809086, -0.26085862045071084, 0.7839270600336453, -0.24115169052781826, 0.2396282085563219, 0.006959567636330412, 0.3622495068324761, 0.5952751397837291, 0.41847100577389007, -0.0038876298063415474, 0.9964606666213721, -0.5190267801082469, 1.7752923993088243, 0.9473468602418763, 1.8743585447980429, -1.352255997139991, 0.8872788278123175, -1.1809152869663537, 1.500877889532734, -0.6151849454585324, 0.26679595666199835, 1.535212189456092, -0.6468652088406646, 2.0945404653774067, 0.24996838148201778, 0.23229930306622226, -1.1751310780890283, 0.15395730737127208, -0.4358983538277392, 0.40354740873928957, 0.4323387918851633, 2.952789053173607, 0.16805326896434566, -0.09242046910355954, -1.6464213017921292, -0.6910925578621876, 0.6796172058506516, -0.9627071891846721, 2.1947775026880243, -0.1887801259650667, 1.348961869698453, -0.22494011511067544, -0.7744603244658205, 0.04112763904957628, 2.082009655226267, -1.0942969063720684, -0.3043158160004554, -0.7831103792274963, 0.7263922459369558, -0.44035254179229283, 0.22344493135726076, -0.026471916708862755, 0.22128662774817245, -0.6727121527291331, 0.5436745921107408, -0.43782766797437883, -1.4989369813530393, 0.6344703468220005, 0.08564957265428973, 0.24525691066955282, -0.4568700908451791, 1.0838883696453345, 0.42073817256730595, 0.1425251864067782, -1.6504446658198726, -1.4824528104667851, 0.48830480477707466, 0.9126043899956212, 0.2696492890825985, 1.4301357194012487, 2.0670664001266514, -1.1690379778027948, 0.9006648282928161, 0.39137077804917797, -0.8750778896358065, 1.4997634357102774, 1.2844569762284612, 0.7765444410637639, 0.26882970210600415, 0.038271008742151405, -0.0703075370642461, -1.014639647115759, 0.7884645463975914, -1.489102457143512, -0.041148155134903844, 1.3612931066254412, 0.033317199843221484, -0.6107955322745185, -0.103014597544768, -0.07105995718079977, -1.5090695830871668, 1.4789149358446319, 0.6150849896870387, -0.7285705494739411, 0.04837003529019936, 0.6210429050006716, 0.021856790269275027, 0.9226776115426177, 0.5315259260034715, 1.6476788067381356, -0.9172956676996943, -1.350225738826025, -1.2717527755053974, -0.09355722109549414, 0.42532897518861157, 0.4842542468428937, -0.17587437322132773, -0.8284440930463833, 1.0017479425850317, -1.2609855725246153, 0.9597170586319947, -1.5083572183966334, -0.3329800606044154, 0.4681321378659249, -2.4616206399298646, 2.231507705432685, -0.6875921467373374, -2.255141276206566, 0.3093303400057606, -1.3052962792679934, 0.02013885841209631, 0.8406610763599112, 0.2482923766450309, 0.2171286179846287, 1.101143422426139, 0.5423926436902069, -0.38087394407870523, 0.5323014121801481, -1.4723579203373565, 0.11977497604084733, -1.0650414996702273, 0.7086199792158727, 1.425446734406, 0.04249109170732926, 0.6120795238122462, -1.8089346195731717, 1.0482635569105234, -0.3123041711303481, 0.1371658054093044, -0.9403258711282418, -0.7922604931672855, -1.2797998159529111, 0.41881723131800874, -0.4480092103958421, -1.1141307863234877, 0.6212995481531938, -1.048489611865565, 0.16267554254626598, 0.6917474163204502, 0.2611211968245133, -0.8916579762407326, -0.311578619392657, 1.021445022636589, 0.532516877520163, 0.5200243328708519, 0.18097717884505404, 0.4168833457672674, 0.3084412294870079, -0.6520573501411495, -0.01472962502318851, 0.714284477838659, 0.6203615691730399, -0.4265768202166064, 0.20971239241627732, 1.4418857125809525, -0.34929724983060195, -0.7064757088384904, 0.35727846828271403, 0.9559052508765228, -1.8734510707043432, 0.8330235300457566, -0.6127020438870987, -0.40588673833525296, 1.6263875748083851, -1.013840157550156, -0.03811897634447742, 2.7606359129029596, 0.12111098170766048, -0.17109099995216584, -1.7003881338126652, 1.0844854796189727, -0.5826815900214888, -1.0967612530570112, -0.034532703625230976, 0.2743594514962302, -0.9412524804571147, 0.30401245456420767, -0.02561529224957684, -0.055593320735475016, 0.48786971659003314, 0.30210531894375026, 0.11490297328288801, -0.024654349057455876, -1.6380453488217601, -0.31346439657470476, 1.2352771832420413, 0.10511416528916052, -1.7464535256827172, -1.0485331704232388, -1.6925707907029393, -0.03290561575722974, -2.4957255021816165, -1.9247854409320453, 0.5729288819647342, -0.19768393252892802, -0.5836901126834797, -1.2273024535560189, -0.09007894721049003, 0.37751247300910795, 0.1229454434501967, 0.3485920941127048, -2.042830515760175, -1.5738784248012874, -0.4284521268318153, -0.13501469126210158, 0.810136389762249, -0.34957664703684777, -1.1849183340834566, -0.991891603373301, 0.336025583416546, -0.21188705208777467, -1.522122998473003, -1.9228791866183688, 0.4285416936110989, -0.04132258089654278, -1.629640902085565, -1.4286237693426, -0.7077774916289791, 1.7752331373190986, 0.08888094508015394, 0.95683024299546, -0.4695341435839459, 1.0206690812313695, 0.8967191850353776, 0.5634036687853582, 0.0574432740669523, -0.485400353107486, -0.8548492477750547, -0.8459340645243066, -0.41664126029295007, 0.270832698656214, -2.006405886164186, -0.9391950767912769, -0.3575660415038579, 0.2063785378646318, 0.9180625883828651, -0.30895670111281137, -0.23376303490568337, -0.4450904249501319, -1.1928142202003136, -1.4424719778102375, 0.824613796736197, 0.7036599904594701, 0.67849852964701, 0.4461092098885171, 0.6347716970576746, -0.5020279394609123, 0.42029663549179075, -0.1077363737947261, 0.0987705810369511, -1.0440495494447186, 0.6198722672026987, -0.03094035652880244, -0.17801894651167624, -1.054022850964874, -0.308220500090039, 0.07964511357402403, 1.1737803481128688, 0.5271764626706894, -0.9707447801665172, 1.377367547197002, 0.8573309994064413, -0.4019850159967506, -0.14345582868480083, -1.2178320960912208, -0.23834453951199847, -1.3407723700939402, -0.8686939441681906, 0.5830413928766028, 0.9296948158788849, -0.47248254958649916, 0.6119789628352664, -1.3256944856299548, 0.4650169112277821, -1.025270497684163, -0.35514257515779807, -0.9279151374424945, -0.5974116587096413, -0.4472401725170829, -0.35053304569065424, 0.9038337156497729, -1.033725222697136, 1.5160739977569768, -1.760781744984159, 0.4144746748163037, -0.6358642581675114, 2.8953921979347212, 0.01475061964017274, 0.9684723010989339, 0.7949022097335955, 0.4348769213147991, -0.7242867361813918, -1.136704718248138, 1.3127863786100542, -1.2768273336725708, -0.8663870964811986, 1.228481766581958, -1.0213763095797943, 0.976548951775049, -0.9814096124325083, 0.19301076070832102, -0.3409051711856193, 0.3307431105284763, -1.1528337009862701, 0.7490657005035756, 1.7441960365257307, 1.2885446541907952, -0.1321500959200277, -0.5368314841485596, 1.1027162562467423, 1.8949066703757929, -0.9863625167781607, 1.2906361892877736, -0.19440125428482616, 1.8903598715645131, 0.935982650156181, -0.009423275098932756, 1.3436208248982495, 0.33819587894181286, 0.14324305716070085, 0.03414298055454083, -0.7081081583077472, -0.38832267978625423, 0.8406358478820225, -0.7019321640194118, -0.24374285897322776, -0.5805359961135318, 1.6531031940700383, 0.6226501431129531, 0.35025868718878517, -1.6376686949545192, -0.47122182223568326, -1.6210412912200565, -2.504015835680729, -1.59289138104282, 1.0490627504326255, -0.3103320835179944, -0.17571124828039741, 1.6170315206276555, 0.9090665576155786, 0.6265967052305823, -0.7894078206989444, -0.8049568311196662, 0.4093121118434227, 1.499953236158592, 0.6841330202548043, 0.20906952711288831, 0.17343349891859813, 2.239826335298362, 1.3405485844098204, 1.1899287441094666, -1.429277369792798, -0.13737311477517544, 0.8246544582182157, -0.11455978983020801, -1.6866332021033676, 0.9378592175324281, 1.0508458690211577, 0.4668193824083099, -0.7810866851238185, -0.10350963305972406, 3.2156018332731007, -0.056579058923043456, 0.5778157847328483, 0.44429801026824867, 1.4974822096908982, 0.3551921831711994, -0.7979712621084383, 0.7302756409077502, -1.16185235873147, 0.7283216794605551, 0.9684651163708731, 0.09246288336301378, 0.014286909114986679, 0.29176447952964707, 2.1042533709956586, 0.8172088045974967, -3.049055650779211, -0.3617612914352139, -0.09305359928058934, 0.7074002946316362, -1.440696713483656, 0.5897672928644547, -0.589644631706605, -0.2983098872398165, -1.0175605736503979, 0.9397822727998142, 0.813470129002568, 0.3015619799665543, -0.4740941902080686, 0.08670309897393036, -1.3041337722110078, -1.868006790179576, -0.8949777160350245, -0.6902731579785292, 0.2623194185124744, -0.8576835289210794, -0.5085457402321322, -1.3375965709268414, 0.9413016152081495, 1.2505945907310647, 0.7817382308157602, -0.7139443183850085, -0.30145165182405564, -0.1598187355796329, 0.39899234492790925, 0.2791554512188265, -2.040592758558702, -0.9648604633641144, -0.6780261564173464, 2.4189489599063574, -1.2394635445370583, -1.1927989571382853, -0.010090767590918539, -0.02876467207002767, -1.2491657135567273, -0.8645883609696041, 0.14354897090206242, -0.7496229983785173, 2.16498529043002, -0.20557740249331585, 0.01576074958513698, 2.533067842903316, 0.654315904899608, -0.5222744921793605, 1.4322137957513819, 1.4514978288860239, 0.374733948457465, 0.02303418753557477, -0.2458996941086369, 0.34442768905255605, -0.23503873054881916, 1.086923030925744, -0.11583030184097845, -0.44015315969836655, -1.817591830744235, 0.38958621540762367, 0.7539344519300145, 1.123104090192423, -0.6337160567212353, 0.47845463331126264, -0.6863840810244658, -0.4991227831909001, -0.33491092972209197, 0.6476790677068237, -1.3750028013672375, 0.48612552911962087, 0.16173838599654758, 1.321577609325971, -0.4279634561926753, -1.1148475597877483, -0.8731030444527098, 1.1605590605234986, -1.2591145373461363, 0.7381535399299012, -2.3322441469659516, -1.4480882182754764, 1.6840023147106202, -0.29336758406383584, 0.9820189250945291, -1.575797423548103, -1.3207296030459756, 2.0625779601625305, -0.9892250568973361, -0.8332441876525168, -1.8145999906089514, 0.44767321929670384, -0.6576588624251917, -0.5536844228162912, -1.0799060930280047, -2.1452352850194694, 0.8272955479301893, 0.922682447173443, 0.6984789816912959, 0.368359327710455, 0.09034069733647299, 0.025144322865957164, -0.7616226321961067, -0.36572132945834523, -0.5491110565372881, 0.3654284087143692, 1.3756630834075292, -0.8553797812237728, 1.8085690885725725, 2.4221236499610646, -0.46096022010954973, 1.795119290974581, -0.5085038764151764, -0.08223653356349155, 0.3197634543275238, -0.4091235635943184, -0.7550813607251471, 0.12397693875536976, -1.8386871072104876, -1.271402977441802, 1.1811965899687848, -0.8841089877295131, 0.980026302565197, 0.38863505836412204, -1.057698111380477, -0.3972808951262645, 0.4456893245743938, -0.2970020443173328, -0.01930386719727718, -0.6869699157033193, -0.4241946240547182, 1.5741268264292472, 0.7570338569210988, 2.047104866859439, -0.23770868302350662, -0.02431586341062767, -1.078077113722869, -1.7828234343065392, 0.7891765532856623, -0.03637208527750632, 1.7851541547932808, 1.0238720040764273, -0.6256098247329803, 1.0217636094043925, -0.4616066135499023, -0.21258978605859796, 0.5098189354179551, -1.3422363856253878, 0.7166237012518993, 1.1650678406585944, -0.3464194386877185, -0.42169017565844025, 0.2386287452004873, -0.7415009104951139, 0.6439902859660654, -1.9713076919630348, 0.5064707442768972, 0.34606525623751166, 0.2126501829168867, -0.06449150068269177, 0.38686562171556765, -0.9952819354649444, 0.5857282903143148, -0.73088442578683, 1.0501848708013273, -0.20813130036402158, -0.11640013055819746, -0.986072838365457, -0.5378014934840084, 0.7402048992034718, 1.8034115052318787, -0.779081786517769, 2.058478702092357, -1.315635017911884, 0.8637114423408797, -0.06605812439999077, 0.47971876700019583, -0.9647428789851751, -0.8265782765902927, 0.9781560894796124, -0.5388028585877387, -0.6744150735480072, -0.2935266522302287, 0.2808255343644544, 1.0937342272852617, -0.03498299520947617, -0.5324178477499921, 0.4435292133774584, -0.5500799701754533, -1.9971969764432045, -0.2128658478190199, -2.0971035255943984, 0.20814665925450784, 1.2767852681559808, -2.1589177610962094, 0.2642074938399999, -0.05011129195831006, 1.0316174029119243, -1.2659741542660559, -0.8791135292451172, -0.715636351729493, -0.25870226848836064, 1.6941158770754685, -0.5820521358056493, 1.2411249404268594, -0.26214185077614777, 1.1907060973226913, 1.0061962831788511, 0.31290215080765804, 0.32151992921820116, -0.1832733999970844, -0.9131053754630428, -0.06549219526776386, 0.9911978118672646, -0.5679354896907932, -1.2942196594200035, 1.4057267021972308, -1.0938773124527381, -1.9737492820130844, 0.1475944036394542, 0.48954385318695864, 0.2543786793343473, 1.0624659123631233, 0.5205693044912203, -0.6448269034869218, 0.3809463348804406, -0.18508674345411935, -0.41431464374817356, -0.768698790673142, -1.6083812185640232, -0.0003887206374598706, 2.486528082327014, -1.4049729952021712, 1.7386234409580745, -1.1828287086653155, 0.07713940340499727, 0.8569145850917239, -1.08342497381822, 0.5993621975230091, 2.4383516889904375, 0.5985549770756811, -2.4957826799179728, -0.44121043020685247, -0.6184653541078863, 0.7885546591850177, -1.0872425524281544, 0.26626244716661296, 0.46704305393333684, 0.3978829211847496, -0.46608304151413094, -0.6098672346892212, -0.7378923627416047, -0.7981332664010049, 1.447911600913036, -1.6295331600131024, 0.49372454894023715, 0.043473839528067756, -0.5474800835118413, 0.7576574888633069, -0.755801809643913, -0.4677153638907531, -0.2903609035790413, 0.21447869934976277, -0.11449134394735276, 1.243491879960853, 1.4805183246856977, -0.5932620247063045, 1.2392266423615654, -1.0463880227636917, 1.5923745614335871, 0.23051436160635386, -1.4447366242240756, -0.2240670701149768, -0.9553643306352952, 3.603112497783975, 0.2724705717346099, 0.3983019849359154, 1.874507807147491, -1.2972536299645003, 0.030447790830371635, -1.08196215400548, 1.1826679355295522, -0.5230839027797236, -0.1313480247189089, -0.8342057690543088, 0.49627699798059405, 0.12210370012101007, -0.3259909770674939, -0.7783356156098423, -0.6995297834615054, 0.31270463290027956, 0.5687054206959505, 0.5672627524935732, -1.0351711483842185, -1.6135934629277697, 0.2393710716136542, -3.1188712835486423, 0.518908410973277, 0.3776556526494209, 0.0095331399770938], [-0.41773240071045237, 1.002064384727898, -0.7639519577281846, 1.0036702634759684, -0.5649687910562652, -0.41533814020625126, -2.1323623940714325, -0.6739064205948695, 0.08052095971094554, 0.29708436169242725, -0.7008542092395654, -0.8781961240870327, -0.5143031510809872, 0.9346285559842017, 0.5552612224855841, -0.09161722555908264, 1.8215366880676422, -1.5377629266221637, 1.1615400443749793, -0.7752127941036491, -0.062223517039239964, -0.419617109234267, -1.0574253337121204, -0.6076279135033663, 0.7439704696244154, 0.13498810698269714, -2.3482881101626654, -0.6697909150674825, -0.6381025005836201, -1.6845953263367421, 0.7366387308188106, -0.7444050212670473, -0.8815190507974366, -0.0772420215696998, 0.1391680224769373, 0.8767919746185745, 0.24597336546769735, 1.981037095644813, 0.968568936108706, -0.7209011544955767, -1.0021829804189528, -1.5362098117144325, 1.1081945620934475, -1.1453587037054382, 0.6773934894624845, 1.243904404421774, 1.7209495076699208, -0.40415667691391083, -0.799636937016419, -2.7201157075221967, 0.4363122803937849, 1.0786513484030997, -0.8132283190555407, -0.39748746547710473, 0.04397013611289984, -0.7440788211898466, 0.21937079088453962, 1.1088021117917881, 0.15459748787413896, 0.19006736646499942, 2.1467471073907283, 0.2764210131729154, -2.5852098052204124, -1.1621027335854908, 1.4848018775256515, 2.127751967280017, 0.6106400953819792, -0.7588609347099785, 0.7657159377000722, -2.123682071340292, 1.6916010839310849, -0.558152118356775, 0.998255905965255, -1.2991903291755715, 1.2753015234281964, -0.7964578732456609, -1.2405014005477668, -0.9880610362244294, -1.3767743419142797, -0.169465308585879, -1.2733807640652173, -0.5052439474165896, 0.3896584286333227, 0.7688731009218344, -1.1310483490617969, 0.406916625702631, 1.424254295837567, -2.1785129914156456, -1.9280333101383138, -0.8071965602427047, 0.7378316772564095, -0.5875014703630735, 0.3892797006982439, -1.6326476671986052, 1.12353208257617, 0.7105216219089938, 0.17750502009962163, -1.024372382277611, 0.09951169392252829, -0.8422520864095261, 2.153315613436612, 1.508465993228472, -0.10286581463866086, 0.2539508979643515, -1.159483983266797, 0.18182637772961693, 0.04246962712761082, -1.4077425445213734, 0.8590303656519646, 1.2046176489907405, -0.15814006446652074, -0.9604928788340575, 