{"sizes": [784, 20, 10], "num_layers": 3, "biases": [[[1.2566180634157778], [0.05160105904454215], [-0.023014812011994012], [0.21945667693214296], [-0.9167788241217203], [-1.2338498901080779], [-0.5487787336714882], [-0.5277369045348639], [0.18584979971960297], [-1.3252363134932705], [-0.37432381090783406], [-1.240356027265318], [0.8702070692907776], [-0.7041179295827179], [-1.223145494728049], [-0.09862084899901197], [-1.2315276948018952], [-0.17339884000705505], [-0.6906231625228298], [-1.0645731099320437]], [[-2.398732435497012], [-1.2067824786315668], [-2.112040070870905], [-2.4496584875794163], [-1.5107819702635308], [-1.970386522474109], [-2.0245238887368764], [-2.161803292508115], [-1.960559733423147], [-2.026424021244066]]], "weights": [[[0.7756303947870937, 0.42416135860700643, 1.4105306621997955, 1.3566747316881438, -0.4726799226888289, -0.5372346400767181, 0.1928219184952939, -0.994650583592018, 0.3688529352991485, -1.4421760234074492, -1.9793691984276984, 0.9820634076245736, -1.1433866536409651, 0.4851659669128862, 0.693814601091777, 0.43501128537014583, 1.655744128789393, -1.1494303728281408, 0.2127905271981016, -0.5757463629789404, -0.17529361651288472, -0.9766158730350959, -0.05656693312633121, 1.2036190334799721, -0.6734433785504399, -0.8083224079519696, -0.46645139718399775, -0.2242037762249252, 0.7322737402572185, -0.10005315254951977, 1.1944307841666821, -1.3837315145203137, 0.2791108793112738, -1.042001806020145, 0.32880895723419196, -0.4531975261958476, 0.7460547693978775, 1.4937200832659443, -0.3679097900451917, -1.4857821392400234, 1.135685308026214, 1.5157800783312703, -0.0189040051234812, -0.23266298417246126, -1.577387986211714, 1.3300485141424678, 0.3274380554593964, -0.7590288724638753, 0.34550815175309574, -0.08228346664331405, 0.21622473741804207, -0.8736609495080672, 0.3331396085654788, 2.5630685018978983, 0.8013415137580473, -0.826537176328816, -0.9542682707008215, -0.5262221159027065, -1.5411198018238508, 0.15978720373031777, -0.7163245707370891, 1.3571686791893094, -0.5733244486060235, -0.30824427852776165, 0.87430227383543, -0.5520823751287487, 0.708274534114463, -0.16123863870549324, -0.7270130760713194, -0.7746008916237129, -1.015645593012432, 0.5702306434650819, -0.0002568148723047914, 0.8825333331859687, -2.1044690259550123, 0.24182114163465923, -0.8166756096520426, 0.06165305026135093, -1.427625928618757, 0.04188293324332306, 1.624484913864941, 0.10673501776874564, -0.38458189012064486, 0.08108640466801285, -0.5173911879058971, 1.371320822672945, -0.22569941001856256, 1.5910139516805983, 0.1173792454294317, -0.6397411871138821, -1.0165991750859316, -0.6931863890257268, -0.085415682611172, 1.9152243416478152, -0.2906866910615702, 0.9536740003806308, -0.4307810034141141, 0.7005250127788064, -0.7884617329857719, 2.1306897183302125, -0.9537980903435396, 1.4370942547822598, 0.9883804328491015, -1.3010331806931956, -0.23275187237455808, 0.4172906182119965, -0.8367876375154916, 0.03028866789683071, 1.3278612437726638, 0.15298869714999253, -0.12825312926070154, -0.6447908709905327, -1.650460590007519, -0.6729891923198205, -0.18316444292408446, -0.698468855174395, 0.08557174550130241, -0.998194649330979, 0.4323426800498266, 0.43365217993559596, 2.75799122128717, 0.05100393557424623, -0.8873454654844445, -1.2420547652274476, 0.01515512497008347, 0.04079297727044534, -0.007037169098015331, -0.2392971152898958, -1.4698813480197237, 0.22663526544364207, 1.7180674800264724, -0.24753611212014592, -1.0590916696074846, 0.24295272462294665, -2.1060261697315905, -1.1960939588738497, -1.0890455800026098, 0.06454067840198438, -0.02494608310702278, -0.8593198158364046, 0.40183295537292424, 0.4886776631925651, 1.2341288550172231, -0.2419594969033905, -0.14538963232718938, -0.6605670632750198, 0.4397831328824267, -0.2647452080122467, 0.6530269000605214, -0.32192455566316236, 0.00030718832319810404, 1.4415988601373875, 0.1062890956431021, -1.0659114274727046, -0.7604076802489911, -0.24746389989092693, 0.9816837252708589, 0.04891767450220631, 0.19470671620416094, -0.7721244412650359, 1.388100633392933, -0.718599666947284, 0.32601362474152434, 0.15109088571761464, -0.19688515381488128, -0.7861359008773556, -0.10211480699460175, -1.429345684100194, 2.5712055106886638, -0.8070288229936902, 0.009732349854178887, 0.12843612901063467, 1.893074713326763, 1.109705874699835, -0.09336465262349883, -0.6856200027060426, -0.8298140472302489, -0.41356285588039354, -2.235990964233471, 0.2833894942778008, 0.35376002015606667, -1.61393471631711, 0.4528252701581616, -1.3617491216691058, -1.3868328144065765, -1.8788401376124693, 0.21060388813219585, 0.034742768256589285, -2.0991798133752, 0.8044334202867529, -1.3729514430921852, 0.042902356059399696, -0.3951924742341992, -0.2876641231774185, 1.0100659203521587, 0.0749473568805859, -0.05817049903911384, -1.9923318943562136, 0.8029327660371226, 0.19626807102677116, 1.3181495332817494, -0.9252188696566925, 0.9305162854472877, -0.0953379875044917, -0.03459270447296526, -1.052150044585068, -0.3797555475561777, -1.0065525954867025, -0.03523590266520691, -1.219585174077048, 0.40790584036318794, 1.0244223777748553, -0.13002077557128933, -0.35597490223935474, -0.4185332540282518, -0.8129738410225141, 0.3693737978069906, 0.530498309402046, 0.24303219019876585, -0.23447037058523867, -0.7135798957094956, 0.900839202869537, -0.8087326046511846, -0.011146240714026832, -1.413203847872572, 0.15557302645296567, 0.27430092538200795, -0.7704314688485723, -0.13230667958837986, -0.16494929959114205, 0.048640397214583665, 1.195468305940629, 0.1210808331700728, 1.4307023746394807, 0.9431119898151495, 0.8780789937227211, -0.02245121188428449, -0.6310740089364714, 0.9057564187939307, 0.36992496011619064, -1.668939910421787, 1.3677369534773727, 0.29307276491687123, 1.9174835530278267, -0.5696754082426541, -0.6123754744933817, -0.06016614941381978, 0.8612423961234605, 0.9549223233087053, -0.34969682639123967, -0.35434731168740824, -2.3986089619390816, 0.3927674969765631, 1.129430386880201, 0.35586041251329154, 1.1207112818820253, 0.36207453369886217, 0.47565964374067365, 1.1457890759153062, 0.5093967159729655, -0.25044548262218014, -2.193339831395318, -0.9535565905139719, 0.25953335651789633, -1.2507944318803046, -0.2411176516014364, 1.0179427460519415, -1.0346790595789153, -0.7545405038556361, -1.2673109363504274, -0.921033499927131, -0.002236058793864405, 0.24349889469541025, -0.7231400726240964, -1.4247753344940628, 1.5790200439182525, 1.4676127511894066, -0.2649269601030926, -0.7258798388042806, -0.384035448196162, 0.47708512578810697, 1.3624340003159268, 1.6976863951326164, -0.9498663191568296, 1.2722180546255544, 1.093539087641538, 1.7711496841657441, 0.5241017680328598, 1.2558541827333611, 0.5910936731099252, 0.08799088961731376, 1.1588161226876381, 0.6064331537611735, -0.30916979351892016, 1.5486789074887015, 1.966367031138668, -1.7065256005436253, 0.44671203154723815, -0.9846994761447617, 0.10189522307846399, 1.39507737531889, 0.1670432003974157, 0.6883010231422267, -1.1662084714766554, -0.556602493890683, 0.7018690808808397, -2.833216484433687, -2.011425801137932, 0.5065117157369472, -0.5097876254328286, -0.17469426552515296, 0.7820218499771602, -0.19936313799723895, -0.14080736735515056, 2.2498024881526666, 0.08888772967109952, -0.6943551072275514, -1.1228784847505517, 0.19367317508739038, 0.10006511948713827, -0.526823132969539, 0.9150269697119823, 0.8454351422185978, 1.027076274950257, -1.038637014061102, -0.4572581005312456, 0.4200986262347884, 0.3947554995041775, 0.5199532151937266, 0.9377942219988528, 0.03239001215111766, -0.8360843246677988, 0.3812790964085625, -0.08497873347916592, 2.0968507896174633, 0.5845556498791644, -1.1440504847481872, 0.6472817359988251, 0.5048590628465014, 0.12389094720559816, 1.662319963836662, 1.2922410575280898, -0.8899373501352256, -2.0846490063206993, 0.6027783650049607, 0.7687433654092771, 0.20141803458406538, 0.6821567074258698, 0.25299092869068557, -1.0294278845115317, 0.30051580724637367, -0.23183732377214905, -0.01276049765406905, 0.237476196007006, 0.08595131206708247, -0.018066235303255896, -2.6947338518719475, 0.6856868763463672, 1.3936559497632703, 0.545220271811759, -0.6566535547618796, 0.38988932036324314, -0.26916170695786434, 0.3196275719214584, 1.2689052866018777, -1.1270830346907241, -0.5010453330455295, 0.9634784893243293, -1.5230195544840681, -1.5461259510346845, 1.418997137511298, 0.29495100966981014, -0.2409212147100166, 0.46645211918573015, -0.5931318925524381, 0.5307329390933002, -0.548150725577257, 0.2643579943765706, 0.9250383598355589, -2.6771715350073046, -0.750687956512268, 0.0643658227506893, 0.04639677676090647, -1.5042451631823848, -2.363725238769729, 0.12506422992290572, -1.0965665209788034, 0.6244482952292202, 0.5109916659928413, 0.5598646725487264, 0.5238994111483696, -0.33302751182067786, -0.2926270458797987, 0.17879205617095967, 1.7158591613000176, 0.58229961545184, 1.4379412369218427, -0.7681619390083707, 0.3487211455982883, -0.1537167509947821, 1.0094409413193053, 1.7045132907273373, 0.011147766436538462, -1.5645265956946413, 0.9303486359751447, 0.3340716674619604, 0.09741225124764002, 0.13780398153590162, -0.3072846644981677, -0.7782553793712377, 2.2413308388379773, 1.0919205037607431, 0.30786592860578693, -0.08829846808422886, -0.8301640902844541, 0.4256073524651693, 0.18784304847029223, -1.277823316128208, -0.4034312235747012, 0.4131785128813983, -1.7430996605480995, 0.02316994439169124, -0.7584658486252819, 0.304730815370497, 0.09756318696797026, 0.09673148855568812, -0.308459972083381, -0.13957331784246654, 1.4311199572312092, 0.6809093179510767, -0.415531458677484, -0.3809674331726595, 0.8048431822339387, -0.12133411073054601, 1.629185637488133, 0.8512933082366723, -0.8999704511812284, 0.7332886229855341, 0.8010097799549133, -0.054580059003687634, 2.2395942042313206, 0.7416029080008729, 0.5872527387485266, 1.015206849143949, 2.569555578461556, 1.1192415615540627, 0.05731864844022356, -0.6023507850366887, -0.9043589832193625, -0.6449586845448384, 0.4152496465106958, 0.09821100324043386, -0.4390230434084372, -0.3781407502880288, -0.35833105408497834, -2.1064633689549543, -0.3503107141247698, 0.7218941661018791, 1.4632084097263922, 1.0998451312018236, -0.4161917550849577, -1.213572778241378, 0.9506024476014237, 1.2378072492386425, -0.15335358764713597, -0.2676418401823642, 0.5225436074406099, -0.313748507880223, 0.6391134169188067, 0.794577262386932, -0.43582383603671265, 0.014957269479102357, 1.304486797464634, 0.8649061855024746, 0.2562402935580312, -1.8533705413362338, 1.9606646089661377, 0.9205689491326519, 0.2476293025271475, -0.4084396526325562, -0.0928120600961562, 0.23595262879697715, 0.2949775983454224, -0.44807042943275305, -0.7383649311926116, 1.288243333059312, 0.15155450603131268, -0.32894931391761983, -0.3260221106041237, 1.147899503431027, -0.4684593664012192, -0.5091689623057427, -0.5304024927898937, 1.3902596934250842, -0.084512796832584, 0.012084826415854712, 1.2734180825762773, 1.283919153078492, 2.515169616545163, 1.1638868925587567, -0.06677839456662185, -0.5690310116726086, -1.3773280462421937, 2.60705403968592, -0.37510578252001386, -2.2166018591848067, 0.898011148362015, -0.8950731858610332, 0.43472493743876667, 1.3086346649946947, 0.7598934973746216, -0.9598908975298662, 0.11570578391945961, -0.22229689196669586, 1.2191804216781803, 0.7184246553147559, 0.7868320830250568, -1.2583399482114748, -0.3861858568421105, -0.7947401607963801, 0.9547173674134845, -0.6202990413639614, -0.215396192997381, -0.9315066705747863, 0.08720312395569271, -0.2771816300355246, -1.3775619448465122, -0.6186778186638209, -0.6926702268436726, -0.9656527770702503, 0.7070110318585169, 0.31656349978344134, -0.7816712925451075, -2.2783379755854667, -0.5854679441443884, -1.3301135858305495, -0.0797516503647366, 0.1633069013714377, -1.3730147810912539, -1.5588867059798464, -1.2374397087167133, 0.6582815012148142, -0.3759438768341676, -1.089069523828227, 0.08571193536746963, 0.5206249493466522, 0.06622817591535338, -0.8103832165029632, 0.47519722316849466, 0.9123298609474086, -0.6904128708068261, 0.46499433749670055, -0.8053403316477145, -0.3817044541911044, 0.5219090919981534, 0.9269740892880248, 0.6328778111896972, 0.24494641741538603, 0.5182864780557017, 1.2221118529126596, 0.3614450799605583, 1.6506943167878585, 1.0839770561199553, -0.011372450630877766, -0.4270947523641326, 0.7865110361346558, 0.05655549360061722, 1.8625352614272708, -1.1231628656168142, 0.03536460671670392, 1.0741797375424118, 0.32455007423563187, -0.6266080881084951, 0.9733112866128921, 0.39157452978007473, 1.2752653161881664, -0.5179145750910207, -2.1223984515568652, -1.5366498528622843, 0.38653356111305626, 1.0818619287504956, -0.5905735111635665, 0.0845288249640952, 2.1186531315821315, -1.0396761982662426, 0.5561781175560243, 0.37071869734408386, -0.041692536291203695, 0.10630694959505978, 1.252970635568798, 0.46816635378205446, 1.6407368429766527, -0.9596348990890069, -0.046108639128230634, -0.47975807228066975, -1.5184734769459916, 0.5300725145648764, 0.5259979104382623, 2.105581900637454, 0.8442096070085646, -0.7544077628888837, 1.0069183143789604, -1.6395159909828139, -0.7996372866024011, -1.386751040318686, 0.06179589206464622, -1.1240526365339047, 1.8650400755309988, 0.9471484015378877, 0.9109725101163709, -1.3785992613488953, 1.521089856508715, 3.2622756512856275, 0.11059380597109528, 0.4454854906293921, -1.5478220618239824, -2.319930046678905, 1.7324416445142734, 2.32958743182394, 0.11152106263747212, -1.3437454989716913, 1.2312412125244534, -0.14587699952757166, 1.6076091722484676, 1.0319647774001768, -0.07004226724544449, -1.2821556551640536, -0.39744496440011867, 0.30265916968724527, 0.8606529481561019, -0.6551266001285683, -0.12174732130955288, 2.2627552004408376, -1.2554113601085772, -1.6532331390142667, -0.6429254835405238, 1.0936415833752116, 0.5025189635036094, -1.3802194605352467, -0.0410287195146256, 1.2073160089416792, -1.3798399245907007, 0.4632766444575913, -1.0901676485962124, -0.3618939135509762, -0.49264041733850983, -0.10394598065684207, -0.7354732321446016, 0.33527622827612724, -0.23105739728398564, -1.5217448101771427, -0.27670173147461447, -0.16592453845176974, 0.7999784345313415, 0.5675752621586038, -0.5061426115490792, 0.6395179615295539, 1.0749914725236687, -0.04824812829329041, 0.37578578317058253, 1.8919518334162544, -0.6600125598958979, -0.6445998673365984, -1.3029064589108201, -0.09996050710379166, -1.04206268511186, -0.42373705638758213, -0.3287378072599077, 0.0805481789954771, -0.851587405616348, 0.6750843003446922, 0.7352542546095263, -0.16526816640258615, 0.6368991208007251, -0.16673114875257125, 0.4414112364007666, 0.31923057580204034, -0.9330586810394941, -0.070608582233269, -0.31638442179304765, 0.25253670329019895, -0.8785209998126047, 0.1249531403917582, 1.478743070985992, -0.6943492911564273, 0.6549130427012166, 0.02312259972699426, -0.3252622043884263, -0.4246069147250425, 1.2589226102423936, -1.203123608733896, 0.9644095499176618, 0.3747196303292709, -0.6998553536359858, 0.6797289293472568, 1.0207198367398134, -0.8265308135944169, 0.9056519083602013, -0.917253090439433, 0.1846252369596649, -0.2924162541167572, 1.2250207836840867, 0.1640944012284624, 0.3201176127028676, 0.3569107048495803, 0.9409054952022763, 0.09159258686733349, -0.3382500087014277, 0.22402455515280095, 0.20314062803572197, -0.47471118263572604, -0.4021878470815224, -0.25524569742477365, 1.6760485890788004, -0.3265217495047987, 0.8125979673056869, -0.9196503853337358, 2.0173573009289987, 0.8657782488192398, 1.7741422770827462, 0.7095173147117764, -0.930479006972015, -0.05028239061864897, 1.3520673110351984, -0.5648808188946386, 0.47211243559257804, 0.2797241912965667, -0.08582342015190392, 0.13905351358353546, 0.6664074534981885, 1.3244921313275544, 0.4559031543987081, -0.058952286269055985, -0.6991577387792107, 1.2644818775519606, 1.2763176963333367, 0.3783788311718957, 1.8887063088987823, 1.4910435310705688, 0.2795474888214751, -1.0311036161192164, 1.1510534645592043, 0.16803620861197974, -1.2362719756344291, -0.8024628665284096, 0.6505742322380063, 0.0964604889771331, 0.21072432519864726, 0.26530452147693157, -0.8861929081438986, 0.11525624817488687, 0.5865269325485231, -0.2237524696704491, 0.6397458762658649, -1.3112959697756243, -0.8433080593145588, 0.21227850269097792, 1.1611714155457076, 0.5922724529023301, -1.0777969827039233, -0.7251047280226453, 0.012649411060689652, 0.9361513308090357, 0.10848731582162041, -0.10371156915220929, 0.28172640456886483, 0.6788113149982663, -1.069714404999265, 0.7896469108316394, 0.2444177191156044, -0.5875096658715567, 0.10734879769484416, -0.5033082299605702, -0.3937995289418689, -0.1768925582985708, -0.04933821333580009, -2.285185815454639, -0.9754764053276065, -1.8422084343392302, -0.24571747057027027, 0.35566532666008843, 0.08037989565534555, -0.8785420244027833, 0.4894364395769596], [-2.0586382683077247, -0.01781167105812019, 0.08347593264539302, 1.359443170933106, 0.42439212397515114, -0.07061502708633949, -0.15941613127725843, 0.2602281749630338, -0.42587924355628315, 2.2817320116292863, 0.5284169079975497, -0.10364619283063001, 1.5723125921905623, -1.1475488029845042, -0.8453784563029162, 0.08185859759953146, 0.14996881880144522, 0.5237805670153715, 0.164772517699557, -1.7931723703100753, -0.11787276393184871, 0.24817507520646528, -0.23868198556449105, -1.3403374309357463, -0.9601222995760391, 0.9156167977160523, -0.652631769966901, 0.3548446491486026, 0.07207397973559321, 0.7527757076856829, -0.6594310775426775, -0.6745534149313408, -0.008814437073855848, -1.6880319271513062, -1.5044699853869206, 0.4022756140589581, -1.568501464637019, 0.47076540074114337, -0.12590513038819026, 0.15697044058496828, -0.2369374472294287, -0.7745804847886724, -1.4036614552456108, 0.14156667322376792, 0.5945796992776063, -1.5999749863504855, 0.41050708956499254, 0.9673767960667586, 0.6186461796268343, -1.6588234706911518, -0.4564491981320801, 1.2280926693332364, 0.514872333785531, -1.0402543792259102, 0.18047940181609431, -2.4522505946531954, -0.4352787557669998, -0.024690370565971467, 0.9844802049248624, 0.3315795056058736, 0.2607822758890366, 0.5425903295421858, -0.46772451173193275, 0.9401771478501796, -0.09434389111015144, -0.5728694500856357, -0.7352685048054738, 0.48218989964236864, 2.397742188703193, 0.30454284892945754, -0.018333652183164045, 0.1671594338648278, 0.940069927219779, -0.0202119406827735, -0.011824799145164685, -0.44557736675532056, 0.9071396738386965, 0.291423944501544, -1.5316683861254055, 1.8436260343739572, 0.843182552518755, -0.4944082390568855, 0.8215920064040664, -0.6647694072230884, 0.6372994125607887, -0.7006493255435657, -1.5089548852511283, -1.0908353826152002, 0.3266488073315699, 0.42264072882089676, 0.31158634637427746, -0.5484769969224575, -1.2149333403056768, 1.1694437092408734, -0.907216259870773, 1.2093290498502764, -1.220952269131509, 0.43424495489704956, -1.319572091966204, 0.705090554947644, -1.1951616324053127, 0.041235044002227585, 0.5099896572399163, 0.7999480757677474, -0.3898350625282184, 0.2692145581578302, 0.4498074431119876, 0.8304536374325288, 0.7147072921744013, -0.4729344475091098, 0.4503670587131354, 0.4777184028521951, -0.053016217817976635, 1.5507126771502524, -1.2769502548881315, 0.9381959481032947, 1.6054281602264, 2.4757491495634376, 0.10649021518223664, -0.0782364535561384, -1.6788998338318561, -0.13777059596000477, -0.9460314092916258, -0.053316385282135594, -0.277352497472821, -1.1665296364261448, -0.38867385637378554, -0.3704645280582286, -0.2667748055494261, 1.1600367067515087, -0.4232744349097033, 1.227967224722624, 0.02645261515562287, -0.3037763437843678, -0.18515204367344515, -0.18415731577409036, -1.6565511158671429, 0.3426571898829832, -0.15759970871695966, 0.4082622225761252, 0.2270493178341952, 0.03985180651339432, -0.44679650611019406, -2.4972833478750696, 0.08958400543305016, 0.4003993572912622, 0.020651106240809333, -0.7996799300487809, 3.4962042877027386, -1.6083105159091737, -0.3789067806809791, 2.1541856252519955, 0.1967498279552296, -0.3466678529622519, -1.296090620971717, -0.728724750914623, -0.3872413517848701, -0.7737717758760605, -0.010091111019298129, 0.19530319459399526, 2.505785496456892, -0.46174584073022135, 1.761688948545164, -0.3683810818413557, 0.4736371737146957, -0.1514473741719981, -0.7908831970615441, 0.2678140852885805, -0.6923936133196085, -1.1837081513547418, -0.2051141995809077, 0.5985824092598798, 0.31824371934005535, 0.06793387354751203, -0.6860108467310676, -0.9206375281568888, -1.4071264924922673, -0.19720209449496606, 0.29606728928557396, 0.31320144804457106, 1.1238435359319021, 2.5187865487819163, 0.38649814402445726, -1.0134078101096917, -1.2514987353754428, 0.7019749342213242, 0.9888155338571574, 0.03482079821965415, -0.011628306543613232, -1.9837307623207925, 0.13761613216397206, -1.777465164253224, -0.5182389324790669, 1.8368337708254383, -0.4764306997307023, -0.6969496494111381, 3.1866375963172153, -0.009545361235309005, -0.24848863637110144, 0.17810546974428035, 0.7266008972341941, 0.8832551747572079, -0.5224295825399282, -0.861672464538735, -1.1013501870168778, -0.7361625098889656, -1.3095607989622298, 0.8685511736800516, -0.47272084378626944, 0.4347673906823559, -0.8769564728265098, 0.023301513010668927, -0.40906298224700327, 0.6085792233185245, 0.22364918731324224, 1.1636239393695365, -0.6828723424554599, -0.12367712804689134, 1.3752936250728252, -0.2585156452148739, 0.64980639581779, -0.10847718117617232, 0.269992929556717, 0.5711652072002307, 0.5398698150772229, -1.253167673867687, -0.8216114674307046, 0.5174416279835505, -0.5046754470099856, -0.2874476869370425, 1.1825511426437536, 1.143303428482398, 1.1845747394707669, -2.071226922489185, -1.0911471548547769, -0.18822645446030828, 0.27474890648043526, 1.9751597507369036, 0.9376624231063015, 0.22398534688711336, 0.7900518644160388, 1.6829834346355905, -1.082815664968106, -0.6456531884647094, 1.0123929606848698, 0.9588296391268989, -0.6277772525100109, 0.6496232410383315, -0.359031930151607, 1.3533214998574348, 0.5055037044671535, 1.161513342424733, -1.3773366405267944, 0.06617324698092014, 0.9979572648491278, 0.2402889064701817, -0.15950862422302048, 0.9636299802700501, 0.5424539594052485, -0.2168546553749017, -0.07563889732195749, 1.0864508786248297, -0.3800449037717859, -0.5266652139765922, -0.009308248212794596, 0.6090023977311069, 0.48156464435694973, -1.2102418750679105, -0.6323404135054075, 4.229307177731346e-05, -0.00027498531830822483, -0.26489594814844813, 1.2011798097319266, 2.402572065873619, -0.35868343572449757, -1.309674864959714, 0.6387897472506765, -0.1303103382149394, -1.6602705269423357, -0.7815178316521244, -0.09730396674775091, -0.34292705069523854, 0.4977320807285218, 0.4448427700368199, 0.4383915637190534, -1.3870791666716755, -0.7151748225467844, -1.1058644499835064, -1.4796771606745447, -1.236539322861841, -0.17745546886198976, -0.4985865929682273, 0.8750753103473357, 2.3115529740091256, -2.241052035059128, 0.07865807379747157, 0.5734302153621492, -0.6991683614206602, -0.5277549803942916, -0.1624404327333148, 1.032131303123105, -0.49278792822592205, 0.09674939234270491, -2.052253812062543, 0.5104723551032564, 1.1243624122897538, -1.2070210291202492, 1.022378870769323, 0.5623911641479349, 0.4531862589479081, 0.22081727050591815, 1.3769687435132014, 0.8072200834449216, -1.143432320276283, -0.5984786517575654, -0.13689780807650212, 0.36303609640211454, 0.9182167228300295, -1.016062022076916, 1.5015684229705442, 0.688357018518219, 0.010287620256797922, 0.31998641762713464, 0.4828888164083112, 0.36101036562542016, 0.49004541756885484, 0.5595996336284649, 1.1403695449018474, -1.050052128047355, -0.8543081062586971, -0.8137131222244925, -0.06275359087594663, -0.561657606624328, -0.695145336540673, 0.8639787686273168, 0.6298734536534834, 0.5228185565547062, 0.843390785893321, 0.561601257302215, 0.2760677457652442, -0.07500387469291793, 0.3569306895929928, 0.6638332607117298, -0.5640316038435151, -0.6258239109850001, 0.10809874578886966, 1.2284608408696098, 0.12379644593277685, -0.7013100922773516, 2.2976713527460233, 0.1465467717172109, -0.009672563472568703, -0.21083943066351504, -0.7876732399080149, 0.6437848972306096, -0.19268077381725512, 0.24490667083706352, -1.248263737227016, -0.8545456321748777, 0.6599213558074882, -1.1529756817862005, -1.0921224165263574, 1.5365323509460327, 0.053588155402594526, 1.4045864773786674, -0.38179660968620416, 1.9795031095534033, -0.26663479917088384, -0.2463682651273181, -0.31701174575502744, -1.086185460848283, -1.0570235030215398, 0.1734803326192418, -0.40728005793413363, 0.654116181096155, 1.972181057576276, 1.0761389107692012, 1.4570539156692648, 1.0760389554107492, -2.1009486190582045, 0.09841563203132232, 0.5832420659302978, 1.035101630256072, 0.41826264190686174, 0.6486075494143502, 0.07477388597848456, 0.6484684084706916, -0.19956384293979576, -2.780533239424516, -1.9071197167366887, 0.41306990955378564, 0.42045774032484945, 1.3061324488967316, -0.6019790484186827, 0.32641543991723593, -1.7222585557846888, -0.8658183679548497, 1.08475335327933, 1.0970052800253154, -1.570995508909659, -0.8980746792282946, 1.2644559177992145, 0.02074074925057437, 0.33986911308434486, 0.9476775023875279, -0.6372295155929046, 1.0444246899138883, 0.290419287594069, 1.5877246587216602, -0.7633203203677724, -0.022689461370549273, -0.2428623935405362, 0.5340349504450769, -1.211435538268835, -0.7445590066896772, 0.44230144399841864, 1.6874371138729285, 0.49612222283883983, 0.2571664052086182, 0.8137788807003224, -2.2856015097221403, -0.24056804651614935, -0.06654295498700774, -1.239075359594592, -0.3652065455494026, 0.4142016809232802, 0.48084283415653756, 0.8998006615228016, -0.36478184691913873, -0.5673676652141219, 1.3262296667691875, 0.06814948076612047, 0.6309461836986648, -1.476920988646774, 0.13941456424336507, 1.421624523671562, -0.928637483324514, -1.5119175014745756, -0.07455877177551917, 0.40797271568012705, 0.4635013728892006, 0.12924607757799714, 1.3168740167426642, 0.5330710649721628, 1.7520043353923775, 1.1583314610732294, 0.255293501983018, 1.0915830594775804, -0.8197143548280446, -1.5886055167309983, 0.3862840431042867, 0.9163017205223919, 0.8047896589467859, 1.5848522507413796, -0.40472497674213725, -0.6500183241638879, -0.42991269429888385, -0.19366434648341174, -0.21222241825073274, -0.8016495990973904, 0.14962329579258937, -0.6346151846010759, 0.7845771669525143, -0.5650534191501103, -0.8733719486197696, -0.3661182925401378, 0.9552824204446769, 1.0113197826510065, 0.9120827220332003, -0.44251608939393217, 0.09493261353479945, -0.9348475688271859, 1.181338782641389, 0.21687461004189298, 0.2640538598016087, -0.4487152458619279, 0.8885463906561651, -1.778087301087656, 0.7144935522707624, -0.8080555065076566, 0.1477633976754251, 1.9414199754542045, 1.7217547173702297, 0.3213117126532366, -1.4249503912962602, -1.3577839506833254, 1.1876023813963292, -0.9741004091722172, -0.49612038764239746, -0.29087011746312663, -0.43843833574075924, 0.016351693415323384, 1.4393856745818643, 1.1767465099039727, -0.37704873710731596, 0.6538952704294299, 1.102335654993574, -1.0473275783504885, -0.9697661953530428, 0.3758515432791293, 1.4361495391459884, -0.38322520312974395, 1.9266036347432525, -0.40500983247787137, 1.1876248240443847, -0.38854189465502037, -0.8428940272567986, -0.014792035933618717, 1.5222207442264384, -0.3554901064837231, -0.3141802500909779, -0.025825059219781454, -0.1852209943691777, 0.5094659958598862, -1.2804353171811396, 0.09952900061863794, 0.3552458006907883, -0.05352243404824037, 1.2222074471952145, -0.032565646144414644, -1.2067486378067622, 1.3015735054055233, 0.27613216481690583, 1.1172986423093543, -0.31022806372255995, 0.5818568140467948, 1.268237310238677, -2.7218394933199965, 0.06454039931060364, 0.2858477752798853, 0.970702723800939, -0.2409249917810666, 0.8011144683177647, 1.588803375072124, -0.505728810756403, -0.16891212747065198, 0.6710095734891901, 0.15622842386672445, -0.884952957088143, -0.06078083818577268, 1.7362756284564225, 0.4799249975614681, 0.5752265800735683, -0.3035212520638003, -0.5972161659078146, -1.5100040973246, -0.46007173199685125, 0.9436867019293878, -0.6876174426946997, 1.3877145724415794, 2.0300395075794424, -1.3209147694954613, -0.22945604663318145, 0.5855850814543382, -1.0396489672672804, -0.6562498631323919, 0.8364318530309917, -0.7490921996926441, 1.3706431449236312, 1.2477276697428878, 0.07295717542433905, 0.5823851224415622, 0.1573403414901217, 0.575609936452583, -1.3835599145844122, -1.3482791975514494, 0.47572531733462453, -1.4476883524618578, -0.5699784027343842, -1.6618233540144722, 0.0010997962097072144, 0.4044028676402586, 0.24047324494757766, 1.4245552730022724, 0.017360061012019642, -1.2739509122112596, -1.0514473120386125, 0.5554379776332296, -0.9158228740862935, 0.2201077952795824, -1.0125504981289182, 3.7559010391748595, -0.05558394144649344, -0.8801673884142436, -0.044796951586331006, -1.7217728920718234, 0.9456156669265307, 1.3225945490574038, -0.903250039170736, 0.0031608413179639943, 0.5597620947404873, -0.4301258466952852, 0.4317525881045907, -0.1714488706246522, 0.6628364937491849, 1.5275452129570257, -2.6470969707372154, 0.8715599152959094, 0.5184361126697123, -0.531275248427246, 0.4387422256566847, -0.5567768623344268, 2.317807806792067, 3.1169500750314696, -0.8773311962897911, -0.08820934624996143, -1.0586080644199631, -0.756818093465288, 0.7777963975662832, -1.5614828074840494, 1.113935017596405, -1.1309246662882382, 1.24774737359846, 1.1184227232357669, 0.5512641550934819, 1.173146322695833, 0.49467951526394754, -2.9847611057348327, -0.5672463009473603, -0.5945695695209182, 0.4424380538600858, -0.08187755828044256, 1.0482267303638322, 1.237215896827881, 0.9595211144893098, -0.8095937337656394, 0.5711987751059446, -1.3653409941071348, -0.6818323234914897, -0.1547807270102586, -0.5697198987177555, 0.15571634831608613, -0.2541768362442155, -0.5877410709870438, 0.760425368987025, 0.7750339332720363, 0.021521617563249246, -1.3045069721885834, -0.04316433368722423, 0.2582852650756972, -1.736909163130616, -0.15577125540053485, -1.2108707086074308, -1.3451457697938394, 0.31004278048097333, -0.3072530318030307, -0.25718260073449534, 1.4213493890054114, 0.37897341828258885, 0.04987430276238842, -0.20785887837217557, 1.4353915292143138, -1.0094999164923972, -1.999741615601731, -1.1706338873772977, 0.31994136577816545, -1.2359173184362793, -1.5756799506663393, -1.5570914985986977, -1.2992067791599011, 0.20753569791141074, -0.051100308992204496, -0.25717154945059717, -0.6987653920750392, -1.2403934761435174, -0.7608771562709168, -1.1572339085367584, -1.4032386778471535, 0.0024459091676844046, 1.140784163782961, 1.55470982602841, -2.8154780337376986, -0.1673332472464541, 0.09956877249604923, -0.46860462247817364, -1.3969781955002394, -0.09592608213097674, -0.755400628253189, -1.4387017321306823, 0.13313937503113063, -2.5137982065257245, -1.4787741614558394, 1.808870690891936, 0.1594835927208822, -0.18437722459417402, 1.923436293958501, -0.6208063690399253, -0.9161543373475365, -0.12440588294927965, 0.7712914472063276, -1.2159676595540019, 0.3978008149856495, -0.08737998127704102, -1.6070758239038685, -0.315205210368561, 0.9417501432344698, -1.884570445474107, -0.836770102376858, -1.1717878433691986, 0.7379429327358256, 0.004866207836678922, 0.10825681262050513, 0.2335097869732316, 1.4151335964853753, 0.668746425577137, -1.003041300546406, -2.4348213241577947, -0.048648432792968335, -0.17130559835517467, 0.12596648423453707, -1.021860558248595, 0.017934310586377854, -0.06421849400808635, 1.2763355605207138, -0.6134813135392209, 0.49674828039326807, -0.8516576384467582, -1.4006560330201796, -0.7834594855499143, -0.20659938670762845, -0.03309643102827961, 1.0292468910885257, 0.02445639646265473, 0.9134926665585587, 0.20321620719645644, -0.874666924814378, 0.588440133655518, -0.09213488396183563, -0.6070765757671873, 1.1396941992378065, -0.5236022906459582, -0.5525068835297376, 1.3792383045223797, -0.3863348909658372, 0.49924401096408155, -0.05584061927031192, -0.991743509623306, -1.536368819179528, -1.013173591523135, -0.5377392323424373, -0.15050943233087005, 0.5454166608121525, -0.19105564989329352, 2.352291378805652, -0.9149106885038126, -1.2694666381444384, -0.4313576859497599, -0.07177606630695711, -0.30305330274082404, -1.391072368950661, 1.2390950870231625, -1.014729379769559, -0.2750578963175114, 0.4831462545045129, -0.386644258890221, -0.6674784796068661, -0.3816203391365356, 0.4293848446475818, -0.9076248505868207, -1.984900629554746, -0.032239811767169654, 0.6869891529921042, 0.3393269162679016, -0.7438438222809282, -0.6774048550851817, 0.8480504747420976, 0.4893384747042795, 0.01839007075421617, 1.6401264973692058, 1.2503255195830907, -1.64269965801761, -0.8382000230336827, 0.1983473898850086, -0.16410518895579979, -0.27481577384187567, 1.3493427467825787, -3.2671700057812663, 0.6631749647347543, -0.3937604157588476, 0.6093326334239221, -0.04052480294288757, -0.45745343525387333, -0.41756661767557973, 0.940222562449406], [0.19032337310445202, -0.6025100562825819, 1.1003656331315887, 0.5103728514643023, -0.2233303568052107, 0.39086832074447414, 0.24716596473700672, -1.1860117751195645, 0.6247115583149704, 0.7378468233909383, -1.2978974123725937, -1.4806907467033739, 1.2300200740098755, 0.09627702473526936, 0.5184784816324178, -0.513753123706511, -0.29777264169081374, -1.62034535357188, 0.49832185549706015, -0.2279079267351807, 0.1446371189519003, 1.2680568395679772, -0.27003226634051475, -1.8953720677639267, -1.0777788457034054, 0.867115801590385, 0.5188236209725546, 1.0581622630454812, -0.3783451137746276, 0.8619258095653347, -1.0920061593892672, -0.7349287935665947, -0.36410484222953327, 1.489155730542069, -1.585793856641843, -1.9441840346081047, 1.441435933430357, -0.4972527826488256, 0.8993507302425903, -0.8418131466703737, -0.5868959661658963, 0.9202653687514377, 1.833534198139596, 1.5755604129110592, -1.257064404255727, -0.5681545027326077, 0.8751503099414638, -1.5953066555794122, 0.17928911599372577, -0.0021582095180136362, -0.43663665505290755, 2.054546931638834, -0.8695828163723252, 0.6899909152290147, 0.2611713413478699, 0.8068209833322771, -0.18051182872308866, 1.3242937772674663, -0.882691890462075, -0.7882338709343879, 1.1580280191317502, 1.9221125695027945, -0.23966709547515258, -1.1687662227334163, 0.5331374845656861, 0.9897708627671867, -1.096178150771669, 0.2878901528024388, -0.1567943149754594, -0.03470539921582381, -0.29314440291513805, -1.4223910742948362, 0.29753864090737137, 1.7822469849743918, -1.8740067200237527, -0.1713074196108338, -1.556415303237882, 0.1600531295633349, -0.0331997511846335, -1.9277997260017206, 1.4232052538597368, -1.4252055400867336, -0.8417013357397637, -0.884570147328813, 0.6086851924439158, 0.6980583517543248, -0.20859291399500152, -0.767387065228631, -1.3406415728572563, 0.0023629519810782823, 0.26469569013766886, -0.9240496444720393, 0.15161236536627207, 0.2067790551728725, -0.29446635038292185, -0.9741640892565456, -0.12943113311225038, -1.2937862033330738, 0.02116998252468059, 0.2366554169595176, 1.5008243029722887, 0.5981837712550505, -0.569772285116323, 0.006534890504574268, -0.6628796484736452, -1.3461034040182773, 0.33854228118442137, -0.11322922372769381, 0.520295380311853, -0.5938435339978291, 0.41087497000079404, -0.6540185467914298, -0.2359319230230137, -1.8140683184507966, 1.2287414799015, -0.17379585587077756, -0.4553817913387459, 1.1243019861876868, 1.3125099797581827, -0.08139523422002246, -0.6834885133882949, -0.39384466020684067, -0.33926295568990134, -0.556412106152139, -1.1160197163212933, -0.9352567284461362, 1.3480056025760327, -0.2547808045551609, -0.7642855670435936, 0.47097533517386725, 0.1066418678129369, 1.4930033315745075, 0.03917292330842126, -1.2883894646517418, -0.8791951123123544, -1.1600030049660381, -0.2458282107629687, -0.7088015469042551, -0.31042823599134584, 0.061844809750789584, -1.9611009598414295, -2.096851418452052, -1.484687850346799, 0.916420551686822, -0.2922769387842735, 0.7020925045461534, 0.14526379412976603, 0.6415611882260649, -0.2228740236428344, 1.3198768771627831, -0.6256171194050224, 0.7612710233735661, 0.6336427916322929, 0.46573101786448146, -0.6480041679172205, 0.0811029929525431, 0.4349479958229033, -1.5562763787538014, 0.07022951945684827, -0.9391825756999854, 0.5222919250422667, -0.3120928840506736, 0.39807836017737014, 0.05868905549864837, 0.733995006634757, -0.07658198185955804, 1.7270410959115552, 0.5178067645351211, 1.0239219627368288, -0.3672854558501115, -0.8321486796185518, 1.1644979355098948, 0.16318289103389677, 0.2066210527300497, -0.5257796107534213, 0.7005792190470779, 0.10709727570061577, 1.5887454311731486, 0.9401935068623232, 0.5047355502679566, 1.1405496674590927, 0.3637533539536084, 0.7097841090608136, 0.34800173111066424, -0.663345771914801, -1.2934259903674081, -0.3765834016397541, 1.5512994448146904, -1.1905697114158855, -1.3351524343967922, 0.3483414485661661, -0.7546447266972699, -1.0028601310588954, 0.4401721903047459, -0.5273962980124385, 1.2276844014502963, 1.5816553639127282, 0.22095892272157788, -1.22864879398731, -0.6722587888876237, -0.4001843827732269, 0.6725249424694631, 0.2432730083962127, -0.042933267499361806, -0.7227445952240925, -0.5056236719655305, 1.6201565486346192, 1.0967120204541485, -0.40102526515436165, -0.13051050070068512, 0.02127474193467769, -0.258607756225077, 0.8796983117053992, -0.6423927817288666, -0.42143723392478294, 0.014744016239381649, 0.7075159695105924, -1.0385042774647026, 0.4866703701504456, 0.31684670906210244, 0.8854825882057017, -1.001093802420323, -1.6069032995339336, 1.3553508044365576, -0.1480726623529153, -0.5564416133332415, 0.3330308619288123, -0.34257067487825243, 2.7159745289821084, -1.89703109467768, -0.6828444833759992, 0.4874404189197879, 1.384134867289495, -0.20926855520321214, -0.32010319106091817, 0.23402116561808717, 0.9912928079265254, 0.09128093423439128, -1.6269269454743547, -1.6242611964079896, -0.8825592953587306, -0.8800349378955026, -0.6666396004295483, 0.16287619739868126, 0.5357401636898512, 1.3619215547480796, 0.10119208396575947, -0.20737129867980042, 0.6293257630079455, -0.8771627533627976, -0.8193901806720859, -0.3578718548338872, 0.8298833012664342, 1.9768634169397559, -0.6179128779526024, 0.46524168518812054, 0.8705775025574458, 0.5393733045435184, 1.7428923780813417, 0.5381357730561078, -0.14509348460198335, 0.8534810613209135, -1.5165667762784023, -1.0668348693243297, -0.8372361795449502, -0.896670057622228, -1.5328657785372952, -0.020189598188904607, 0.5842446771719454, -1.1628720653220177, -0.9469599360582733, -0.5110313862645812, 1.0617434833810642, 1.5071169927468138, 0.475007834178262, 0.1927620746879129, 0.5653515944693577, 0.12602288520299096, 0.8107963372911429, 0.034861408174349864, -0.5032314591353411, 0.7058703604985567, 0.10423006200075687, 1.1052703925154401, -1.8844164827055745, 0.5605035579740691, -0.9627479583816275, -0.3267382103416515, -0.4680846559157704, -0.14961897024782903, 0.8676106069250912, -0.09711346852610814, -1.1803565246661472, 1.4587700936993386, -1.0079234730550943, -0.338638704531398, 1.7628949972371317, 0.39093550936939936, -1.0076677609488744, 3.063715167124518, -0.5625092514480824, 0.362278150635074, 1.1421307475098743, -0.8616365791616613, 0.5643821103369799, 0.5216555199516034, 0.8509998588675135, 0.6217418214791208, -1.1170198847026596, -1.4416597916565532, 0.3529442009940051, 0.605733445892899, -0.800249802897579, -2.6034385052224445, -1.1760620632978194, -2.2819365771193683, -0.5741415637905645, -1.1586992411022974, -1.0181580402495343, -0.12219251306167762, -0.1411038014328553, 0.2763085723822843, -0.4121070511479699, 2.0617211169825627, -0.0619442730720782, -0.6266616740254701, 0.7326861358482522, -0.472022873678403, 0.05438787175172804, -0.15963154243082736, 0.7943992127394365, -0.42548674361827715, 0.3193452926019845, 0.7129534680964472, -0.4123000433967337, 0.018975754957146537, -0.5330036592941355, 0.5632796023681086, 1.2024068355024593, 3.107355498806405, -0.8738858267808829, 0.44894531923036823, -1.5242117114208293, -1.0400312314280333, 0.8145272667880303, -0.43675803381277595, 0.05019956493174, -0.238806723667298, 1.0914798519821216, -2.7550743571952787, -1.4695437812270047, 0.47977755702244956, 1.9718585016881713, -1.1879456152886332, -0.20964151018148647, -1.2229116828630138, 1.0539087811997585, 1.2805121076744437, -0.23389074694264797, 0.09499219169848357, -0.6464904401045096, -1.128282286009338, 0.30171757011883893, 0.49500511361401917, -0.12010194688343762, -0.2631956849316863, -0.9782351729118868, 0.6658128390725843, 0.9577491902821901, 1.9437517641563469, 3.3682404672534765, -0.03165531111376975, -0.06550411790146367, 0.10659052512580963, -0.1108605278865347, 1.2072771770864725, -1.0566441020610042, 0.6664751899637701, 1.1399328243592737, -0.5345000831317112, 0.2219707439554237, -1.1859742891542737, -0.03807741268445043, 0.5140209240187961, 1.3373206169798149, 0.4076142384645724, 0.5454845702153633, 0.7535297901792549, -0.6885093669863808, 0.2923523196978634, 0.7670097667732373, -1.2061709487427292, -1.9451463900498798, 0.9752277963998739, -0.6404899728967104, -0.41048238522173414, 1.5601710306885808, -1.971303989425438, -0.2959925056811204, -0.2729744903378583, 0.2862995325070572, 1.8875082725310497, 0.0016370027113699057, -0.8865679239893566, -0.4107260700218096, 0.1488377954307386, -0.21163995067402758, -0.9790384353123128, 0.4866606885983301, 1.3385466366892032, 0.800896863163789, 2.2137664087210185, -0.29563215656411357, -0.5206088087259261, 0.5083360965917096, 1.228144257494254, 0.7898153523486476, -0.3727698897266987, -0.22970452013321058, 0.5028894894675864, -1.3768499771536833, -1.0137375342624062, -1.048131453500866, -1.978902307859123, -0.7851099578441122, 0.6978226721761102, -0.5112263779225266, -0.0012343670639095592, 1.7958787056729302, 0.06556212125193271, -0.9357953779189875, 0.1522765668859525, 0.4794594877490106, -1.7123797144005368, -0.6912961439357487, 0.8868405051725049, 0.273784494703567, -1.4279138179175683, -0.5088459563315416, -1.2468555471785012, 0.3657605404933588, -1.6399432812404042, -1.2958929102757235, 0.08835972685749816, 0.4948292344368635, -2.0386170121782645, -0.8883877736817242, 1.7373949670545847, 0.6266254881528616, 1.6384822463471755, 0.26715805468731096, 0.20083777842312506, -0.5849989159452721, 1.3460397173822034, 0.7316294415569287, 1.4546176210654698, 0.1499534854674168, 1.5309358310099714, -0.054879488277015574, -0.6720874399475341, 0.8651549042596306, 1.6096434115073057, 0.23806583068892578, 1.30548266271005, 1.8967923930651438, 0.9461808482919124, -1.4117474563449737, 0.6273599857021473, 0.5604374031435343, 2.264758230097549, -0.9303099911013029, 1.1706929343495431, 0.17808795278378461, 0.4833859271789073, -0.8892745488992425, -0.6422471634577245, 1.3568493255236092, 1.5705094603427103, -0.23950235587740742, -0.042771451908827765, 0.48455703562352226, -1.9365885656256119, -0.24433938403029587, -0.3424520448581626, -0.22287685908492447, -1.173638365211769, 0.05219587770543031, 0.5540629001634073, -0.21184366397025003, -0.2886346796170292, -0.3503169587516802, -0.03918324349212554, 0.32064318627663757, -1.3037941562055269, 2.055962011579737, -1.4021751738223789, 0.9489265756314671, -1.5263403561302633, -0.15110076716184398, -1.6093000286965535, -1.4201024455099631, -1.1021690424980533, 0.08099277386104016, 0.44155516873428347, 1.1720016605713324, 0.4699050336303581, 1.414559896453146, -0.7811553605523648, 0.013122466593308619, -0.3664458795934086, 0.2585848569450685, 0.7243617827715116, 1.634236577916002, -0.5183442034252727, 0.15550447407610513, -0.26054253029527313, 0.4673230702185531, -1.1447577060127374, 0.57184675173486, -0.7297532217195172, 0.43264310895821967, -1.3046382772070915, -0.8145677977889042, -0.054586693718999095, -0.20801855474811276, 0.4222155915296686, 0.07071773901612044, 1.0088355779877625, 1.7913557512363798, -0.5272558957426213, 0.5510865675845851, 0.8173803527610245, -0.7250763401750581, -0.4737125276037828, 2.8315686995352047, 0.396793096028192, 0.32763203371645205, 1.040830818624655, -1.8183476973743324, 0.7179718717754082, -0.6718499367830614, -0.49433893476260793, 0.7915415420147607, 0.09261787648365008, 0.0007639347695234759, -1.2232733997702117, 1.766952260288494, 1.2149621571526596, 1.9742526486471086, 1.9331697458502939, 1.0440444834963176, 1.437376002148938, 1.37233760986356, -0.376065733333453, -1.4183896902358073, 1.145101402942816, -0.959992077476356, -0.5579490953921344, -1.7057451185596144, 0.5101452240850233, -0.6931567872431368, -1.555498820582282, 0.4277850110120885, -1.3637601830247785, -0.8977928647548957, 0.4019420296677036, -1.3327884501374596, -1.4760168209308504, 0.3405786019289566, 0.3928637067413123, 0.5196387428086973, -0.3188421156690111, -1.4197898505981639, 0.20513773184671508, 0.7938724540436944, -0.4517683690944724, 0.3314647247889806, 0.9019428058541238, -0.37409513692984014, 1.0551034018755945, -1.2826460475775225, 0.29787679881424844, -1.0914078289581899, -1.3819139223947963, -0.8035529499470621, -0.629872151799884, 1.9827523009227548, -0.05965586490148973, 0.06140799812630634, 1.8952273727391047, -0.8997258801501415, -0.2464210982463434, -0.7602794965921784, 1.4779163906830395, -0.7309060451780276, -0.13538389528796926, 1.1125609789002096, -1.3016876766946814, -1.370572219407131, 0.03445571872633663, -0.6849838723634522, 1.3570257385744755, 0.9186074941834097, -0.059459366957019526, 1.7925087366631167, 0.3913512656628874, -0.21302630368001071, -0.39496193904007776, -0.6441313374617418, -0.9249385915151684, 0.8640661444926113, -0.2724485578685797, -0.29963911711999963, -0.6739852895217234, -1.432467986122324, 0.21257184836342938, 1.1312881808781856, 1.6563553203303272, 2.211960382356893, 0.7047575044654159, 1.3117141956517373, -1.241871841348273, 1.6357505470727773, -0.7847112959184298, 0.534811826226419, 0.6702197220499816, 1.7320380273840428, 1.979140762156468, -0.08720862337271038, -0.572065442030384, -0.4097061841248192, 0.26567122877226657, -2.685966571086844, 1.443748268185248, -0.3868650282533451, -0.46291091274360024, -0.1904037587209391, 0.47783099314634786, -0.6095795291512499, -0.6069384621802782, 0.7029169760032881, 0.813898033088285, -0.5001758193379838, 0.44267315731937523, -1.524452711729569, 1.7339478995621946, -0.3126415119334946, 0.7732539698981464, 0.897957259432184, -0.42244103551722145, -0.30948714017442713, -0.434007349457622, -0.8150700399334754, -2.733942931221058, -0.5242021106812091, -0.4420186388087283, -0.8214675375593689, 0.7031209697314947, 0.508733199062345, 0.44612993590253, -1.1125645778081426, 0.4315092585705, -0.04870164803166722, -1.6356652989691827, -0.4199584203309769, -0.7680735027558513, 0.026436823674290698, 0.8531101656253801, -0.023461405962664154, -1.1831684107743168, -0.4639747302671072, 1.5076730629894723, -1.3189801080934846, 0.2780766050105001, 0.9119975289892581, -0.7948088610451769, 1.4181652334378745, -2.728286464091199, -0.517577848659898, 2.2109447066463614, -0.753549513391477, 0.5072998167601203, -1.2415677312136757, 0.879065822953388, 0.6195960189718801, -0.5042112052036615, -1.191858643335533, -0.9312178437833833, -0.07857892814025844, 1.2890156862389128, 1.0409601783833478, 0.27132271677610276, -1.3675931249454811, 2.880439211605428, 0.9437239709573297, -0.35076354694577294, -0.9907554886173233, -0.5055363770751473, -0.26186936674450956, 0.4737779333906021, 0.2528100857532846, 0.05357021162993825, 0.6254034784550135, 0.8061999727018936, -1.5495290846020533, 1.3653596401781625, -1.6417691806133432, 0.6432936725321857, 1.0796870643297967, 0.27026778594266293, -0.7849460786249055, 1.0204565508951469, 2.053136834950789, 0.49033617034593907, -1.2642609958962447, -0.7569422339300298, 0.4109159232205457, -0.47034781124761127, 1.5116574361806925, 1.0356922667959403, -1.0836704362307805, 0.26232711625841265, -0.48644756054162863, -1.3463014969565823, 0.29774409593747414, -0.0019495538915509888, 1.0542765874362514, -0.059182436413236485, -0.4733939108384998, -0.4364934450866191, 0.6272961440514228, 0.7901958589065718, -0.4435553806692512, -0.7085778051675763, 1.7110011078722271, -0.0391607113700211, 0.027854627811198122, 2.60363135544249, -0.8528716675845182, -0.6002336040904613, 1.0497632288312815, -0.9727201931587137, 0.33963450757118935, -1.717959721411361, -0.2877350067170381, -0.17945549022866278, 0.1626313973944684, 0.6447482363968591, 2.2823576871943168, 0.8974705185942614, 0.02795927876252956, 0.18740954312662111, 1.6192611800596612, -0.30996236961898294, 1.206211688580684, -0.3450489970627208, -0.2393823835839155, 1.043243992821443, 1.0806058787250408, -1.386106679585947, -2.4063889262453815, -0.5895762847939293, -0.9988750493833463, 1.1473353454093942, -0.5996258999078613, 0.899493765754163, 2.1198716742764825, 0.740724887888431, -0.03031226641675188, -1.5891282447585684, 0.7026017741655376, 0.37186493273157334, -0.36379969623934, 0.17863071257856622, -2.102317598237075, -1.472411194344982, 1.7318700927114998, 1.3821326379594447, -0.31707374129108196, 0.3668801844496985, 0.7748350603375356, 0.9385131488863121, 0.8966662575807628, 1.6585590725754722], [-3.0227896464753137, 0.7345212671638303, 0.667169020394096, 0.2663866989865188, 2.0792934457876484, 2.063879285135074, 0.509047640492256, 0.7482666149356941, 0.9716353163045037, -0.5461850553600544, -1.0214449377917574, 0.05434025351504304, 1.9435849183537222, 1.8287244323616207, 0.014136014819216064, -0.5893091019745578, 0.9959315530068479, -0.9407487957238386, 1.4045571116100284, 0.46643286879759505, 1.1318205151964607, 1.1192884493533364, -1.339084310139946, 1.0232939511219856, -0.6338334417583606, 0.48570071166760265, 2.1900513604597283, -0.7671720440179792, 0.49598808334142963, 0.37104890229893617, -0.7963248942060134, 0.566588308355714, 1.0021302408491917, 0.20975180914822894, 0.0021583319647653964, 0.7257148719358262, -0.11233739835221626, -0.4269125788706938, -0.6853639260330705, -1.6129049511507898, -1.4082210850619052, 0.5733557476632022, -0.17723783950431546, -0.25700373893218603, 0.04187400548034408, -0.5162880781787474, -0.27236542647151646, 0.5543701088759165, 3.0272346119680864, 0.16953170494595876, -1.152112955899058, 0.3378412019756645, -0.0454607980621526, -0.05425060072973147, 1.465486474427752, 1.2634447374293307, 0.8214026325154469, -1.330453444998166, 0.7681678431331174, -0.5692553431255225, -1.0590044230390778, 0.2265851678023464, 0.4860711701467376, -0.04737286684865697, 0.5393317248150467, -0.6344573281084104, 1.4747563566373358, 0.5054622501397811, 0.5829372055171721, 0.019377326774056833, -0.3847424603176249, 1.6281043711232215, 0.6628806032540174, -1.4062154825091828, 0.34890527687363104, 0.009420972233263292, -0.77802029522353, 1.5400637917734943, 0.2386792611985919, 0.25324523654062253, -0.2051190624039836, -1.1648887591786405, -0.18481958406277885, 0.19819555864541497, -0.2351418299035795, -0.47592022561172187, 0.43088784516877837, 1.55693938555222, 0.16859730064238923, 0.7650767537289507, -0.2199095868804876, 0.2683279687137092, 0.10227031582835219, 0.5072747348508803, 0.34984207515833987, -0.12209001506802199, 0.6758359976421294, 0.14675822394664065, -1.4857139561928385, -1.1439954719878047, 0.3061090445467997, -0.953962632747171, -0.19043244478683555, -1.2100840153127093, 1.1579029317639147, 1.0741595333847718, 0.5238663246560183, 0.04580238186063467, 1.131642372407159, -0.03592451765407742, 0.7556364153393981, -1.4808629761449141, 0.2487460587092994, -0.013802714422271682, -0.5650197055662368, 0.7424170158934233, 1.3544891548793505, 1.5582512480055923, 0.1473664945410728, 0.13838499355007156, -0.4617019414256781, -0.6444814987783489, -0.19652788971940713, -1.2806515563674044, 0.9270842022217403, -1.1936643748619506, 0.4209908439002566, 1.76470708267904, 0.9505777383851385, -0.2542970351507552, -0.3895049090852409, -0.8398947161117627, -0.7260941083024505, 0.46507858093940735, -0.43948490436670345, -0.969597396235836, -1.202199299423692, 0.5932466534651168, 1.4840599715853968, -1.2859559506333245, -1.6097238322820575, -1.6836283592794838, 0.33813855104475127, 0.9043519288700926, -0.3110581537501343, -0.46100133943829646, -0.326050005309603, -0.8190969518446206, 1.2126991952521187, -0.08929936174252992, -0.08683260029294405, -0.8167393417842178, 0.1984826231455136, -0.3745783198525448, -0.3144722806876049, 2.1174550560420524, -0.6327770803135508, -0.35809876628828946, -0.15328782661198523, 1.070443185696111, 0.11938109113677695, 1.404355456365164, -0.44905069464442904, -0.1830056920130725, 0.14883869138682806, -1.1581433021792913, -1.5132685008721058, -0.5484476930882423, -0.3543002020799063, 1.4096206977229826, 1.6796178799184103, -0.21246157748023262, 2.103561190375846, -1.310783491599463, -0.6393545042509217, -0.054632247859356955, -1.0384386557811591, -0.902541473615737, -0.36847996888702667, -0.2209091354602673, 1.7210299335101522, -0.41360861299937973, -0.929685023439124, 0.3231149944826779, 1.1871853355061008, 0.8544033596192651, -1.031022712157643, -1.4635801652831886, 1.527951615247383, 0.8469960992846738, -0.29034123692474545, 1.465065992236691, 1.4991021942189853, 0.004354941362435346, -1.3375645715855304, -0.1779241999835784, -0.6337072869036017, -0.26043748572629966, 0.5033126559610096, -0.3527808349652281, 0.6324391650208361, 1.0498908186476554, 0.47027484744309855, 0.30682301790769534, -1.201344299518333, 1.1101370001018707, 0.5587527555202997, 0.1451895526709839, -0.9910742359030651, 0.17401956104013008, 1.5436245393453478, -0.49691604647303717, -0.2875926069266029, -0.4935597616617381, -2.0940400877859293, -0.9639942640676981, 1.579592566308312, -0.45007604081619773, -0.19851615867129271, -0.1153121014441637, 0.620634517827748, 0.7231167643390455, 0.3881589684259398, 1.3271650957624423, 0.09013483934604916, 0.23594519793973281, -1.1879803928148376, -0.8599488794420455, -0.7087271908834897, -1.3619840456390115, -0.7930431174184742, 0.23467893447355323, -0.2164275537599476, 1.032432869686256, -0.8656388070917882, 0.4795117549759305, 0.055304081585137006, -1.1861118569909035, -0.06283877213901248, 1.4973940771005745, 0.6809662482568523, -0.6478015286338448, 0.595134318194259, 1.1747381361745632, 0.6890268948844931, 1.0065969786381352, -0.6481973574207712, 1.195802517687757, -2.919395728764493, 1.0884033418708818, 0.3684375535885556, -0.9425742203625818, -0.7738462507480596, 1.0390039166393463, 0.09695165522575024, 1.8017417076668285, -0.5880934467525182, -0.16431619985704057, -1.8402267351902237, 0.040783867918221056, 1.7219359733688664, -1.1587343549925313, -0.9580816320493761, 0.2555307889974018, -0.23054710314939017, 0.4093511913041569, 1.3956347764771828, -0.21700463061871986, -0.1724889984289259, -1.240984080531197, 0.08580429968017908, 0.27274263626332246, -0.6402795489198542, -0.009137557487786425, -0.6810927122048251, 1.1489243499181219, 1.265120226509711, 0.48759408683040634, -0.11034717342024736, -0.28093092188717506, 1.3806266850946787, 0.0019720025111398458, 0.5436149018139862, 1.1863537510165525, -0.489318762874644, -0.9972403043642623, 0.881367743771918, 2.5911892866943766, -0.5312214348081294, -0.8582443452558843, 0.35890998699872817, -0.20676454405841233, 0.735550962648857, 1.7547609278852725, -1.7294382226467981, -1.4286451648454275, 0.6699720452021602, -0.4548777855204436, -1.1793711802348004, -0.02798238618857848, -0.9503958719110178, -2.427974607966023, 0.7112475259113177, 0.06323042414794822, -0.5379158004742788, 0.3940764352292051, 0.6371485993513484, -0.30345298855565395, -1.3264976704582971, 1.0315739883705655, -0.45603532277392456, -1.9289994888064907, 1.0132570584400755, -0.19336472121100282, 1.5524332071880032, 0.4111301885856434, 0.7728492150251091, 1.370421401597825, 0.5043824685033284, -0.58351105064848, -0.887921965522627, 0.2753258696077928, 0.3587953005025722, 0.15203654181404525, 0.0009056865362899076, -0.7507972144096016, -0.9542539076479741, -0.6017157814232051, 0.15523910976593008, 0.592257301923798, 0.15214508080250505, 0.38054484282730566, -0.5118376155959597, 0.5711773794460182, -0.49116025667715035, -0.16828692258582767, 0.2654972469169572, -1.9422738605254568, -0.4629873851018991, 0.10939981243058444, 0.33626971640922027, 0.5645689668496789, -0.8854604430601232, 0.047405446641032474, 0.9652899054326282, -1.1573609105790688, 0.20731976236105581, -0.7013414329645095, 1.1488363777157677, 1.0067571357872653, 1.3891668369418328, 0.049902588690035346, 0.3687793906655724, 1.1940096719696787, -1.732111120102384, 1.2241168180744157, 1.2544027018038655, -0.7474510858866334, 0.5835989075818424, -0.174661163264671, -0.38189762786154174, -0.32431526355795626, -1.534586278241317, -0.026098204462021848, -0.8674826951325975, 0.47460554928081666, -1.1930211188801216, 2.0218788678202335, -0.6614423772528897, 1.9236285760519318, -0.6302291357809034, 0.7409102651138209, -0.20458245261660707, 0.9705307530817932, 1.4495113179334285, 1.122983592105332, 0.4165608232412852, -0.22224011849037117, -0.90857921815812, -1.0667499983537083, -0.19083957141681812, -0.870265612407024, -0.7725916401932188, -0.8445726431436996, 1.2001826826591937, 0.48580448828565426, -0.9723285737072429, 1.6172256151605686, -1.6743296707244193, 1.20562306435924, -1.3712117865573823, 1.634058833173002, -0.9278242882809715, -1.1448609657637603, -0.19629446571842882, 0.9532765186799439, 0.15912005915524033, 1.4698206400789386, 1.2054909978249757, -0.3450509158550849, -0.5460141194226664, -0.8195244557138297, 0.19569812358966163, 0.2333793884708507, 0.4885073578512297, -1.00710599421661, -0.05131013342601575, -0.15065078703696044, 0.0033969732682624354, -0.013733956022235604, 1.2355382851787966, 1.6423364298490255, 0.4397045123648396, -0.6927456310186442, 0.5596382216484794, -0.6523294701310972, -0.629070240606461, -0.8019242546444602, 0.45785169942190224, -1.17434405962166, -0.8749344230884998, -1.5864982043179112, 0.5666017030633834, -1.767260356897217, -0.3129455820750378, -0.8684963346524116, -2.0259161712448224, 0.2381176363785875, -0.8875568735371612, 0.6204117209147684, -1.1848405772614166, -0.12686998156645518, 0.5992065057828134, 0.2760787894384967, 0.213165462599622, -0.02162230299160386, -0.5188515700109554, -0.46354999396374735, -0.2869565341090358, 1.2600115862300336, -1.3434789900743487, 1.3629191997295491, -1.215430579102993, 0.05201472777300509, 1.019815497790668, -0.20116244342651154, -0.1995891723640062, 0.7883898386962963, -0.20079461668118265, 0.9421598356824618, 0.8336701362281146, 1.1662072466038433, 0.2619129579837061, -0.42509324675965093, 1.308040369724562, -0.5090022234963505, 0.6328355863633132, 0.443350027909347, 0.47272814504292227, 0.9707603185338428, 0.6632554068840467, 0.5498027074570984, -0.1918288690469815, 1.3864963857511257, 1.293646899673479, -0.7893923686787682, -1.1817516568794324, 0.045654283143738636, 0.9647551514452749, -0.7602350993260086, 0.6199265796217219, -1.3035008323304247, 1.0872248878787603, 0.1733235502794851, -0.4424343218242739, 1.20765978832566, 1.7409719708554785, -0.14488933531954473, 0.5570402870093748, -0.42580299669726057, 1.948340225010856, 0.9431191955971855, 0.43757689877159894, 2.445706827163864, 0.15188315315301767, 0.3618438761134411, -0.4737626043206338, 0.10720798294145992, -0.27493204109300595, -0.3584156753282703, 0.07239463921074807, 0.13072432075269244, 1.1205826524325777, 0.5072491345213185, -0.018900254609155002, 1.2851761137676099, -1.7044319264000114, -0.15883268741194184, 1.878086522623543, -1.3793868156111662, -0.5703949160167189, 1.2270891334736989, 1.247236725098876, 0.67972981954579, 0.24400501227323568, 0.04248660954992488, -0.02576956844188649, 1.4933947495206583, -1.3351651725013243, 0.07279559436094861, -1.206114461838444, 0.07789415483794354, 0.8787344186293603, 0.8366215097447088, -0.5676894284974249, -0.54454874487126, 1.332214190114063, -0.524734728537509, -0.31637880944379126, 0.45983329134313017, -0.47480295451075705, 0.02608189462105572, 1.0197458251181688, 1.3212526896657102, 0.27892058060226577, 0.0037446108708719373, -1.4310226920510807, -0.5770070298960052, 0.37160683156013063, 0.23897591769063126, 0.43209716139235826, 0.6546683216738257, 1.0342526946323187, -0.5355771715011044, 0.03357322153249859, -0.6346875285043562, -0.6058384041248045, 0.09839156815712206, -0.7887906980172836, 0.5043711452961501, 0.048086224709702065, -0.12627758462078312, -0.1733958346231183, -0.42186637514822334, -1.5498108473923082, 0.8639144253485341, -0.045464887666763376, 1.4215578682127608, 1.0230044837019026, 1.119046603274017, -1.9641385294152656, 1.4930247092923312, 0.7243467071501297, 0.5189639164180757, 0.8263831150763997, 1.2716602072673036, 0.2781055153655091, -0.5197582646802039, 1.0946706507301485, -1.0103981762920204, 2.123856953689997, -1.2451000466255504, -0.5035864869231774, 1.0498753141362442, -0.8022437461979345, -0.028816784912387133, -1.6360338377567278, -0.2078485385354885, -0.029031655217277796, 0.2530084806575124, 0.672463439304669, 0.44985424571946464, -0.2704256127164102, -0.7387691765220544, -1.7889903606570925, -0.01833788447642942, 0.047036947015630846, -0.10609730171163717, -0.6305420150032243, -0.041958642358987476, -0.868816079795477, -0.0878005592537789, 1.597353946251367, 0.31633348895576185, 1.87877681469048, 1.411279414629989, -0.9842313381869862, 0.9667281841169154, -1.660370330414174, 0.2625486965008073, 0.5561975212343124, 0.18057835304686584, -1.0484665826669544, 2.600225544466811, 0.7015343367440741, -1.0245326541570616, -0.29881725473652626, -0.7165154640619593, 0.41004929173307325, 0.8012060486532036, -1.1457195127269892, 0.6786227869123187, 1.8457316032074709, -0.502108499163898, -2.244003835426371, 0.8061825757276159, -0.5475110727290892, 0.09176494688857072, -0.32464330747350917, -0.4975184350687482, -1.0683249679631115, 1.039824672658318, -0.2824814144202314, 1.1579762362512727, -0.5886910981719715, 2.113436169378572, 1.8572029813373814, 0.34879721769394434, -1.716282460464373, -0.15287085606818027, 1.1317236636455135, -0.8422311905110644, -0.09593448729667321, 1.1641266302804316, 1.128347151935632, 0.7913890247966183, -1.216182107934332, -0.036062474954957374, -1.6953254073718147, -1.6570658515126035, -0.6235992108126095, 1.229908004874824, -0.9346158884285557, 0.7886986075983334, 0.2159912233091495, 0.298917169896536, -0.7244256051676595, 1.1005230465486364, 0.8421817256149444, 0.47297344150437226, 0.5344908203649129, 0.3229592392052991, 1.5290970138616518, 0.15746119164496936, -0.19040024105935197, -0.48345220634338876, -0.0637146946076045, 0.6176943342874285, -0.1489801764804045, -0.3466079492488165, 1.801154967419817, -0.24316517971187007, 0.8548436010361127, 0.6075638308109398, -0.6408294367632553, 0.8285827564820206, -1.0733441162751303, -0.7448449112419214, -0.6992873339749393, -1.8204097444345064, -0.5291943349964934, 0.3318039361549834, -1.0869301377072, 2.035718348016389, 1.6999811008223584, 1.4560382921788404, 0.1184414979160315, 1.927676684491867, 1.3789042195205548, -0.985951273630181, -1.8285599379504551, 0.5810540606376761, -0.8210055591691614, -0.17006433697269582, 0.41773542933340735, 1.2159333874597955, 1.1004123756303894, -0.06367789495134632, -0.130732508308138, 1.4114075668811994, 1.7961364386915895, -0.6793613713901299, 1.0088517232870648, -0.25581162354141684, -0.6808203667997466, -0.5458793370815981, -0.5511684217030666, -0.21902366080304903, 1.161934544565897, 0.12170409990547282, -0.4317754885689586, -1.1466204567570886, 0.18341362725204566, 0.7313764023818758, 0.4283246168754452, 0.9922274536615402, 0.43909555041715365, 0.8879742290927995, 0.7073721889449905, 1.7977361732933723, -0.8983018601202423, -1.3070668087916149, -0.11996421486675107, -1.1859895623940235, -1.9195482977042997, 0.18974064418342368, 0.4570457791730893, 0.02483752786156273, 0.17371097377655836, 0.37590738605535257, 0.4833015409069775, 1.2628619431202244, -0.4843061445979564, 0.7926879978214099, 1.3456233695375652, 0.12441667994830286, 0.5531303135303939, -0.5530091702051192, -0.6781312932399323, -0.7127357264153329, 1.445786235212423, -0.5649171059145655, -0.2804843133522805, 0.2314176667822976, 0.2737311078934647, 0.8735598931267812, 0.5781466161374068, -1.1579268440890282, -0.9597107309545433, 0.2652051934797405, 0.5652053779838853, 0.029392009480765122, 3.2685842563147545, -0.13719951874510752, -2.020434919070237, -1.8173895777349118, -0.18325354465999175, -0.2969236643099334, 0.15190696598379128, -0.3364153324832375, 1.439813846123023, -1.196968086978813, -1.8881146024698021, 1.325384205962154, -0.09161974953364205, -0.2192770748644518, 0.5020064468327422, -2.1424620454790833, -0.11067910027954594, -0.8884623155567214, 2.0824530591479977, 0.24238993215898702, -0.9054655374497805, -0.6616916280031143, -3.458998038136155, 0.913237384397926, -0.09733671284629423, 0.490212351410037, -1.1188089608404646, -1.186231456667756, -1.2360612231474128, 0.6466971403577395, 0.3010653038958155, 0.34821999821035177, 1.6307548891389176, -1.0264786204399092, 0.24099994047840773, -0.4036396328297008, 0.6597158507593155, 0.29022118524484447, 1.7902053685024832, -0.5978106156965584, 0.19734126593126458, -0.7418204268890487, 0.29207779017873753, -1.0035839966858966, -0.3356257918027769, 0.029312352656334206, -0.3663977725008201, -1.043784396307877, -0.8275272716166383, -0.2585734384088928, 0.25616011304192876, 1.1237632465948526], [0.6516735372704812, 0.5275621196361064, -0.8850547052098136, -0.8116411515735134, -0.5230563383137612, -0.2141552343061605, -0.34172542510630555, -0.467368465763252, 1.352560280096648, -0.4430355083998583, 0.24077841368402308, 0.4062011928163952, -0.15033354323587508, -2.2563118082428812, -0.17478044392117806, -0.7128346930094922, -1.553989329631746, 1.1081114098449591, 0.9782601597895367, -0.769386111626745, -0.9002934180676254, 0.9067633643520693, 0.2610309280813916, 2.1871578162090404, -0.8134211871373697, 0.3590458639752744, -0.722438322053405, 0.6166538656422769, -1.238552931526909, 0.7152484339137692, -0.7308576900853185, -0.7116298954752021, -0.4912499051791623, 0.21245925878735117, -0.18374164285646816, 0.5333861261337162, -0.6161092346579552, 0.38859822292863966, 0.05499421412231182, -1.575461388968902, 0.029457343928737407, -1.0593386205650532, 0.033800198962803736, 0.8396790780928978, -0.4104298577814026, 0.42910852579699743, 0.162305944830277, 0.5546628405989548, 0.4184547163798483, 0.01284381402176844, 0.5334329028005863, -0.6734642922346918, 1.2395348783101803, 0.35311523413355533, 1.6584640292016277, -0.1847674382350752, 0.24140583444626232, -0.047460678773621354, -0.18430751050695243, 0.7904687697158471, -2.8140899190495245, 0.10115925375937797, 0.9419756185649293, -0.15175774995472682, 0.8845614079551977, 0.12372477297908761, -0.49722205454162405, 0.5112301957196577, -0.22712010836327995, -1.218580414162288, 1.2957546439402488, 1.0788854024370744, 2.1826561873209323, 0.19287272511036851, 0.34717754740016726, -1.180271964314344, -0.6636232319911627, -0.0001434350063859203, 0.85647608800438, 1.684476785164062, -0.43627711596025054, -1.3822457173692668, 0.7421827483738125, 0.24040595390273095, -0.40811754625844954, -0.6147426242601749, -0.892478561204621, 0.07101298217877564, 0.2892659761109667, -0.2979880408027821, -2.3434011181045324, -0.7931735484528021, -1.9995319491806496, -1.2479922340034462, -0.4834390938322519, -1.4077507438004193, 0.18892781930695846, 1.6782922606497435, 0.5153577040115428, 0.6604753588205233, 0.07158260064659043, -1.0411501528364169, -0.13271191934370935, 0.9702631019327226, 0.5765054106969196, -0.5394983974169906, 1.5715341874480802, -1.2355491958993687, -0.5408883603292924, -1.1208194075773186, -0.7625966949489053, -1.200774476839625, -1.1831825821795332, -2.9375641817442717, 0.4603856338417113, -1.1838183231849695, 0.9249168471796809, 0.9295073578898335, -1.0223213056753147, -0.22026653576295527, 0.8330960394138608, -0.6254372996285376, -0.5460150838295419, -0.7803574590730137, 0.10825403871281031, 0.024637747882981793, 1.109706164926564, 1.0277602895573184, 1.584107047627786, 1.3442921615154404, 0.3716722441072437, -1.1020465135881756, -0.4724584085272969, 1.6711682169449833, 1.4349910958228627, 0.3836365887507264, -0.7862512884245206, 1.407923947434152, 1.0598987715877262, -0.34866370197174856, 1.5835816897841042, 1.1427263483932406, 1.4219446804461215, -1.2792453594414765, -1.341780909806271, -0.2273732331145893, -0.36281928274398456, 1.1474337049878143, 0.20321137933404707, 1.1618999669374892, 0.24430443186008385, -0.48357592095379104, 0.12125759697034474, 0.3511904626536266, 1.664644838925407, -0.8178904572220138, -1.5781590986253498, 0.3035052278212998, 0.24137434901635813, -1.3397053471350875, 0.699761971913138, -0.7278033138060549, 0.18060992209632898, -0.8053161051283754, 0.7592407572159682, -0.09842494574953962, 0.6913989552693615, -0.10706219991282816, 0.6450476903292508, -0.3281692848216567, -0.18363280539248353, 1.1217844304209381, -0.16153971016395166, -0.10011476774055997, -0.451746165525532, 0.18789362514474986, -0.43083910312163454, 1.093184033735085, 1.4353058788250408, 0.3158299334575093, -1.3910010673694602, -1.066058532240736, 1.2070487917206154, -0.8203651657698343, -0.009508462593009512, -0.4467950498548236, -0.5258684485304072, 0.07428860603257592, -0.9834330899647294, 1.0864570503237927, -0.0756637147504654, -1.1340978511549988, -0.26629456586307004, -1.8916804221744894, -0.3006943875551296, 1.2315660205415726, 1.750427893264864, 1.4795828523892975, 1.3014757748122248, -2.1914051265914107, 0.8737942680258538, -2.0813565259225455, 1.1009437355011993, -1.2968116777439853, -0.5781668963183637, -0.31611675801397715, 1.5022978582779298, 1.4764244140629514, 1.4545369306667073, -0.19367140326952414, -0.95832073040008, 1.3050599572011325, -0.4610382973429754, 0.26622832669080204, -0.4122953091443249, -1.2141732906650002, 0.09892953042049171, -0.0012127516221244572, -1.174204070063861, 0.6523664487196216, 0.5061362793808334, 1.4732998372701211, -0.9291048623412231, -0.9519989212125568, -1.651750002490658, -0.7590978459245772, 0.4874199250575659, -1.0545931165645497, 0.31217375169809763, -2.0091224538851216, -0.417125441915713, -0.4929244608301305, -0.3106975940613888, -0.4422838263785651, 0.7349168468825465, -0.2988149123687912, -0.06999800029482328, 0.31790059938755766, 0.42324826448255576, -1.0590542125513045, 0.5217558277816626, 1.0307289798176555, -1.1331812165274815, -1.7152866404261, -1.3841663558309045, -0.4780867254873426, -0.08382592437700802, 0.05698458619376189, 0.35664047991932574, -1.4452706617381779, -0.03160580131526429, 0.12174944341617885, -0.13438448151197216, 0.1299255206223217, 0.09624874023360525, -0.08432192176996818, 0.019149183509765026, 0.7689700133347734, 1.322695661011515, 1.3330131308983875, 0.1806196687351358, -0.7173460841322336, 1.273061493607867, -1.1797794990115344, 0.3655470626546846, -0.051679951052116535, -0.09107118143462249, -0.3694556583209391, -0.05731729773516977, 0.0679822904403778, -0.23423758940834316, 0.8856533132153462, -0.7746547438837015, -0.02289277706269905, -0.07099502081707659, -0.14640849513228252, 1.1770269571010967, -0.46341161542150494, 0.5457987769745564, -1.2854594608321308, 0.5323822198929061, 0.483273298639875, 3.07191003838059, 0.4514334180975436, 0.2584018913243714, 0.44733244629807184, 0.9837629319748281, 0.8247935949466595, -0.1773531232402467, -0.2123989371280613, 0.691323994134447, 0.11194521206813998, -0.255672470900941, -0.2298770188464859, 0.44619867365337684, -1.0987717364024532, 0.2235645403124288, -0.2318699322937837, -0.16130257800847067, 0.09247872214387749, -0.3479684604147888, 0.40242764057455305, 0.022131398906867678, -0.0374278760538172, 0.3020835066837647, -0.05874771507145538, 0.07848624893319889, -0.15123843058794875, 0.08656453007681841, 0.2739289723115714, -2.1297093394803412, -0.21500499729410516, 0.7172397128374753, -0.24382197463642233, 0.7115415277751466, -1.1657389127018207, -0.2805017259704934, -0.3203477397470203, 0.5375834544476741, -0.5265557983945963, 1.1546609783600754, -0.8679363110682194, 0.730545436504288, 1.190291732622155, 0.038581270906725834, -0.24668896402547724, -0.22310210937954733, 0.7848243586588194, -0.601963145718585, -0.262476311949031, -0.722190174533611, -0.12034959252168442, -1.5401422767940762, -0.8120592929703496, -0.6490985465331606, 0.7636114227599895, 1.341524986647562, -0.017048142398858886, -1.7292190889804802, -0.33163780499818496, -0.8374963158942443, -0.30694387902360937, -1.8568476329947403, 0.5092592473842641, -0.4539401546886726, 1.000539542563471, 1.0875671120350257, 0.005168792237120996, 0.0020256926931905917, 0.02437527033386456, 0.38421323226423887, 0.5908940897280098, -0.3695752319828121, -0.7858060604677398, 2.020724550078476, -1.2620946558958743, -3.0177994242656836, 1.8924724945461997, 1.368564414248516, 0.6851100260125643, 1.050199923718647, 0.6863780314591116, -0.23655667216817985, -1.8520261187739675, -1.0196807959931415, -0.7120978628364891, -1.4363238358124863, 0.651727343634065, -1.8529812699573363, 1.0659815169502478, 1.539693136618915, 0.7960489974670948, -0.6417461846686237, -0.29906753777970174, 1.4629135649755882, 0.2672449619935695, -0.35190291206273255, -1.2900635808924605, -0.021491100607514378, -1.1361992636199052, -1.5054824391143944, 0.24959285838879902, -0.9148183762681139, -0.7240057882246007, 1.2839396416405613, 0.1460014989807887, -0.43115597230059327, -0.19967953135832564, -0.17627534170525888, -0.38140550605179474, -0.5163027814947547, -0.6053766951150023, -1.1558198867984832, -0.44233969211525104, -1.9176221546284726, -0.5407610304473762, 0.5267300793670592, 1.2200081682403254, -1.2081934567385668, 0.7362942531717721, -0.34733465927062596, 1.3827722209390167, 0.48713079779356677, 0.006334171322264758, 1.1907846513825566, -0.2834560948591016, -0.760327253124102, 0.8151951868997311, -0.060086255755193066, 0.7867251277377942, -0.4293072065259676, 0.4902326974475909, -1.2215634937355278, 0.895185364032651, -0.424078088882176, -0.7388956440243264, -0.18520151372894192, -1.8439852803423902, -0.06590422832931847, 0.9343183800660608, -1.5350145510753113, -0.5313571569122314, 0.6603948623570638, 0.29939287617560506, 0.31224553912104525, 1.1889375097143935, -0.8781793699171002, 0.5614001946146688, -0.8872489530135054, -0.842453964593473, -1.3628185743270018, 1.4731026448334463, 0.3987622674848485, -0.7534218085125296, -2.877377938870342, -2.2622516560452914, -0.04682826019060097, -0.17164472123289654, -0.7283826331895621, 1.6012408861650647, -0.6339086692589032, -2.1771258767909907, -0.03679912501919529, 0.046322977205532335, 0.4600946513184766, -0.3591804627275127, 0.30037880040101955, 0.7923466601280807, -1.3130676621317992, -1.774156496086236, 1.0556561965261617, 0.11901688199184486, -1.3386471236757662, 1.9538607868439437, 0.5626021977981223, 1.303656457653831, 0.013190650962238563, 0.3750572129168027, -0.48962674871021966, -0.9895941914884554, 0.22667417489976938, 1.7300793154863445, 1.9490845325555646, 1.16410057131934, 0.17408458879666106, 0.1698472025961019, -2.423641434507401, -0.3289233767410508, -0.3883176175939312, -0.7858513790005522, -0.6666781082860973, 1.732285847804053, 1.2093568014446006, -0.03422088767888604, 0.3246512965358539, -0.42511786458005457, -1.23811192927376, 0.10549580448461628, 0.9807096541594112, 0.2529788707056426, -0.22748224088137078, 0.3250797126606005, -0.4073281903108562, 0.6241752580817173, 0.6003847063631518, 1.6307427006172386, 1.5415186478738192, -1.0299937513827668, -0.5462195375452865, -0.18194760470469676, 0.4384877478496661, 0.061706777672467815, -0.304558439131248, -0.7641081432945739, -0.46271111295018025, 1.3908059199053058, 0.6604922062628044, 0.10681466621531033, 0.42942769891796534, 1.7977238194240475, 0.5055146250211278, 0.6919855735893142, 0.6532561544966107, -0.28353576976545325, 0.611491789162389, 0.9001909859237226, 0.6420517317860336, -0.851656871539247, 0.9911278488732397, 0.4944842185193526, -0.2873116605281101, -1.0177579709437552, -0.08783242126462282, 0.8023588996736274, 0.46719507072196614, 0.970865893484104, -0.8820442994294436, 0.8828473264551945, 0.3049136687755413, -0.5644232883529418, 0.6186885440251817, -0.32371335114927113, 0.13234531929273738, 0.6290881527866782, -0.6657238238910406, -1.8710294148797548, 0.4528929225917692, 0.006838785459661562, 0.2121260582754929, -0.9995560535073165, -1.598858417460219, 1.0704651704641561, 0.8419826007685635, -1.2962215028713602, 1.276611242362501, -0.1773070203820513, -0.4434562670314934, 1.3600252526636336, 2.5049236943567683, 1.1223827576320768, 0.18472770395770988, 3.0903553652707516, 0.1928063707207881, 0.7452860415462024, 1.3501843804030933, 0.09710145820763436, -0.17833436775502381, -1.8741492674300526, -2.0479665975871115, -0.35751490184751067, -0.7546562233997437, -1.585620474936088, 0.2575604253240067, -0.19537578169576042, -0.38284152108811964, -2.2603214242224388, 0.409565016511852, 2.254134650593363, -0.9935510329327653, -0.7212239972345132, 0.5288430611345322, -0.8320986301310243, 0.3227394328139965, -0.27069413495240024, 0.9351430656447997, -1.135088835061239, 0.9737422333705443, -0.3183349604618415, 0.8204773232352626, 0.4920418111673327, 2.1270775056582223, -1.3853585820038523, -0.7988441365712271, 0.20538789099690888, -0.2979621771115621, 1.1511511894152844, -0.2533713084044716, -1.320165825789696, -0.09044062995708638, 0.687447093119154, -0.8663167887690566, -0.1040830158891709, -1.0048113397022966, 0.015993702830705243, -1.1307028217030708, 0.8969833915801775, -0.9927345315761333, 0.6608637554722533, 0.7072949208762737, 2.3906140401623728, -0.16840367439059967, 0.11986495613587198, 0.22208524042912692, -0.24965495740084445, 0.5052072171059738, 0.30490795462274717, 0.5853489182626231, -0.767391924262413, -1.71612708823561, -0.30065141904102244, 0.1747756819420587, 0.3065578741189411, -0.2454623422804232, 0.9305526443380829, 0.5144611994035514, 0.19626397571336493, 1.0083667631735893, 0.8219548904899994, 0.9807233856654697, -2.788414902040305, 0.7821236932012378, -0.6198292796250849, 0.07151256121188683, 1.2195172782266477, 0.12038226663011029, 1.3860925955806085, 0.06708441912251904, 0.004899390691469931, 0.010026342742643897, 1.2342902406724232, -1.7206453582926033, -0.7343256036349308, 0.37258181140264485, -0.9131205853132022, -3.249496839240481, -1.2267584038586998, -2.0798169407090223, -0.18592313405332606, -1.513927012285871, -1.1210955524333899, -0.9167458276403584, -0.8678082614971013, -1.286353808411262, 1.2618807178675646, -1.2816685839312254, -0.29126371783298044, 0.2700636439745171, 0.07308295159172078, -0.4883722331424086, -1.0966126861082401, 0.04781032682490984, -0.9109640833555829, -0.5527549880151211, 0.2550869790095979, -0.15600642397002842, 0.29728411673585603, 0.3009611004685348, -0.7773710372253634, -0.6434370905281149, -0.14802408522345917, -0.4041283023999537, 0.11565366203367894, -1.3870824149349081, -2.3339192312266177, -0.9017413805249808, -0.3535959026280608, -0.24133625927961766, 0.9252187488172928, 0.4719309847068986, -0.6489164245707927, 0.5475901442107189, -1.25439730944928, -0.5179129316212492, 0.3295442511968153, 0.7189398174805168, -0.38407483119901703, -2.4834024451566297, 0.013614084853591371, -0.41530491961149574, -1.008823738870805, -0.622604014126593, 1.3745178497825234, -0.5390157031223765, 1.38943130859755, -1.4308812422163042, 0.7231391978624216, 0.9721768573797058, -1.2084510988985828, 0.6843575457515336, 0.7558744015585883, 0.9156948602677015, 0.5676669090431629, 1.3395821424488124, -0.3859831833168363, -0.5875670131242301, -2.4880213359259047, 1.4761668024910999, -1.0704158882454164, 0.8291054372956377, -1.1599572603451547, -2.405299833905982, -0.979576438078868, 2.067908961051941, 0.4540463995696199, 3.021711439728595, -0.5522792167697401, 0.07140990869846742, 0.1268079555467603, -1.7043375988457121, 0.05378721678481953, 0.3152337161586464, 0.8311800919264773, -0.8759852850962213, -0.9067738920916846, -1.0927769635623774, 0.5816898592048979, -0.5086436428769603, -0.011353591290352587, 0.31542188991516057, 0.7852241977709099, 0.25827696222146657, -0.9453244772412487, -0.972460453428305, 0.8777459174244417, 0.8444810339821471, 0.1433078292437859, -0.15349207918059748, -0.19335155315437072, 1.3954329848588842, 0.6684698182753842, 0.7405884606154834, 1.9309484082362904, 2.4254265774821597, 0.7755514623298339, -1.273637561416125, -0.6106983214510077, 0.9121286404044044, -2.0265882836764946, -0.21815883580663215, 0.055129589329266045, 2.127851804280035, -1.3945765811417332, -1.0409778076466045, 0.6511014125223059, -0.898264410149749, -0.056957869846103355, -0.4841643149723384, -2.048273607865669, -1.0888753183270194, -0.3156884678825276, -2.2839364741059587, 0.7673817588789754, -1.8246630936678188, -0.9409332543565283, -1.229083135726411, 1.0067445656639367, 1.1927446431881146, 0.3897613030078099, -0.20670451848081714, 0.6089674154041992, 0.29711680814965524, -1.0813655690215607, 1.278592961950734, -0.6364817116671724, -0.5962182000966422, 2.588064091219284, -0.8670543833512708, -0.6836952540959544, -0.298669689138016, 0.9732000720383911, 0.6145961967360364, 0.4559551081653578, -0.0574723528340434, -0.9557138782139056, 0.4455294609367164, -0.3866574547098275, -0.6578039823514844, 0.045854744357036195, -0.45057666207176067, -0.04198256707363831, -1.0025240874194574, 0.8740715659077224, 0.8076706492747898, 1.4486236552439096, -0.7999311150982903, -0.6520524053736028, 0.6712388712916736, -0.4176130553384603, -1.1485340418952825, 2.0530082481034913, -0.6442516909718246, 0.338112239077702, -0.03276491984174223, 0.5805466245157205], [-0.9481428439384887, 1.719705456926191, 0.08461028862877878, -0.5687999950245283, 0.5593238212779594, 1.2972541916460447, 0.43633668121182373, -0.518669153776769, 0.666923079010085, -1.3586188716764531, -0.9950055019567362, -0.02414998801716759, -1.4195465848918163, 0.03915298889106494, -1.1611566289852133, 0.1387303880719288, -0.1468591427400314, -1.244880319878349, -0.02985285802053962, 2.372763508299699, 1.7074490094140984, 0.659468034534783, -1.961387864191628, 0.026386004633501065, 0.8218706835431686, 2.7060994617891736, -0.09640902636234984, -1.2824211907773135, 0.5196070499290887, 0.6640337682640922, 2.004995922382045, 1.2007235651442623, -0.04377051877889975, -1.0537045745395923, -1.1043262970846905, -1.4438587340327644, -0.9483005475038507, 2.7075390132614454, 0.41318617702187055, -1.7275813180455022, -1.139266071444021, 0.14996764980538838, 0.2519068390500666, 0.6044531805746188, -0.18187436407888216, 0.08149547064656412, 0.24837701253589592, -1.1237765532206376, -0.6313949679812384, 1.7640586790810915, -0.8430654565147878, -0.47140716336274907, 0.7029602541307804, 1.869705276196081, 0.7652446464743761, 0.43448158217957356, -0.6189959825104697, -0.07011163762034078, 0.5963699348486216, 0.7920989200672047, -0.5722023564819778, -1.3471224863177256, 1.2694346133526602, -1.1824536081835015, 0.47977591185459195, 0.5242888357314965, -1.6536124177003695, -0.5345090132218592, -0.350178427740439, -0.2228548902062426, -0.5363994585011801, 1.4204104763137728, -0.25261213853082565, 0.5019463028317868, -0.32623950149697406, 0.5773029488164048, 1.3661996733171375, 1.7266260234156654, 1.1617373702398044, -1.322529068211316, 1.7022726860471342, -0.12766205462595884, -2.10975924033942, -0.9504095291936624, 0.7786482040999727, -1.509643166987707, -0.23857862906487687, -1.512455671390003, -0.24174395449826172, 0.41768382499862633, 0.24160271775458025, 0.43019089178064224, -1.1960810269321827, 0.2057038692155976, 1.0481017641177959, -0.7414635704286711, -1.047139072162693, -0.825830984285539, 1.4940469521861857, -0.6724439371418642, 0.5727838069710339, -1.002041657522365, -0.9293134445404507, -0.4300154830880624, 0.12927402764766638, 0.9836335957155484, 2.040866602291968, -0.5527171984498566, 1.6576225683253696, 0.239520306876984, -1.3947819726804331, 0.1617725092896333, 0.9452320590695725, 0.03879573101546971, -0.7665599311472046, -0.5282292759951951, 0.20005197933651447, 2.076307463232514, -1.0323675382933872, 0.8681735538262824, 1.2339055856515566, 0.7871079913171098, -0.19496503201020327, 0.008971206612026907, 0.17064374018137665, 1.4366733675576757, -0.2576457085887177, -0.7012387036090212, -1.421370663467303, 0.3951983811911578, -1.9217668647081714, -1.4521850915506587, -0.22168088684449297, -1.6338617027424325, -0.5840782841155113, 0.30074510018188305, 0.9285676960245938, -2.3300689755233464, 0.3258010897310706, -1.1853818409136883, -0.8113176778832765, -2.5519350866408232, -1.3915298103688456, -1.7462071059315922, -0.18128075833147428, 0.994168444130684, 0.7593652767876884, 0.43226554143186524, -0.7223948091404494, -0.25565770723032744, -0.805144680342868, -0.44880277170648497, -1.169893881162393, 0.6737853735590945, 1.7464143852065497, 0.7517710220408684, 0.026625444146512453, -0.18240619118639487, 1.9371433250638415, 0.6732510762339621, -0.7846807013887833, 1.5662486021640512, 1.7647350592937707, -0.5126933704769999, 0.17752256960335067, 0.7085671563038399, -0.08788350237494925, 0.6809686790819055, -1.6360127491209109, -0.5675722637136824, -0.2804256062339437, -0.6002359677823569, 0.9620965789618541, 0.4999434324427244, -0.4532115679804247, 0.3449997192611103, -0.04387272665541133, -0.6783947310405541, 1.3811555923247736, -0.9795758308289411, 0.258648300936541, 0.3135223726502097, 0.12013418040218052, -1.0892613415256012, 0.6297778213215386, 1.0094303416682808, 0.2943967980082163, 1.6391812766209115, 0.8947167871337425, -0.11602916153102429, -0.15375115307338552, -1.3336024125343158, 0.20818019974785018, -0.9255990099165896, 1.219981352226255, -1.2623816387972546, -0.035141129574690705, 0.8156003067242243, 1.1783074935410627, -0.6858561176088311, -0.37709214616239484, 1.180955697839743, 0.6143953632139063, 1.395421919660055, -1.7329289252324565, -1.6127432845095044, -0.5992379854628019, 2.095215549264547, -0.511126317309456, 0.35142949131336637, 0.21787970805703333, -1.08692166742925, 1.1454823122011477, -0.08418932579792653, -0.6807332376885902, -0.22246013236505416, -1.141128842374654, -1.732104181800466, 0.9801732380659992, -0.6845004480326224, -0.559061143211837, -0.8378228988310973, -0.1565556308076374, 0.31373204708893154, 1.720177336861707, -0.3925158727709941, -0.0985814150820499, -0.7118436209416289, 0.274830705100152, -0.0655866972999168, 1.0823954322951022, 0.7377486064337542, 0.08183505267323987, 0.06668687293570576, -0.3877756579407384, -0.30325088428712027, 0.16697759666157616, -3.5415991915102025, -0.17058812237208903, -0.537842036413205, -0.39957013662464014, -0.42211089313305494, 1.362622377133472, 1.0993414988584107, 2.158963426190663, 1.5591773654188508, -1.4277224246078717, 0.4238022775191708, 0.4218719751728758, 0.9330796840403834, -0.2466566871581725, -1.8874757326849423, 0.30771042753068856, 0.8937834991096525, -1.16059399403633, 0.18927147686613235, -1.8841229731376423, 0.8630837457628605, 0.0918847232812108, -0.6231352252892806, 2.1242644739202254, 1.3199175153263765, -2.25560787479694, 0.6219919962422553, -0.782291449182796, -0.39131594223190186, -0.2478843039998521, 0.14497970245139433, -1.6746142520177483, 1.527857960689762, -3.2569618773093327, -1.3777056908513672, -0.571586231544237, 0.8797648504522809, 0.359765376699172, -0.9926154164478397, 0.7783884798707245, -0.032856738704581424, -1.277464816259691, -1.5032139256699983, 0.9311294097916033, 0.5525729279376059, 1.1322791382585173, 0.38064247600414547, -0.2223068582102671, -0.26171479622933363, -0.8249599588712987, -2.4877507826193255, 1.0678463840882868, 0.008063976085203371, 2.045086635760432, 0.09078890279062625, 1.3665675767014334, -0.4678228200971176, 1.1937098138312692, 2.401049826662454, 1.924429701607486, 0.7111358078541518, 0.6407285034588835, 0.03824045968536243, 0.9122189357484195, 0.796191928151347, 0.14184611667885394, -0.4910479528867039, 0.55640006152831, 0.35122218846403724, -0.1670795678292213, 3.021811621109112, -0.1282031650957926, -0.880394151032224, -1.6256319510749146, 0.45096566869805066, 0.7348408945452755, -0.9287025275414779, -0.009067670823553997, -0.5946081968769283, 0.32113918159404137, -0.5261667912564019, -0.08428700723382031, 2.174342679058763, 0.4972045511145311, -1.7676857690369387, 0.6956786300829415, 1.2336782705216502, 0.5418169000407189, 0.9076826510730777, 0.28881008250946266, 1.0649841247506509, 0.2730567075405466, 0.6228749610940006, 0.20356339620796501, 0.436892138080008, 0.06428119468598623, 0.23316397687633447, -1.3575087960107606, -0.49271748432783913, -0.8272954204760663, 0.0010343192552078422, 1.3165047058413033, 0.3084963395722091, 0.6548231186042022, 1.6153260045923745, 0.7497151918295308, -0.6557880904824213, -0.2121543991981328, 1.7190876552329921, -0.2907502557572214, -0.19428534776050832, 1.4607235821901354, -0.483213801555175, 2.0748921919406134, -1.275511225758697, -0.12456759945232371, -1.3428903765716673, 0.07418634842710747, -0.14796706308669846, 2.6436128229573366, 1.5513843199177455, 0.8855256675146432, 0.1633660378656701, 1.0943473913104123, 1.4555341571279827, -0.04087235493151769, -0.17469503910228926, 0.3348381333040667, -0.11605908045534892, 0.9795492046994884, 1.4502839329638193, -0.852685714790924, -0.20447306085273204, -1.01092014466576, 2.0577519493541745, 0.9632663243998797, 0.2655739941731476, 0.667331974629702, 0.2915686093390128, 0.6747186058906443, 1.0591281688746284, -1.24065885209056, -0.6667327041723142, -0.18106135416332336, 0.6254596861005984, -0.35024433708597413, 0.013576087416162596, -1.0919228583358886, 1.2928648868934172, 0.039976282173422716, -0.7522340292501385, -0.4587886687907546, 0.14206802698868626, -0.04508091632020726, -0.39318752405960555, -0.5996853048771824, -0.9134265172287287, -0.43653301621286955, 0.6926840638246137, 0.5229365837168302, -1.3607705050561103, -0.04261654022577856, -1.4330147767188055, -0.5006764518901502, -0.9216285686079723, -0.7358610124181617, 1.7428433982660028, 0.09131494175889092, -0.850379231791532, -0.9061294797990257, -1.562508118083067, -0.14328738952320336, 1.0661357313283608, 1.0424827754862978, 0.9484952922568848, 0.19994504594156923, 0.5538423969855668, -0.7659962775263178, -1.4186184253333467, -0.19506466967029104, -1.697135178980156, 1.5759278709686075, -0.45376945244956646, -0.801584521569599, -1.2111412664658698, 0.5160695422448469, 1.0748182199650285, -0.20608701263350718, -0.16419342840110335, -0.8009657082515163, 1.281484620273944, 0.3574282121716536, -1.1483654027113759, 0.3917264557642548, 0.14434225238795528, 0.13170624414366622, -1.0968382997268642, -0.27793231148568054, 0.42341342793513714, 0.17007867211015457, 1.0885967930341953, 1.1523010663672824, -0.49159549613136266, -0.443611511155864, 0.010541388235354776, 0.8019913887712274, 0.7023726211791186, 1.2266032829116753, 0.0884162856522517, 2.0101761630403874, 0.33170996654818913, 0.8183354077755806, -1.1176482714503801, 0.5908426201436741, 2.5994891938061584, -0.5998775731204697, -0.3314646215891724, -1.5941425778758922, -0.671158167428836, -0.45136033629734257, -0.040353982451167315, 1.14013448415195, 1.3103432104999657, -0.14611570183821704, -1.1249415680832093, -0.034449915704197635, -1.4099833195529172, -0.7829809487640887, 0.16073758649523695, -0.02528868757261573, 1.5191697663349593, 0.6862554173733499, -0.440377094678009, 1.5331573382426031, 1.771966043504228, 0.8795609211470612, -0.5335340150633102, -0.9907998688007685, -1.589859272238082, 0.37120668580982963, 1.501554291111812, 0.6666605487336932, -0.723057622753224, 1.396658046378524, 0.053576494999685566, -0.507392736459053, -0.7637038402569365, 0.8741612306586519, -1.2555473722857722, -0.4974406831477265, 1.1765363677026885, -0.6915077759857813, 0.02750033567320357, -0.3552413458434608, -0.26471022541320366, 0.1494499947447075, 1.5510671799332159, 1.0362234795795051, 1.1139944872313787, -1.6356962751878867, 0.5865377069669118, -0.9298813664320829, -0.17840219423103676, -0.673570379086842, -0.9552091356266313, 0.45210395096974404, 1.27318799966118, 0.2837948933211465, 0.09343040723983487, -0.47283882853562004, 0.6623955885409812, -0.48661186187359984, 0.4688562276572408, 0.0826012824293053, 0.6725367361501438, -1.3807935827990085, -0.5651995554482587, -2.1604418724250376, -0.36693601417173083, -0.09376161616342993, -0.5555291309481158, 1.5054817969198826, 0.9144980817803656, -0.699924960382537, -0.4778236207385491, -0.38933176530495167, -1.2416806007847212, 0.7488883375284199, -0.06254357881809987, 0.5120495472601387, 1.1400428666565894, 0.5717918052852115, 0.04728208311855007, -1.2331288711750503, 1.340959026365706, -0.16159905342651584, 1.0269336783218777, -0.7666260711704858, -2.3877564777681126, 0.750177932046502, 1.0223229308874413, 0.6778399864891439, -1.3264350346518734, 1.0974086651566963, 0.3878245494548314, 1.0609747803890874, 1.1288927560466835, -0.38033174235086953, 1.2086970456480974, -1.7606897588034502, 1.2934541913298037, 0.8907126824592843, -0.08815484810480863, -1.6510444494148402, 2.0262387879913977, -0.5548019760488317, 0.23025532744068558, 0.4149730192944008, 0.6827466959160609, -1.4536086525497787, 0.6535986694063431, -1.769333615547621, 0.106129059115528, -1.7322118271492999, -0.40454016258463815, -0.9367493472305295, -0.637690938653234, 0.5673032101372923, 0.76961205479142, -1.556556827107222, 0.9734209380288544, 0.5299922668564965, -0.13241050865689663, 0.21042628191327947, 0.30769200323184165, 1.093436421022175, 0.1600901219363029, 0.5142736724589747, 0.9042123887466499, -0.39947481486111086, 0.7152078678305949, -1.461726318159706, 1.4841420242317218, -0.32446058524254384, -1.081163556065992, -0.4858251067081075, 0.11882398643301784, 2.5578912049431244, 0.094893741431043, 0.5648019323348898, -0.20755245143176781, 1.674573236510851, -0.4746505254099165, 0.04628574087667874, 0.40076256214480777, 0.626868657956516, -0.4168598431683369, -1.7778633872342642, 0.9633556818339687, 1.6160080763140863, 2.4519126946139678, -0.8278775869802205, -0.2887249896310729, -0.6217004351490636, -1.2616399381102588, -1.1288559057462757, -1.8615008899141987, 1.4429139006884046, -0.9134846488243301, -0.7272166430100762, 1.4168101301027134, -0.08772306679458111, 0.20639959797873403, 0.016006492482004996, 0.18872700244578577, 0.3196095545843637, -0.1479114431645603, 0.561931314433834, -0.41812994998755465, -0.4868362757847898, 0.4189461896352325, -0.11567083104670889, -0.48656437470609903, -0.7337128283701015, -1.4583501232417102, 0.8858881946100282, 0.4288233090070347, 0.0018835258935538388, -1.8949449829670024, -0.5556636925734395, 1.6092798399664339, -0.6184616709904817, 1.1769908212113185, 0.24914487105911254, 0.23935092768472863, -0.9560838798024578, -1.1583186285245228, 0.90579392675254, -0.6444653601655895, 0.20888490073364574, -1.4047596384702326, 0.4413028655064071, 0.024464878514845415, 0.13574168948112922, 0.7315387557298354, 0.39544072023711657, -0.14091988803131006, 0.37382394664434493, 2.4838801564472237, -1.6168809452169048, -2.2709605852205783, -0.13885876968651792, 0.038714611006218896, 0.19113608821970177, 0.37098689829640547, 0.11963231962589682, -0.7771283023635607, 0.13227268684293453, -0.6687264480307334, -1.2028468075442784, 0.4143402562511378, 1.4098794599936695, -0.34892916947342784, -0.059078314029635474, 0.25708865860943536, 0.407246252755366, -0.13824688594656687, -0.40152463444985237, 0.5694227088947619, 0.339231077189076, 0.3168074743646875, -1.1906299792232107, 0.06681391156158305, 0.3075749283496173, -1.0565228529500967, 0.7252606236841206, 0.23113148913978462, -0.4222993338488282, 1.4828919350230678, 0.6347021772656628, -1.2734974948927476, -0.7766307550594629, -0.7647290197461581, 0.15294966198157214, 0.20847020060217128, 0.07494657652838337, 0.9328370844704684, 0.929490235628777, 0.8761801899348869, -1.0594561070145265, -1.4361956709772323, 0.5017719322552734, 0.620091010620045, 0.9341381269291045, 1.2394781555793317, -0.8945926531447331, 0.9173032415564781, -0.9808231910835264, -0.00585262368310131, 0.5529229516903543, -1.0646663248721593, -0.37954939348560307, -0.16570043975848311, 0.896153114737143, -1.41834171461778, -1.5875528897781577, 0.6172484663265726, -0.9367928688989777, 0.9985722770485385, -0.24650656932454929, -0.23118029865202858, -0.7912738708924952, 1.8292393857272737, 1.2929038429252795, -0.2609447012851353, 0.5602132475438896, -0.5829055367291166, 0.7054375137005732, -0.6335957096705164, -2.002885049749463, 0.9381021394360526, -0.1188915111328425, -0.8703197058779045, -0.14080537203772472, -1.8016407296231782, 2.027524111678619, 1.321072308319157, -0.6805328549545916, 0.5832901818408612, 1.2276311655144787, 0.37581785884745234, 1.218050936606256, -1.1741090003371033, 0.3559101756073199, 1.0100025778910589, 0.03220127362306809, 0.220070622029123, 1.7560446678796675, -1.0305224560793613, 0.9737904957104414, 1.868054689424623, -0.9021119858540705, 1.276453877452378, 1.4461696964492665, -0.8409191887900695, -2.1962320984618318, -1.3037167459222239, -0.9191292640607641, 0.12336874075457525, -0.5580182979779149, -0.9516214273119266, 0.18563960042981575, -0.10240136878180808, -1.4046676252539798, 1.1617919104361725, -0.4545021370256557, 0.18584232435898873, -1.1422075639158396, 0.05591833780805193, -0.003986653505877781, -0.2674315478815723, 0.0864244349884716, -0.5954034114355851, -0.01733135777026489, -0.28592789876078717, -0.6535409479487457, -0.9823056842749808, -0.2685562636068145, -0.3278659213654169, 0.016456848009674407, -3.0060914457218044, -0.29163029594924705, -0.44461360351676477, -0.3303277278245377, -0.8668569704993264, -0.5433904910953767, -0.0469796022716361, -0.24046527071242196, -0.8256930128462294, -1.5335656667892612, -1.2407854540763585, -0.4121434089651694, 0.3086762660632872, 0.25600384033737195, 0.4135020845250297, -1.4957493411594882, -0.40274627774803884], [-0.6851638940780136, 0.7196003994168162, 0.30886210628355903, 0.05466380846789, -0.15748763429555748, 1.9368691051490277, -0.7387089897309999, -1.1256862358319384, 0.538721404171166, 0.27968519117829543, 1.0855783726010957, 1.7205747197257997, -1.3567025053830504, 0.8082197339358705, -0.5967210619379324, 0.08934274427882681, -0.34234639784073767, 0.2224773642783145, 2.0619151154108306, -0.8137432210911211, 1.273976872343525, 0.6389020995664442, 0.359640067074981, -0.4789250030157672, -1.5449410792002514, 0.5163367029912154, -0.255491947591038, -0.7020005667761479, 0.2121601274881415, -0.9236072610137283, -0.7831403258994877, 0.2387133327045143, -1.1818662141201806, -0.4558532623790618, 0.3971600118168615, 0.22945895147269063, -1.064388897525574, 0.3457602853754853, -0.1333907545347106, -1.6527675422762755, -0.6172669507262678, -1.4622875431214315, -1.0386950398562518, 2.5916454057541194, -0.6492522975802367, 0.8511887002117229, -0.2115304655045492, -1.1283335393696567, -1.324119520402068, -1.5814423664707609, -0.7645294369425484, -0.36478241298266245, 0.12312216871498403, 0.7843583342563356, 0.5543251243698653, -0.8494547199012181, 0.3136809268648525, -0.7991561938952407, -0.48066687470287844, -0.2361972925795839, -0.505725744924253, 1.5393882142022928, 1.1266569632090528, 0.7603680468510684, 0.6669535604455075, 1.0430264399349738, -1.7591173691714195, -1.3791864184982068, -0.12465522552040004, 0.20110593662853224, 0.38659388311625825, 1.1883052375710974, -0.583947158823296, 1.2268981198731348, -0.7577769829453743, 0.21979603242404275, 0.5978561484730596, 1.2165224951114824, -1.1022313985349803, 1.1181462929709045, 0.441614231016184, -0.426702665973917, -2.1544312330764126, 0.8700180009819223, 0.38809340265793063, 0.21547689481651358, 0.4860998099659899, -0.7509827413329797, -0.7269028304533641, -0.4503978321786017, -0.8425702234531777, 0.2027479066762983, -0.1219493007808051, 1.6282531568646779, -0.13295297985771448, -0.7608037965430594, -1.1372994063791049, 1.7737972850778376, -0.5035902729598674, -2.2631508855488978, 1.290801869489786, 0.4808185930010576, 1.5831279979027195, 1.1824852819327092, 