{"sizes": [784, 20, 10], "num_layers": 3, "biases": [[[-1.2039866445629854], [-0.7816018711979112], [-1.7244879670666773], [-0.29731234367993886], [0.002752572350642069], [0.6532864916104412], [1.3332434939454487], [1.3228775106440436], [1.4203665911885053], [0.20985091600823372], [-0.22880749046019697], [-0.7987999281131486], [-0.4597962162364691], [-0.6017366379999673], [0.9711535674636659], [0.16247904782744774], [0.1677539986807565], [-1.1284153918879647], [-0.2465567935264407], [-0.08525174585214733]], [[-0.9827059042525822], [0.3331620424156773], [1.0544561557860042], [0.6216713969859686], [0.3049324628097385], [-0.2875873675549507], [0.41502113056558554], [0.41124389678540463], [2.2545284770877307], [-0.6058673495943968]]], "weights": [[[0.11615805873523313, 0.04257691424711648, -0.028626518487105217, -1.049801655293592, 0.16211958247382696, 1.0777982233321595, 2.471309761240418, -0.7815025386810318, 0.35421484945277043, -0.12550626356093428, -0.8385434916609138, 1.1218767111838603, 0.4247975228170643, -0.05559643327901663, -0.5907101971301323, 1.2461743234455644, 0.3991433134197225, -1.4095714286834944, 0.22508444733064367, -1.1942968569032442, 0.8904909860884255, -0.9144955678159021, 0.4423635668054195, 0.3263189543782358, 1.2641313920570867, -0.8713473466245004, 0.1761444896448684, -0.2926898561248583, 1.3141545579583038, 0.29429978659046074, -1.8498169013650052, -0.8914216054667387, -0.07293605932757244, 0.7100419264771429, -1.7221056181275467, 0.018342727462367307, 0.749739288287981, -0.9766286487797504, 0.24524766612826743, 0.4681494480955173, 1.0410268144621142, 0.15879957500018096, -1.1521351608017174, 0.5970086725296313, 0.8337838794543565, -1.9255032598001447, 0.8684781502043024, 0.37959585156851766, -1.607745579981363, 1.5998322774906515, 0.14163677506226002, 0.9464311987309257, 0.17524029180176343, 1.2775598972534699, -0.26609221810523126, 0.2421543795576772, -1.0544256797089284, -0.6225386231289997, -0.03138899302906073, -0.47002146317882365, -0.2939371486644956, -0.7441614564354937, -0.7907090485835929, -0.8399068592069747, -1.363808833574825, 0.39158844238563706, -1.6546239950580786, -0.06885544347238708, -0.027525775086696503, 0.8083580344076063, -0.4289961602199572, -0.8305178388066995, 0.8234239137045679, -0.9137214163163874, 1.8473131247750763, -1.6635437900436687, -0.9198895862471171, -0.7708239474545998, -0.9586772389598102, -0.13110682773923515, -0.7001506941592653, -1.3896415840508511, 0.883035579828108, -0.7906489801667015, -1.5032907893681475, -0.29094725132439103, 0.6874620750606971, 1.773739115298506, -0.8093435717937549, -0.2915341456168252, -0.030689668605494203, 0.8587676982130761, -0.6213640503329985, -1.4805744614478564, 0.21960879708864553, 0.10503765881081566, 0.14254750395443289, 0.36563708483308416, -0.2227731892853521, 0.25775005524877886, 1.2067672391385351, 0.3115263180011735, -0.19318985135952135, -1.9934687869711984, 0.8308857153876175, 1.240367808478905, 1.2372563995718022, 0.2602521341552735, -0.4807936283231783, -0.26235046551998603, -0.21888084669464877, 0.6060645091017487, -1.252803921564157, 0.2990799632988194, 0.5005162691735885, 0.7320360019120652, -0.15483299592015903, 0.2836324895750327, -0.12178334871393769, 0.0015805550396582005, 0.6495993417676366, -0.8597214393537769, 0.6667488585873651, -0.5040333534530694, -0.47955366170843367, -1.7718713697771995, -0.00991580715071692, -2.5287849932870126, -0.8217338530695828, 1.2342855772010195, 1.146723890866165, -1.7661759196054279, 0.8877172468944317, -1.339240705710402, 0.6970872777080195, 0.659505913226304, -0.9743148189261882, -0.800310231010067, 1.7522777635028863, -0.21789055945008498, 0.38421111820419745, -1.4023576010454188, -1.4014751748773966, 1.373455787271857, 0.27579307079815524, 0.22487799950686044, 1.7069671823822918, 0.8707846902857759, -0.8242504483488897, -0.4122723395098343, 0.045551496695860234, -0.360040151004639, 1.4441140959777934, 0.5922176183262168, -0.8179488288067408, -0.6930265411322349, -0.40547876688530105, -0.6613641132997288, 1.5912572340296365, -2.0397678616039348, -0.31688386881178415, -1.312142398489624, 1.3528280856215236, -0.2895747691377815, 1.1513361093694776, -0.6854906795847167, 0.6036667930860126, -1.1409992865322294, -0.37017489848593566, 1.1028715105053577, 1.153215678313771, -0.5267630415695651, 0.06427331152175324, -0.25841375826562446, -0.5058469058195785, -0.61498759451316, -0.635341978524164, -1.3303069602512891, 0.6045817095502307, -1.0356319503474485, -0.1904846226335185, -0.7587965910433286, -1.2408758646888502, 2.1682625686238173, 0.6975695271876262, -0.2679520469820785, -0.8241959224376696, -0.8458270199521615, 2.1088746790337076, -1.0905132416514114, 1.43264069892602, -1.5407366449390183, -0.9582686482675424, -0.037134225029720545, -1.8099848499213478, -0.1413371610410464, -0.936640199754076, 0.8124123835834619, 0.4544544510244328, 0.6761284514778462, -0.7093266104689012, -1.5820280492653014, 0.6180004943768916, 1.0934422723576798, -0.5960158707627795, 0.38388326815884694, -0.8382254216482016, 0.26015800948368756, 0.502832177307333, -0.6928432924093466, -2.326554401642556, 0.2342728961881487, 0.9991961060820965, -1.211984342621777, 1.646387523486876, 0.08447077555640665, 0.4370844686395112, 1.6784785560678717, 0.906613998797443, 0.5051146997481931, -0.028671053762539755, -0.03430696985615063, -0.26932934975898093, -0.9283462235794632, -0.2546811419959683, -0.4484799284186016, 0.4184203940666764, -0.6471850177943529, 0.09094266616182607, 0.9721019057688355, 1.0456415955893121, -0.5037317643217737, 1.1894302010776927, 1.5208914657278045, -0.6070081416411616, -1.6089562874738284, -0.8423484518126245, 1.8273405673312286, -0.7284254729807287, 0.07297407332156852, 1.2840199080595593, 1.0087774393019473, -1.3063771267872266, -1.029203611809227, -0.6015983335035212, 1.1878794747985963, 0.9498677501428013, -0.47908177611827496, 0.5485938305752462, -0.2652661946527799, 0.2250710262515105, 0.11768338023109487, -1.4806807513510107, 0.16689995823791653, -3.0103462555212377, -0.4384286171952911, -1.268571158611513, 2.7698787759449326, -0.2792813371755787, 0.02400929437913807, 0.4341685697550628, -0.4281811758412333, -1.2849774557367328, -0.7274212827330745, -1.0372199208729111, -0.6253981491594173, 1.1677163926026042, 1.0309966085496778, -0.23750996152208773, -0.4547488970075011, -0.34652956962075593, -0.06399119279338687, 0.8845287764587054, 1.9810474732675827, -1.3321683538468285, 0.17725187255142685, -1.1780672677255322, 0.40804629997847547, 1.6473234185120116, -1.7335097493009017, 0.5258414603021704, -1.690429693299308, 1.0262530641755752, 0.5103220135094821, -0.3503604708748519, -0.12838509278787022, -0.6519123704872225, 0.784482935747248, -0.41160637388416116, 1.9182006960563425, 0.6066183401453853, 1.2035912006246248, 0.5242217710752713, -1.0583432816338991, -0.2393025010093107, 0.47731559248955574, -0.24795319427251747, 0.05019968185980705, -0.629339966808177, -1.2381259659515518, 1.4088796415336524, -2.1595345410271167, -1.7067646783817991, -0.6385323195351182, 0.4896960355736414, 0.8323539548849439, 1.1111255204855333, -0.09384597504081602, 1.9563164243438838, -0.04448999802391174, -0.08644922736949054, 0.5529861391814146, -1.3068308044299186, -0.9752683664892287, 0.10290884091314076, 0.17159186044007108, 2.1187257998043174, -0.8157843792323662, 0.12811061402399887, -0.717659297155797, -0.6584898212126686, 0.2103771458999514, 0.5461675499642644, 1.6390144412611538, -1.1260356027314198, -0.13889385134100035, -0.4387947864990072, 0.14432041230407375, 1.0158725756453926, 0.47144668845160265, 0.8008669253151831, 1.8747275195911746, -0.6086356449617393, -1.5899669664970029, 0.3449237499956669, 1.3846556566732298, 0.09108325599490671, 0.9676267579553364, -1.0968505423091295, -0.19606203462545513, 1.779772730433484, 0.5483261216864705, -0.2859462137968409, -1.9561315277480693, 1.2150195141999929, 1.6859089417973068, 0.5697536770582085, -0.15358443683182244, 0.12532474658722872, -0.4282932872103625, 1.6334117929977638, -1.2543922369901264, -0.2103636908538213, 1.8677061670367556, -0.15202639699613985, -0.26466935973136857, 2.5565485550689093, 0.6014168988753521, -0.9549620491076356, -0.15893565570413795, -0.7486220555863472, 0.2050363737672541, 1.6163773720098942, 2.596590809477863, 0.3590047568782291, 0.13922559812303584, -0.6585438192790988, 0.28181479628229256, 0.23485061844239263, 0.22177474637707692, 0.4019068400128657, 1.6853595498712233, -1.7144803559373918, -1.1345550046084012, 1.0124056241934245, 1.8554307903306029, -1.2118547701792297, -0.7061113698542156, -0.9806955858246195, 0.6857518448539113, -0.02040402637866782, 0.059513083333868476, -0.6757068700367613, -0.21690490974772247, -0.5867454305713089, 0.11661763680456327, -0.15513051971311936, -0.12981677244328643, 0.6521753436497937, 1.714646339430687, -0.22631147325543818, 1.3630031387380124, -0.037506685033289265, 0.1495722670934206, -0.8919619119533996, 1.3625932070597977, -0.7821405693994883, -0.9522607758798372, -1.0677057805864292, -1.1845034272050519, 0.9093249350103211, 1.1827742878791898, 0.7018365876275785, -0.814608352771148, -0.763238794392141, -0.048465872520648365, 1.7157428163542108, 0.8392667467712288, 0.38065514421226493, 0.18039228832518966, -1.2855094268483402, 0.05076188742203178, -0.39764875124343896, 0.6494615665322883, 0.914510241567099, 1.5626767101518977, 2.7151327995964865, 0.7920895007644059, 0.24620473976184992, -0.9406342885256967, 0.13233547365349738, -1.4564258680177284, 0.726617688822524, -0.8663069786017292, -0.15763758881976833, -0.515234038018995, -0.4755259861052209, -1.502412758543213, 0.2910082803128818, -0.4175418792943034, -1.3861236688018168, 1.1271622779653119, 0.9815659564062013, -0.588943797878089, -0.7483713787939547, -0.6704926065595904, -0.39555778786309775, 0.08637995716155523, -0.2927155941284277, -0.6180946943417772, -0.22713899719873648, 0.031626747325855284, -1.5026503421153534, 0.3940135681341649, 0.5925570149311931, -0.27482902802785547, 0.6566474053884539, -0.08856576120227855, -0.7619427953005689, 0.3246951179679408, -0.9324295413461481, -0.5724203399586236, -1.6143071397175082, -1.0115239736613122, -0.6024305525943159, -0.9932981464349726, 0.9644267722335301, 0.5610160751523486, 1.0400500940193294, -1.9149263066008084, 2.0450387854834053, 0.7466561828035697, 1.521863215529518, -1.9513364080135416, -2.350524289212061, -1.6445706815437986, 0.719372986052659, 0.36414192253698713, 0.8391367374243927, -0.012488773280840542, 1.54619837684376, 0.6623993480710968, 2.090120675348524, 0.8066212718625635, -0.5881951256980812, 0.10186334696420475, 0.7970113614974206, -1.8903884860851035, -0.40390923030877507, 0.16022427637162356, -0.577586023008218, -0.7747950959950246, -0.028934307450758336, -0.16382544044925434, 1.2099336313833922, 0.013492222245274039, 0.738239262635892, -1.582927163467697, -0.7953416060752174, 1.257180714397528, 1.1229470684063367, 0.22647127493776764, 0.7631771845162791, 0.25221649924121886, 0.5803464470987683, -1.1167828535676882, -0.10355163334154643, 0.059691440065682895, -0.6090501881144738, 0.04152761171630148, 1.1158931866481168, -1.6734983925366553, -0.4128032404063201, 0.4869963666514278, -1.5765420801674743, 0.9235289390777651, 0.20298755120348852, -1.283647289883063, -0.3326130151463032, 0.9596815035367403, -0.2752294041363519, 2.4182400240000903, -0.028364282386523117, -0.13483642651053906, -0.9747439175651341, -1.1409790616982007, 2.2403299404176007, -0.1559970412084455, 0.24013578347051212, -1.1964347510141171, 1.2226711133514483, -0.7864320124838128, -1.8641606254211702, -1.5597379965878573, 0.7808488685121552, -0.5042741275585368, -0.6200439558371084, 0.05941831252886168, -0.10023389977658181, 2.2248843710282924, -0.9163060674658916, 1.3124821254878931, -1.7767837882876703, 0.8589209524383546, -0.1246099256079917, -0.5566781188991129, -0.40046172677054687, 2.294566009371067, 0.5195792531634845, 1.8785562535872171, 0.7328929331881101, 0.6619154412251923, -1.482229492276087, -1.3866572710901948, 0.45290758743473963, 0.5851547878454262, 0.3910661335793907, -0.8844616298210214, -0.39009605777266154, 1.0765679962740342, -0.5493340964882637, 0.6367425069770299, -0.844410724518804, 0.6633493922408625, -1.6088710676639768, 1.4492994108396724, 3.2371454290679837, -0.6751336793764059, 1.0339270033767487, 0.3533887266082047, 0.24625841345491098, -0.3199457982687033, -1.3939641530005702, -0.48240759246615816, -0.6017137608687324, -1.2658003070524289, 0.5109876832922683, -0.11656570043605141, -2.719221177734164, 1.6768035800528824, -0.22197316582830035, -0.3586334681761045, 0.6206165178850301, 0.5169131143416462, 1.3333285798904955, -0.5688335517820367, -0.8572587178404796, 1.7441821158931679, 0.07226810265573774, -0.07525947019717322, 2.2056280868485416, 1.9800302715813722, 0.22859367496314548, 1.1466139523684573, 0.3254156145735289, -0.7862117158385505, -0.6980877593935989, -0.6604975114651939, 0.00930954907353918, -0.5704913901004256, 0.27431208868219936, -0.15826444356410174, -0.5237335711249582, -0.8046390200381902, -0.2954788762058173, 1.4229977805359015, 0.2908345789758877, 0.831078682699664, -0.8558943131274486, 0.7125402316647887, -0.18286880121642368, -0.2613094401795159, -0.09381142747900598, 1.1635985688729875, -0.3076202739068752, 0.04433577015817989, -1.1771517166249021, -2.7143531140063484, -0.4923191786782329, -1.2799839866557055, 0.859877524670377, 0.30293335193069304, -2.098641644267911, 1.6751965485354674, 0.7377958373990344, 0.4521880970057422, -0.0616866232300513, 0.6440971739708726, 0.7138784284274347, 0.10510109474842867, -0.7691938141693392, -1.3361006591525806, 0.6586779126330754, 0.40853210605503015, -0.40622714122350295, 0.6536047854142989, 1.517851807828814, 1.0305556843605912, -1.2536542782190774, 0.7289704158111519, -1.373488241582986, -0.07306543190448425, 0.7879735401282935, 0.6289744994570414, -0.3995446061439806, 0.7143740655468174, -0.591235870657825, 0.6881644435617068, -1.6158647217443358, -0.3392911885083398, 0.0509302823275659, -0.03219749510640465, 2.008263533130931, 1.4515150750794599, -0.06670073050050458, -0.7134453816957521, -1.3735248620361782, -0.8870847628931288, 0.8039799351880559, 1.661139556939241, 0.5358073323407047, 0.5277851176433027, -1.3426903183614707, -0.09549625870504629, -0.6113427836070839, -0.1414583097536825, -0.2134523667755744, 0.053474867591841044, -0.331312872943287, 1.077176612191714, -1.528624908864073, 0.5684967607344099, -0.006984715599674821, -0.23485956215240789, 0.1777192573047292, 0.6593359510923987, 0.1805711387377235, 0.04991472827009197, 0.7169121057879687, -0.02089181692017857, 0.7198087848371584, -0.6033591386819441, 0.5378920661125346, 2.1403542813733916, -0.2582007034771769, 0.5194785578642374, -0.8551283559427766, 0.22070224400950186, 0.16513461270071805, 1.3558896253854706, -0.2205832163448851, -0.717316329878865, 0.466352241940992, 0.54711809196155, -2.1336050722820845, 0.7809210320717549, 1.086868209218412, 0.6937702129750127, 0.2599398584551525, 1.4843637157013168, -1.5946732288968635, -3.707878448170478, -0.4475999935472249, -0.06091673293822313, -0.8320486556349701, 0.10824370069474311, -1.301364004474072, -0.1992377219866736, -0.5855860964958398, 0.969644584459307, 0.5850014431229134, -0.9403112107177486, -1.5113388571489685, -0.36017178631606367, -0.8975770692049955, -1.5518216466317007, 0.08372669462569582, 1.436997879472034, -1.2319885114634017, -1.4593670078885894, 0.24126897307056394, -0.44203443793726965, 0.7057383578363933, 0.4126454019320886, 2.7953321270770646, 0.17354186515595324, -0.03458101489645629, -1.8711140306275242, 0.9811089015416422, -1.2653893977552915, 1.5945392948761004, 0.5152482896534545, -0.027170364531511365, 0.172246081881193, -1.1955385200477253, 0.17656683801897916, 0.9750583958773854, -1.0577054165255915, 1.4679127475378912, 0.8729761704930752, -0.033149846118897736, -1.2205962955740133, 0.18382741469960562, 0.9212850982298816, -0.6116893460201872, 1.0826233542791737, -0.08837160120272776, -0.9830233745873678, 0.2107884711211024, 0.08506205245725117, 0.8279813115860315, 0.6144347465356719, 0.2645165756223503, 0.3182356504140642, 0.25156885747962404, 1.446799683692289, 0.539303964827216, 0.5683842479333566, 0.9255582195374652, -1.9214830854299858, -0.029963096402648826, -1.9418160489944944, -0.7691143546249403, -1.388318657876627, -0.3913504485717015, -1.4630187299316295, -1.125730622241863, 0.2256806211463515, 0.43175075633695487, -1.2793047936493838, -0.585713636344059, 0.524923681790796, -0.3207609112114985, 0.3483986421966834, -0.740244803951125, 0.3811915319407277, -1.6027904482995916, 0.6546238167720603, 1.4782561146278275, 1.2374826346046917, 0.22361274566034606, 0.7785567958692382, -0.4398582571198106, -0.6918322082346144, 1.6936761115871746, -0.5617229893237105, 1.6117514935387862, 1.4064784819157947, 0.02596283695908198, -1.4320492122111663, -1.1153019739622942, 0.5834698181932175, 0.39131063490434176, -0.0005906624188181503], [-1.475879921440444, 0.4123156566852211, 0.2756320891355644, 0.8376337863712883, 0.44649801741891043, 1.7493499945927349, 0.6865885484474572, -2.6323004572405706, -1.959604364898997, -1.14787997773947, 0.002891530226710647, -0.19019638060687535, -0.012086992608859275, 1.197952146327695, -0.5728302380933884, 0.6704163465874285, 0.16818325220723884, 0.055521133231980956, -0.6317859844884972, 1.9108741655057861, -1.0389874206984908, -0.9118181575329398, -0.8791205361975798, 0.688739043087763, -2.0887077185553244, 1.1993974214438647, 1.5945504098984113, -1.4906048962608731, 0.2347521847608545, 0.5706014414345248, 0.9338946740593703, 0.7964069310717009, -1.0449164687590977, -0.5218367978787851, -0.5700725929162613, -0.9605154844080632, 1.7578628472059636, 0.09602966927757306, -1.2703401775578596, 0.34697690994527847, 0.7759812707720731, -0.43762847119167453, 0.458385565415089, 0.9011515015424261, -0.053063710444700395, 1.3155354735548732, -0.5233753202241681, 1.3158825015205657, -0.41525113439857836, -1.4529720752236917, -0.69029336660622, 0.5009716112108369, 1.2976501575954182, -1.8481273150748105, 0.28303089935350667, 1.3571317295710508, 0.22132155353773086, -0.5321753188310087, 0.9800670058465591, 0.43370897860009805, 1.7948393739927446, 0.550988036082465, 0.037014202901615716, -1.6277416962620652, 2.09981684260206, -0.8356151657181549, -0.035094523255406566, -0.6773686396295034, 2.10451585338538, 1.4122788916246976, 1.7297224298319187, -0.17544068810972266, -1.5551515410571606, -1.1468196213183357, -1.1278486827492191, -0.15404654424152064, 1.4855856800395146, -0.0654293379331502, -1.6748211044009609, 0.21721910451732127, -0.9446316029490391, 1.3269101854189946, -1.6397756714272913, 1.6095057256638896, 1.6585113891842889, 2.5117322664447634, -0.3931825983666476, 0.5382625480117866, 0.6230758959617364, -0.7814099250404092, -0.9815675288662353, -0.778016547843641, 0.1587589837679655, 0.2712087604887656, -0.8722750149321341, 0.4747386353819168, 0.8709757823305839, 0.08799566653155219, -1.2385150511860563, -0.2198961715576847, 0.10190170464545932, 0.046755315871988404, 2.6880057314999397, 0.617891084643013, -0.9434720560216606, 0.8610043297976679, 1.0361855927095691, 1.61212789030964, -0.1966057630916216, 0.3261448794539311, 0.8319906508786158, -0.3177624868232586, 0.4040545784632062, 0.7315700109574373, 0.7581937480320281, 1.1040693927159366, -0.22059049562217664, -1.1932605254739448, 0.6382946157203581, -1.6594658420847392, -0.27481770064783356, -2.1541042151682905, -0.06354535657918021, 0.1632324798752971, 1.2131532590057874, -0.8163111390201361, -1.3036467642870462, 1.561645401507933, 0.17038943689702976, -0.24421211994040737, 1.36647503477551, -0.13545532568428614, -0.9687420133798239, -0.12862965921255123, 1.0386608668305402, -0.19287944831755777, -1.4641923771378234, -1.3534913965681181, 0.5285247956981121, -1.9661558161613326, 0.41280393138496685, -0.20827955934492112, -1.178965082414713, 0.10427562442979733, -0.16654075979693053, 2.4122642946919224, -1.531577476835486, 0.48719314502366085, 0.5922825448702106, 0.11697397039338153, -0.6863752164460115, 2.2799734820561426, -0.23487564169231215, 1.0919664812847836, -0.44247466800531854, 0.3054521745109365, 0.08819630226483953, 0.14598103175590213, -1.0326822358019725, -0.18512849216232835, -0.12210452043240129, 0.8064269530967482, 0.5199055280379696, -0.05154859015919662, 1.1298273351401684, 1.4706119737946732, -1.109403858600248, 0.5045308533544199, -0.21986890874783252, 0.9637979078565946, -0.530137602785588, -0.08383669557703892, 0.4556733136007447, 2.051058747130139, 0.2910059239610845, 0.9315356314040169, 1.1153528176749872, -0.34680918839621894, -1.095386758186664, -0.5344812076134422, -0.1992549481975026, 0.8860655009303952, -0.9165459232841866, 0.07062194802382814, 1.0465392135279539, 0.20860737819273464, -0.12119471593899235, 2.0486793256137106, -0.23658500569731392, -0.29208389830420567, 1.8299340991111608, 4.037600614650554, -2.1819613098501978, 1.6154618138497818, 0.34210315632318056, 1.5176729216665217, 0.7527374753404409, -1.682515958951329, -1.72361422973292, 1.373189951260835, -0.8872107429894492, -1.4229690587743653, -0.7775498672539551, 0.6722171503824385, 1.5187926412752326, -0.6262716630963228, -0.038391092767620164, -0.41622804921807566, 0.4936882338231713, 0.9127349627490138, -0.4822546534688831, -0.8707198009539404, 0.010382558255020028, 0.7770152181816804, -2.2836987391890737, 0.6595093235679819, -1.5415262539451446, 1.0196015082249763, -2.052352083859643, 0.4800999745742575, -0.0002955152996925765, -0.8919100282485956, 1.4561843602383553, -1.635314028972932, -2.0466104727560075, 0.6710374950931998, -0.009425937444925227, 0.35822980838169804, 0.17799020805111748, 0.6337170197630341, 0.8607305566674551, -0.7234736815948692, -2.060936371177444, -0.040767277574523954, 0.07592689568517465, -1.3729006867181732, 0.5745035451795173, -0.8788517191437296, -0.17243970415757767, -0.46738841282954074, -0.24684440109544353, 0.30446222045984894, 1.2934097754614389, 2.4458463624402067, 1.6856044602925555, 1.4573114584549, -0.16717050533773958, 0.7566965338982289, 0.9889596212356153, 0.9999073218430083, -1.860125162750213, -0.013236384731893718, 1.3845344867482858, -1.176316801469913, 1.0286224111072666, -0.04832083930917683, -0.20503346504506978, -0.7085283721970602, 1.6183725034323655, -1.7493197144452242, 1.4259766489254053, -0.971053716150575, -2.1279486274021857, 1.8288871288066046, -1.2177687610569223, -0.6943362497367264, 1.685694110278868, 0.49542616632939995, -1.6314930540719623, 0.26311837468578647, 0.21506225930124417, -0.49217147023751906, -1.3058813414934047, 0.1735993571081173, -0.5636666583631069, 0.3364944971619577, -0.022598924821398896, -0.6203278797392908, 0.5481633132029139, -0.3576796774412182, -1.3058424449261814, -0.39779915388230114, -0.5818520293901769, -1.8082115989895742, -0.5699735897174792, 2.0533392412369, -0.1516088718218916, -0.8024045659911497, 1.6217390313884754, 0.8029967598124382, -1.0323666169244445, 0.07928106488152967, -2.320958648929523, 0.7355828308282817, -0.41609057470265903, 1.192279054182931, 1.4307083061302015, 0.636674894886407, -0.255684050523371, 1.0380957566271447, -0.7253983673793921, -0.9381476638417315, 1.6199195049927098, -0.1404810625084889, -0.8657731068202452, 0.2582405438714457, 0.5392258874968909, -0.27979539090646016, -1.055044406147982, 0.24168852569127586, 0.8280644533314004, -1.042351645690697, 1.094057081782768, -0.8397983532247838, 1.3190900564978663, -0.909409149745283, -0.9584889476290284, -1.1389293964352933, -0.12564162543806953, -0.01810900239793028, 0.17928127623111043, 0.19083521285666727, -0.833685775992402, 0.21819777715704397, 0.8387771700161009, -1.629994496473188, 1.2207136432999797, 0.5535036209783941, 0.5766571752851642, 0.010017064810139722, -1.5465501264875487, 1.3194200214744454, -0.02501902012827879, 0.9892725430978323, 1.570687467635286, 0.7193647882617292, 0.2041719070740143, -0.8967180787316741, 0.2670596259291497, -0.37826677518732477, 0.9293878815587349, -0.5074929523289211, -0.3396459311051332, 1.4443905612480845, 0.6560497387176455, 0.08045943695462472, -0.25922078591769226, -1.1362350833550259, -0.5897175984651948, -1.5127179259044696, -1.1788412023979178, -0.24559148741816017, 0.2525746044743667, -1.7367120854076157, 0.2789859929043942, 0.9005305337131048, 1.43088453124113, 0.5031038685392436, -0.1695994554401441, 0.5880240211505485, 0.3702298591463641, 1.8761965043701565, 1.1143325017054868, 1.1391899595970778, 0.15768325815484882, 1.7459195323675505, -1.4039517223446891, -1.3608221429625331, 2.5261812541982462, -1.3563718961095446, 1.7422020020747744, -0.1640122361803507, -0.6876320518254296, 0.46076893992237067, 0.07725661189319356, 0.46782363112713365, -0.7904826221755981, -0.15492374619155477, 0.9949291097581303, 1.846407787235588, 1.206685045725976, 1.0375883743440966, -0.961756612491687, 0.25052359973059934, 0.5261948105295314, 1.464555344940182, -0.9086717462007636, -1.425614405640662, -0.10788710119213467, 0.06176882903398958, -2.00891747190513, -0.9930756354388991, 1.372592472728371, -0.7624412019695859, 0.22974642732861497, -0.11714426160182387, 1.991157772915799, -0.8289882642662104, -0.504122522909148, 2.718261833127281, 0.9335275029836099, -0.7221567088773574, 0.35398835915918053, 0.581620787900392, 0.8121249122629639, 0.7902217026486166, -0.014362057508641992, 0.2955235326875381, 0.34543837221054313, -0.7246915160021644, 0.01860165456012157, 0.5151389412866375, -1.5168794133927919, 0.4608087002413255, 0.5660559085064424, -0.019470767011892612, 2.00103950906447, 0.9247639487995237, -0.6899478804734649, 0.24445324919674075, 0.35198206346942335, -1.6700003297562263, -1.2285651819988512, 1.6125873558550787, 0.9366892356318092, -0.08460439960671512, -2.208999642923229, -2.803435102010026, 0.24549584196700966, -1.6255854180831173, 1.9522781422369742, -0.649721332505234, -0.15041542252942253, -1.5218059959177144, -0.41724736695970055, 0.42987209031452545, -0.47183754534128003, -1.630630513359023, 0.6336014708005375, -0.31971801403861316, -1.312153659564298, -1.6373186513435478, 1.5223612726818592, -0.5748218555461457, 1.415280464697465, -1.3422993270111272, -1.9876487047472593, 1.0407119657361368, 1.4719773032352481, -0.08934241228042872, -0.4992360416280029, -0.4460103036054256, 0.592283350535198, -1.0799556689192296, -0.0467440775933229, 0.37167842135028384, -0.8836234288761071, 0.43118758993996686, -0.17780864029123702, 1.5419297251065192, 1.0379179757038794, 0.5738005768319653, -0.8054996139543177, -0.9219952835216167, 0.2541007095525807, -1.7787022889171848, 0.26633804539103373, 1.1602634550115618, -0.5237540947534168, 0.774098633614595, -1.036363714611765, -0.36798290254428323, 0.191339319992043, -0.4390522316837199, -0.5825357131940744, -1.8558445788692546, 0.22349968016689797, -0.27589560261552315, -1.5144430915029663, 1.7280315075867592, 0.20272834068367696, 1.1529452768495314, 0.18775026910021522, -1.2845912179873766, 1.3748647892645212, -0.1749439943239581, -0.14468996823454097, 0.6329074575422826, -0.34562077111357675, -1.1741687672675092, -1.6961713620761958, -0.6197696801151305, -0.5619384713003639, 0.013734700377261762, 0.09517641648993247, -0.7758480502760434, -0.3660476351681152, -0.5515566394235866, -1.9192081334522821, -0.5235142800789419, -1.0302456662800634, -0.5071565678673137, 1.2559517269170568, -0.36717760977436653, -0.2569049662687511, -0.14100143308258498, 0.5294647644762812, -0.44132507460233356, 0.608449102221936, -0.8080455156164446, -0.45014861802800343, -0.7628014783883533, 0.8991099531695937, -2.009249389190505, 0.15800231622408062, -0.8783594179490186, -1.3248175270083549, 0.5490931697284663, 0.834518886842284, -0.9452530504291009, 1.8263209524430855, -0.28072635185647626, 0.7703868360874301, 1.778361923718852, 1.5661441894779122, 0.7855877174762754, 0.48471719343678504, 0.2768679866647208, -0.6700384549259031, -1.0165127623686967, 0.04047869933738808, 1.1071035406362355, 1.3301070411949376, -0.8293451566357365, -0.1855166794024107, 0.6216348163222087, 2.205915391751916, -0.5185868984012906, -0.27338236562584534, 0.423224933719063, 0.5852835060973829, 0.1476082981526924, 0.5583223108156546, 0.9596872303696061, -0.08582902190054459, -0.9408776157074137, 1.3385998337856473, 0.7578068326577915, 0.8512636000092189, -0.34455824616896397, -1.5079586116240002, -2.1113850388881756, -0.7231364835666014, 1.098494941964907, -1.6660636768700419, 0.5756040459332552, -1.5768000743374921, -0.8596624190921448, 0.47260032337673863, -0.37484985810217497, -1.9850320022489087, 0.7888036919992292, -0.36677477833547695, -0.6491235053408214, 0.057287737310125444, -0.09991527990629374, 0.2608244334664028, -0.6207973904310198, -0.09773350971204292, -0.4020113752989505, 0.8682463993977132, -0.6417590644833291, 0.17370059157590087, 0.6386311281580039, -0.5847710273977063, -0.5859291608411024, -1.296373938569855, 1.3788334288355206, 0.07171076121996087, -1.83046644776039, 2.2501664885816886, 0.5557443008762217, 1.6288252219314057, -0.992128130902776, 1.050108386874728, -0.2825577888320655, -3.2066670617674844, -2.0124494753150546, 0.10760155200069957, 1.3660376084465862, -1.1818409471829006, 0.26378533743573, 0.7866698968706147, -0.4977595962686635, -0.6777935358061074, -0.401079733868836, -2.0223804090966775, 0.5459445130150747, -1.0536455530119542, -1.6730248355234056, 1.2501822134894924, -1.1706350563333325, -1.459801976554963, -1.3772962700493647, 1.5263916398315625, -1.8182287002023658, 1.4580819206499196, 0.7484424671047547, 1.7179598587665041, 0.9405970402887074, -2.117491339416035, 0.05341015939387625, -0.07667714319601608, -0.3438852119205453, 1.6862361174677543, -0.5920707284010684, -0.7132218601169092, -0.6641721638696527, 0.4958484689356263, -0.8653310658670899, 1.397822057122464, 0.1719729908463204, -1.0849152621099594, 1.0438788254273097, -0.28132767317053314, 0.6104221363637121, 1.23324353688208, -1.131951950159986, 1.1280546807486351, 1.208442786892941, 0.4849419618882433, -1.750631828336105, 0.7217351309257889, 0.7036403752718836, 0.3729756893538515, 1.3383978096417493, -0.08512093136608292, -0.10737966785613139, -0.9128540916471919, 0.43997549234056704, -0.396959552960537, 0.30777211126329707, 0.7631948880845982, -0.29082408465175924, 0.40971502869416165, 0.35657887355285617, -0.5336848684040114, 1.5153344401841806, 0.6833438185353399, -0.144849141705621, 0.8661949425066442, -0.13038899760160086, 0.23092925357811692, -0.8443448403697288, -0.45544164565320344, 0.7489955931132553, -1.0387039509527676, 0.7035252717374848, -1.010893092424226, -0.4489099138693763, -0.3662511675774619, -0.05335693192275747, -1.2196387906550146, 1.3153549198120502, -0.25287120269769264, -0.7019188130809609, 0.3398722308691034, 0.0461855454805454, -0.8966412657723066, 0.41936988994937413, 1.7087200324760456, 1.5993273865775879, -0.21826554004983464, -1.3806296280080006, -0.9544795473328198, 0.7049090169483628, -0.8530014356220749, -0.9023098549387267, 1.4683556786615575, -0.18120238642464115, 0.08356514584651359, 0.6635739393969264, 0.22653961772591089, 0.5092167329393181, 0.4432057317454093, 0.5322910822791814, 0.08039271729198216, -0.7182791226192551, -0.18831636541630453, -0.7253929982734708, 0.6004478688247558, -2.2291100017862124, 0.7214723956420508, -0.1637250262424611, 0.6290894684309455, -0.08230896144194089, -1.7967502100990556, 0.39792396918688144, -1.890473051796667, 1.572486927366428, -0.7790939931276081, -0.7876802653834771, -0.9586039963713016, -1.9571595043147791, 0.8162439322228754, -0.2794131574545748, 0.7779258731890674, -1.5141951090091388, 0.7878524797193052, -1.1790122004599322, 0.3567165050175495, 0.9294040793292632, -2.177687016078205, 1.4187303378189868, 0.30984814359264284, -1.2475955561778527, -1.5145315185034536, 0.5417237137090503, -0.6899695029406109, -0.29935586009434023, -0.1383861226455995, -1.4344209509302395, 0.852970278530753, -0.6846796524872174, -0.41944991557454675, 0.5388735238387334, -0.5166734996964415, -0.49255021549924194, -0.24306735505696267, -1.2615622430826188, -1.2991532683864284, 0.9996861905526887, -0.13610049225066806, -0.5094489485320106, -0.09545516216557891, -0.22702192327986048, 0.3039445035057819, 0.12207177876056718, 0.433210017439092, -3.0495236423812337, 0.35278787483350443, -0.01620955895846456, -0.5356837501424415, 0.4478989067904285, 1.1674116968557915, 0.7054176866743357, 0.6699629091188088, 0.061599952365737634, 1.8485515801536352, 1.9265230073005406, 2.9992608095512074, -0.005624418559422462, 1.268082881267637, 0.44226765776836474, -0.8121088276845151, 0.3699382539290407, 0.263064621949837, 0.3191590563387852, -0.6311518968526464, -0.7819576971177594, -1.9547850635518804, 0.2803768635605635, -0.027548299603993777, 1.5516308902062692, -0.14121993988443277, 0.03343536066672186, -1.9048234263461066, 1.191694300045985, -1.4486515866692995, 1.4660028132626264, 1.3072458822126019, 0.2702077524558915, 0.6825337291234915, -0.3329977764067721, -1.056587102760177, 1.500463079274217, -0.015452198175548057, -0.3219156202119457, -0.43379093579156325, -0.5070147877308947, -0.5461287796453599, -0.3742706383583375, -0.49623678463056714, 1.1641858125030378], [0.0004489659201484228, 1.7804221604069195, 0.5488132055740991, -0.4961701782062293, 0.5768864551946514, 0.31703832670078524, -1.104172934419702, -1.2879629879844987, 1.4590946781334249, -0.04280774002693501, 0.4809702290605945, -1.077797181220418, -1.3403794801903206, -1.5783594271688195, -0.3542963185543603, -2.0010100493469456, 1.5488703938241355, -0.61364243130479, -2.045323949736636, 1.0912427627938925, -0.5320009166825083, -0.04450350934360208, 1.8639485153164188, 0.48523149024002, 1.066690217368109, -0.3213081336174072, -2.060921255527851, 0.436386915956967, -0.052142145031334235, -0.04151539209980335, -0.570825296766849, 0.26138587809064134, -0.9847745203562869, 0.36210750408864084, 1.5106489038456765, 2.6218806617658035, 1.153955660451706, -0.40323757455793274, 0.33992627017329274, 0.04714563388092126, 0.625064279284927, -0.8315901830917669, -0.43037506327575775, -1.3781236069174931, 1.4292565338756664, 1.5450437165835769, 0.11474053182668274, -0.05260124033413261, 0.48977273852099423, -0.45914295314876635, -0.1906268429681339, -1.151195552743741, -0.5356459374253137, -0.09657572905925607, -0.811247335557063, 0.6405591872115799, -0.3816483905154214, 1.4273295845901497, -1.6039036199399705, 0.39527215236705365, -1.0039999468567062, -1.434397247828626, -0.6525433059828414, -0.07086663853995465, -0.4974348306002011, -0.2783149621557421, 0.5442325794076701, 1.0805894793007547, -0.2808195300140457, 0.33990304823442397, 0.8256708853355116, 0.17002725145479167, 0.1282660022440275, 0.16786939466400863, 0.41546712718510026, 0.23754593946074398, 0.9149826859454111, 0.6093861919584244, 0.9171748642588066, -0.4639184205032081, 0.015605806579587437, -1.747864356182841, 0.13982614457272038, -1.6051685140889416, 1.1773665480703008, 1.210611716803797, 0.8861646873868235, -0.10829834237372273, 0.5658396905565433, 0.8108788746146574, -1.4765077985549822, 0.7955341355211578, 0.7104121002549131, -1.7199477089373423, 0.3380513162611464, 0.42838901906624893, 0.9728460588713913, 0.5223739350678167, -0.8108115551358218, -0.02374467062958935, -0.23825540857272623, 1.219160236057052, -0.34790702460813655, -0.14134558342947914, -0.17577664167544552, 0.2620082425390115, -1.3556163956719034, 0.1376488051753793, -0.8536262098315397, 0.6384186840699937, 0.26967600497232397, 1.4016424635189948, 1.1777669871407626, 2.0426885130279486, 1.2445828944511046, 0.7890603318786763, -1.4934343036260065, -0.43437527375615936, 0.8129038989789256, -0.4512041330074695, 0.8710224711201182, -0.22307096866795148, -0.6127544309675756, 2.1746681792739477, -1.2100133122232242, 1.7276750073004947, -0.34308450418629716, 0.1780938561645292, -0.8489733904105242, 0.32052843034774586, -1.0814629060348802, 1.612712820432066, -0.9852018115919786, 0.3241219781517253, 0.28994561544940334, -1.887140848016857, -0.18346178992171508, 0.061603820819391246, 0.9413948669139326, 1.0747972317094767, 1.1125792296445034, 0.13983820270134836, -0.20208670209168195, -0.8954119053534061, 0.11736842780467732, -0.635184540543167, -0.24370436392679992, 0.8468526062158095, 0.3108261461327892, -1.661076178440004, -0.5922898108753601, 1.531501921543928, -0.333654867992832, -0.7229522146921232, -1.0162671276467716, 0.9609192323708429, 0.042746926957386445, -0.04503021342096807, 0.7968509784375851, -0.08374887601166014, 0.7918407327722091, 0.12771846229899445, 1.1540642606848062, 0.5911739212693634, 0.04514615757129487, 0.6878553095733299, 1.8106586224464256, -1.3322553622731315, 0.9153464923467154, -0.6171614912834119, 0.20870304549267368, -0.4479829606060122, -2.34075020574394, 1.6215800795306707, -1.90293294564869, 0.25088097946457755, 1.3674653810064403, 0.38858219306581293, -1.4124421837643824, -0.6416788102538711, -0.014789052300962524, 0.09956977127646023, -0.07354107166093307, -0.4030456069971507, -0.1468430368477638, -0.8282667873757639, -0.7993583830257905, -0.5713821450665484, -0.25466050429227355, -1.1683212992687673, 0.07150099867827872, 0.5841347544906897, -0.699554942423715, 0.19743641613055574, -0.7930257411896918, -1.2053550419798502, 1.119588996549683, 0.6196880380779982, -0.9054936222231269, -1.5058967850938443, 0.7065222627570231, -0.45567722038304526, -0.22722833584123484, 1.580266013223313, -0.15925497385755932, 0.19163573711352103, 0.41716854272926807, -0.03258930144600117, 0.2873380081567991, 0.15696865363897092, 0.4787463798363439, -1.31163760084192, -0.5040708970962302, 0.17313235993599485, -0.24842692059270743, 0.5703304061951007, 1.076762543286529, 0.12189073143024676, 1.8908576904070329, 0.6387019403366611, -0.9351275736597737, 2.215483449034504, 0.10575674463662907, -0.17961982796705478, 0.5646150126619419, -0.3802305319915428, 1.8291547734797633, 0.02588281664571587, -1.0289138937877427, 0.22337579117852027, 0.4887843212868381, 0.7233829388080621, -0.27862133746477125, -0.6148129718991769, -0.4228798200076271, -2.2454837636615097, -0.14755578035118502, 0.6055258860663527, 1.285541361139959, 0.20971337630286152, -0.4287323269741207, 0.01907759221458146, -2.1407083814874404, 0.8815913221748082, 0.09022214368992865, 0.539925630083301, 1.1971661226860093, 0.49059297180677264, 0.02594329375571492, 0.8326770776065278, 1.1461705979564019, 0.6071335849165088, 1.357658454018213, 0.8996986865445437, 1.919686586736265, 1.511464221742621, 0.11843104725432196, 0.838594395931845, 0.5693199150850409, -0.5993729462765038, -1.1187300578114265, -1.5476097028723923, 1.2262112726978636, -0.48531670261671794, 2.45101779856503, -1.0859996473036435, 2.051600729412145, 0.49821115098801055, -0.2787963018763324, -0.8284078921485335, 0.41910488362703935, -0.002050430077140775, 1.1675569821940193, 0.6530211459197193, -0.5525526200152096, -1.3662619284272122, -0.2058305641538551, 0.7655647231445789, -0.6997384769867923, 0.3425433140307282, 0.24309977243536468, -0.24585398807620676, 0.6866681178551983, 0.18252674190882132, 1.551290099571509, 0.6790300959127406, 0.06338115549060377, -1.5489558721805343, -0.4964543842610559, -1.1411230356302653, 0.6481221026865704, 0.17341792514487303, -2.1105238958489463, 0.544082852523738, 0.7484790114213802, 0.45624592573782285, 1.2529883192391407, -0.36031863033478806, -0.3325805114847504, 0.25623285738659424, -0.45068864939085485, 0.4103472868499696, 0.21152038325136632, 1.803308303755175, -0.980234243421303, 0.3736095579467249, 0.10555084694366963, -1.166524574691357, -0.5249254489020312, 0.17297095336436277, -0.3872637563376755, 1.5331238223244685, 0.34580569937768063, -1.8309855441483738, -2.1839903018290707, 0.22067003907089644, 1.3438555853309924, 2.029826472395255, 0.10764333888616094, 0.6371751680239388, -0.5096665820320231, 0.6082273737606513, 2.703486780929962, -0.15385200383372377, -1.3500596094419597, -1.8934353588006299, -0.09861800662792461, 0.22716955495175345, 0.6793139228929291, 0.5242524302146748, -0.34249372177502985, -0.4355932221806206, 0.9220385289717475, -0.5063975382096428, -0.5404408505136968, -0.11561301670061308, 0.5059633772646165, 0.08912386671339233, -0.5469061235861982, -0.5455082498617616, 1.1623011102533456, 0.9156842462851342, -0.9221290902070676, 1.1555092623127234, -0.14160404006283273, -0.18448869279842886, 0.22806474497984278, 2.3229931374889263, 1.3105451938432389, 1.389083421784493, -0.5444323590675025, -1.3547019972924905, 0.4828533612396942, -0.7953270977728505, -0.9621738748541115, -0.1492821705017375, -0.7805999611501773, 0.2399469618932933, 0.6118767583829796, -0.1088433839264477, -0.32742860062716017, 0.8886167514468394, -0.7782883612819537, -0.9383830508186443, -0.37915919093678646, 0.4549994331668268, 0.5925207946223664, 0.6788570242332598, 0.9198696193392685, 1.2093745000060159, 2.2828611081661485, -0.15976915889642226, -0.08945494285576962, -0.6341237759592313, -0.9669052833998949, -0.09064116854050755, -0.16566922156534605, -1.010436599195606, 1.0705943109435916, -0.07492995886211556, 2.18403696374915, -0.4662474717087032, 0.330929396876583, -0.27555260391513026, -0.3508637266329877, -0.15165587412122813, 0.9585871851807579, -0.1324348952920069, 0.4756859877830322, 2.104884491516422, -1.1121830217835411, -1.1994329695952557, 0.09963023108158946, 0.40718100210424873, 0.35644088961586906, -1.0990160466931747, -0.29894227495108655, 2.534366808210065, 1.1552112839841318, -0.3706699036432916, 0.5840189853597917, -1.3898474092389241, -1.5907308159486764, -1.093656596077342, 1.357598811637826, -1.086377697500396, 0.34315310279375977, 0.7111378346416886, 2.2827680528218153, -1.207487772171355, 0.5219900840969808, -0.05666296270084275, 0.051228170861900485, 0.48803808845477703, -0.03185173959450293, -1.0354206583672976, -1.2262580069481968, -0.41874298443118413, -0.251577567560528, 0.9721546218763407, -1.1045459558781316, -1.9967341882171572, -1.3414570165501545, -1.3464979995159656, 0.7054158288713176, -0.2282935110986049, -0.5852135212188432, -0.28701760813130783, 2.0316739524816487, -0.2291516051613907, -0.1843724781417866, -0.01334297630081639, 0.12826119019039664, 0.2118565542043585, 0.37938642900523967, 1.506493837716006, 0.2404954165738848, -0.2863626007520851, 0.9731612271209076, -0.18002547826629534, -0.9564230032537341, -0.4366134222357914, -1.1648645521100027, 0.408059690836706, 1.4172733881039778, 0.9713446973804529, -1.3035556921333504, -2.1939227609855343, 1.6635367437839081, -0.8907429096841183, 0.22647916283095773, 0.21718313371915804, -1.6882119300855019, -2.465044018076949, -0.622816992112565, -0.480303823688758, 1.5264982716036453, 0.9086196859853056, -0.5598535114203298, -0.5053719799456478, -0.687444707617914, -1.284024334219818, 0.6679827390280846, -0.4761819251443035, 1.6305326703137086, -1.509426951541091, 0.5514610512149272, 0.3977331811023402, -0.19734397846743232, 0.7021778139913161, 1.2762795521458523, 1.0789816880524337, 0.11676643023971268, -1.0281377569929913, 0.23530218971150796, -0.9127387342626143, -0.4012056114160892, 0.1056103949740126, 0.21466977644478177, 0.9756246604201646, 0.6554372239698929, 0.7092749705897119, 2.184354638715945, 1.046844038353632, -1.943616191226122, -0.5882547215262215, 1.4085320234562893, 2.621655550186732, -1.6315859953097427, 2.752897000130851, -2.16983442590137, 0.6619011025726891, 0.6493627327230752, -0.9122684647815303, -1.6506454691423285, -0.30450478830393723, -0.4687503600316278, 2.0211836224800224, -0.12157842955846132, 1.1246208115206824, -0.6452231855947668, -1.1456275254342154, -1.2676907140816267, -0.0194708623438635, -0.9397679269348713, 1.2132805784673792, 2.3358325023284094, 1.5566034753004858, -2.539459361858558, -0.17238741510048924, 1.38280192525384, 3.902678405961263, -1.5162927485245716, 0.3887908438361164, 1.1691212194776106, 1.6942946296538959, 1.4911584466698553, -0.6191154479749871, -2.153107091445195, -0.3144980328053178, -0.7137651780739446, 1.2039766338115254, -1.9190800986518852, 0.33688489553636325, 1.4091637908107175, -0.7475409651459155, -0.3495978447225328, -1.3487302303954771, -0.529453076916629, 1.327454161892343, 0.12988567878707066, 0.9138045432662816, 0.07046347208363327, 0.4824895635884752, -0.942355350784603, 1.692289973074602, 0.4432979680271898, -0.9040792137621786, -0.31156256804055266, 0.447609698897059, -0.822532704676045, -0.6366369119548024, -1.1622691667766392, -0.4605009305998694, -0.7080018385127193, 0.4997739151081858, 0.8848798424112866, -0.4455015781036728, -0.10275310931962221, 0.7357643609453878, 0.7337103861077128, 0.21342529996006096, -0.5201904468789099, -0.33432699010492745, -1.7644841709865013, -0.06652921782637658, -0.4497357379120009, 0.5558990293154804, -2.048328938177195, -0.6591882549180526, -0.5882132243118953, 2.150615350075736, -0.22382556404087364, 0.1725836361155108, 1.355453859770726, 0.46330351218831134, 0.620424850238945, 0.8849640632693367, 0.8349212813958263, 0.8094389244943139, -2.7286786476001033, -0.6027819089096976, -0.5310870657124291, -0.02374320677820518, -0.4986738884110856, 0.9723253350590346, -0.24186863872758174, 0.6638262240767978, -0.8340664453144935, -0.030871597736715717, 1.0553825497695735, -0.05013032929856948, -1.4644686447047741, -0.4796051466993911, -1.3059195462260633, -0.10351498505134729, 1.1144331468326154, -1.0386039687064432, -1.9507784383474287, 0.20778683858682953, -0.4625483921250894, 0.27621236303181196, -0.26010837105550794, -0.7913122896545763, -0.655636575690423, -0.6437200868792617, 0.2978727243482601, 1.4772612542369008, -0.18920251101647342, 1.6549140087134848, 0.6299611106912737, -0.8517786392753216, 0.9309213076561109, 0.95279480488101, 1.3549867148285768, -0.3352643462104308, -1.4190097423855457, -0.09829167734520801, -0.16853991087100742, -0.8784737326699118, 0.25538673168643067, 0.16383440897230392, 0.1559711597059888, -0.46551581164930717, 0.11918666239882598, -0.033437649093906875, -0.24677383783553006, 0.3928755854779405, 0.7771117675805586, -0.16243648948053183, -1.1508831898729976, 0.019818005494507608, -0.37093329284856763, 0.2708795196101731, 1.2354791034919899, 0.5508324731147464, -0.3759606990199983, -0.33953591558801166, -1.7565479797727974, -1.4350481521709857, -0.7640172162064256, -0.5858175964585243, 0.13843121490212165, 0.0098499838338334, -1.176966198992112, 1.8457571723574684, 0.3279059282483794, 0.13068128643998858, -0.34578298651729406, 0.1125610625320603, -0.20024908926246557, 1.2258703731316738, 0.4626064940729409, 0.8454162525068218, 0.9812984887608469, -0.9712024781360431, 0.5031919888928054, -0.9366105851942127, -0.424456868907633, -1.848872059691068, 0.9980645791856124, 0.16628034694428773, -1.2411680004523944, 0.7548097430346707, -0.3790444598069304, -0.6534728749622181, 0.6062781873039428, 0.025983687528005447, -0.11659150760744706, -0.5173730844252417, 1.6205523940098399, 0.9362568287033285, 0.8073102162531581, 2.434288057308833, -1.0160241603193922, 1.4075478715318581, -0.8587887898396087, -0.1562084029921255, -0.36961375062333984, -0.443050777383326, -1.1949939145540593, 0.4816024095310171, 0.7656566831114666, 1.8537315086723525, -0.4981695926620213, 0.2604864579893268, 1.9999780754182188, -0.05648590428574021, -1.4120589199682352, -0.8342640995684771, -1.1741672867997197, -0.2991223631270492, 0.6339011014157875, 0.5408182177615866, 1.160184194126271, 0.6407663435611264, -2.272260622987524, -0.7440454473895047, 1.1232776398363526, -0.37621810722847526, -0.8291019355283756, 0.7072382339348324, -1.6624616663482743, -1.3543561051480857, -0.30673596928855895, -0.08076791935718684, -1.1954146939045796, 0.22572528566029967, 0.38016597090131377, 0.013654799660046556, 1.491210298598305, 0.36537004592850064, -0.7205002467360587, -0.44703628012376256, 0.2233199220465269, 0.3334833131386894, 1.470873069989346, -0.12242568747583886, -0.3784076296267232, 0.6917706498038034, 2.312970952523974, -1.4082414896552826, 0.9010110584702622, 0.6873007062890656, 1.2856721824553992, 0.6045232104768906, -0.9672680735037503, 0.35337182802896355, -1.2725503624781243, 0.12968624321692004, -0.21635860176938562, 0.29753614605377066, 0.7601367178196883, 0.6832758901692795, -0.5221455187939403, -0.8199440831799799, -1.573421760515817, -2.056168414721947, -1.3955899522223651, -1.0103076966626314, 1.5115464584355585, -1.393251076889281, 0.7023294799576112, -1.8760709963848103, 1.0825581338066912, 0.6829174951344671, 2.3072650030733945, -0.42326431801505704, 0.2793292448349632, -1.3985884467556224, -1.821013397234729, -1.0211996065492814, -0.24844863251572327, 0.3388107987895211, -0.014377951039196165, 1.4020869600932486, -0.7377220981274624, 1.0068331709154672, 1.7463117423288097, 0.4075977442360861, 0.026862954279667475, -0.3538242408247918, -0.6021418203897592, 1.3746344391245566, 0.7121828055962647, -0.9067590638893377, -0.9550767541688404, -1.7317376069885688, -1.216121107258337, 0.7080460292618769, 0.3045145786441138, -0.46813576818297076, 0.690739827117695, -0.8834508498330751, -0.6918989183111633, -0.5201072378888006, 1.0861840059296017, 0.5550683138890303, 0.47962435638857653, 1.484356676597991, 0.41509254800557516, 0.8143211570407565, -0.8371444803881303, -0.2855993017113969, 0.5107423214160426, -1.576769935391994, 0.7434217230415257, -0.5639526182584189, 0.8193234805373667, -0.5704182592066859, -0.005229817616886495, -0.07750636172196848, -0.013768966120462134, -1.0902931545831154], [2.333788155301813, 1.1758981060055997, 1.5281537894414376, -1.336411091378501, 0.8026076049813368, -0.6451320989489678, -1.6280736968208787, -0.03757899268198983, 0.3011397381142731, 0.19475541861732726, -1.3031469474623913, 0.4056743243556275, 1.7744139163165995, 1.650113543552686, -1.3078848519833384, 0.28686222246519494, 0.5096962082578892, -1.5925968177948922, 0.07031746488608669, -1.8345472340492281, -0.510277639957627, -0.33183071249042323, -0.5694261065726034, 0.0746355604494009, -1.1169998025845291, 0.4905708427422853, -0.5636662531719963, -0.5714560601845595, 0.07759042936797209, -0.14784882042003406, -0.31589569390099054, -1.13412980816497, 1.0183618275242035, 0.7666427448818621, -0.9426223636121374, -1.3611440151305685, -2.4137653131415706, -0.9172571190011197, 2.2727368313667147, 1.252970262384066, 0.016669333923419075, 0.06199421544875704, -1.2632597001650858, 0.15349407208414897, 1.0504870323132933, 0.5012006107023139, -0.7487757641398539, 1.5065693024094775, -0.7021504666078452, 0.912674517069342, 0.46257019648050096, 1.1698168097894757, -0.36334573092706063, -0.33168828610173295, 0.695178234013362, 0.19330303695373632, 0.7031345226982874, -0.8692574975390268, 1.2315664119992542, 0.23803318298764567, 1.0673417481426706, -0.11900613938611634, 0.760682927966234, 1.3088675830977912, 0.2196315505988734, 0.7479396536303401, -1.6685327522256348, 0.5058721915697946, 1.2593756650724814, 0.692068484788286, -1.7832782844787611, -0.6251199658221223, -1.0584889282864713, 1.4208747253366358, 0.406253224650747, -0.9895420515684653, 0.9478880761542859, -1.668178861789725, -1.4756490993470215, 0.833094382292342, 0.04514618543158742, -0.7775174518363731, -1.1415953276167303, -0.7389558980815821, -0.7026220510233283, 1.8282856712716522, 0.28837631753159004, -0.3391214637123706, -0.3478098597560483, 0.2500149824413372, -2.3211516776547025, 0.9360316005062699, -0.18565411718397062, 0.9511589933518891, 0.27146003912655803, -0.8936322701078455, -1.1217326630808573, -0.33124376814629064, 0.44115228923572836, -1.1556898665476079, -1.2090551086426735, 1.4211937576898432, 0.8308045024986727, -0.6918035491623231, -1.8718488457169142, -0.7852995329107927, 0.6002597359151068, 0.45902666980246065, 0.2717856201570395, 0.7034936484712062, -0.22273678000938874, 0.14757492052633397, -0.4904893658108927, -0.2963646274378142, 1.2987852512156597, 0.14430703147507035, -0.41693074567414845, -1.1447530244412387, -1.1886622455664089, -1.1069670025969092, -0.055457424787281884, 0.0661226814964267, 0.32591275810693365, -0.07330709643000735, 1.0633548828631858, -0.013869788152201612, 0.022627824789129412, -0.25333204562992545, -1.1682510679969205, 1.7115772284255941, 0.09939039394797787, -0.4428875317089666, 1.0348233375634963, 0.8844599883738918, -0.410367955692286, 3.9065427267320256, -0.5820752069040337, -0.9129429136748244, -0.5278533157442398, 0.9966234945727754, -1.653487330817173, 0.21420905913659746, 0.03229104191616973, -2.1753253778701938, -0.7559958604199164, 1.4626737223319368, 0.9572289916481344, -1.2023569598589727, -1.380087785801017, 0.3610616923917891, -0.03626333968303623, 1.6070230720647924, 1.0173355139177476, 0.23831494616114207, 0.7094965089046231, 0.3116686307882969, 0.43822529197549476, -0.9634472831244263, 0.1639637409004296, 0.4848962280689553, -1.1481534102532358, 1.0214053656237343, -0.820018235382102, -0.28749394629681835, -0.463014554827009, -0.6891783232431866, -0.7316603746918366, -0.3681891671440494, 1.973276639318212, 0.5781671036687102, -0.7870559236364361, 0.8206725321467021, -0.7210194132424604, 0.7164887863920752, -0.7414792456048909, 0.9712201575466526, -0.881164485391678, -0.30764620463629505, -0.7970377830312715, -1.6327616576443247, -0.3483890839381559, 0.002595417882394612, 1.3174787999624644, -1.4138231066906988, 0.14188682872469402, -0.03610420533535273, -0.7401018674450266, 0.46965548186587086, -0.27253210547227347, 0.46287016256324487, -0.4860246833788782, -1.1005338187899, 0.7177120252397864, 0.20701920677801358, -0.7161925190072064, 0.28704136406176217, 0.9964255769755236, 1.2396693949993527, 0.9096740163260899, 0.050684226888383546, 1.9632438056419161, -0.059204086616681695, -0.7544483248635062, -0.9324117565156292, 0.17005654946438462, -0.7270302368082161, 1.5260207570396125, -0.298037621957282, -1.1375911800753626, 0.3364417575414843, 1.2241673312618913, -1.5114178278766512, 0.43698072373850705, -0.009119809073392209, 0.8786909165709313, 0.29343794471158485, 0.5842563491683636, 0.41898919091701803, -0.1150684884964757, -1.3046412420663558, 0.878546036787993, -0.5155622799266903, -0.4126932473586907, -0.06475983179137222, -0.41383638914239984, -0.5514974983912042, -0.9206588207608263, -0.3755087343192791, 1.9504232037675904, -2.134655341204384, -0.5188050219455796, 0.01992156666563526, -0.27041753429359905, -0.7147288134099771, 1.2621610100300928, 0.5586916189380369, -1.006080057211676, -0.5941180046550841, -0.5937700510791862, 1.0279711924133192, 0.11250627538161405, -1.5392702733326873, -1.0727236681719048, 0.03561667518032268, 0.6286406698725814, -1.175538842239468, -0.7170665650680368, 0.04451525869409201, 1.5282816681027693, 0.2632494998108099, -0.8282371906740272, 0.9383358858969081, 0.07656204069881431, 0.35587546890827193, -0.1944113096326213, -0.1222395823294952, 1.0724338969289187, -0.19560088459046643, 0.5229786027078946, 0.5761149594080042, 1.0953791473810504, -0.33585401914564567, 0.576731206826247, 0.7181779241727984, 0.20159087910528106, 0.9922141579960986, -0.2063329843882517, 0.8216384053315076, -2.1769066963188264, 0.07416425452960941, -0.5893069812906729, -0.7591120880276586, 0.608395425791277, 0.13509914846593807, 0.12795229109938702, 0.5363548157505348, -1.1849710289343973, 0.7171426639800378, 0.49148770517958895, 0.39432846907400315, 0.032166489285734436, 1.4059771701793622, 0.46593601274918706, -1.5079665232506776, 0.7142681747661024, 0.7483962982496297, 0.8210019494647303, 0.7909155273921512, 1.1222366799201737, -1.0252229634638461, 0.8789920523924651, 0.27906841563195434, 0.16054988041571155, -0.770673816549086, 0.1277766484425039, -0.21492519036691088, 0.467878652407688, 0.799073977473158, -0.8702417156701814, -0.6987787999999632, 1.1031055288276341, 0.09398354899770898, 0.1896479523504345, 0.9148637005087785, 0.9857252048562661, -0.6744764816118799, -1.2613873811737397, 0.8233915993715429, -1.3057678128051164, 0.13083953346172159, -0.00976077221314346, 0.6004596566143672, 0.8093673782710716, -0.8997114241656525, -0.5053051712499353, 0.24590148194167166, 0.19460876929927584, -0.8707739549041387, 2.5091235407009673, 0.5856452328639062, 1.1146655161927876, 0.2810116314086141, 0.5795069811538497, 0.3986782621743438, -0.2354415039161109, -0.5486673223685249, -0.48003549956195324, 0.8229182565913102, 1.0186925194770782, -1.2164319657735974, -0.00583436646186582, -0.7093853569107988, 0.9778814676909067, -1.930141153217103, -1.072850589719446, -1.4608244144525102, -1.3300412222718039, 0.6293325784514501, 0.40341600136390576, 0.4295351137340494, 1.6280537559749353, -0.20140756619809183, 0.26357206343063916, -0.7625722396387096, -0.5160772400203416, -1.4157650801834698, -0.7172105442124974, 0.025889143136943307, 1.436623326044467, 0.21508656734001108, -0.7089192036936991, -1.0412710696196834, -0.97130348638239, -1.2007405268536269, 0.1855495660941737, -0.6363160191012442, 0.5237670828214135, 0.7538541032989292, 0.009433304069206373, 0.1911394552934344, -1.5128878580765313, -0.2605581586152733, 0.2819310035689177, -0.7795721206078664, 0.5994358141845777, -0.5332513139989894, 0.7671868863922366, -0.6501888873500873, 1.3181572173960148, -0.6820776479276514, 0.49238027007901297, 0.47871140750585817, 1.1298316059275186, -0.9162750193584943, -1.2502034349496516, -0.8147650478920613, 1.0570068945567537, 0.2657163725095877, 0.7516237249808997, -0.1030500644181717, 0.05011315064625639, -0.3644603449059262, 0.6206532159798406, 0.10974293366961195, 0.0048753124551577254, -0.290627336262789, 1.596781528384703, 0.16139897978846363, -0.7837223911293355, -0.301841382792199, -0.8378880750918866, 0.7523992426733074, -0.4696591237308001, 0.23470855100941962, 0.3595851056312169, 0.5558906798218952, 0.5144934832136132, -0.3574558215157835, 0.25199741873353454, 0.7293092604006838, 0.6963026823639743, -2.0300554543128406, 0.4675003460026536, -0.3283572298397476, 0.3262404254697353, -0.9664288007652025, 0.01229160811907632, 1.159213516909497, 0.07820218349675889, -0.5999189163274298, 0.7195524024827828, 1.8913524722543733, 0.4391555194206135, -0.3410793424013071, 0.23041864821855998, -0.7864655329889022, -0.031511101228546834, 0.26978898230844245, -0.1232383530286119, 0.29554426860081445, 0.32397608313939347, -1.2894606037562122, 0.3270012120413639, -0.030314174901364094, 1.2470556626293903, -0.8744549102271263, 0.526790097928524, 1.245121267484812, -0.38102929702941135, 1.9363280416771416, 1.8768891339443037, 0.0471012874100566, 0.7496879769735046, 2.261149786177666, 0.0060779141556103955, 1.2922091431320493, 0.6469804848983169, 0.4427632581635486, 0.17633933183761716, -1.3089094685788754, -0.589945658977559, -0.3979390288267014, -0.21165056933616494, -1.1359907101969566, 0.7305102987712105, -0.3643797925424809, -1.542835574747347, 1.6394438211140376, -1.4933300161453078, -1.360707812437374, 0.07545257888430736, -0.8399616235154689, -0.7655700544859969, -0.5382846995314023, 0.817422521412749, -1.408234917552977, 0.22252773255335373, 0.5620784301009563, -0.14656485800852265, 0.6063114635351097, -1.7218269487947282, 0.5420528457120704, -1.3688993681299244, -1.1278429545932307, -1.82501932214732, -0.5706378916915148, -0.7700864941859876, -0.567967414732525, 0.0040097743914799385, 0.2259858181012153, -0.999128773141749, -0.8804550827376716, -2.503101393938077, -0.7697666986302377, 1.8307504410777975, -0.863643100608347, 1.7387870087979722, 1.866953054147798, 0.6757287773040446, -1.6383699410769097, -0.44698252012832895, -0.27376181442233266, 0.9977269740357112, -0.6702170378291858, -0.37351623937902734, -0.42610985546644936, 1.535881803004331, 2.105067791290355, 0.8088829604222487, -0.12956774171537386, 0.9547200057994102, 1.7026568510588034, 0.25149057211210607, 0.6972712338003484, -1.041910985679089, 2.05025230436364, 1.7954231125121218, 2.4713528547232104, 0.5122582003432533, -2.597908450479155, 0.38672449409147636, 0.4051348421747446, -1.3299403242716172, -1.3269358797815392, 1.6359514560435888, -0.9942771924530305, -0.6571606230643505, 0.8959228477701128, 0.771237937640858, 0.3642012712429175, 0.2750004598209093, -1.5583603693435057, -0.45835118264776364, 0.25310644913460084, 1.1355574659612917, 1.0078518448402185, 0.3475418494200712, 0.199908440224829, 0.1658572647568589, 0.45554847647889307, -0.7910901368570552, -0.23597561673837833, -0.04862782918275307, 1.5211158303166046, -0.5553695098208362, 0.810620686275767, 0.45431719846789687, 1.9050558141751064, 1.3840026783237762, 1.5941213771713174, 0.23143389256039806, -0.6302170401220932, -0.4560175810097489, 0.440323558532995, -0.1966173022151089, 0.47752165417708103, -0.520031145580107, 2.414058076120921, -0.17828721567946332, 0.31717071426966753, -1.044959762699182, 0.9646831421776106, -0.2234219510070639, -1.214091336939495, 1.349904797851825, 0.7909877792663059, 0.06521884985932863, -0.763431030819048, 0.04721675521647408, 3.0070754930599675, 1.1858258695901247, -0.6487523971545053, 0.51957249379446, -0.20300577692817265, -0.05139743693143378, 1.0889066776323273, -0.3772753144913726, -0.6734476548122752, -1.0590028343024225, 0.5695900786503505, -0.46966039571600593, -0.3082283744420891, -2.223738674164877, 0.3566526354123383, -0.9386838229930665, 1.4796010195973823, -1.2809034422805805, 1.1704159531705027, -1.8921498515933186, -1.2175910049692327, 0.7546342585003725, 1.592284928365703, -0.6712689641839378, 0.4505828049585699, -0.7742514599539413, -0.44893480543970027, -1.4607923892155803, 0.5800008070020268, -1.090809063433181, -1.3885127101954169, -0.9817113543506222, 0.8319225387042836, -0.8584434088796631, 0.9506488762781052, 0.33129062435297724, -0.11644331146419092, -1.8632048703540132, 1.670862376222566, 0.36433901845102457, 0.5412281716711135, -0.23514111369836904, -0.8166247333017954, -0.02075245377790732, -0.24198892385599427, 1.4071112948886997, -2.771906773065578, 1.8947675018681192, -0.8494456356041858, -0.5898296408894688, -0.10594185130426781, -1.437472484532473, -0.5876659810251227, 0.13069229451502948, 0.43415594394153945, -1.1401810027559376, -0.3339623924021513, -0.9139087883867537, 0.6354411227422824, -0.4744769987911978, 1.356582716046673, -0.9507277767177169, -0.5971179620487823, 0.7069658982468641, -0.08770443618093193, -0.25569411489125676, 0.4359078315312017, -1.018369586793734, -0.8417239518097503, 0.3958202278957507, -1.677862675881572, -0.07218171198366148, 0.5115852186377682, -1.2524749475285277, -0.8626566612398047, 0.021200608605246012, -0.4393930062054329, -0.14450491199301008, -0.6247662817192228, 0.08681041641180377, -0.20250913731289105, 0.6989980968502183, 0.9097650565702389, 0.28117230375902846, 1.0784539103606485, -0.32463232388113217, 0.14231383769461914, 1.5373921183819492, 1.064719724245762, -0.4022144078755074, -1.288950650334499, 0.5470734283234245, 0.3617490269982454, -0.5131043693710124, -0.7631699463027736, 0.17031531121108118, -0.9334122321487887, 0.9939217684542768, 0.34839909729956137, -0.9709648012314276, 0.18601993537660164, -0.21968785897224952, -0.03226066120629487, -0.6506561512725844, -1.1017663981019923, 1.9121360954870397, 1.5636292671122645, -0.9963457805889873, 1.5001530004278207, -0.10420680362163512, 0.451630786548109, 2.4533220969366214, -0.0010038285337708168, 0.37323345281503756, -1.1069963726045347, 1.3254558677036639, 0.3769904116277333, 0.10091071221942266, 0.3243212685219933, -1.1619862864142245, 0.4182427839319351, 1.5899193158959286, -0.23463260176494816, 0.2783164976958395, 1.1497587673791123, 0.6621561976717063, 0.36856406168132105, 0.33799886719363326, -0.7933812879237714, 1.189389576593715, 1.0178985136137237, -0.7928354381617075, -0.9508544370614246, -0.8600713618179907, 0.6043457967044592, -1.267107006884754, 1.511432348060774, -0.3228810643489801, 0.371797140119078, 0.2065025344498888, -1.3450032841349615, -0.5249691348798541, 1.531623438242151, -0.09796510035748704, 2.127080475544857, 1.213453157434466, -0.8433275384392914, -1.0195862108482578, 0.2544725777249723, -3.02984821922795, -0.25273686317963473, 0.19900182813595954, -0.1458830335719345, -1.1599254520342759, 0.8196149691069857, 1.6399190357106133, 0.3268087019050883, -1.160345883195986, 0.22600519981042375, -0.2762240337503302, 0.5842295244866441, 0.2488668073151392, 0.15013246383856121, 1.1968006107217708, 0.24306487538841673, -1.6252654811433465, -1.0559987734061675, -1.343339439531761, -0.22509668428355717, -0.21402911262537977, 0.39985951492045596, 1.5852227349689063, 0.6543799691975369, 0.945181893648513, 0.8808365810480159, -2.1872166581885746, 0.15287924667105718, 1.4311054593254586, -0.4111559879300713, -0.48521021845579726, -0.2584812354307665, 1.3859447146776622, -0.36541228145521676, 0.2007506017698207, 2.503066256865479, -0.623493001433091, -1.476152292887803, 0.8972055605112551, 0.2255577805219014, -0.14507841780775213, -1.4130596712175827, -1.2990190443334897, -1.2807709137008032, -0.6221096199043504, 2.3212677894932296, 0.2150100111473661, -0.5700374567023312, -0.9574186080735376, 0.4053544478676305, 0.9594376342907749, 1.6650252960414251, 0.5522816030070691, -0.3340133192036555, -0.545762062667267, 0.1645450300641282, -0.13164190044234658, 1.3787425976657155, -0.30835027823013733, 0.15235714804422767, -0.75467658114396, -2.2629607270643888, -2.159108654973174, -0.42885979722320106, 1.3454294007293055, 1.0936515756802816, 0.33257010814080257, -0.9602965988963693, 1.0015742904734746, -0.7495374956328329, -0.3618679273421668, -0.3908625607972216, -0.49392708007226804, -0.19794184163853015, 0.04535917691222134, 0.3810285649279168, 0.44317654351386726, -1.1278772138567204, 2.051815661805229, -2.948806263833846, -2.0942359958569776, -0.4250415120770726, 1.4931409722118572, -0.9356220446636885, 0.2280297278244111, -0.6498566317259374], [-0.03227250909805377, -0.4578628745300306, -0.22385025619931226, -1.1133553293541343, -0.11525248221723167, 0.12507709881190343, 0.5701053458676214, 0.7946646721882467, -0.937223460424114, -0.702090658902483, 0.0060662186220174245, 1.004684237425116, 0.8824778831468426, 0.15810075991956712, -1.5126542997540096, 1.1114602514567298, -0.1590270614886908, 1.9720760023028856, -0.20583603319985486, 0.39462423886305686, -0.3473415634274196, -0.32203228282963203, 0.5117072290106219, 0.5654704193861927, 1.4525219788301675, 0.14536024124896982, 0.5534990055539435, -0.5167185170623103, 0.2571287225712066, -0.60985215671672, -1.0017863747336269, -1.566359682191735, -0.7998136767760026, -0.04220875482895013, -0.8602624196854353, 0.3189736621485657, -0.5861900036277292, -1.570727216381619, -0.6872350444492129, 0.17412046336915232, 0.6003638814557641, -0.7794998690026865, -0.788598241722109, -0.8731439205021734, 0.7941924009315512, -0.6038300605137265, 0.9701490527256977, -0.9957881502275729, 0.18114744725475246, -0.49369028288456024, -0.9434494361763611, -0.7258009719870658, 0.4912692310893974, 1.4897874613037678, -0.8542247359833719, -1.353331160851968, -1.0289420944417191, 1.1195667901994133, -0.9017769263977767, 2.5283324462500647, -0.5806062360256027, -0.9096364885199855, -0.08535936995156426, -0.5802793210432529, -0.19787613632727172, -1.5675653611235507, -0.8821162852423714, 0.3279502481488576, -0.05882285288898057, -2.2461972519636046, -0.5320107624326057, -1.5850979886096688, -0.2406350207657806, 1.5433789082378033, 0.5708065415075912, -1.2869147031625647, -0.07717523576217135, -0.8175637066142583, -1.5063565628821003, 0.09629094729296064, -0.9387215998871163, -0.4170901176630864, -1.3021887064011233, -1.2106653954970303, -0.6607878447461636, -1.6160606960354447, 1.4694349835948524, -0.6787514081380781, 0.7967966111014262, -0.30729645168840763, -0.7864108300883133, 0.34843724072005205, 1.798949571152787, 1.3887500476927146, -0.7757104577121193, 0.4333419038487778, -1.8926837165471293, -0.17515856969150348, -0.372943050661413, 0.7501489212138751, 0.8118461802225678, 0.3908035493763699, 0.5974283130680362, -0.919193184958031, -0.39316048992914415, -1.1192450068511144, 0.10974632810555139, 0.5780847434827092, 0.9067799865733016, -1.0693828176511466, 0.04289041178980315, -0.5021468328805587, -1.680091034778999, 1.7337679253294966, -0.3618463712003529, -2.7005040526802957, -0.892176460131062, 1.4368711011944606, -2.346775623884852, -1.2226424147345083, -0.770353216716787, -0.20095055467687195, -1.7678464786298005, -0.5277962177717795, 0.4758720722547993, -0.2998732229467437, 2.0325384395236066, -0.09548112050128245, 0.8038260766332476, 0.9191247578571462, -0.3698492238278172, -0.5193355026238843, -0.3179361358975196, 1.4536320963514735, 0.7648364018014254, -1.702291633930902, -1.4605681733813205, 0.7303112695795138, -1.5939109623688925, -0.7655941503077491, -0.3335209773523341, 0.6191639985085156, -0.8286074547456664, -1.661975641549005, -1.1825510612547883, -0.6492083345646638, 1.5736105463282872, 1.222193706822413, -2.0763949866055644, 0.7478471882903176, 0.25162513221601995, 0.052455415349505485, -2.0333946548843382, -0.14037592610687752, 0.8900077084849606, 0.1710955335409927, -0.6160045416174894, 1.062187000878105, 1.7533569382741525, -1.8816586393344394, 1.098839635397618, 0.7368839524436346, 0.8993250470960071, -0.6908795780935867, -1.4218207629166009, 0.5987455619867775, 0.5886007152249584, 2.00543532863564, 0.5444789373933403, 1.541841919783558, 0.6124434142366932, -0.13956516214217635, -2.0607412650871493, -0.2167115297242686, -1.520076322307699, 0.14795367865330258, 0.086218255337532, 0.45811573071992845, 0.40708139928520404, -0.8036671285990943, 0.8909605944802416, -0.8513179518845602, -1.4254206329466481, 2.0036482273920972, -1.3353461288395059, 0.3850368517301926, 1.1390167243282636, -1.4086033469772647, 0.564811112293566, 1.032654306044382, 0.7818660102263355, 0.1665480534381631, -0.20060940328975355, 0.40244561459706557, -0.17821966596367028, 0.09715389204594932, 1.2794795259733398, 0.6613534544367826, -1.2285885864258541, -0.19817054715723148, 0.5221489134550547, -1.2552535321577858, 0.7839299499136712, 1.5258977749540164, -1.6090612485000964, -0.21593846970079988, -1.6602638118306077, -0.2687309037385443, -0.9311811436473703, 2.102281590320421, -0.46055732060385923, -0.889706544070594, 1.6696746119619188, 0.009788740091552854, 0.23948137183583218, -0.22962199660425744, -1.0029777350383553, 0.196854852143633, 0.7800199423263682, -0.3474056126590102, -0.13408869233583695, 0.19344193041484203, 1.0229311970866197, 0.18292182194645826, -0.5198873272185522, -2.2541263649793497, -0.9371480999900539, 0.29706683904122544, -0.3265146817435378, 2.0333976627953265, -0.3213819400400788, -1.4057030676205988, 0.5124653118921269, 0.20100031244329106, 0.0944062114207448, 0.9648242821330538, -1.0788133626568406, 1.4991999069304043, 0.39141704731804966, -1.0259426420526931, 0.048489985446181834, -0.1812830079561769, 0.6088912522431299, -0.5744357938417857, 0.9175410955536417, -1.5926415027230334, 0.9570348042071526, 0.5515056337464574, 0.03430725889433065, 0.5393343416756633, 0.8133463466821101, -1.5650867327694293, 1.02206529622431, -0.06227295399807519, 0.5948501614403514, -0.05981891035299829, 1.0425720909422358, 1.7698585125850994, -0.009195268867217322, 0.918915152074977, 1.4684753159611228, -0.10526416344420719, 1.5568269927061817, -1.330457009094726, -1.472117155746455, 0.5055696137909635, -0.25763224630845266, -0.9493474306889131, 0.2854814727448524, 1.5237412128142318, -0.8028601396458338, -0.10980223938864365, -0.43365677792995694, 0.8403997448805909, 0.45461002466679784, 1.8641390606805577, -0.6696718199247108, 1.073612062201488, -1.3382092451511192, -1.0900672272851983, 1.1397344234642113, 1.5276883372445778, 1.1377233088668746, 1.506118197649239, -1.5417451005129437, 0.6550391817192188, -0.9521368667914929, 0.2490952922270113, -0.5488650464213456, 0.2429172474625951, 0.23355900495488388, -1.2588429280751496, 0.43965564676246366, 0.7809758846129419, -0.6661913276341566, 2.0784495372611222, 1.1197969215506642, 1.7921037114691833, -1.2840856558038811, 0.550246965304717, 0.10363633609400351, -0.9577952479176375, 1.4813695481415743, -0.21979034275810386, 1.0032863895407356, 1.29505959685352, 0.06277480294137794, -1.6728138217729818, -0.5160189273228277, 0.512803345708029, -1.1629788974373378, -0.09166076017168948, 0.1467678726910892, -0.39640237044919696, 0.7009571069181308, 0.10100342466417274, -0.1553616594647576, -0.145309001343142, 0.8187402365861389, -0.5946308479497178, -1.9292791144467447, 0.9860223115884079, -0.6344284102143498, -0.33452927671791766, 2.7282076327995837, 1.7455421896974068, -0.06321521117109202, 0.21400789677261595, -1.1220246582293654, 0.9326984404394562, 1.488076925236237, 0.4269409696190471, -0.3340312452514687, 0.1689923322925084, -1.505258590033939, 2.5427862954297424, -1.3596423593343685, -1.933672193199362, 2.2968571454857303, -0.0892454572347848, 0.08559047144619876, -1.4725587667841453, -0.6401887216294087, -0.5520812354934826, -1.9294539342266437, 0.6322247699498668, 0.8775211495633168, -1.0274065427125065, 1.3554413868592126, 0.8379783111728919, 0.570968807295838, -0.4099227474895249, -0.37803626997318573, 0.553044192838416, -0.3031774040556753, -0.3609188119830006, 0.10520271375821218, -0.39525248711934496, -0.302752839373721, 0.804468418416783, 0.953676557019397, -0.16846075559088564, -1.979850860012482, -1.0171847999841617, 0.706482122987706, -0.2271301176675424, -0.003480575870519692, 1.665688429603206, -0.015796219786057688, -1.2816848682454938, -0.20434108483815666, -0.657424822897001, 0.37087886987970814, 0.5064015593035784, -0.25563004486491103, 0.48865888850960754, 0.9419817863576265, -0.2216608237088092, 2.0404064354167026, 0.1701091398559649, -0.28265065828276087, -0.8306144821360587, -0.4641091408117672, 0.9924171193847992, -1.6768559955089624, 0.390024667438876, 1.4301434913997875, -1.363238007333292, 0.8851056064051407, -0.594757707601825, -0.8346956861451859, 0.8998643883389035, 0.030503439590252847, -0.8149332527866993, 0.7264677346392947, 2.2216169994693993, -2.921855037401731, 1.2755580133202842, -1.155966838162162, 0.20295662613771506, 0.8623592472226307, 1.7155503115243063, -0.7446593547039015, -0.15511077640122298, 0.03477544133546012, 0.2105191870346276, 0.7135579354577036, -0.03723354873452416, 0.7302547413859778, -0.03426930515763044, 0.5022515767021384, -0.12183288749518323, 2.982751598240441, -0.3841778570753689, -0.11630319509006924, 1.5733837293663546, -0.4215485026266201, 1.6146915785180822, -1.2150673543907102, 1.3343058446196225, -1.3453142804189022, -0.9311416370991331, -0.13214032014689872, -0.777968545674943, 0.08489360272465091, -0.4800674596948754, 0.8480680249837342, 0.7484732383618179, -0.015066609481164863, -0.11303019749568839, 0.15993428082259123, -0.013483842497182921, 0.9062008889718436, -0.5563908185618276, 1.228303904254843, -1.8707821346535163, 1.5904276989250619, 1.0807067128698304, 0.3474814687848132, -0.7031340495517908, -1.6346369643846, -0.38599835499760504, -0.7484887681140862, -0.7561571282592823, -2.3956193944574675, 1.1049100415150663, 0.24357714048431414, -0.01057117866418864, -0.5816937903314409, -0.4564896759462483, 1.3890970237598326, -0.12063413939289185, -0.4740321196361439, 1.842679926737364, -0.42962034391633974, -0.8844604768835839, 0.7672672380916067, 0.8097623092008621, 0.6810638463013403, -0.8876475738915807, 1.9296352634584057, 0.8371534171718981, -0.18954449083754926, -0.03666501595396985, 0.2738784535501953, -0.04775555651908051, -0.8318433299993649, 0.4911800971242806, -1.440875357391251, 1.9426197152893412, 0.5377489598726828, -0.2713316416075245, 0.25914937322027093, -1.9412053775174918, 0.8405389680791414, -0.2943483523727878, -1.5676091889938328, 0.7233646580320431, -1.4044714372290004, 1.1298425478637646, -0.6067333094172742, 0.16001239130104486, -0.03775057131096976, -0.8115172096044818, -0.3746702349896576, 0.1600815956198114, -1.8447666849894744, -0.3895151709110435, 1.6188746749661131, -0.3715548859892917, -0.8783098192923992, 1.188892687532237, 0.8866897860836277, 0.07672277203754707, 0.11219009494248983, 0.07315827250495265, 1.1324080477241873, -0.3622421419770871, -2.166609007922555, -0.09845030215859506, -0.6962411917511125, 0.8915834129343638, -1.1247660461053635, 0.8249674576191395, -0.3374120963415967, 0.004795120585002328, -0.5049250951880946, -0.05418222956703467, -1.0460805091261012, -1.2352233444317744, -1.0470481655889958, -1.1312699996449702, 0.9237340982427648, -1.8236348946300298, -1.397991833878741, -0.5966738988949346, 0.020270461858554516, -0.850129705033741, -0.6655279805788151, -1.0393884157631907, -1.1853356369410202, 0.3851815365631986, 1.503295404607757, 0.7551377582222898, 0.0031055906266091267, 0.1300069418054856, -1.9125623769985265, -0.8517806982673747, 0.48121861459152526, 0.7448082863368558, -0.6859753519851605, -0.29955417503102005, 0.16398606501300672, 0.11025580240202212, 0.6472746488710343, 0.5265898072831894, -0.12356611688800198, 0.28621324680986704, 0.8022008274863741, 0.7630313881892252, 0.27466722182975867, 0.25401552611862177, -0.837851503586635, -1.1802817191147357, 1.328333831253637, 0.8074182519470402, -0.6699277093108257, 0.456231986496637, -0.017944881810235434, -1.717023403356663, 0.15983630103974422, -0.42834382645089364, 0.4359059531470152, 0.7835764212651181, -2.568852992058885, 1.208664594058085, -0.6264335448027958, 0.6016098503651042, -0.5913561177467365, 1.3511820086709534, 0.37185435737758277, -1.1365787146699577, -0.6247560439073166, -1.7145980744718783, 1.0438223259342225, 0.2221025959238396, -0.6175900258867384, -0.14470738441635553, -0.7743907914342, -0.9774480900862759, -0.14220979088747998, -1.0815240702617062, 1.7941664999609035, -0.06939349732548353, 0.8140862772973527, -0.5133421619094628, -0.8462543304106859, -1.3930043920663857, -0.5211546190062134, -2.032901902016626, -0.03634737420477902, 1.0822684564876288, 0.9858480535672505, -0.5477915960509405, 0.6349992831119731, -1.723752864306067, -0.1828333064253922, -0.7283839478925207, 0.7877111246094397, -0.5656205241752275, -0.63562505180524, 0.5009342635196468, -0.5480890478787283, 0.3350169469175354, 0.21548070454627405, 0.5012739341512814, 1.3581011503717213, -1.813524106952669, 1.2584647685179586, 0.04133107744876312, 1.2893920040101348, 0.8813989130724068, -0.10288890547600729, 1.6001483187629042, 0.2086382536269059, -0.6321607943444341, -0.11417636041368805, 0.06878525572008896, -1.3628534959297625, 1.0449401059566694, 0.868228509516291, -0.5353251527446872, 0.4936254138100691, -0.5297449092046139, 0.05803709747627956, -0.8183240390264861, -0.6852161557375531, 0.5922059812241633, -0.161545142814687, -0.06655759827524327, 0.3728444385637725, 1.8649852679869314, 0.7784469697128139, -1.0957935198439737, 0.4665346348684232, -0.8943855509662484, -0.30024592659243526, -2.780187097097877, 0.846707146495021, -0.2055370061812311, -0.486382029545693, -0.47393479270594135, -1.0430970835523583, -2.300085152392089, -0.040973247479202016, -0.5299784613155567, -0.36144900415327813, -0.7775413421585414, 1.2942544100249829, 0.18032704816056327, 0.4629896259512363, 1.1624477571711225, 0.836310616595793, 0.9275097071638997, 0.13899924724814577, -1.2504862042355636, 0.5718233408934331, 0.4747027473512262, 0.6170899894653827, -0.38969729365898054, -0.6622447799366614, 0.47183769472113407, 0.4877118503325135, -0.23898185206907732, -0.07867380579721067, -0.6223776599107903, -2.6239719162563, 0.5146425833018275, 1.179890314556316, 0.34513196763593695, 1.0051512364149349, -1.6451871865970784, 0.5470672540828148, -0.13227221978622591, 0.673204991757414, -0.015023847306542415, 0.7224360788805867, 0.29498159684476544, 0.5355008382355154, 0.6473944877943979, 1.0255125492839756, -0.4637781151171673, 0.06631371020012525, -1.6868976131990168, -0.16035917922126972, 0.679461236180694, -1.511250478807395, -0.7441731815167077, 0.13806397642246773, 0.12557385922214567, 2.5506908284433285, 1.2609430251130636, -0.3443700387025485, -1.4732249837299765, 1.506930313359404, -0.44470058342398067, 0.0834481157195967, -0.48729772981632463, -0.9125676771479303, 0.3577985063237706, -0.27522264171350025, -0.8774476484911461, 0.6241037787083485, 1.1228760926202765, -1.3791884099801652, -0.24981358110427224, 0.12510911518036869, 0.09370260034295594, 1.2985985632502464, 0.23794230726835353, -0.5581757767364788, -0.72511938320157, 0.6449057774795347, 0.8060936052698751, 1.2112819648111202, -1.1000911066790313, 0.711032102997536, 1.6189276178528713, 0.7633851681364604, 0.6131497387587671, 1.1592368356300669, -1.4813880701155768, -0.59235871786559, 0.648635541959722, 0.7682586330490117, -0.2916160129111259, -0.07078280884943865, -0.4862365604209717, 0.02308081439204659, -0.3467894835383594, -2.041318211361363, 1.348759865296639, 1.1670683732124554, -0.9441796314462633, -1.4017282233841464, 0.31922901540046, -0.5372684385867407, 0.5184259325724891, 0.53790459833458, -0.45549887571311226, 0.7127319876199617, -1.2042474993576582, 0.07710619250465871, -2.5068583604890784, 0.5468705485840681, -0.3106313354196543, 0.28872538858901725, 0.6979458044723124, -0.13978297361377026, -1.654696548126002, 1.2690261966369456, -0.8046532367613666, 0.6350704481809837, 1.0801818537051506, -1.9446004415329847, -1.588603466892367, 0.9340673047870831, -0.5809340622017112, 0.5302582658989581, 0.6800339147323362, -0.0095808188014851, 0.7063994824925002, 1.339341670297708, 0.12331910001431472, 1.3363514500584084, -1.2688475321483612, -0.8184214439371446, 0.5077854258060648, -0.5570972504947925, 0.17624230523878592, 0.6269064512014703, -1.2185326806391903, 0.441901812879314, 1.1783007298226815, -0.5453910033832129, -1.8661803147697213, -0.5871186175848067, -0.334134565433903, -0.5586525924429178, -0.9424908765006345, 0.3198224115346117, 0.14432207245899145, -1.3907753503190659, -0.8110715358669035, 0.297785130404343, -2.0741223086714173, 0.5474670527429435, 0.6710689424775863, 0.38639786334675297, -0.8690277539836156, -1.3369090619672186, 0.5822035420478326, -0.1716214437568747, 0.9249408441261346], [-1.34165563897998, -0.8559905217122546, -1.3737290661193038, 1.0775614643358216, 0.7229229006878108, 0.10764431486137797, 1.1566137958757727, 0.5917339466284329, 0.0032844580267073504, 0.7362756684271544, 0.14953884449584914, 0.16094078037518678, -0.1338528917751076, 1.5449730757932065, -0.6124437773952315, -1.989801166409464, 1.693747748991524, -0.6696672025062697, 0.8421342639863778, -1.0155540190628463, -0.3988820850181432, -0.6717924477164106, -1.4187678011207059, 1.0488999466872588, -1.5870950621807107, -0.5781828472696866, 1.2369191030367166, 1.2985460412966328, -0.840563376410738, -1.457940861861919, -0.9234943491954383, 0.4504520602894342, -0.7047357479942232, 1.2593513692799325, -0.7919369374503239, 0.8328520887286706, 0.18574446552049695, -0.10419280892490547, 1.488338903757796, -0.3598802388091925, 0.8294293903100352, 0.24810674903086133, -0.5703556457560675, -0.8730086971347, 0.13368141822816787, 2.094841372788078, 0.15454919066619383, -0.10871885750384441, -0.855683814683775, 0.44534011272372326, -0.8068282474814205, 2.1894698092508174, 0.4862052760329737, -0.7718672117341163, 0.9935349231228952, 0.7044311070398823, -0.4955540347847017, -0.050560986642997414, -1.4227085363319, -0.4803206614521176, -1.2292874821765736, -0.5309969845958709, 0.9391234762071082, 0.826093757912103, 0.4976434502142717, -0.3366327939052908, -1.1120028938235975, -0.10458981196557536, -1.0388347982670079, -1.2278251602675052, 0.7942600977800488, 0.3192555021031868, 0.5541705550408944, 0.0012812951548910809, -0.09686392947742042, 0.3286521483141023, -0.9630815679356992, -1.3087730352310953, 0.617600501457612, -0.5173129382883304, 0.09800850646271313, 1.6245725471166024, -0.8778636695283096, -0.7528591661030296, 1.48892045979038, -0.7836392236902912, 1.6035074212975045, 1.2771364499280835, -0.6061294819851157, 0.37731031070504883, -0.07172169474789011, 1.1384093336284384, -0.9125617615929341, -0.5943828882925624, 0.08986286747828227, -0.13511797332827838, -1.5437829426749123, -0.8128175800255216, 0.7073687696160189, -0.6192541507280284, -0.2634423203218769, -1.3342815069745415, 1.0182999031983602, 0.0734218220603366, 0.8453404222297713, 0.7523279057919654, 0.7258951478673248, -0.7682361069386219, -1.1817657943164053, 0.2766532930823365, 0.09824518087753197, -0.28236342525110725, -0.9764240609999533, -0.8346193426619947, -0.06253700753230197, -0.6580701343197816, 0.7684329061713919, -0.5343509154866409, 0.12193263579270376, -0.21179661291917312, 0.2204190237647418, 0.39938197131687325, -0.29455485574012996, 1.5753157576998584, 0.5074776085228627, -0.7252764602892386, -0.4332404164571044, -0.31587811578300906, -3.1323991696296045, -1.2641040053252057, -0.2646372731721764, -1.2845793886767374, -0.055972732554465346, -1.0816724026195645, -0.5635255364571539, 1.514340826391965, -0.3366799204040278, 0.522171886213039, -0.32644926714156164, -0.6481113097253626, -0.277140689412602, -1.4522852438034648, -3.2274272501995633, -0.34463967175318366, 0.2710886036794603, -0.5035536852619013, 0.43722954361738686, -0.9529471530950674, -1.9243119225119136, 0.9974545283800612, 1.1658737618260142, 0.15130573429793362, 0.8719332444278953, -1.1180964769920867, -1.1023426137104948, -1.3380537321864252, -0.3010403264677084, 2.798871077988386, -0.44899652797297546, -2.122845378801732, 0.3744373522141451, 1.8392149154768758, -0.16834127721605593, 0.7215205608871599, 0.203161839477257, 0.8353363424042527, -0.06172515767000832, 0.6689572716241372, 0.5025604360106847, 0.5685192440327353, 0.6280286226529753, 0.20860601435853038, 1.2037116263843464, 0.04956079817154324, 0.5382534336015303, 0.8260596831259616, -1.6653699606997396, -1.071171268049748, -1.840105662630371, -0.6903778277583684, -0.08784869669241663, 0.478915874490876, -0.0691352754690979, -1.4846939119249445, -1.6111895678065422, -0.7370842601217278, 0.44266437381574225, 1.5590650611721786, 0.6894408329069033, 1.1489579748703034, -0.9334321658547818, 1.190088731874033, 0.1547070939137734, 1.3346264181581662, 1.9754419139154678, 0.9480402740797091, 0.48736372073456063, -1.6192726615143556, 0.18789450102200556, 1.4759437974987006, 1.2085949382573828, -1.203213334024605, -0.10331351485102618, 0.11204240507499137, -0.7880319103667869, 0.8665725553817933, -1.4644846101285238, -0.5314697623199414, 1.8499613039338274, -0.7520517117764173, 0.4231060512666038, -0.9115845253185343, -1.103873568092856, 0.8663836618223983, -0.9983150800074218, -0.06078306328551273, 0.23898907673400527, 1.7667362047164203, 1.4712128388023489, 0.5130738929200721, -0.04822769069369592, 0.3910966544882523, 0.859623234488816, -0.2226833978982434, 0.31599863057849753, 0.3313223602012963, 1.4172722616657885, 2.4108602009700864, -1.1753759602703033, 0.4662280281223331, -0.14242882115341243, -0.9669274164424264, -1.2488275812302867, -0.3213469545229255, 0.3014323084766363, 0.28626334199963543, -0.07588466286259672, 0.7381531525616367, 0.4613771325034907, -0.5369932437972287, -0.9311740393738723, -1.0997744923252148, -0.19882780212678602, -0.5769255888408762, -0.7215478767977567, 0.5126931919051794, -2.009701972911136, -1.066496454109461, 0.278762602370717, 0.31336468269378187, -0.7612640483827815, -0.25010481556168257, -0.07728192291593523, 0.53730214669764, -1.7647836888370423, 0.19782477103788232, 0.01797999838874155, 0.2660154132099696, -1.3206089701047439, 2.136323500311908, -0.07143797330592637, 0.3422814454294163, -0.7138884293971716, -0.8906619427728576, 1.4582111372016833, -0.20363381795574967, -0.4724518385217932, -2.0559803490403263, -0.5174563819223933, -0.8300822410503677, 1.0014476851813088, 0.7131659257128082, 0.5959929943648865, -0.5004577686791171, 0.5519606184398219, 0.07242364824199668, -0.6810641018703925, 1.5981837078891654, -0.7380008248830888, 0.33176329931460363, 1.1212506347138604, 0.5356042340204298, 0.8043733877893088, -0.7455079230371287, -0.611398334480718, -0.48129584036928336, 0.7899311151875692, -0.2089523346554338, -1.8358555979367206, -0.9577978899411103, -1.0079700978078991, -1.5323874783196185, -1.2905089776010843, -1.1215230336737905, 0.1210067901004578, -2.025140160064915, 0.6376747818521502, 0.5634187696531954, -0.4007104338180066, -0.6587790193546901, 0.41529864142319506, -0.5687798740905637, 0.42642762902287373, 0.9036455311372165, 0.012723949003730027, 0.5682922192134217, -2.2465966252516885, 2.153695248882088, 0.09757056721417559, -0.5784097047898468, -1.125947231033774, -0.11186610497684803, -0.2929518799951243, 1.6674026856459114, -0.3838018209814233, 0.3920709839817745, -1.5423465947745327, 1.648060920549114, 0.9221309474016036, 0.08917710964718911, -1.210158726933287, -0.5758262448722347, -0.7555046714380195, 0.09832706016598489, -1.036685935918931, 0.6169094425838344, 0.45889967720778213, 1.5608636881401674, -0.4673303170209028, 0.4923087638142854, 1.41103011520164, -1.257440141442136, -0.32774456020512543, -0.3339885022464571, -1.3814319819363425, 0.3841635515317723, -1.286137046065665, 1.2338373579502826, -0.9528284244041192, -0.2817675438499712, 0.4951874936529855, -0.6101233399153927, 0.2314211301563208, 0.3982712347924964, -0.3624700008709341, 1.9083462029384672, -1.3038902150359435, 1.5094058589776458, 1.4199319961882706, 1.726513418276982, 0.05568292566600101, -1.0500455273233784, -0.17656395685173584, 0.1912579932043708, -0.6646326027918725, 1.6397654488961015, -1.638411768270504, 0.9972530297939957, 0.9534783694871853, 0.5064130335994007, -0.2189316692324166, 0.435153684372472, 1.547427397913598, -0.8663219277999336, 0.5494682301537324, 0.9264532551431176, -1.0903372278982868, 0.555141148135145, 0.48365743696134206, 0.04415663092696286, 1.5990027353814023, -1.1877790800448622, -0.30651399865798623, 0.4564486020507695, -1.5144517981638912, -1.116519750748807, -1.6100240006962399, -0.6389531636202623, -0.5591169217494513, 1.9284499992951842, -1.1772760096030765, -0.12010109584525834, -0.3240364268541038, -1.8057942783563115, -0.8669517432584921, -0.04730413942157396, -1.000036399862242, -0.24697833741209102, -0.04512123686892678, 0.46145998930074555, -1.183223506529806, 0.6467934306952354, -2.5066576861534116, -0.14957546570256963, -1.0126984152460157, 0.974304920796678, -0.047576277863037246, -0.12129326590428054, 0.5183610673084503, -0.8651162532225322, 1.171432728771299, -0.3476876028849187, -1.3467266657315882, 0.23859663981993207, 1.388046957054991, 0.10476221995002326, 0.009695707574111286, -1.8434382197054513, 0.35522845970441375, -1.6309153340121485, -0.10788426327836026, 0.5140346271304461, -0.34254403832182756, 0.25158172891803915, -1.7698037035101142, 0.615814043877882, -0.7499224324822931, 0.31811964281408045, 0.6110615022097827, -0.5598347314326348, 1.2328815088845855, 0.3901559378123557, 0.2724513916622125, -1.2556082529748975, 1.6759989289124575, 0.3576810724396962, -0.2764050517826983, 0.8339851651266235, -0.6692650689412815, -0.39103455518211594, -3.1732590421459435, -0.1226198266489602, 0.09335086664668518, -0.09098081095912833, 0.8851902014771758, -1.0425839483770416, -0.4798501590684352, -0.9530931339504451, -0.6539937659277546, 0.09763532049110596, 0.7732548328810414, 0.9239963515351138, -0.10100492063171075, -1.1551705386588853, -0.47225468453389846, 0.517545704994968, 1.9552456980873931, -0.2833106542591666, -1.355626477355721, -0.5241391863079967, -0.8889785186989203, 1.2313978932017726, -0.6835021328523031, -0.6386516495641702, 0.7479457425167809, -0.8847692766869115, 0.07951915243120737, 1.3390960336346223, 1.0387513552220806, 0.5248684433279331, -2.126176637531882, -1.6966827698478353, 1.0554099861900985, -0.866419585300256, 0.42529077522140885, 0.025810127463996812, 0.7340049157831321, 0.16605569593696873, -0.40592309856058806, -0.2954718497654296, -1.2905612098951529, -0.9674373694788516, 0.36212903874259106, 0.12062916564446167, 0.70939991582414, -0.3101520025715967, 0.29954707185347934, 0.8843167384278056, 1.6289751974739102, 0.6479864098332226, 0.43639424272989064, 1.3426363368508745, 0.2067739823492887, -1.013524353695578, -0.571520489666767, 0.17139890313173667, -1.7351362058822701, 1.474922869690164, 1.0837090390532276, -0.21221062890324738, -0.3397100343896099, 1.7222871686806838, -2.0604833742380286, 0.846989865608658, 0.7844881330465603, 0.1080391763364866, -0.15752031202715847, -0.5051257241229199, 0.12594846138206714, -0.2617727324548272, -0.6835403162041078, -1.2228358549084193, -0.9176570617351086, -1.2359317223784245, -0.5361994434271091, 0.4644194105915791, 0.001224823910881303, 0.9810818485330038, 1.5954711315878296, -1.8059871866956083, -0.03914723092049869, -0.24898707077598758, 0.9310834009885073, -0.30198035989951255, -0.31327765243427674, 0.5270347376534522, 0.9130738970551139, -0.38523216143011224, 0.2924979599225709, -0.8509683556369264, -0.9454069002854887, 0.0936508695409391, -0.44884706165437194, 0.3986652505677546, 2.119706897126704, 0.15603120282195904, -0.9038273788452672, 0.411203421367926, 0.25741895877413146, 0.8056532410240463, 0.7700033684386918, 1.8594023875676011, -1.0377721126463089, -2.213145083406403, 0.8962721120740603, 0.5761139295683632, 0.03699538954473389, 0.061586508972231085, 2.547322370253992, -0.8629321001946368, 0.05240996311117025, -0.8941610151239623, 1.450802663286361, -0.6124998854913527, -1.2083080495644958, -0.8493256498460251, 0.4331561662805197, -0.5132557908533121, 0.9874499776554271, 0.23622523303475124, -1.1912518644476902, -2.1839274204946375, 0.09491869873829223, -1.0662157265589376, 0.7601555809169933, -0.33457675387936553, 1.760802588497418, -0.022069089259601583, -0.49255549958621175, 3.0137184914992026, 1.3036374627613392, 0.9697732590977057, -0.5748130194920982, 1.5712274768112804, 0.5712575248366829, -0.3707126020166981, 0.050336803662022284, -0.036670061113196054, 0.277468324822661, 0.8245753472320543, 1.4384696842326568, -0.4917933776785125, -0.5985638279073109, -1.9291172577891331, 0.41202657711368734, -0.5699364536803839, 0.5917095260252462, 0.5688793243489987, -0.5837685558780977, -0.39963001056262526, -1.0870217555671957, -0.42848538794224744, -0.17506439953259018, 2.4189225130460152, 0.028680988294678304, -0.23983233902384268, -1.7240572495688664, 0.19113525726997785, 0.19987618377943964, 0.7683606935373072, -1.5725061345871048, -0.5254395810953875, 1.9808418745707796, -0.26206004767739405, -0.6899375264104546, 0.016919199917767552, -0.17962092243726074, -0.44588977589128515, 0.6914833246916037, -0.30013186234753414, -0.04701671031695327, 0.8171393429839968, -1.388392371411855, 2.6199379004734036, 1.3037311700928036, 0.2086030209269123, 0.7998527991698245, 1.6200286771879033, 0.5728148565172482, -0.6877172439829357, 1.378287643836025, 0.0880680148562344, 0.4449897402917823, -0.9879628001377904, -0.8741293716267232, -0.463842886189881, -0.7018208999815078, -1.0581032971900448, -0.9944301552831876, 0.4721852460031841, -1.7241445324442062, -0.5158034710756877, 0.7914974137628019, -0.1392156407914069, 0.8710378420373005, 2.1951685871089093, 0.13751971934298718, 0.07002526943857561, 0.11812526937730185, 1.9537757240309115, -0.009158954533437208, 0.3483748488706443, -0.20128486348825428, 1.3672576464170432, 0.5331320823268055, 2.655988404484933, -0.09904110189502628, -0.18355771793305023, -1.0965327408257053, -1.7751411414022646, 0.08750613612868412, 0.7357589257494305, -0.05358197959497667, -0.8302359652682667, 0.3397465596566793, 0.2644624360652542, -2.056789264156167, 0.7289550654911306, 0.49292435760295117, -0.35327675256083163, -0.1824438298969358, 0.34703610582717687, -1.1211630635588563, 0.6657943679224271, 0.6775468615660926, 0.5107920134857086, 0.32426201589061177, 0.5952223755584691, 0.14743503021097573, 0.3760559340698966, -0.43974550784184174, 1.8307223041547593, -0.4518318049307185, -1.328654664438977, 0.1691224689521964, -1.272104788959143, 0.5460775461570735, 0.6729267184020539, -0.55865274646112, -0.570424193639157, 0.049507746363272064, -0.011738469057186974, 0.9184289269466572, 0.22052495299028294, -1.373729280080103, 0.5178545387916721, -1.534673330422524, -0.38501845966404075, -1.0854144432488855, 0.5074300399633467, 0.16957529144475575, -0.11334839697483765, -0.618444417270249, -1.342235813684894, -1.1943086476353566, -0.193793057575142, 0.24931215489400044, 0.7285052426595555, -0.789166489401043, 0.622546201750133, 0.854950892668711, 1.440059407880657, -0.7449559139765728, 0.7827061441740129, 0.5764099941047347, -0.09977324400806124, 0.004642306648724855, 0.6419352505485019, -1.9405917732634437, 0.7745939718353362, -0.5602101043194994, 0.1930276906969957, -1.1202852016581604, 0.779510397501019, -0.5245356650593781, -1.291433026331213, 0.7075384501740891, -0.8922783917200828, 0.4157812138837553, 0.8578342877089304, -0.8519768218235809, 2.065280929133028, -1.166888233231113, -1.4460814461249516, 0.26205391721141974, -0.01833914054919094, -1.1007578454916318, -1.8101236485285104, 0.19319569744850926, -1.4063316486376054, 0.506806342138063, 0.3647599472484048, 1.1519323559551549, -0.9802748042806184, 0.17192504982013174, 1.1429985374571239, -0.9900659857876748, 0.4394119386973443, -0.19417310137425947, 1.2236006350688475, -0.30026847991793654, -0.11384155249558327, -0.5249804317803055, 0.6038372776447215, -0.33838272857254986, 1.7875978691569052, 2.246863344661122, 0.8511896379579483, 1.6585554411808656, 1.4026386849779566, 0.6932392141142033, 1.0487943660798549, 0.5064525818380308, -0.195607391564961, 0.6660891538957421, -0.23561917336755808, 0.6438775962961272, -1.1827628375292778, -0.8357411318633687, -3.0174961965300064, 0.8835199570384514, -0.22348429699076477, -1.3931113634688665, -1.1192655615446152, -0.05374202174835358, 0.4853112224790092, 0.4266030704585311, 0.5065464118085398, 0.3972342851568619, 0.8521669591897447, 0.5259319402529886, -0.557477179924747, 0.047888895135727395, -0.7293157085340168, -0.672269734825123, 0.555999303743744, 0.013967160097933834, 0.18146053489000707, 0.4132161986666656, 0.2852231637660982, 0.3765952740705742, -0.516925873390134, -0.45868976032245634, -0.8709764025027152, 3.118201871222402, -0.6883846470832818, 1.4411787345791718, 1.6741337209695073, 0.024500116144675132, 0.8903573736850111, -0.7073142217854318, 1.0942886115177834, 1.4528226844290297, 0.24323452285508876], [-0.7908513856593752, -0.32732789234443394, -1.035950118304099, -1.0004720013139579, 0.9623442511934485, -1.5862876596631248, -0.5815741439246628, -1.9160215565541119, -0.3797460499030711, -0.34265219375754064, 0.3920283661548822, -0.3532367834835401, -0.7931775983181407, 0.46028793264048173, -1.1958502532724595, -0.4445443106128756, 0.4394434504925194, -0.749422844413137, -0.766367369497328, 0.30206643035736136, 2.1837667989179317, -2.1461202699066217, 0.6617987069876198, 0.13679151963909406, 1.6651726210279316, 0.47215216355505274, -0.8859229296587484, -0.7091622046300461, 1.4130189352825118, -0.4120564608943188, 0.35600094015294487, -1.7944112942940265, 0.9486769319549242, 0.20462581297430857, 0.046312063926619906, 0.6549307735065847, 0.8044150060548445, -0.1385913303101033, -0.19395853488488926, -1.01632579160556, -0.35975980602815394, 0.13383586788238466, 1.4055486541546032, -0.4915926519078568, -0.37360873429217617, 0.49305313802708867, 0.20418537227203565, -1.0008067429813987, 0.42713165140641574, 0.8146357876276883, -0.9922862821563625, -0.22280705663710648, 0.4098983516277845, -0.5084910449614561, 2.2023102912390384, -0.35691625872219085, -0.9339684756717066, -1.0502303308301055, -0.8168853809499054, 0.37579445737110406, 0.6549784566323469, 0.9854253636203093, -0.5151078796137806, -2.4478041131098367, -0.8410742758994494, 0.6982464211760173, 2.1679821447087653, -1.1576714762103042, -0.41858865160069936, -0.4130425175598517, 0.2811872176577279, 1.3697716387292933, -1.9588081203911514, -0.8848709693312184, 1.0434365072283598, 1.6638103340623773, 1.0970276254053684, 0.8653721431011564, 1.6860118766968353, -2.4225814692105367, 0.8792859336708184, 1.1254757349383004, -2.1447926732654787, -2.8502815297117636, 1.1462783383998227, 0.010637674843155849, 0.2324566183424119, 0.16942007181764554, 0.8177133639938808, -0.4586537162617176, -0.33277718725784383, -1.3129924816278147, 0.23297798377625384, 0.39690082261565146, 1.151631628302807, 1.0590469300025303, 0.8721499966539957, 1.3523139527118657, -0.7830057751550414, -0.9074370555339374, 0.09341298480992426, 0.7866481379510554, 1.1869012054456274, -0.018731097684028582, 0.9536722403898471, 0.6921550518945996, 