{"sizes": [784, 30, 30, 10], "num_layers": 4, "biases": [[[1.0782261050135653], [0.8245035724194286], [0.7330153362203602], [-1.6883617901064305], [-1.7477178276515752], [-0.20443199554530794], [1.187211506959816], [-2.882388968313046], [1.1246516164656402], [0.2470010582557125], [-0.06050933395599517], [-0.40990451192295996], [2.1169198039087034], [-0.09479078317756355], [2.093128320808528], [1.1607001224463718], [0.6397823875503177], [2.681912716162303], [1.1391081550834854], [-3.1678310370452754], [2.1221047296120314], [0.9755170561773452], [3.5584277151106694], [-2.3089114335169953], [-1.8898888895704677], [-0.5331829925094893], [-0.057968799791928885], [-0.03919905267556194], [-2.8598854252842094], [-1.2216073534209726]], [[-3.6494618043018923], [2.820032148886213], [-3.928426085694672], [-1.3644752464716572], [-1.8251202384258212], [0.5950358720567868], [1.3104108751204475], [-0.0456270750791249], [-1.5374936171688525], [-0.27716988059724706], [-0.24966282549760122], [-1.114280688166148], [-0.114784229895276], [-0.288739075410025], [-0.9463957789211909], [-0.36472021227268125], [-0.38149201823813866], [0.1367471022167229], [-1.7337528935692967], [2.1688696133746173], [0.8196403482307372], [0.015078706095911096], [-0.09186447895597581], [-1.3352724676234637], [-0.5425019660562707], [-0.9446319274989696], [-0.7785434312769975], [1.3934623190320299], [1.5733605139980744], [-1.0493064007581592]], [[-2.724368326688476], [-0.9415907614939276], [0.6040834863669164], [0.7647802546717456], [-1.9776490577155865], [-0.7902670724647787], [0.4150582535140511], [0.24754365388899596], [-2.7829404221011322], [-1.8758173118713097]]], "weights": [[[-0.127704949588553, -0.6096199756881341, 0.31211604180939473, 1.6903756077816863, 0.18655282343889715, 0.6855602739584151, 0.5630637154545196, -0.530827701467441, -0.11899880092551902, -0.24488253341034402, 0.9579040476760936, 0.2704427725084434, 0.03144350312652356, -1.3598963454227269, -0.3796794768517344, -0.7017851922089972, -2.3495064512255532, -0.042192745553769076, 0.641308910902682, 0.7649631413594995, -0.48359790040927314, -1.4377571166948044, -0.348658304958322, -1.0206133366963752, -0.5943145999865472, 1.189929017296462, -0.03841317828848269, -1.051135691334644, -0.328872902004811, 2.0589558668565124, -1.8040141333725461, -0.1994669620485298, 0.6966480396644849, -0.25219734153565676, 1.852439868916623, -0.6212014745629937, -1.451888258822049, -0.5312868259751933, -0.5918731876293858, -0.04234636021561796, -0.3785355295410367, -0.5918126353282801, 1.200954247798099, -0.1032637590226984, -0.3421656505291782, -1.0904910843154474, 0.14349562236497956, -0.5695646905802771, 1.6711261501929988, -1.837258952603876, 2.044556091111485, -1.9976768572114874, 0.6961595066972285, 0.20997702977006663, -0.1467281892029544, -0.6138069094702475, 2.35858369889152, 0.00858955650360254, 0.8199010969174609, 0.19855003682148797, -1.906212172478445, -1.0054502788275455, -0.4181833987199448, 0.130269616503747, 1.170151073964765, -0.12078853719538994, 0.8982669005112698, 1.2406318705299413, 1.0351987693788527, 0.6801597571106874, 0.04620720191237633, -0.32590281333636767, -1.6619094774658592, -1.5833535202604845, -0.977091350458508, 0.26589597139557236, 0.3315032471268183, 1.3927130836630677, -0.2676884358920704, 0.9170672819850434, -0.4711096415800575, -0.7276640626964089, 0.01788274400074169, 0.29448533688429734, -0.9988818755508536, -1.3279431920267764, -0.5616713445369238, 0.10816254383650178, 0.6098867077603219, 0.30843230853988535, -2.0489963271547222, 0.04360020393311876, -0.4100398083350439, 1.881295982871087, -1.2254907877508074, 1.6848768429114682, 0.15827790838846933, -1.0549830908435829, 0.1365787700747909, 0.9718433491018321, 0.4435298619449939, 1.1130689938917073, 0.27587432549709234, -0.9020592950038887, 0.7099488747687658, 0.7523875937708183, -1.6056036781250305, 0.7918849770682467, -0.32801540099671883, -0.5451850051224876, -1.934608604447024, -1.541303950733461, -0.8257099439565769, 0.29700328702750883, 0.2755100375367305, -1.6278983465463277, 0.5609441796974197, 0.5047442243066789, 0.9577536411520583, 1.1259598343632184, 0.6295282234861423, 2.040950627715709, 0.5895769391576932, 0.8591343822581675, 0.669225403167429, -0.6980374327890251, 2.0172844700648285, -0.25782001549757366, -1.0418207756137978, -0.2254013359797524, -1.0223374053512853, -0.17999615138745725, -0.22474695432140848, 1.3881341738066582, 0.4545417039933141, 0.6906313048033322, 0.60111415875824, -1.538885168714678, 1.0331306353712024, 0.20376076188824904, -0.12263609391374125, 0.8814729594502488, -1.4223685377604147, 1.0965052382273508, -1.2143563654915979, -0.08678222987623493, -1.0771014979568454, 0.5870358454432189, -0.8800545564997229, -0.3270591960774975, 1.361190356563434, -0.5056811615779837, 0.06174359382269455, -0.5923962758630962, -0.1650144308421256, 0.7617015668344354, -1.1586088835072292, 0.21256236307529208, 0.8186021917285519, -0.29417313140637485, -0.5935221896144411, -1.3241619305918404, -0.13351755527458964, 0.3251071436276338, 0.24883692271687724, 1.8129635065690088, 0.1320761350447275, 0.08063951859397094, -0.22358184468391443, -0.6385019937008487, 2.0624258728943854, 0.5610932130557296, 1.0230808158157336, -1.2108126993714894, -0.9632118617840476, 1.1015389290894089, 0.2506984726253672, -0.05767298601722246, -1.1626531051428528, -0.24698905318448378, 0.5159269703746459, 0.38931458616912834, 0.20038422388346777, 0.4877268803145999, -0.5810939946972228, 0.4151368009461712, -0.7790114540463617, -2.231806219598624, 0.42542239330874715, -1.224749012941568, -1.367298554541491, 0.6237792136316811, 1.0929519059616686, -0.40023280575290104, -0.23616358678408572, -0.02613597059842583, 1.1045982064259736, 0.1468281978248665, 0.27938879756726254, -0.7677785973436411, 0.29696686044750353, 0.3195317826574523, 0.8096706774052808, 0.011836222312668107, 1.2005069976339988, -1.874951285190699, -0.4531269099463283, -0.4280639747291546, -0.8638915701003671, -0.27089377166930934, -0.16917225908763955, 0.8235093990667939, 1.3600606384174103, -0.6169668824166036, 0.5026234004275186, 1.2973157280604068, 1.1280408283920644, -0.7397739939410761, 1.0295669819301159, -0.496484691083537, -1.7936359677092912, -2.040767106396683, 0.397845190932897, -1.810767983416786, 0.5027613134019564, 0.7818749111474935, 1.717870195628928, -0.6577307934729978, -0.1921709927991463, 1.6676956463722241, -0.5936338109003219, 0.21342564076327733, -1.2808875659996455, 2.072613941509809, -0.5470123082329075, 0.9530219147229768, 0.06198087319574948, 1.427436501390516, -1.1887490030262586, -0.7602288219348361, -0.7128886074957741, -1.2322174402835206, 0.046874255404510005, -0.9049683296584418, -1.1997696871982855, -2.3423120310391434, -0.03805042184007108, -0.524738644731131, -1.6432515334528925, 0.4763594766832201, -0.5206287399774524, -0.19279551469579406, 0.9360612881834399, -0.35862109909320683, -0.9951475015473377, 1.2375346892683465, 1.5190737540274337, -0.9413654851441358, -0.02214507041238123, 0.10389223162216661, -0.709411433132023, 0.5599840436034115, -0.8401412579560044, -0.9069892486507277, -0.7649154280039672, -0.1610090540957554, -0.2058704362593297, 0.799569953463013, -0.09229526891412886, 1.4845049249485536, 0.45053177159810714, -0.08534763091275475, 0.8797565734970126, 0.7962336975219568, 0.17559152481100693, 1.3899761182789896, 0.14942821723360034, 0.7917819211476569, 1.3373127956119948, 0.41695800919268916, 0.8247628215178294, 0.3353322044667969, -0.2279024280849188, -0.4404663387462806, 0.5155186647181952, 0.07799450713355782, -0.5740293152341875, -0.22288243297538002, -0.678775284554398, 0.007440069199026856, -0.6579080886386889, -0.9912014948786807, 0.041758923496728786, 0.9372594207898303, 0.33415365691113025, 1.6562329608835973, -0.6568329831487805, 1.1337339756183105, 1.1579846702229866, 0.38132337337672206, 1.3015916841052226, 0.7688965352516991, -0.2567073424585526, -0.5016135374799362, 0.7221674769425933, 0.12179823688731192, -1.3039505049526234, 0.7767172678643922, -0.23952676912349355, -0.147645500774625, -0.4231853239641729, -0.5707562720336417, -1.1810346112838515, -0.8281647459567145, -0.00449227196785572, 1.1658867304352947, 0.979137170532579, 0.8189447942136663, 1.1979315737112834, 0.6958070922173659, 1.2848867319463892, 0.507595619447048, 1.1572722292722608, 0.5651510437890749, 1.3916919147524374, -0.009943231839751519, 0.36229682295270244, 0.4039663792407163, 0.7192186121860259, -0.7402761081654698, 1.8200774329692653, 0.9051573423617041, 0.9811478899556892, 0.5073998623944136, -0.1118042963923244, 1.3816981357542988, -2.016184276289836, 0.32398919464969367, -0.5802426521982631, 0.448194247378366, 1.2381833133072588, 0.33193065053807597, 0.011477799633463862, 0.3175854133368759, -0.5414950996616735, -0.037868978792178085, 1.5630411225055232, -1.234050754218542, -1.4438992707835554, -0.9980663612033146, -0.14939586090635812, 0.0899278678584043, 0.28871528824492404, 0.08295893439375374, 1.324960294672953, 0.17645901764860564, 1.1990507289787347, -1.12334426529964, 0.49373065423283347, 1.4956194554564333, -2.252011527571488, 0.5224020049520545, 0.257595746299814, 0.4312307636542204, -1.3413526560308868, -0.05673707682683598, 0.1871183120093047, 0.09737706705502924, -0.6287578804341247, 1.3129200327920294, 0.9937724021830564, 0.4746790551967291, -0.5405647815248569, -0.40514416795315844, -0.7377785785028351, -0.45668515535156834, 0.1000386423520668, -1.300409258775924, -0.5818974777389285, 0.037299492413376274, -0.08362594316845816, -0.4950393695469862, -0.24560214045799877, -0.2659557748556737, 0.32989283786011475, 0.4140008441077666, 1.8854949254346736, -1.8904957832086717, 1.236454403982005, -1.2323783615468786, -0.6115039329701779, -0.5639375081638818, -1.013000999419907, -0.2634920102032139, -0.46022523403928506, 1.9990941539163072, -0.11064220418469291, 0.8318181485575732, -0.17655435949672998, -0.04534663038456515, 1.3261424396272705, 1.007123131572078, 0.46752467872065806, -0.3230691936776981, -0.5604967558163959, -0.4998906815685325, 0.035604900395379266, -0.7209381552201307, -0.9735094490713931, 0.7056098299347185, 1.196729173651712, 0.09318231757535768, 0.6954540577558748, 1.6777545445326676, -0.39943777677225006, -0.8596172794826853, -0.09607623854711826, -0.5887371856176499, -0.8797644764346646, -0.14754196553350735, -0.5098781175957997, 0.2900317229590993, -0.36872232179541803, -0.4683694147945065, -0.80232198358565, -1.3951522084282617, 0.5435646002735055, -0.9738654704221912, -0.3066293234209274, 0.0018976672065311422, 0.3563585248511737, -1.154193247551399, 0.26105873854230016, -1.0209010303826247, -1.4185762822561594, -0.07881646616645299, -0.2909146574732755, 0.8277706878373419, -1.329117986578358, 2.662770588215638, -1.3114695772800653, 0.23798919099118743, 0.9839264479160439, 0.11926561879551026, -0.6474623329335456, 0.3831499764991739, 0.24207244388634963, 0.24000174776966168, 0.8207647495914568, -0.012114649269504797, -0.6661178862969019, -1.782719333990661, -0.5458768174681409, 0.24284380707225697, -1.1928447036317686, 0.9988098701983041, 0.4387400295905798, -0.45135874612464283, -1.1604221243745243, 0.4578926591430108, -0.6352721779458528, -1.1407991554814436, -1.5087387235669854, 0.8993567141597619, 0.5684493392619757, 0.40678263546336424, 0.8754660117860257, 1.6491558709731073, 0.16293365392188844, 0.24690182565973334, -0.742489371673762, -1.6824747391498573, -0.672927792616415, -0.710598668975276, -0.641970921964335, 0.07885122414279752, 0.6124171395963113, -0.17818470349500323, -0.40173558951979693, -1.0801990975923854, 0.37175856731451234, -0.3066278936584375, -0.2928174049315985, -1.1585033916394691, 0.011932976085677938, -0.2506179000400901, 1.3758399402466324, -0.4893930408364605, -0.7197009271004083, 0.19666980504394901, -1.2068321157518325, -1.0647184531238088, 0.39952819798229394, -0.22196202397245188, -0.10834208969392968, 0.8611576943158741, 0.0446480866262429, -0.04441214003018854, -1.202662510704731, 2.0010278395485184, -0.7641061270769639, -0.0008111243629994266, 1.1884710726646643, 1.0743632046856144, -1.0303025708619096, -0.5094087450519114, 0.7139040598090476, -1.3079815428732835, 0.1396173496191048, -0.8156048238903484, -0.9664444091485137, 1.4091450357830608, -1.6301715676882929, 0.6745116503099701, -1.5899521765610831, -0.5471493260555226, -0.39975195381368367, -0.9680033888842822, -1.0313197638290985, -0.39038700723782477, -0.1668928003430361, 2.2252584183721753, 0.2752502758834112, 0.3882623428385718, -1.1613749365563955, -0.21726008110227102, -1.7029273559514466, -0.05819507772474087, -0.43077397890217944, -0.22655464870014497, -1.8994682126544482, -0.6354622374548833, 0.2846515185663704, 0.18367086573261035, -1.8294809083873398, 1.0299825666782547, -1.7048623825328815, -0.4385333517569756, 0.10160812924019343, -1.5900344069387555, -0.8007073600219698, -0.22795352284759224, 0.37444761321867814, -0.5830412508196097, 1.952206116994624, 0.17963860968694567, 0.9656558536771224, 0.08803409521675966, 1.425475674357771, -2.0156406670601426, -0.17679623306722103, -1.004654980443817, 0.5298931880031176, -0.4669362846170446, -0.9144527783912748, -0.1293486235293446, 1.218520688098467, -0.408888134507835, 0.8650998701472213, -0.060800715068676334, 0.7954335567941563, -1.1256412381286576, 2.4905986658487396, -0.08476855729087047, 0.6140047706070049, -0.664825535967846, -0.6894233810243218, 1.285391142825921, 0.49501638250309987, 1.0545457417489905, -0.3383497178165893, 0.4553949654926036, 2.0234695157873723, 1.9994233503844137, 1.3860408397288124, 2.8809396985260602, 0.4252095048817267, 0.5411604596877975, 0.5985488740214904, -0.3121364372061184, -0.7900500213241676, -0.9888708126269311, 0.8515516566055029, -0.732848291506418, -1.4514760914126033, 0.38836619219951296, -0.7148495019438719, 0.03636737416741354, 0.8429829674177629, 0.18395496771082817, 1.0138024324904746, 0.37369340496811404, -1.1141810253110995, -0.7289047542129288, -1.0796155114036563, 0.8148177224691932, 1.2109005524312995, 1.4271860952557593, 1.5650447741843265, 3.991746606584383, 0.1763055985660607, 3.9774203121322134, 2.965448427965863, 0.5679294219105757, 0.5468682286139434, 1.032418361284541, -0.07801375628455519, 0.9500094420407464, 0.13208504062514081, 2.063712916860011, -1.788332997433295, 1.1402634248191104, -0.10792868911327876, -1.1601457121301306, 0.24864719502435187, -0.3784073112517021, 1.0932628151745787, -0.3325590877785303, -0.6186882322501706, 0.29196225873282394, -0.09221747737925101, 0.9799664801986676, -0.009723163092064366, 0.580855832702449, 0.7497077073559119, 2.81724545837328, 1.3376814223653946, -0.28218384768318416, 0.990462221307172, 0.649833760339762, 0.10122287423726078, 1.4043004434874897, -0.2097974413380112, 0.8934766687272184, 0.803899153316428, -0.3193508634118925, 0.7467321878850062, -0.17569032614186267, 0.34082770016168157, -0.24524544656958117, 0.11026923366486115, -1.1879087832366304, -0.3860778064890824, 0.9270025260929243, -0.8291052933265234, 2.4043357670968177, 0.19071494453584553, 0.4918008765625538, 1.8199960294032023, 0.9940940032313946, 1.102946430690764, 0.8139068158565925, 1.632031579062908, -0.022404521997293127, 1.4770376867666697, 1.5222674369726739, 1.7656514245718686, 1.3732273154611403, 1.2794904862993406, -0.35562191212257527, -0.6237183010345896, 0.5522458590670859, 1.1733781283466618, 1.7949760115518005, 0.18152372924095594, -0.11336575303186278, 2.601222255288106, -0.35653802026655484, 1.163823539405496, 0.11076757969796534, -1.7106847381153563, -1.3119206276105913, 0.17240881305100325, -0.13292644667656733, 1.484804751676623, -0.25557737804120456, -0.0671514471704074, 0.9537710960611525, 0.41582188106667856, -0.38151197023572464, 0.4333258031358447, 0.6981696315186089, -0.3987780067123602, 0.24982164942745264, -0.3735752331614098, -0.9779272940571313, -1.8155750103634227, -1.212355822521171, 1.8770014944660873, -1.7823339213726568, 0.08938571425220905, -0.8597650443893593, 1.45392972693109, -0.12992909679509665, -3.1486991922302123, 2.166895072722146, -0.4529646939809511, -0.3259838084851925, 1.9404910241303353, 0.10207270472787755, -0.28032680844217017, -2.5311634746985026, -0.564520437633914, 0.745022819329, -0.8687510191620079, 0.3052451458641535, -0.9591869190744745, -0.005265740128601564, -0.470194386154092, -0.9582585502826723, -1.2699327288927447, -2.098334240243027, -0.98345631712682, -1.9345560597470228, -0.8699424731397398, 0.02046043176200775, 1.0280307319599908, -0.20560200044430463, -0.37936565471672723, -1.2418403114725343, -0.3614834519652542, -1.4299076158975537, 0.346156390585838, -0.17995935421129625, -0.4838429911278836, 2.1612804191305943, 0.561041520064043, -0.5320488715388231, 1.0809825903168269, -1.3816716003751983, -1.007766266661608, 0.763278703004729, -1.1164594962185999, -0.31600538489394187, 0.11960162776545481, -0.5949086071074249, -0.0033045878510217803, 0.9944917574041606, 0.3219962430916234, -1.788224163175121, -1.6640902212415476, -1.2052326265587685, -1.0221506239777935, -1.2689538230233242, -0.4243094004133257, -0.8816159100641295, 2.151942291669311, 0.04243202657352967, 0.7558194435093525, 0.025218217373531266, 2.684491272795737, 0.6555952674409924, -0.4165126390489288, 0.8927246025398314, -0.8070169426152558, 0.22520845961580715, -1.0543316076389673, -1.3440694573167278, -0.3143859714090861, 0.12076873632183086, 0.07845811534863331, -0.4033702863239719, 1.2890490863228254, 0.15669917048479534, -2.3953675092765976, 0.6358873229127213, 0.06007051736872975, -0.014579039118476729, -0.24072700872264824, 1.474966346068053, 0.7651161175933643, 0.6742117545486938, -0.6800861206824613, -0.19324228805387872, 0.7691098801299895, 0.6747345878501645, 0.6622010468978491, -0.46071514884400544, 0.5546785365760137, 0.9390293453228971, -0.029089972930451038, 0.7246976591784648, -0.7059514328962727, -0.6944769829065474], [-0.5677123429743275, 0.4461954859848546, -0.2794204065316781, 0.9326579878925196, -1.8656447563663936, -0.23091938185939997, 0.29739404650044304, -0.5247140585729911, -1.130280420900582, 0.11028681755683853, 0.49174941549256423, -2.1238381871208745, 0.7255086897882584, -0.8203042957228185, -0.940797898313115, 0.35406465912981083, -0.1232024885160485, -1.544907822885776, 0.9233099056079352, 1.1600731509354894, -0.6502957322276556, 0.8129902640942035, -1.0915377701511442, 0.8918244548436813, 0.7439119327359909, -0.10512085349106995, -0.8056076147722122, -0.28261119840553517, -0.6381971558774959, -0.7233225860259941, -0.5869491527721209, 0.43216181690936306, 0.557623653028491, 0.3136571795928681, 0.19499612961674423, 1.3094032998904561, -0.38524615066349455, -0.8636002651140146, 2.0330737139112856, -0.7576378903512914, 0.8918521189908389, -0.776380276643558, 1.3173554473357418, -0.5302435252065221, 0.11512100144283799, 2.4548605088300604, -0.8467317166040997, 0.049770329463222185, 1.367066656948734, -0.9502163765043642, 0.19646605163685466, -0.2049186963881248, -0.6560033713089695, -0.5125724751513621, 0.02033666127677614, -0.688603982592849, -1.3690978924734116, 0.19003147775094648, 1.9824532700537048, -0.1630909817362867, 1.4660193279473486, 1.0908219607251373, 0.8207863442166704, 0.896126454602923, 1.7936775254651791, 1.1403899160627682, -0.4558598067939347, -0.32321522238871525, -1.8928223484564104, 1.7518208555334027, 0.30282593735795993, -0.5451831518981916, 0.09951625056962965, -1.9312842160760875, 1.1660530236902469, 1.2375749521102553, -0.37820805395184526, -1.1171032667769474, 0.41457384527718705, 1.1097784434809805, -1.5652564030413882, -1.6520313029668698, -1.861856360653477, 0.43541814095426157, 1.7362362913612681, 0.2660743056047085, -1.1756800737421738, -0.7521391207929694, -0.16453858469242558, -0.1990529308993691, 0.043398317126874274, -1.09196566677367, 0.22513794154536731, 0.30244520095993155, -0.53147121198669, 2.808335997605844, 2.018342690758022, 1.5956848298087543, -0.3074011863893016, -0.10565845903112661, -0.017392264579954887, -0.3915813963543028, 1.4041730740372753, -0.022601481559003607, 1.2005357820170173, 0.22226388108236475, 1.0949417720938084, -1.008454843186139, -0.21852131899432065, -0.43856020686028785, -0.8433209231510721, 1.3235336568775866, -1.7334503425681882, -0.9217750037297524, -0.32607290444770776, 1.5273300440461766, -1.3192015925936116, 1.0272604826141256, 0.4214880029862418, 0.3820520198404605, -1.4590398391072266, 0.3728731598444814, 0.6556952092628955, 1.401976003021003, 3.0505714734067597, 1.2103894232612173, 0.9098351816593423, 0.3869753738705958, 0.7188671414524924, 0.6993538987634456, 0.04709055725323945, -0.21533966550333108, 0.09832896017283498, -1.5738982494414926, 0.3720478850518041, 0.5805427257915401, -1.9563803540169284, -0.6015857802573042, 1.1319277269843495, -0.5369377673385074, 0.4064066675509742, 0.7792690126983924, -0.2893043446185322, -1.5945409253521852, 1.564398269155327, 0.3871496459655452, -0.6267814162961601, 0.04708978895229878, 2.4476811728684753, -0.8076648216817375, 2.648121461489309, 2.855909280559586, 1.5884140470865586, 0.5305774671587927, -0.9171040911172781, 0.062445066681730416, -1.030164706583028, 0.3437284800397572, -0.9291313719310212, -0.2551728717183837, 0.9551122496453166, -0.5597744805835566, -3.287965733329741, 0.19003199815573976, -1.7422427146904074, 0.5325662545324749, -0.14145345573925058, -0.25964431414498423, -1.5269562977946223, 1.7795692791062638, -0.11015372941944773, -0.24240200818929952, 0.564266222847105, 0.9198122904256955, 0.5528472484759839, -0.056540133324195004, 1.9639325811667852, -0.5499073060698372, 1.0407587947097123, 0.7806576382567199, 0.07260041178245016, 0.32216917003615597, -0.5311654536997553, -0.3142939961516216, -1.0131730770107794, 0.052819450971515185, 0.17923772340754154, 1.0120724164043966, -0.9413244351819333, -0.29397654168950266, 0.11659512173977034, 0.07410887849026516, -2.208096867575766, 1.0106675549831714, 0.10006733947054106, -1.6682837742844654, -0.22969623146579937, -1.4661643479353506, -1.058684944072042, 0.4781574598903422, -0.38755434760852187, 0.4767286027097795, -0.8517688217479182, -1.4637457979014696, -0.6429560514282007, 0.5412971547464377, 1.1820641546747377, 0.7385023481012352, 0.7480832923037826, -0.42504441020984257, -0.9361220173781691, -0.4351209628952388, -1.0275390995612452, -0.25933558885685654, -0.6899600310406611, -1.2051979013684058, -0.6106475564950861, -0.39670057984969803, -1.3576384920012876, -2.2028214604446585, -0.7411479562759469, -1.2426277456563606, 0.9086873875360822, 0.5919857762229099, -0.24794203705296228, -0.9319682655622851, 0.6142220795228007, -0.4426131787622867, -1.2446164706081275, 0.07472449365358429, -1.6710758989919285, 2.2880845915470855, -0.09831248755839098, -0.2792981509695934, -0.051985511453953547, 0.5609805075800431, -0.7369155381880798, 0.4484610513809155, -1.9635164788584458, -1.115388904583362, 1.2686899710928794, -0.22904435012748295, 0.0866773129459217, -0.051512022745236224, -0.5745298964627653, -2.8385784241868324, 0.07677466951357499, -0.5467889639733888, -0.7238968506971009, -1.5602108246626447, 0.40505632451354123, -0.6626210211634139, 0.4451445178106037, 0.5817805217760434, 1.0351317406045724, 2.296130942246824, 0.5072560134377221, 1.2642670659274344, 0.4458814848081248, -0.30816367940896905, 0.8988767155620914, 0.39889533983379705, -0.04992657297979478, 1.1393047289586031, 1.8918130010297576, -1.401353823380999, -2.4815664956622645, -0.18106013932170825, -0.9262939775177259, 0.21497687510388902, -0.396846546381383, 0.4924549445249718, 2.380412483178366, 1.3365630347794462, 1.2450930417027593, 1.1657945734678918, 1.0880082888060674, 1.421093502292841, 0.12944412107696107, 0.4556019187260326, 1.2952846485948186, 1.8109484043197301, -1.5517041561441192, -1.1828586226272038, 0.12177050304166251, -1.779736885798791, -0.33839529571611826, -0.24176481089372262, -0.20977342211901842, -0.4613401737590956, 0.4579129349146371, 0.8992356793882805, 0.6512889316706728, -1.318876156073525, -1.4133144686471388, -1.8699034379427661, 0.590171804862734, 2.876070624161244, 1.0468101263711191, 0.9898676797343996, 1.2876044094663321, 0.22620979891001997, 0.506045047215259, 1.9162888309352735, 0.36033144731117484, 0.569272097986818, 0.12910609880223056, -0.7654303646869619, -1.8568504615260664, -0.6906982734299066, -0.2597533841732773, -1.7888726943534168, -0.7190305957299614, 0.640667235611803, 0.8739093670886968, 0.7261991876944903, 0.37325082659893, -1.1071520197894478, 0.0022894458347725633, 1.2958364282920358, 2.486451999768494, -1.1962813342787164, -2.1055362737446015, -2.489060622367925, -1.7586814628471155, -1.0970372673130062, 0.7769347961306093, 0.114773064862106, 1.3232798052060144, 1.106550411103748, 0.8932177704808867, 0.282642524073049, 1.4812118365747484, -0.1854406624890556, -0.3758854013952805, -1.2023507235956867, 0.20554605303998658, -0.3902098658055554, 0.1588700929288402, -0.4362570679581465, 1.2420567321309601, 1.521499911583413, 1.0240394475408707, -1.3483864627879085, 0.44039902887771515, -0.4680967011453492, 0.4266057528969121, 0.8421557091239843, 0.23750516654253065, -0.038103365720111984, 0.471780495011017, 0.580861375944096, -1.7324824163245447, -0.23876884715029656, 0.03695790743256971, -0.0647942671989353, 1.8693922298444983, 0.3831763487329264, 0.6294047504644436, 0.35166455288440684, -0.1711593636957375, 1.9936408846652505, -1.7803616898646601, -0.19803431529760332, -0.48767717335912053, -2.03575573534202, -1.457566197730498, -0.3332292206219903, 0.11480385749870192, 0.32156081230715317, 0.8121239467421001, 1.4166625678445248, 0.1884376802898385, 0.925381080333544, 0.07853985127763732, 0.5446294772422366, 1.1422950258221691, -0.8708711679418425, -0.47515234644221127, -1.7195638311665558, -0.563826460467888, -0.755927902236172, 0.1673700035127694, 0.7078578335163125, 2.8268929918398165, 0.9121959376615159, -0.2699958475782868, -0.6698119792060262, 1.1835311160127595, -1.0335914556889945, -1.0419407809627055, 0.32775483858379206, 0.35043254467362084, 1.351311282810794, -1.2602368367821901, 0.24435629199756517, 0.16347502278685394, -1.088540561155854, 0.09798170524783863, 0.6914515393035484, -0.9187199929330597, 0.016768323333861822, 0.4521022289770137, 0.5313298943359406, 1.726423149064626, 0.4122154189980578, -0.5329264098970941, 0.058162227401869084, -0.6656947407923106, -0.9248992425135169, 1.0717424761174215, 1.4761927862874278, -0.6603546640580467, 0.6751733110629435, 0.9869855194969881, 0.15093784246284883, 1.2409373720174839, -0.7723498321799808, 0.578594728348626, -1.2040625378578909, 1.1469009780319332, 1.1568440645359463, 0.12657041937674424, 1.3786917860965284, 0.16383621364498827, 0.6679536654761256, 0.9467272219986633, 0.11988857164243077, 0.513701151994359, 0.8611794106132846, 0.47082466798065753, -1.0699050958617788, 0.48801119166654433, 1.5628766182295906, -0.605974664902651, -0.25779080379274943, -0.6388350441137641, 1.667896223899506, 0.4433197844146309, -0.3450701265280422, 1.5161272235212369, -2.052519546496653, 1.8389281435235505, -0.06054939858962057, 0.6800951003547919, 0.5270051960822022, -0.09819752455721757, 0.5476811349359855, 0.11209891069486709, 0.13809321745226216, 0.5634897692159738, -1.1255207471329347, 0.7066812051780861, -0.2487995542043696, 0.8862826200796016, 1.746858704805771, 0.46377077576343817, -0.02912363256378969, -0.2146372371262255, -0.1709936049780477, 0.42971762383019196, 0.39233590271068686, -1.5797897416734672, -1.000198163928727, 0.28832000294565874, 1.2194868594078612, 1.489789200070325, 1.4137010642704908, 0.8661328353328965, 0.47659329634960196, 0.8505121509040299, 1.9029882454311304, 0.3161881714836417, 0.3569279132620473, -0.9532905338160502, 0.7410495614447653, -0.7614841492129957, 1.5078193029253757, -0.7125986575920852, 0.7666754093947848, 1.5658646020723803, 0.4806606522385144, -0.8508687828742413, 1.4267059557120145, 1.2641067089211808, 1.2845585706301208, 0.05458272971935026, -0.49607380191925493, 1.315073335031819, -0.25830816959919595, -0.2821178543700491, 0.4469273031105794, 1.6088647426735205, 0.9529432920416239, 1.8359633814981082, 0.5297535122384238, 0.6671208480939412, 0.6179097727765326, -0.7579985527658148, 1.32591916169052, 1.3686809329638296, 0.10176489504611788, -0.5367429402247788, -0.4711968398297667, -0.8724235557231381, 1.528165663071754, 1.4022335723413752, 0.40195070698512847, -0.30235023919325765, 1.8351321171038353, 0.2407593462144897, -0.06118304612001177, -0.8583531699772872, -0.4257995852681582, 0.5406237440370846, 0.3141349508367852, 0.21528423893664844, 0.24238331094159465, -0.69141373114303, 1.4859109954831038, 1.3884255477835477, 0.044387406829909014, 0.5859615647996492, -0.3787719737492947, 0.8841702845594607, -0.01733617193973601, 1.1874742171675765, 0.08893792291593255, 1.425974219849828, -0.09351437198308812, -0.9175981412531502, 0.8260517805172627, -0.12652249306278499, 0.05940383833501117, 0.7913413900148597, 1.2495092682040745, 1.0881204733799086, 0.3388133837487042, 0.21900950678730632, -0.06591949149216601, 0.4798199585678341, -0.6094402902930777, 0.6686796709333999, -0.6181432099278918, -0.4739589289801266, 0.9879421380144747, 0.28564282629488413, 1.499359478085896, 1.0603905963770786, 0.5796808916292278, 0.33674839724637773, -1.0209483388574347, 0.28266245085202146, 1.0224904778407993, 1.285936000586477, 1.477903676022572, 0.3620966876196784, 1.4589185850103938, -2.050640943901933, -0.14275284203141425, -0.25018745255408936, 0.4080656574008936, 0.2623364334997374, 0.5418384269316063, -0.7253028910768287, -0.09094775455506376, -0.12169448398549866, 1.0089444585929395, 0.824326542949403, -0.4065091975526479, 0.5340101056287304, -0.1651112547285998, 0.2614892505319539, -0.4475386210337633, 1.3606502150732702, 0.279674179745995, 0.9756101446541852, 0.47919584045367003, 0.6019391475587271, 0.6764342825726336, 0.47747751599289173, 0.2798042696305593, -0.9155084310176533, 0.22742407373353035, 1.3347606642592311, -0.3289436041758931, -0.0016962238431923631, -0.25265667550508686, 0.15647076436844504, -0.6594147199369949, 0.1725498162819998, 1.7733719930060086, -0.5843679290160535, 1.5727701272658106, 0.7113745811623517, -0.2929950967464661, -0.6913901258679952, -0.2079545750609228, 0.856140443269265, -1.4734288180531105, 0.8217643112730499, 0.22279693585389715, -0.21722115319251184, 0.1083236230205045, -0.1913096021812231, 0.8857632828447597, -0.17390512663161273, 0.719118867336136, 1.847126323368985, -0.02350933260500508, 0.28780459603377667, -0.039526997135509945, 0.6531685229930897, -0.45580567919528847, -0.47067196185344906, 0.17381169941965904, -0.820965515019493, -0.0060976296136203275, -0.9479175345225612, 1.1878808710712814, -0.0028742731557571694, 0.4806263945163464, -0.3441175814203719, 1.3168038781258764, -0.9546818195988949, -0.24575286121268006, -0.6734546703150026, 0.4935186695948126, 0.785572428918988, 0.22678233501186584, -0.07910312371171321, 0.8706974730345803, 0.10772336190260601, 0.3527071562975102, 0.5969795089381746, 0.5416693373442533, 0.3191921430218175, 0.4789826508119811, -0.6054784315972215, 0.9102080786162852, 1.075531847165413, -2.5705082381707065, -0.6818155821442317, -0.34436842949237756, 0.23359831549623974, -1.2136891446961489, 1.5587530420766995, 0.49772465475858485, -0.9558070973980375, -1.0761656453072996, 0.9530807453886523, 0.5782167112388309, -0.6168634797924348, 0.6553512657532855, 1.885273548360599, -0.9801347263499217, -0.18222468802327252, 0.598867761234083, -0.2773860689809334, 0.47884442689165696, 0.7855250714746548, 1.1203168004744282, 0.950463484719839, 1.520593767484562, -0.8617382289645785, -0.0758390610175968, 0.5433576634876732, 1.1156715986793642, -0.40689611985535573, 0.9441546509329939, 0.46404892097423533, 0.256278930158954, 0.5649630429228693, 0.013811509791468167, 1.1603831276897065, -0.7220669838125235, -0.46256593172256916, 0.8874766443251934, -0.7533711483280033, -0.6715196066713806, -0.16547603315112444, 0.340176196015265, 0.4280649238930785, -0.22184388159496668, 0.16853751683184443, 0.5280086296956403, 1.0945219915968716, 1.3891686766306675, 1.3528454123969893, 0.9390452021487011, 0.23411186835244432, -0.5343037904798121, 1.664272645075092, 1.8922665779805432, -0.03936015874011013, 0.46128633942177294, 0.18660531227758523, 1.265556625361623, -1.953263550724963, 0.3910033619114196, -0.8276809937704983, 0.06988642028107686, -1.6115567797281594, 0.7259291327729612, 0.20822338867284199, -2.169336994293237, 1.1238507180682482, 0.3249483824299299, -0.013042404841464806, 0.15855120479856094, 0.92341726727577, 0.33774654520300273, 0.9239248224987846, 0.13971915536754323, -1.1033296968452546, -1.9403213509443487, -0.29848226089481733, 0.3454496346842603, 0.8005530746270325, 1.3251905378187305, 1.1931555696278646, 1.6379407948592453, 0.869278022232082, 1.4349547138428094, -1.027908989383215, -0.3961501913073636, 0.7339347598801517, -0.993741717825902, 0.3801373205488477, 1.1430213095100084, -0.8094704111350081, 0.4645444645797018, 0.022848091112897678, 0.21133977081568533, -1.6617535447472875, 1.588518632100193, 0.42166671127749394, -0.08989446820560525, 1.612931323036393, 1.197642050200354, -1.6505869381189204, 0.7971205815835396, 0.7298341916170914, 1.0599234307140812, -0.9046140366117086, -1.0212797410194057, 1.8831726780764346, -0.4918280584008134, -0.6474705056829801, 0.3374029135481822, -0.4643060827880752, 1.842459287208651, 0.1986888520360825, 0.26107616804987277, -0.44789410966723325, 0.8171052839119382, 1.074561953608899, 1.3432469357330983, -0.9819005815213071, 0.37786613741612246, 0.629406339610718, -0.0939897037442028, 0.17234028394656303, 2.2919455271039104, -0.900115285697945, 1.6359834899107255, -0.37938498000406246, -0.7257074154300555, -1.113035783197704, -0.5018315270471958, 0.6127736793072938, 1.0445448702504971, 1.6535985092263956, -1.1057416026658224, -1.6858868421724036, -0.4148198107960881, -0.36527234903566397, 0.4565064767175692, 0.23655913759150102, -2.1742008914629767, -1.599514778854759, -1.5399141347213208, 1.5949699891047642, -0.6705386711303892], [0.3508568005264957, 0.09497583915595814, 0.18073419259964774, 0.10170923021948318, 0.06872989874010353, -0.32817892561962364, -0.04153144649830576, -0.49687408619014806, 0.12146939160852431, 0.8499700052672184, -0.6524714322030155, -0.492980099181438, -0.4806536661475175, -1.7718863101285443, -1.8345767288686108, -0.03279305023589818, -0.16641863469559143, -0.6594654901919502, 1.075428083489431, -1.208560088336429, 0.3723440248350907, -1.6039753521126299, 0.40493428719847274, -0.27814571144870404, 1.2660821254067642, 0.7686574200763041, 1.2790220038255187, -0.12312481772857568, 0.42193367693689426, 1.126637005935695, 1.024559957422605, -0.9033220341836917, 0.4685317677500049, 0.7688044682783794, -1.132211250035634, -0.45282692853119716, 0.4239460487807934, -0.6873713534487357, -0.014341308578793968, -0.6046281987310703, -0.46273757833284046, 0.7060275119383533, 1.9605597675840805, 0.5075674287451333, -0.9262188942892418, -0.9909546763182772, -0.10404630638146369, -0.32938798852860773, -1.6750816908776438, -0.5376582264594114, 0.8634468531988464, 0.7763708012254051, 1.2508640985574722, 1.5900017025328228, 0.21497446193466174, -0.6337854911223414, 0.023446290092730714, -0.10290667814807287, 0.49563637963419704, 0.15262824816139803, -0.41540899800238984, -1.1558436524877977, -0.6566596493632678, -0.047795052588018076, -0.2674373256796918, -0.42639690283741394, -0.4194848395020146, 0.268788612289727, -0.5524361024786423, 0.05674288524932765, 1.378562584886892, 1.2581423420834634, -0.2453294200900023, -1.2881758034275186, 1.0847462164723394, 0.448018660153532, 0.2599444675839784, -0.03307976915385655, -0.24433862506376366, 1.1568589177225195, 0.28623936658410554, -0.9125643347138374, 0.6082989005027892, 0.3905473762420633, 1.3915198375762008, -0.5434779950134857, 0.6236233679235722, -3.6200937860519793, 2.373929761212272, 2.0716209498671003, -0.0018152444471070594, -0.24243083052123943, -1.02192341062081, -0.04486072159866656, -2.2078134945906056, 1.0265567408793752, -0.14387418954602477, -0.4650604079988769, 0.034743324246660746, -0.4565027488621169, 0.5435010480306164, 0.4706588230013668, -0.1706767446740282, 1.7125743957051902, 0.12333425550160769, -0.7724672847013925, 2.7226467735696294, 0.025277370440538818, -0.21050546057189723, -0.5982092804498006, 0.5506066697899857, 0.10350631364259891, -2.327393018420866, 0.3272399166393956, 2.257758140951614, -0.42403292359729905, -0.6944307445865195, -0.4399522807789302, 0.09433302736604011, -0.2346116875010734, -0.6928087786425986, -0.5262779387024087, -0.012906900238680937, -0.3621374509685682, 0.11295220726455955, -0.058311904668102335, -0.3970004343891098, 0.47423458062784335, 0.2405846435130277, -0.885817368418018, 1.1156152923018081, -0.25290203505968056, 0.04529583118970228, -0.4170087500891549, 0.9093053532546119, 1.349847458842473, 1.0790553695253846, 0.9778701770188251, -0.6453624573517226, 0.014582292917257716, 1.0394263526536471, 0.6773852648842762, -0.8867821445831658, -1.3975560124192423, -1.1207568840401818, -1.119102323851928, 1.1617609100573878, -1.2437316306728414, -0.8397834575713158, -0.981211605408846, -0.689602754576803, -0.7559102442176161, 0.4626413370070144, -0.27583727096445143, 0.5650979216913501, -0.1252859798925559, 0.8041060918116801, 1.3519487240754613, -0.7101753529224706, 0.7404391692270659, 0.42351183925918956, -0.1274655681070075, 0.5609583890791402, -0.8555673646892707, -0.9918290901712936, -0.6757330018263398, 2.1105840501353668, -1.4680006324970056, 0.27645769362829614, 2.3731145948352785, -0.5573420005902603, -0.20895834705932254, 1.5308774481167553, -0.3013281558153057, -0.7216145650446821, 0.9516435284515998, -1.1535081004100254, 0.11991064807750723, -1.637449561146797, -0.9737640392487212, -0.4144825347997997, -1.6371193169892624, 0.657362353824698, -0.7581081045051105, -0.6571709480167511, -0.6212220442853056, 0.3885859432646774, 0.5378572994655323, -0.5842289605305239, 0.510536747329282, 0.2694277278525828, 0.9637714980263594, -0.3392285673479939, 1.7532720452673511, 0.9631894655743899, 0.9325844684548918, -0.24370997015482998, 0.2532571049374159, -0.6842795323044583, -1.067138597467658, -0.8857702568177304, -1.1695048304760256, -1.8996770343508929, 0.8382050586973374, -1.6186501549591672, 0.44952894502776547, -0.8897180604817, -0.06868943642377306, 0.12854739539647766, -0.5193863141265905, -0.7549822348425951, 0.15214852819449212, -0.3511068641935347, 0.04336570795011748, -0.03723176092947283, -0.3526029421697371, 0.9203710110711122, 0.454980425239087, -0.2682010134966609, 0.5152821239760277, 0.7053025472897752, 3.04192923786518, 0.6471440881857131, -0.33455945293659495, 3.120838804468106, 0.2443283563139917, 1.551360092326107, 0.33171233971926406, -1.1228882018182027, -1.1506987473689247, -1.2413908596781729, -1.4358547910164705, -1.2157987843763423, -0.26067878904581177, -1.148967822790879, -1.207574385118403, -1.2088357643238838, -1.7103252683466594, -0.03671096326183111, -0.8759748894162501, 0.8054480004739508, 0.5453688322797553, -0.027231032685860697, 0.004214913390900674, 1.0600093000363529, -0.30125125677969483, 0.3033285626363274, 0.032558147307216574, -1.0346532057116822, 0.37479089350622574, 0.4037533129705621, 1.2886607817532696, -0.4450016111586703, -0.5800801662784527, -0.1417942061006687, 0.4638049822944692, -2.683416465551606, 0.2726918117831315, -0.0725828771984965, -1.4345892143636878, -0.8110251884891805, -1.3950526787434574, 0.6622160862329446, -1.9186329797493278, -0.34820226991029374, -1.0018948732839439, -1.5376662646249617, -0.503236585841248, -1.0818904938225866, -0.31847318696093985, 0.295574656786488, 0.2078808327797606, -0.6021991262804857, 0.397520099831805, 0.9686229719587564, -0.6246946280136847, 1.2490515692484832, 1.582252040490007, 1.72162631720774, 2.0210702797916666, -0.132355917670628, 1.371302144384207, 1.6137837532829915, 0.3715404542883529, 1.2134100802795935, 1.1585697668760204, -1.1511353383125624, 0.08609815728748708, -0.43122897515287695, -0.6507991084697561, -0.6844438410953555, 0.5180046162702053, 0.45510494990505257, 1.2155851057464082, 1.5651519257614734, 0.3784451764771206, -0.350893541123288, -0.578794416776031, -0.29339248815388036, -0.6052225724692033, 0.575901066261032, 0.16161037401776845, -1.209716126964454, 1.964191388162639, -0.19868830424292688, 0.8361806451794829, -0.7943195750055925, -0.10544047836549736, -0.537640297751027, 0.012820244467785234, -0.06302771557844275, -1.5123462270244261, 1.8623985691884626, 0.8527256193010512, 0.10459048600596622, 0.5609302765192616, 0.2146214521809432, 0.8859868686079269, 3.2271520281983483, 2.3465934162454034, 3.739513014441629, 3.8738802171183555, 2.701585840732334, 2.3026408173936654, 1.3429927207027228, 0.4056088157614356, 0.9234904526325401, 0.008590875081074565, 1.1488732677612363, 1.0360933433809445, 1.188000906851068, -0.04021470926379214, 0.9666148735427927, -1.2054525669323197, 2.037801239648845, 0.38882180446220654, 0.24451064059311, 0.3961673918728524, 1.108503729547048, 1.94680581392707, 1.2224882909300268, 3.258332106946916, 2.93131924535381, 4.880550621652335, 4.223320619557054, 3.9987115093131664, 5.297499812677594, 3.572730501461834, 3.132751408189104, 1.7288814822838343, -0.38442374958059716, 0.1806016079539777, 0.7166223589583984, -0.7613977799583164, 0.049052790813428865, 0.26751918316556483, 0.9892029867365086, -0.22344316625484745, 0.607058524656326, 0.29276367738572995, 1.340495529003283, -1.0780404354604785, -0.5864274348173841, -1.960530725890511, -1.375681254030254, -0.40396785516261524, 1.157565371246224, 1.9842726211261386, 0.48251999601596324, 2.4281851510563137, 4.718988766921476, 4.578616743668802, 4.596967349121564, 3.592406037805885, 1.4737561872190963, 0.1501560536474293, 0.06635115510040916, -0.2074232396633823, -0.265558145262548, 0.387718652922088, 0.2422968445360519, 0.7783453191624656, 0.7506133690986282, -0.2821371175971904, -0.14630297714776372, 1.0129380118040519, 0.4067053784768302, 0.8150350659716372, 0.03898889550350189, -0.6010768178077887, 1.866015267580116, 0.4948774080354374, 0.5917184411195695, 0.08065978034615956, 1.9784953839689343, -1.534694222024553, 2.68433933997132, 1.9304155503570273, 2.98799185606028, 1.7129378263328034, 2.655392596396635, 0.18160262195232055, -0.23469377739915584, -1.2404322369438194, -0.5918448984940554, -0.37086718090201504, 0.469069779245196, -0.8405504468123721, 0.9751963000941851, 0.17604596193524083, -0.015127526088675831, -0.6011917093759404, 1.2452416303394243, -0.11967126706017372, 0.020653805534703657, 0.6419397418345462, -1.2366286379396374, 0.3296405125187219, -0.5536143033574871, -0.6288383387046561, -0.6674870127538793, -0.8252640355470054, -0.2511534197044396, 1.2667821599208324, 2.7696249165513436, 2.272675465336256, -0.09330252311077834, 1.0002453483174167, -2.4499459915592494, -0.020687851991178702, -1.201589769171173, 0.6679240428598957, 0.10625967779598289, -0.3089558808160741, -0.09666869726978045, 1.1799528300557562, -0.024849731267361397, 0.6362558792443708, 0.25456081669185054, 0.38015458589238177, -0.13907573583711513, -0.579985230721527, -0.49239679084149146, 0.7175084832060101, -1.3681614139541478, -1.7154906154012464, -0.1586487168860794, -0.6853598911494562, 1.0900769146794644, 0.7148563218687033, -0.14945042409221038, -0.0522342822827303, -0.2249476745246039, 0.9656126846514711, -0.26590338003814457, -0.5344702728883465, -0.2832094489984313, -0.09589598705309055, -0.9001499935781164, -0.3905621970255396, -0.48099753546717705, -0.7295433021754744, 0.2828675601139254, -0.3526768809147753, 0.516367423397188, 0.03038988253369914, -0.4190432072656859, -0.21909798459746752, -1.2604429554353367, 0.8630339020902553, -1.3481891040338634, -1.0774968817565131, -2.0407685553920616, 0.3760177859967506, -1.211044449232408, -1.2345246723848107, -0.07736984400474749, 1.0312552214188264, 0.12499142418636956, -0.5513850455788559, -0.5422651535452878, -0.32564286779180396, 0.359532803675993, -0.06643421892112181, -0.43561565088420423, 0.8392580910963886, 0.8124126937280735, 0.4366898200718145, 0.2650659139292078, -0.5197932187420075, -0.8320221676220715, 0.6985429667681777, -0.06093145050339014, -0.15225140425197053, -0.6318607452330318, 0.30353144437901947, -0.5908897697754047, 1.0119778214479478, -0.4236932163565355, -1.2706988021402281, 1.5321638599910925, -1.5897378508274962, -0.4495796003613495, -0.2875177163157808, 1.2962089146719251, 0.5386266075707712, -0.5830034656049675, 0.8235164544316725, -0.4975274158983141, -0.6781331244211982, -1.391714658132919, 0.4217250914242587, -0.13679918120867757, -0.2633196789230412, -0.5172483716505967, -0.1906362620340158, -0.40409264710487064, 0.9379826525252905, 0.47729284939998706, -0.4646032669413147, -0.4547116084163184, -0.6173003531464522, -0.398267340148552, -0.2665875127654967, 0.6276748847182333, -0.61092178360658, 1.2811966963145929, -0.6230343772984864, -0.4679530759676919, -1.925928691041405, 0.5562713029549584, -0.3943744633459115, -0.27396464853014096, 1.6176450707171741, -1.1341949857949305, -0.18352527575240515, -0.03558491078699821, -0.23344559947251847, 0.32592527259918397, -1.5421282251766302, 1.1536243709674883, -0.21569818290140674, 0.11185943436865778, -0.14360225622408754, 1.0362472199159538, -0.1032594725682101, -0.7040393683787851, 0.2911012362472826, 0.3601218937793093, 1.1514077004174044, -0.4049141125441521, 0.037748129873427606, -0.6811532459748111, -0.051209160854024806, 0.026974864618552606, 0.6785581524455483, -0.06260456586819604, 0.23681399133340558, -0.07132424092721848, 0.6923099195503809, 2.421751939257751, -0.46939450478832245, -2.873421575362378, -2.2042546392386617, -0.23281032418034422, -1.2762092628103863, 0.7160205596243833, -1.4148727697626022, -0.22309880223617443, -0.2955509350632818, -0.29136701089656325, 0.2608054086991298, -1.849549562759502, 0.7851887615785353, -0.36985040968922445, -0.5797157564582163, -1.179631999214014, -0.06988896813121269, -0.11090733348655225, -0.4770467700420409, 0.3904733323013705, -0.3116107939720902, -0.9575828736493563, 0.16682213133245147, -0.5876152284975869, -1.880820059825957, -0.12166536132238982, 1.5022834649590822, -0.5665530656437582, 0.5210657227732247, 0.45076807184432316, -2.1630707591621174, -1.469645291893333, 1.059347729423474, -0.08191037429929053, 1.64562089530153, -0.4161719186912303, 0.8846758996169357, -0.47121211610161656, -0.2758364557739337, 0.4428365420422916, -0.02987884429231661, 0.4097701164942035, 0.14544428579601165, -0.22221544717992112, -0.4373638322882584, 0.7022198857324361, 0.6328654959601714, -0.7445212679715104, 0.0008921287688882929, -1.3183844979964583, -0.9856229282666891, -0.13286845813125625, -0.3331239992383875, -0.5437717170106858, -1.4954323092832464, 0.4484911025445238, 0.13081850499620082, -0.15293478654088846, -2.43368931155235, -1.1246855607999044, -1.1868921038809777, -0.3786364507607371, -0.43069831052142776, -0.8277927038583401, -0.7587993081070753, -0.2637600558938095, 0.37905330627169903, -0.06849292962746625, -0.2520866672096213, -0.22248191373580176, 0.13705926757222264, 0.4654220881262598, -0.4561715523148682, -1.6371827587743977, -0.20668421808703472, 0.5902512020483456, -0.4015319745053974, 0.24986065907825886, 0.6441114069184243, 1.694240859091229, 0.6457178926990572, -0.055583797993724524, -0.6033067550502331, -0.3701779498611884, 0.16717352718394077, -0.029968520762428015, 0.8239616122846374, 0.922882184835903, -1.4852639365538214, -0.15468936179299742, -0.6256300823603497, 0.053579708010900964, 1.0381996891748653, 0.19550500485335337, -0.025712164005493886, -0.3383162670840243, 0.1461969683123803, 0.34046770581046215, -0.7176690478666431, -0.11566379207158775, 1.0658664981469248, -0.31783010333327655, -0.7555605702838668, -1.154047139870187, 0.7603665799689402, 0.8153823763022912, -1.2149205680616957, -0.5114126078618184, -0.16867646041704465, 0.35742037775284957, -1.0042530730565928, -0.16622440624470597, -0.4337339071053077, -0.8339056207982857, 0.6917663262870601, -0.37345818166875083, -1.6555075483673136, 0.2010328803625576, -0.3405295851686085, -0.1955685674595787, -0.5518608474551847, 0.035725809718844585, 0.24021471348461912, 0.7516652107260517, -1.2168697822256331, 1.1638732135739684, 0.10619388269810516, 0.1953534131173913, 0.780696560678839, 0.9513072599361334, 1.670782664462905, 0.8639356231549442, 1.5106937430044112, -0.14079571662955925, -0.6764910701062767, -0.3600636893184619, -0.3684627781073831, -0.905895014846806, -0.12116955118291658, -1.1083935117652033, 0.05618360284937851, -1.105198442117979, 1.0508042278145704, -1.3516673080495742, -0.5704668007656425, -0.31825789750302397, 0.522592868639784, -0.31305826748095883, -0.034145745249522144, 0.41131938160508247, 0.013557165756641605, -0.1741705763304766, 0.4362331200707079, 0.5105645282442749, -0.13627230586900144, -0.8704767060342009, 0.1637977147207591, 0.6609649609839328, 0.9352346895641662, -0.17282488824089431, 1.8175297008385138, -0.20683383717290826, 1.0069326417453313, -0.8912088064205422, 1.5330047889367933, 1.0387937458285856, -0.09516185129333855, -1.0514791248690805, 0.21820594905691754, 0.12523284326372622, -2.5454134306965726, 1.401477506036071, -1.6612420133036643, -0.47979405217137805, -0.7168742384057679, -0.5084367980133883, -1.1910039248898159, -1.4603461260658332, -0.898466314973299, -0.8329225212352793, -0.004487320511282956, -1.3596619357357336, 0.3923026333292177, 0.41314216712159824, 1.1345543120224346, -0.3189075174740292, -0.62155078051642, -0.027645905432035687, 2.2197269514054105, -0.8108775431407801, 1.3815266490978633, -0.16450720288232581, -0.1843415655946272, 1.6213999141844533, -2.2301641124616545, 1.4109035097216225, -1.2683069468228352, -0.5384430283385615, -0.20312514420109387, -0.2716402451612619, 0.3142547146117647, -1.5851531471520726, 0.45524394503509724, 0.8966410526206673, -0.07538227010696823, 0.9677658156892769, -1.3472506939423392, -0.006337318504374664, 0.8251500647448229, -1.270428821193675, 0.207516803690957, 2.3429550800877283, 0.07023269549373214, 0.5150176269024052, -0.40091708966394285, -1.356499980850632, -0.7614642020931219, 1.7367872966542242, 0.8826945426665298, -1.1050821825975221, -0.586711527534788, -0.7880885089161068, -0.9224747046043176], [0.21415145251681, -0.4708531829241029, -2.5705853349399876, 0.9856799336334232, -1.611706647750173, 0.8447374264783835, 0.06272823410125515, 0.24761161616762975, 0.4235485085265792, -0.7064355361971966, -0.9323640722300524, -0.5674009268847569, -0.27400135956853944, -1.3975910047719198, -0.8155280316695078, -0.1831969977721963, 0.804264761433092, 0.5535755597151298, 0.40062974978850896, 1.1778686478415246, 0.5301550346476993, 0.46726357405181335, 0.10043189492447085, 1.3986104742686454, 1.0575398338446615, 3.4104839351320506, 0.8309915616038881, -0.04292631568412347, 0.2786970614141014, 0.0025691518895436206, 0.5889612376712778, -0.5244859660096861, -0.2593330370933256, -0.37176894159600066, 0.7569222820411994, -1.3527395895255951, -1.3648808946704358, 0.8459626468783207, -1.225010926201995, -0.5143951816238835, 0.547580461772348, -0.7408155436240765, -0.5471648656966518, 1.158929908730955, -0.012911571263891915, 1.5701137624511585, -0.04024128225424824, 0.056250704391438554, 1.0221893525613703, 0.11711457414199762, 0.19327911100256773, 0.7655723616168011, 1.3694215896308644, -0.18585353097568952, 0.25662834079850183, 0.5307758004820171, -0.7209158296266809, 0.7444413614667936, -1.0343434717421123, -1.2617468873596585, 0.46580236156231275, -1.4873835175093884, -0.3394933088542434, 0.31503050011613687, 0.6451516289442707, -0.6348968353887556, 2.435352102539112, -0.9087837590346757, -0.6705361287358437, -1.3639004476328616, 0.3800812182164965, 0.9866966160004879, 0.016129890483258656, -0.5214665308888989, 0.5468198090372434, -1.1959014964485148, -0.7538919609426065, 0.2923191827749572, -0.012908742962401019, 0.2997127711735237, -0.8468097567961244, 0.12373377797692431, 1.7674194126889797, -0.40520767135566, 0.010491143435316213, 0.5229650661044694, -0.45782783110723646, -0.8623407568950788, -1.058889691017588, 1.498135945014017, -0.5042010797589163, 0.03411596045734242, -1.2774266109156778, -0.6481468231619332, 0.6564345354348797, 0.3650716329292716, -0.8675855931129581, 0.02921259655174153, -0.10135927154616539, -0.9343907173045501, -0.16935135977215093, 0.815577326337093, 0.16296458784506915, -1.022098076330059, 0.7736845528750826, -1.8518899445603265, -0.4023752851553844, -0.6846927037953706, 0.1666657151354497, -0.25898602726491116, -0.6081835161130407, -1.1170868812659953, 1.6588494923735027, -1.1596349519772315, 0.4558216448584296, 1.1351633780896884, -1.14781703711748, -1.6423464371293413, -0.5731206633503871, 1.010896687497106, 0.24702738959890264, 0.20999116701020262, 0.9823939845597215, 1.080418912072689, 0.036723220619356005, 0.32058233268045827, 0.1781084610629603, 0.3916128669438261, -0.003804563131546034, 0.26792182007003784, 1.5639660795320092, 0.1924704340030588, -1.0075234435832023, 1.311742649329261, 0.5361167459005263, -1.1963257624371006, 0.4136858814224912, 0.8279023861351754, -0.17980428509366586, -0.5617516499293302, 1.2073855539325484, -0.2069097649417627, 1.5920028769302657, 0.09551254320953663, -0.9734378061889563, -0.6416020130497604, 0.9824783553137505, -0.5669604674532188, 1.6247145222963142, -0.060983670348565014, 0.3667608793608468, 0.2850461063195414, 0.41043025250948073, 0.5680389791598188, 1.4450055604117602, 0.1455426930200477, 0.3858635085794067, -0.5501691487500358, 0.53262105387084, -0.42308100337976806, -0.30496055024920227, 0.3460466857331626, -0.5087015655592928, -1.225407985779947, 0.35980645253426413, -0.4845275535645498, 0.7610428652953766, 0.8005657923432256, -0.22815622054200696, 0.43267925232800203, 0.2711146189092596, -0.9484348054543906, 0.04098401951846342, -0.369328638438774, 0.8917404543159365, 0.7023587176944243, -1.2525219413896702, -0.10358960262936029, 1.2436163846662207, -0.0829354252540223, -0.06928997192335223, 0.7656005738410113, 0.1907956239255292, 0.2777467351068345, -0.05046582101076634, 2.2630777948527414, -0.48244610884219924, 0.13155322723243495, -0.10515333396611483, -0.2495801066719382, 0.8456508651687318, -0.8597692672765033, -0.44963865559374944, 0.1045134019456546, -0.4531027626744791, 1.9067054070902694, -0.7126010070745076, 0.6105608983750628, 0.07748918773330109, -1.5931836898872722, 0.16868712331186111, -1.705206877206375, -0.641358411590468, 0.8603327669800214, 0.761472051212695, -2.4001627761014497, -0.7192008170970372, -0.2505305200227227, 1.7126690414595458, -0.8999756106867566, 1.543263600453568, 0.6456550936338796, -1.0223005157670286, 0.11859653518462432, 1.5331004906528938, 0.32169569991310754, 0.11428049896255221, 1.6689337550822114, -0.3580788063617934, -0.889759976442514, 0.057922364816266635, 0.5385124196383086, 0.7675045637273298, -1.1830455353884826, -0.46540507269695136, 0.7419314080723112, 0.6142440720272957, 0.2023494961698342, -1.1810321672883142, -0.6206477161210046, 0.09153843606607577, 2.2283249791012265, 0.5819342287273556, 1.9585022972275008, 0.8772104764460672, 1.3947426271097165, -0.7035920714886389, 0.9673247125063157, 0.0380533546187407, 1.6906950571558326, 0.3027353017152632, 1.0440833070955704, -0.6792988130569905, 1.2463713654172186, -0.9749298135575396, 0.35262411623457074, -0.6767065934390788, 1.7442958727728073, -0.12959300460695425, 0.3412659827819534, -0.6175531560396136, 0.23394671911645482, -0.33076832095239894, 0.6405140685497291, 0.6240634384899519, -0.2784378568171162, 0.30137056731592193, 2.3289513299931732, 0.7024295356489874, 1.1333150207866283, 0.7158028750807798, -0.41778012285072047, -1.0101076000983573, 0.2413586978230753, -0.27679441738905824, -1.2897634847324064, -0.048080489936953665, -0.33661230829474953, 1.532518814543868, -0.13233757223960652, 0.8131963243462241, -0.1505986675874767, 1.3394304446056098, 1.5653044045114046, 1.546680032892144, 0.8993471064916272, -0.13187861786291, -1.3148122906691297, 0.27608358714760267, 0.3480363880032156, 0.3002847683685275, 0.43749294666728294, 0.6322672821557611, -0.638930133480257, -0.510238316593214, -0.25454828936850077, -0.7365305182947383, -0.5258690685696462, 0.5780273075832217, 1.4632021021695776, 1.4949866555411642, -1.6233183885278402, 1.2062238540346175, 0.6009285260577009, 0.8813446168631968, 1.3413430160954696, 2.216936208428157, 3.690710111429355, 3.264280104046502, 1.816664111678017, 1.055484349194147, 2.3157300960278637, 1.0800083277619401, 0.08658116156108676, 3.1449173511196395, 1.672109653545431, 0.33544855349892905, -0.7031683534777833, -0.21493611178939911, 0.6008573484359698, 1.8948393204277145, 2.7008761610760854, 1.6424060636398883, 1.8322762838024287, -0.01767975149523819, 1.105822226822803, 0.626088807222472, 0.014043203285818394, 1.0470230302272443, 0.4111673921214135, 1.1134513553708387, 1.8411829013470717, 1.6436901388882275, 0.8624448960653156, 1.950720999948441, 2.7434585112805685, 2.7129199298428057, 3.644274382216506, 1.591561077249023, 0.9223076734110924, 0.5680436367995916, 3.514420674192835, -0.14364379294577959, -0.05698284564918652, 1.199257012441715, 0.7400296294275631, -0.3419324756424815, 0.22312753083832768, -0.11720800186534681, -0.47691135360524217, 1.3048458052424277, 0.38609892480497593, -0.9778279887182915, 0.5446111361045657, -0.22423259875292145, 0.4331958355595191, 1.4646777625528316, 1.1729313389485385, 0.48366493244245423, 0.41333521834387427, -1.9758699208001016, -0.8952328029727997, 0.5831780883875947, 1.047497615503528, 0.46431760698355967, -0.04404503204503651, 0.9328716813152428, -0.4776171018072263, 1.0459183843236313, 1.889591540264201, 1.3600680142170753, 2.0413774267468594, -0.16395526481483078, -1.2784395962080959, 1.0490385410857328, 0.6160076124272784, 0.5558594825727896, -0.37608057993920946, -1.3253829179943828, -0.27948638900128453, 0.02854841199869729, 0.49463918171746907, 0.6962620408213207, 0.17571338131621916, 0.0055398518148555755, -0.04959194714596809, 0.3103157281043213, -1.271290997448929, -3.5448765190679956, -1.9630884203663732, -1.8914474582231744, -0.28776121310166153, -1.6546127010778855, -0.8843426790785117, 0.23922015842658767, 2.196156395050878, 0.2131481375700851, -0.7773039184255569, 1.0754494327763549, -0.13709981906553942, -0.7174528742723707, -0.42030658042503766, 0.6490648442101872, -2.192325171454137, 0.42118576290228593, -1.0382539755497717, -0.2458370125416257, -1.3099058810635071, -0.7551754428200118, -0.4105063795610262, -0.5030034873862378, -0.696403367726629, -0.32187665386354736, -1.3341776836297892, -1.0797206459307598, -2.4513555406761465, -3.7543571267810996, -3.401907022725521, -1.1281050481416546, -0.06404897338095182, -1.5457873804001827, -2.0924485984654835, -0.8711395703384549, -0.2241045186273756, 2.129686672299923, 1.6677494063611578, 1.1011295566442052, 0.6500942530169699, -1.9087986612776315, 0.7023155682332426, -0.23718923853556717, 1.5344987458586017, -0.5679143122861228, 0.8773478423426891, -1.3744135372915744, -0.07265228872085623, -0.9422317090847223, -0.8250754888019547, -0.8973562585350651, -0.6566566793514819, 0.019600238087210398, -0.7967570304485873, -1.7616109527295178, -1.389313253357379, -3.522422474854826, -1.5325158608969758, -1.1356236108252846, -1.7581904497896523, -1.1161553031877105, -0.0949577059070302, 0.4623821516972796, 0.5447558616890432, 1.8296477201254886, 0.1995258745429439, 0.6071070345315908, 0.492656687560849, -0.9193453118389044, -0.28316302878761473, -0.994457004873666, -0.9511582358930207, 0.42273789691111296, -0.0034404032897639375, 1.9588864894253488, 0.16577627810054654, -0.6160543219726178, -0.7135134994320413, -0.6614027221216328, -0.18695471049482018, -2.610782922327357, -0.8613898607931451, -2.5746995426671027, -2.297249315710092, -1.6242730077316405, -0.5326845516309558, -1.4314808061533972, 0.13123956466978345, -0.08796257872354929, 2.091727351445218, 0.4396033273612587, 0.372835022396655, -1.0203797810824715, 0.1663009573853132, 0.6723912918774273, 0.37103695395433584, 1.4617108447551155, 0.8762208401960413, 0.7169559659458284, -2.15062986865534, 0.9914934172393314, -1.4940061626591472, 0.18562568473921326, -0.4224028660814408, -0.30417506001885314, -1.4810636533487438, -0.8582994447495434, -1.9613996377478335, -0.4488218460527246, -0.28461452668968346, -2.2355744695292534, -1.9018190728097475, -1.9075114872697432, -0.8707771022777913, -1.2930837496541154, 0.4109328776903659, -1.5332219708461186, 0.24294957159520833, -1.2815662455228938, 0.03211852824922756, -0.6919641335081085, -0.6270624501427473, -1.2834018616334195, -0.3001251785990001, 1.9240726694853523, 0.4301099647539626, -1.144198495356719, 0.6641110735350358, 0.19303764120933217, -0.1537943670770977, -0.5393723281887456, -0.7350353541434288, -0.4012848466139522, 0.37564958564613493, -1.4646339886210389, -0.06869076741204011, -0.5422272280012973, 0.6552489777762466, 0.04715469176151212, -2.3948436627074616, -2.105520430760545, -0.14684808298517663, 0.20557483297286663, -0.6977516289023835, -0.4748121488341132, -0.04451511449227002, -0.5657090761292439, -0.8153276868084144, -0.7986729568915597, 0.4423175168633142, -0.41516933963953273, 0.5824003866381219, -1.1829593627602215, -0.5391634025311617, 1.3075795753800918, 1.0337577171955477, -0.6385096114985427, 2.4058566257894856, -0.35449905845222424, 0.42390450161947196, -1.8399676104935319, -0.13661697192268984, 1.1582358041457423, -1.2068770778101003, 0.3832803271396534, 0.2020066200328179, 0.22188937845302145, -0.7443404517540291, 0.47073300021867887, -1.560961987706865, -1.026980569975952, -0.4976088150076969, -0.658534277936429, -1.1290012703560064, -0.6097623056848314, -0.5762288733578991, -0.5932327105953186, -0.5719581917865996, 0.14142847546565862, -0.75512083914001, 0.5304649308295695, -1.4410062891590465, 0.19286754243153775, 1.6697655803197107, 0.6384715057404554, -2.2447532864416835, 0.3401039466791926, -0.7727361573073837, 0.9107248629261044, -0.5748318053727749, -0.046644303742948874, 1.57353351697339, 1.8853586993555416, -0.15156420028964696, 1.131478914753068, -0.09755201131075646, -0.7796535533447254, -0.9669405442231914, -0.1598934392560323, -0.8183215018399812, 0.10766541089418594, -0.24235857762114899, -1.7183913323845825, -0.733080691199446, -1.0438509637949058, -1.535556638311817, -0.17815610558585268, -1.3385033741462768, -1.4671341553742334, -0.7781604332809767, 0.33156526310644474, 1.2394304460476055, 0.32971618456055474, 0.4469561254986699, -1.6460162627613388, -0.19090729746053764, -0.5783968139091984, 0.17596824666301017, 0.604251214914958, -1.5955552918484535, -0.38185043690053, 1.1044488241955193, -0.8951673344948742, 1.5407510890563796, -0.8417971239966633, -0.9022049813690882, -1.4274182034503555, -0.29946015050145863, -0.953417790145872, -1.394523116135409, -0.7652059680875853, -0.9892405549792251, 0.2225648863281711, -3.26527812514375, -0.4412470618792699, -0.30811860134387786, 0.6874944074536887, -0.22941153018886376, 0.48825709178757615, 0.6438438753362842, 1.6172300964806121, 0.07167625644917432, 0.8828954722560126, 0.11972838721656777, -0.5979855375320602, 0.4063817091455836, 0.9689981880716766, 0.2455278253813387, 2.125647817813697, 0.12189863851956803, 0.25534210036399513, -0.2526768483646498, 0.9638816234775447, 0.6117423156289633, 0.439199886770245, -0.0949820403272945, 0.49316278141259867, -1.894404658048546, -0.1539481718609286, -0.3267873298650479, -1.239644501143845, 0.3759311036072807, 0.8515238701413763, -0.8972694905551158, -0.16045651458481994, 0.38148923888468683, -1.211286381243884, -1.4404576754149228, 1.7170360322604563, 0.44022874037569176, -2.5701371035229954, -0.3920851741891505, -1.5076653538713745, 1.0404279681048945, 0.23094208803327, -0.5604202497166143, 0.0032101919930628935, 1.0126960352366947, 0.5360303873852098, -0.47363374979916156, -0.16593081104823612, -0.577232212026414, -0.18751237763286557, 0.06840182214285816, -0.9978173273353375, -0.7928360923833252, -0.8036485990949804, -1.4667056206195817, -0.09006914194661668, 0.20680629346258952, -1.2080871591760327, -2.4912358261692957, 0.9469621488361096, 0.08747007751876493, 0.7253070952488461, 0.19576649072094435, 0.11678352721115287, 0.47786568934447793, 0.24506245427740095, 1.1939096710190271, -0.9612287020279099, 0.09449188582520913, 0.5284957650965381, 0.0976343341515425, -1.2330211680986483, -0.5633344936036861, 0.9916526191681522, 0.19390331184388773, 0.5254712232146703, -0.3869342986184126, 0.12731206631014508, -0.5765743231392548, -0.4722801257772191, 0.25359785545179125, -1.0008682525603372, -0.5606329843056589, 0.20164435791621751, 0.12198194729221688, -0.6475504895652516, 0.7575303629112675, -1.8395221461089395, -0.005817533233955396, -0.2546530507819289, -0.36759304181786123, 0.8151629026201342, -2.140885880309596, -0.31629716054165047, 0.2834464350383363, 1.8485850358921956, -1.4591999484826546, -0.17805558340062091, -0.5685568195601894, -1.128325950046546, -0.5246919579350517, -0.6755387949970268, 0.1597640944623597, 0.09304537335757178, 0.27837295065346246, 0.4235950490426916, 0.5578792293221226, 0.5186253138521439, -0.14164150541602188, -1.315389635296611, -0.2936238046646888, -0.46335206865192624, -1.4869382636326187, 0.23450195220280579, 0.6755840752497769, -0.7440704089294078, 1.0606194091236283, 1.3900525296449173, 0.5593008524334934, 0.7426404364051913, 0.38177114777193105, -0.3683552086372261, 1.5823631988805096, 0.10121725937723704, -1.5049837624056965, -2.8519767593257606, 0.22911991207213672, -0.24497429056196077, -2.078056161811658, -0.6080179827677905, -0.1994082560651127, -0.5511226230253728, 2.51022042287991, -0.14374075144994952, -0.008454720519854174, 0.9129844809803087, -1.2001824829927965, 0.5515860529529917, 0.286586044036946, -0.899661972751312, -0.7329061354234545, 2.095339144543189, -1.2685102518352178, 0.6708592964686684, 0.541241650310631, 3.0171655730677323, -0.18961855678816006, -1.5763828695907824, -1.421323063761804, -0.2226705532009704, -0.4870934882737592, 0.019920367113997552, 0.06644529892189559, 1.2151617017548149, -0.8369325677278302, -0.09932748053457623, 0.10381391337408295, -0.15801281574499615, 0.10992037334692126, -0.5603958377841928, 0.49498839837072656, 1.1403279326689375, 1.321948844656875, -0.8131534124730918, -0.24725996638623732, 0.22965407797586365, 0.9451895823783157, -0.3692248092216996, -0.7480083517588814, -0.7548597711592461, -0.8299719874652299, -0.6263447191636213, -1.740849534584096], [-0.052605372659711214, 1.5638038791138977, 0.6007546637924065, -0.6744999187453016, -2.1478545847000623, -1.2682053758658915, -0.6497184281591424, 2.1530410514307516, -1.121133854907672, -0.026121879647424046, -0.6055310526625113, -0.5096423881377361, 1.875514688344651, 0.022218352315744837, -0.38798495758707946, 1.1082010659772255, 0.16859306001355925, 0.6317821475409495, -1.2539773692946463, -0.5821848499454372, -0.3510056435114712, -0.45820703846564026, -0.5426006718901454, -2.331352666606088, 3.085539353033792, 0.7290281977727915, 1.012962615872243, -0.45303779072756406, 0.0668202327190812, 1.093098511018447, -0.2515891188568408, -0.7031713072767286, 0.34877660872268984, 0.5047273420205936, 0.9953306244602413, -0.8753926774089754, -0.7764914683384628, 0.5842459887607616, -0.08530927691566025, 0.3411757526592151, 1.5757075468890092, 0.052750622382170397, -1.1471319375522981, 1.4326757815928004, 1.9401481846263102, 0.3779130318947375, -2.8972502431504794, -0.9066146267745943, 0.24752136796608934, 0.7399880266337747, 0.8740646531782695, -0.8578165394604567, 1.3412072028429047, -1.3815570520082159, 2.0673471556024725, -0.33524014586479234, 1.963973437241118, -0.3949551347958083, -1.1080968498278605, 0.5884604059970132, 0.630009430553137, 0.8614037563070082, -1.6262462207639687, -0.4046853322581667, -0.8891796802783517, 0.20296642389464914, 0.8186636190342305, -0.286821414442906, -2.6480067767859228, -0.624498891803868, 2.218000981099592, 1.1158239602151556, -0.7816979935267381, -0.9361331584312277, -0.7878318375280305, 0.6888204955738267, -0.37643759210249267, 0.31254574842857924, 0.43652520315532606, -1.047988435272271, -0.44947575758055663, 0.3477717981144581, -0.5367869830021625, 1.1427512727095133, 0.8480623799654071, -0.521954849544657, -0.6745589946364373, -1.6715706601014622, 0.9832997768178534, -0.5210185126030074, 0.5106773063008714, -0.689143152577359, -1.0572945650339707, 0.3507501804821492, -0.6424994294099755, -1.3217972322304794, -1.001305523414597, 0.146646750761359, -0.10297347243651658, 0.37774041153064175, -0.3336023467581758, -1.490161771649242, -0.6387839466996732, 1.053274535403488, 0.9392906771924616, 0.11966163276481391, -0.9180732876854819, -0.7234668456362615, 1.5978760430719356, -0.6953355623714234, -0.7619994209717907, 0.18650871761843357, -0.4118861579173992, 1.0775315515064248, -0.7766788430725328, 0.4053899174158149, -0.07687983802897452, -0.26811235037520004, 0.7357133254995696, 1.0220275995525705, -1.1777382584773723, 0.8440390228825346, 0.5773310037346885, 1.7564699046727505, -0.4044547638290285, -1.6081663100886856, -0.722636787649272, -0.6588188053910343, 0.047696809697911464, 0.5548261940650346, -0.6019858942614671, 0.17144428562808942, -0.08566323336215198, 0.07795474175658994, 0.2625019509792948, 0.8764394312558936, 0.3162746175374987, 0.6910609099586887, -1.432082756498964, -0.18610274385067335, 0.3796734034291909, -0.7144407183945124, -1.667632744459771, 0.8945041254793581, -0.6062206496212994, 1.34984681747812, 1.0434907061998955, -0.725896548812519, 1.4437501599002043, 1.4158913267372477, -0.4934376429458558, -0.483275101965835, 0.708123583038549, -2.719657228039341, -2.5388156230895027, -0.5148097612397807, -1.2903211912225956, 0.46567187334785254, -0.7766146268463766, 0.6190723275877548, 1.7878451609560542, 1.6344625650637699, 0.018318413555562418, 0.9272496067699357, 2.0306779717060737, 0.538012868306502, -0.1552600463621939, 0.7946130105187544, 0.8251954400102488, 0.6979652468896582, -0.6588515032901829, -0.2706576706100495, -0.07062674282431196, -0.09754896144025463, 2.3049122087964133, -0.728096123544649, 0.78279623378916, 1.7540796903459988, 1.7693072978286795, -1.443123004023237, -1.790483783751217, -0.8368561324647317, -2.0153925872080554, -1.3534734143915998, 0.597270008755575, 0.2409837546564059, 0.24606704709680866, -0.20900466889135938, 1.2001478667271124, -0.08232131180047698, 0.6250891457512107, -1.7623584306162727, -0.801146403521374, -0.5087208286667985, 1.1266058995918804, -0.2664882935931603, -0.7302782038169559, 0.9617570644476123, -0.5274034299918983, 0.877025359742794, -0.8661706016658216, 0.8979203763764609, -0.4582477680844455, -0.04519519959905313, 0.302242454807608, 0.9048008958298054, 1.074329760120954, -0.26381213545521914, -0.6540702418457655, -1.093280014142174, -1.2565872362408241, -2.312412341446673, 1.0960918353724127, -0.7899425698539664, 1.8255780574600815, -1.0514428503964484, 1.161130003603951, -0.48876267640363386, -0.8758108246043355, 1.1239510864831301, 0.23951707874182815, -1.790775027939883, 0.48452462659284784, -0.21170460485514825, 1.528991331915294, 0.6990103651402292, 1.4425296337783762, 0.5829294620005901, -0.4327934858963564, 1.2095284850285524, 0.04846993029927387, 1.6169679406975594, 0.5019171217385067, 1.8774234038274784, -0.2862760991861669, -1.151745804572092, -0.5661912033704822, -3.719057258515037, -1.5458960352669961, 0.7247973335230136, 0.8687648285473869, -0.01136498732194443, -0.43220166147221245, 0.6789309161389712, -1.298706289896369, -1.3990057739256463, -0.34074487133770986, 0.060492827012948176, -0.00020635223419255454, 2.9635750258346474, -0.1711853160406153, 0.8053185904135428, -1.5034032989179749, 1.7539896478337298, 2.0091338220429074, 0.802715864188747, 0.27344310789401904, -0.5534975208180263, -1.1161363071395902, -0.13043724433404902, 0.037051808099795976, 2.8018839256371435, 2.4275594661977755, -2.13789981981605, -0.14296681817165532, -2.1991684350879455, -0.2947661017735447, 1.1737748485018522, -0.010627749042636352, 1.3282528359909591, -1.0212992855713892, -0.4467889791212691, 1.0654651190112272, 2.13974554671619, -0.22115006193471085, -0.3938411792797644, -0.8297508585088876, -0.02364049894295122, 1.2503076277328984, 0.39517992272666164, -0.5069235057599712, -1.410269092114686, 0.40574996576896843, 0.8219497639375373, -1.7795442260531709, 0.2815583063308092, 1.1923177862880823, 0.6400050190056494, 0.17625352185469223, 1.5973223116992947, 4.024542187125546, -0.7906926681925959, -1.8198873044542538, -1.926649454631361, -1.7495749741987725, -0.4769627157936726, -0.8009502289145991, -0.21344407956545763, -1.1551047172667905, 0.12793808958910483, -1.7484033332769948, -0.013509342403534439, -0.838934528543587, -0.040375391726381736, -0.2240563637126794, -1.0086593611782428, 0.6602918714824513, 0.7372301663184682, 2.160735337812187, -0.6440362044854543, -0.8549372130923784, 1.6181783730721657, 0.7495497014570408, -1.2668873079648615, -0.22387126072101476, 0.8040072401416949, 0.2684598246173635, 0.45460744320166796, 1.2153343207036764, -1.0272070790511687, -1.0283158936472672, -3.9519011880909183, -0.5936220426972955, -0.791302849485116, -0.8956312225341778, -0.2545268006254719, 0.29674062146836266, -0.8101761934857772, -0.21021992764114875, -1.14508491633799, -0.21297480620804987, -0.9390374103610496, -0.8895728123590593, -0.7922118429621047, -0.01344766230252416, 0.8269874341210698, -0.40541101947773706, 2.200775135595151, -0.4576251080955788, 0.2632232693825181, 1.7229209207634442, -1.222742195215226, 1.1656843188907953, -1.4037852259248922, 1.3547740585605814, 1.0443859725993212, 2.5183990487796772, -0.03808489381517132, -1.6120866883392155, 0.7127300102733808, -1.2648380036742715, 0.09126343353393296, -1.3031056432295316, 0.2426849314052819, -1.3535286220246663, -0.2026268511741336, -1.0929368229857246, 0.09787594075146676, 0.2595891041606506, -0.9135623685040253, -1.0969800602605273, 1.53859551934144, 1.601679634839026, 1.4781862849307905, -0.8394035454952842, 1.5559677463216384, 0.8203315493112758, 0.34327597782553365, -1.6177618432112981, 1.1381777710044538, -0.1916038952484446, 0.7749909023891568, 1.4111692458138014, 2.1587637483040516, 0.6264458318682519, 0.7590299066576766, -0.14617648581865478, -1.7347044650795902, 0.5176913311383764, -0.5498377176399628, -0.7319705206409702, -1.703761289592205, 0.6140099199512017, 1.625003211973991, -0.3856690999773339, 0.1710795906905607, 0.7062805508884665, -0.6125678968119445, 1.1801942671605976, 0.3215932804749903, -0.30371239190503735, 1.0758383511648337, -0.30684899558086653, 0.1688622677904355, -0.19883646521952575, 0.34946160218075906, 1.5666440127079013, 1.527828452759156, -0.3619154075832716, 1.7388467040259519, 0.6764765296239932, 0.7973655609674261, -0.07340377383354164, 0.4709437336468745, -0.9261922035923266, -2.2911550364756352, -0.20964526019034443, -1.5400707828530251, 0.8991760165083107, 0.017613179292600162, -0.34762755191324407, -0.18820763589826187, -2.319643932665889, -1.1100096422425556, 0.06347063039744517, -0.18547660922032633, 1.631041900124724, -0.9281456124541104, 0.9843889088565039, -0.2490562111061611, -0.039341292838005734, 2.068471669353614, -1.7073784822240858, 1.2143682247603758, -0.1714933341345946, 0.902747089840392, 1.326641071895085, 1.4318892946415722, 0.623750554516595, 0.2046544312313997, -0.11349389197324396, -0.27213951281728826, 1.3118995304446537, -0.9593635271762645, 0.2862720384061938, -0.8429290448031088, 1.176516735913157, -1.9419109032218662, -0.5038209490420353, -1.048006350652988, 1.4223055381487233, -1.1512533065490582, 2.2190212913944554, 0.9657852572853474, -0.025312063234731345, 0.0020413335073937965, 0.907702627474479, -1.0574585695424277, -2.1318173588647418, -0.04970785247102141, -1.1516226768676903, -0.23393210807804077, -0.42240244049473724, 0.21505845948590444, 0.08803964728320292, -0.07915444076096387, 0.045440374354256706, 0.4792798245046981, 1.1726201281562154, -0.7293580097638157, -2.1249694650199524, -1.2979644724140316, 0.8572253494392352, -0.5064565701611639, -1.6260018680040593, -0.22919033069689512, -0.8184299848822916, -0.9445092290051118, 0.7941555534525341, -1.8632443165788244, 0.22693015726282806, -0.410529582398075, 0.3768751082447979, 2.482630640888776, 0.6948551947297458, 0.4678186531163644, -0.4395901531112342, 1.3081320825471585, 0.6170114694841873, -1.493191327754215, 0.1564815298660502, 0.07916903951253494, 0.8153312473451099, -1.1222926620524631, -0.27556406858553506, -1.3724193076659028, -0.12378538437209051, 0.1879985907263311, -0.5989787539287815, -0.7025978290089763, -0.18446465002353749, -0.6943582750827952, -0.3152537741601227, 0.2710041090834281, -0.4433636573000281, -1.6008230865393338, -1.7782277064988865, -0.7405485248871024, 0.766758562113851, 0.9391717447818779, -0.45742000034785935, 1.265161182508848, -0.08636368268896491, 0.23586688349956483, 0.27466219535563813, -1.4724523831856147, 0.7493353231355161, -1.0250818030276418, -0.7899219722382034, -1.790901655748053, -0.8192964828713448, 0.26276374220280124, -0.7233816855054557, -1.2347975116653913, 1.1909313745231291, -0.20560829553192825, 0.1974515260072325, 1.1603127177142942, -0.09567767284684378, 0.1693273869237143, -1.1296612459643631, -0.9612087642586289, -1.5559008709115492, 0.5942704086069125, 1.1495964393820965, 1.1439940965482944, -0.7803967790862985, -0.675738081465757, 0.7857664418206648, 0.7511031608758361, 0.5613487938666655, -1.3505262975072612, 0.989637007977904, -1.8789563677403562, -0.03359377000055558, -0.47886764399189546, -0.4570704882758637, -0.20791413099429795, -0.7121766027531317, 0.38045806801459, 0.4426225369389336, -0.19862747173405884, -0.5670630936642, 0.8982111991357106, -0.8625896093111451, -1.3457251943488955, 1.3694961312959641, -1.3691797036955904, -0.32043157800873945, -0.448667964699329, 1.386196795672693, -1.1857468225768781, -0.1585528782898451, 0.4383189390062412, 0.02542140204541044, -0.24794627788662313, -1.0996076126604113, 0.8595935094375431, -0.6534123564235118, -0.9557940594988357, -0.9847594857644784, -0.21690382721672394, -0.1064946049783767, 1.9668033948833243, 0.5159738619197367, -0.7217686214034775, -0.6031594726787444, 1.109956507845176, -0.9197049382408774, 0.0070366503520727635, 0.7689967924404192, -1.3507202362945592, 0.025789037269820368, -0.92067445089505, -0.8090732972216191, 1.8165814369373845, 0.3262993860562523, 1.691646612455471, 0.18088210329625484, 1.5842192831626563, -1.107591178202788, -0.32992478284296156, -0.06848735336960166, 0.4996964216069536, -0.3466746344379763, 1.9495932402613028, 0.3423096651037333, -1.2945573262920442, 0.8223304266384635, 0.15567851858726836, 0.6868982207166932, -0.1196549519034785, 1.204857197006084, 0.6438887289013387, 0.3609082082805058, -1.0851970455027389, 0.7183806737246815, -1.2666581886268067, -1.3627308894458805, 0.5140164772634613, 0.8876705000476199, -0.23509354684384942, -0.06628886055038831, -0.8800034376724996, -0.18823168855114536, -1.1449917759779027, 0.14931219416703215, 0.739060637192049, 0.6067231602400409, 0.9120663179103273, 0.4199978059176996, -0.44745652433333843, -0.6754869607259499, -0.8210133305213156, 0.1558435057204424, 0.6347980260955361, -1.9225859822986504, 0.32619962720515394, 1.0802980959672939, -0.07583285669559758, -0.9413498509709912, 0.11155492121048119, -0.7960952413266822, -0.3843826385596046, 1.0806288719604042, -1.630935114785528, 1.1693251132325402, 0.4968660768753051, -0.5602154299152405, 0.5376072496545605, -0.41548084066775864, 1.2048387747973113, 0.3360096277877827, -0.19675316440650747, 0.3772516029465678, 0.6740309077009169, -0.5919511364003287, 1.5208086032127874, 2.3485029454546673, 1.3333027008124665, -1.0116332440986655, -0.8946503965436027, -0.6438439273829812, -0.5152469874487349, -0.041235271800421365, 1.9118077301661462, 0.22084554086906066, -1.8558666638461472, -2.323039878866616, -1.3144733793714134, 1.6621219362051345, 0.38131933296708675, 0.8180645909312103, -0.5831969485027079, 0.4214989950258582, -0.8399249154114441, 0.7815028352465264, -0.05161119313946815, 0.002623000563545634, 0.29297197824666765, 0.754604697758541, 0.9531563776105179, 0.49971591154776834, 0.9472411032188388, -0.8818014530617158, -2.026555812122125, 0.4128743973813557, -1.1627000280009596, -0.4948947163345122, -0.20200092922304635, -0.17805166025355737, 1.9346125127813556, 0.5817066922026192, -1.32724687318459, 0.3246048466606204, -0.24131965160697066, 0.4208145329636584, 0.06298982438443834, -0.9990815783393602, 0.6411172530414968, -0.751739585560289, 1.1928348270664284, 0.0732260875554995, 0.7541008078569371, -1.1577734470207426, 1.1355460919329574, 0.9520284589021036, 0.07561588529807377, -0.04457997556586597, 0.23696118756190226, 0.22844049361294289, -0.4364995173185945, 1.7555353929383692, -0.08059805926355612, 0.12444298294332794, -0.2151061654926661, -1.0677703826848326, -1.173463232287515, 1.6694662047693123, 0.059679450638777304, -0.19686096758772778, -1.5442358289192952, -2.005542280179823, 0.9114255788114133, -0.1786816252987185, -1.005569180853599, 1.5419265066275072, -0.3313395957492483, 0.7071103273241282, -1.4449981942902743, -0.024681961615208574, -0.017571288698751162, 1.143394048308523, -0.4086564582294879, 0.5966895495008641, 1.5396303446023565, -1.451663851986565, 1.2815026891998818, 0.39956629250984027, -0.9598429191782168, 0.668969172107485, -0.4107703172510221, -0.29523299611130066, -0.09960201071194442, 1.5988835015636724, 0.4811014711940195, -0.9331161012624428, -2.0086994459477747, -0.45313924768266534, -0.035769139009157284, -0.21695278819148325, -0.9859902290637346, -0.5215506141628214, -0.4989185699757504, -0.769649141041096, 0.7794462921670373, 1.5389959824422488, 0.21873442095480944, 0.8487036224956936, 0.22861943615913502, -0.29890363393377684, 0.7959193606906196, -0.9292307808610626, 0.7954683805875106, -0.46276052419295416, 0.29751949913360487, 0.07090845202008043, -1.4459336915988152, 0.9800785843175122, 0.04261513071401123, -2.5278681247310084, 0.5052754543952872, 0.18902033195867923, -1.6520211937183003, 0.4190228346324324, -0.6010627073359239, -2.191885132678837, -0.011804178758014022, 0.9800907910198726, -1.0690894799358588, -0.3032588039675653, -2.126229180119577, 0.10284483090524106, 0.9567146361741917, -0.45340077861531874, 0.49771562347400905, 2.357399549188872, 0.05145075013918382, 1.4360479200907679, 0.8464619724027991, -0.17647334391284925, 0.045378705535823266, 0.17980322716342878, 0.5987900661051299, 0.22296551755954824, 0.14922766841865573, -0.13347424415463555, 0.7960242875688027, -0.3151724377302958, -0.2914225659587217, -0.7733238414670663, 0.04751715853213398, 0.3211050470667796, -1.484918889034507], [-1.7821945024593446, -1.7762926549685285, 0.7471130952287826, -0.14153906091156201, -0.2502933386434975, -1.432765506864501, 0.3206688076397519, 0.11621359659796789, -2.169578186715743, 0.13670286847617777, -0.5065953174787886, -1.2823516029842235, 1.3458017148043855, 1.7063371245726133, 0.6497340354512863, -0.15470778283840902, -0.6995569895502406, -0.10621599141908389, 0.4825406043712242, -0.6145187896597283, -0.6870459446982528, 1.19124678030478, -0.3926676099322324, 0.33146145791303194, -0.23492611264830565, -1.509901600347792, -1.3403523328059257, -0.3732393352652756, 0.13886713109878515, 0.7289988194678023, -0.8557087905232611, -1.4466924261325396, -1.0743913391778235, -1.120827557023975, 0.8073228914068967, -0.4967782332856193, -0.07927805363701175, 0.4528513784828047, -0.550887960830321, 0.12251860790915091, 1.4767720367978148, -1.2956705037012186, 0.44907063501707845, -1.9123203716426471, -1.0665110111422629, -1.97485592922461, 1.6329582311638873, -2.3972661617753976, 0.5006056483672836, -0.5789926100841665, -0.2845286114086328, 0.9722495236936107, 2.019049388387956, 0.08133087443637937, -0.43451725308240086, -2.2611581414551236, 0.5260232612860629, -0.08394407741858827, 0.08218375202107478, 1.05421855631467, -0.9812549379253714, -0.9334694124678857, 0.08176843875328915, 0.35081964562616486, 0.058528939485536, -0.5631586978899797, -0.2182318727536675, 0.3119707659996205, -0.7422643549850046, -0.196091609890268, 0.9799317267068447, 0.4624334057812793, 0.07185339629119158, 1.212681050878868, 1.711664304538956, 0.5651332777015894, 0.1881724900931274, 0.11744145061457807, 0.957312599955528, -0.13309315206587202, -1.8086732319348653, 0.9276135868161425, -0.10766641163514254, -0.5173797569052845, 1.8120022307007548, 0.7533387374851176, -1.173904500747151, 2.732132380300937, 1.7517699786695167, -0.45441514553670453, 2.107930260748299, -1.1655107105108735, -0.6083269223317923, -0.28703963858800036, 0.7097283724304528, 1.3269967192474423, 0.8906901830872245, 0.9568970019217771, 1.9638647860818559, 1.8322792481795982, 0.12217422899760924, -0.38831948367858854, 0.4766482232556409, 1.632338146436266, -0.365422102917218, 0.5212824142286517, -1.6577790133627908, -1.6369722972666496, -0.07806647596499901, -2.155406075903053, -0.36733081200892026, -0.22661960835881584, 0.9095689439858672, -1.1718686658659299, 0.7438958106934526, 0.3136491437477886, -0.19339389222532802, -0.8407614979129102, -0.9767874534818911, -0.3611951710951696, -0.6153630664502547, -0.4175592949655797, 0.15239190411804046, 0.9184805413761348, -0.5117478884207661, 1.3671035837804393, 0.7994246071096488, 1.6143511239365609, 1.2129548368808263, 1.6371605837287804, 1.035195411923329, -0.6599684222493325, 1.3991009049893273, -0.3477702760097757, -0.152629004383386, 1.9551767442880224, -0.3754758546923073, -0.005977504603374521, -0.09965514492008641, -0.26750512231735474, -1.6649300643858695, 0.76261114217972, -0.8482503112303675, -0.3690455355478768, -0.1960066446391762, 0.06969479534133895, 0.6669090004839271, -1.897296012532199, 0.7719662662059446, -0.1680057632634495, 1.7891384856309995, 0.5002103213616071, 1.473409504807567, -0.9002570029905637, 1.9449846421083496, 0.751367931190677, 1.1245564420917917, 0.8604486572528249, -0.30242203397616885, 0.9837791444901796, 0.9260779871791869, -0.5078102166866724, -0.2064821012603949, 0.543282406762265, 0.6561798010532417, 0.09141758819716189, 0.9758540811899052, 0.5919199426207445, 0.9396945938243774, -0.9898623532426303, -1.371402211200853, -1.6733666936977944, 0.5400842239931258, -0.7273482594451459, -1.0307711890202882, -0.7323006360015171, 1.8764587850698076, -0.1729389722181687, 0.31145595983973734, 1.2549607790330541, 0.14377850852310883, 2.346511473882877, 2.2535696701335723, 0.5408223563170172, 1.7244377088885539, -0.060271105104078335, -0.5155044946105084, -1.268479063422989, -1.3900936705025355, 0.8340539334510743, 1.651276445893281, 0.7471574638619068, -1.5831850417206816, -0.060906408177260785, -0.2677843095044296, -1.5384028428204168, -1.1231807649324292, -1.8468661876278918, -0.448308184388166, -0.22059109154169912, -1.1761003907104908, -1.9076987614180219, 0.8576375023793613, -0.17941138327303097, 0.2575986712286603, 1.0662400713022409, 1.1648057515274486, 1.1340886045182146, 1.413377540517839, 2.286302880728648, 1.2801485635947512, 0.8521987729969251, -0.5702969804656418, 0.057331741289113176, -0.4444280671842753, -0.17996739335997133, -0.030428356367498317, -2.4986236564470046, 0.07432203282955761, -2.018248293941901, -0.28919400568043296, 0.20585604203715974, -0.6543091589662607, -0.22363382438211443, -0.06231832931959945, 0.14852419946856343, -0.6417771518105168, -1.371471832069786, 0.5191790596169061, -0.28739982172799355, -0.38415876493451, 0.7924277846754542, 0.8883151038483161, 0.25049203167141915, 2.2559101065262155, 1.2465431101022035, 1.655782161306818, 0.4117807551177017, -0.17853153306800065, -1.6384057117096156, -2.07643998265599, -1.2015182955180277, -1.7386302419142021, -1.01810532911556, -3.45458417446099, -1.388400635632017, -3.1668455347330786, -1.3960768481321173, -0.5036521456846845, 0.8808177890466476, 0.024162518247544118, 0.2581147967548152, -0.600311663709586, -0.19682233949022734, 1.1854834145402107, 0.5030659093549094, -0.8835602306445602, 0.30782214402037145, 0.3173831204209493, 1.3713508207456508, 1.2660789942721618, 1.7754645423206277, 1.6841719304144034, 2.444061132443528, -1.2858537768093943, -1.6935831528811132, -2.7362159941203195, -1.5631998820548296, -1.098748188023345, -2.335333500160443, -2.0227559553591066, -1.337621533735285, -1.611032554436962, -1.9993941426885393, -0.794809965546299, -0.13238489868873596, 0.10371603811835522, -0.672068623404323, -0.4613622320170979, -0.5651912280327993, -0.1484003419022197, 0.3442772865052891, -0.07264248485994416, -0.35935400844008036, -0.8885607783254295, 1.00879874082348, 0.6830865282301479, 0.45055856047522264, 1.3317547230852924, 0.8400508218153675, -0.9060708748039996, 0.3100743410955657, -2.1490661998663616, -1.785792657386648, -0.7811483977055953, -0.34884583597918606, 0.03490806218732112, 0.27472941775548937, 0.09909636677348681, -1.1867495577849816, -1.4709969312935274, -1.03216524727428, -0.8794932771175971, -0.9752459881930948, 1.3290487911213444, -0.09763367570043248, 0.011066722905732566, -0.959319526475173, 0.734088119491238, -1.8728285203193116, 0.6472129258015673, 0.9867731513814918, 0.31008118672091417, 1.897703104069941, 2.5410940793375913, 0.6519251711006251, 0.7817042418291968, -0.9552090465020316, 0.8935532917314126, -0.7102352587471491, -1.4626449809336233, -2.2972271880152166, -1.1307214230940101, -0.4998302079970189, -0.1261998674649757, 0.8869118089173698, 0.8926843147374717, 0.9729676204740374, 0.6898301282346155, -0.6591491395237999, -0.7790539488570232, 0.3019121128486338, -0.030192225242970456, -1.5454498664738174, -0.9706061790913161, 0.0015844326187779494, 1.2499476707983066, -0.6934306661077062, 0.389272955398506, 1.209899839249481, 0.9351346259475963, 2.633269843713988, -0.43569849199535327, 1.829933871255058, -1.3426242617323294, 1.1877977895532923, -0.5588296206148459, 0.08355545585296759, -1.395685532139101, -1.555704004479241, -1.221685807481713, 0.11411893754676397, 1.137195191050532, -0.9509201671144306, 0.8499854566624154, -0.09921898012113388, -0.24089958691583663, 0.34290002041821704, -0.4054860146411019, -0.5447490787381337, 0.6960190431442912, -0.24666689231808323, -0.34809771579259885, -0.48125356104782635, 0.4460894744509259, 0.23784801409004747, 1.4976791879070168, -0.8758156350993157, 1.6431202472014836, 0.28829782508207563, 1.7709321436065388, -0.4534643996647048, 0.7008944175081562, 0.09086245010072895, 1.0308325461306813, -0.24536201535352048, -1.4093298257499252, -1.5194015908698504, -0.493495170608458, -0.6266454178313009, -0.23011366605975397, -0.21312707930238275, -0.9969498912076186, -0.20781327914769088, -0.19447905525293052, -1.0679018115998375, 0.2964069794638109, 0.09200680759334044, 1.6250664293888009, 0.44335551254282485, -0.12097606633604764, -0.027825273676736977, 0.15003782814563096, -0.2913979258376211, -0.15614334539348249, -1.0892811532961943, 1.7018989554781578, -1.0961290248084166, -1.1275197405667996, 0.5372918657390634, 0.14818893643816272, -1.3376987587415246, 0.6059810613433174, -0.3585470083082821, -3.595483523330435, -0.41909278012744333, -0.8914727060238826, 0.21849036831459523, 0.3784534528763163, 0.059172179328816965, 0.3135597361492035, -0.9167654378615245, -1.0389560686979609, -0.46755304955968974, 0.7021011393345766, -0.5645701791654548, -0.06531094681772665, -0.1076228692093851, 1.2006835272019263, -0.6769984928272209, 2.06593235729392, 0.668441976176473, -1.1174593937729664, 1.0114952245175504, -0.07923426205547689, 0.010495300749231749, 0.40426453803124146, -0.6449402675299263, -0.7663366603173365, -0.251466567714209, 0.16106060398112101, -0.9013831675264631, -0.8838289113723514, -0.03363707737644038, -1.413513800145116, -0.38953151015428417, 0.2640624063334851, -0.42189557816753187, -0.9170625252848633, -1.2663484057333594, 0.51938434844065, -1.0320899219998478, 0.09296732456551726, -0.13311721322474, 0.8040452777765408, -1.144519333537038, -0.5340262360728076, -1.3649934269210933, 2.4767554153452003, -1.6400167573345432, -0.6441883161058463, -0.6198886908137607, 0.11491766371641321, 1.0787572907627325, 0.0031887505130455645, -0.3909114611692045, -0.4388844816065655, -0.6816449637418187, 0.9424972274656106, -0.34802392248846253, -1.0584589378245521, -0.7579838581497649, -0.3212256902052418, 0.09456522202058461, -0.9949709975072423, 0.9004714561249207, -0.5679553865611119, 1.0527805923120614, -0.39992990601164946, 0.40661095018225485, 0.7764671723677437, -1.699630582338883, -0.046898125578816625, -0.09989853162416988, 0.0040926549636422, 1.3546347077312537, -0.6971779441186776, -0.12915083920220258, 0.688136374135795, -0.5831189953815649, 0.2462400192549418, -0.6965752720000551, -0.4999959076709238, 0.23733056122438076, -0.6889653457231498, -1.2086523431100848, -0.07445362626040565, -0.9586737412030679, -0.3128343648667078, 0.06361989953804405, 0.4672680159133622, -0.8423502240856723, -0.2625957949810998, 0.1308825800135648, -0.3804866462440559, -0.5614541225729583, 0.8599744434489974, -2.2678464841985675, 1.434569487139251, 0.673932245848428, -0.8400447237101936, 0.09161204434819774, -2.1379059895096804, 0.4872158665017399, -0.44730502950288425, 1.3976754887890226, 1.5606299121398248, 0.16808671981207904, -0.04644087154947561, 0.5405187519788734, -0.0634117009533048, -1.3349252741091806, 0.46494557770283657, -0.8542181161462123, 0.17761500266837818, 1.0966986059154615, -0.3629365298749101, -1.8161358813676607, 0.8021989941222779, -2.1620918488442586, 0.7884790258318229, -1.9147991181435737, 0.5667195816975789, -1.4532146024009076, -1.269295140002982, -0.2934891484045002, -0.05089501005683299, 0.09250948952546413, 0.5359670493890388, -0.8391416987281086, -1.1055178843624254, -0.6689302292457167, -0.013598821343674013, 0.37127419239197634, -1.379722447818205, 0.07130345909918638, 0.5268714407988299, 0.6714450267736659, -0.15811953654436023, -0.8397889780342231, -0.5747275367383659, -0.9193149874422871, 0.4953836948803476, -0.1291352341981297, -0.3034687060781822, 0.33610832961184706, 0.061181619953805604, 0.027083682166877725, -1.7775453385067501, -0.015776280849077097, -1.3387934682725338, -0.8559317118691248, 1.209344902035372, -0.328716291738233, 0.2751875997989943, -0.36828468466668995, 1.0697569083603216, 2.146146656787753, -2.188814982634686, 0.3616575937037243, 1.0876302132430768, -0.22048951037952302, 1.1592247217284168, 0.08615479894438345, -1.64456068558107, -0.6439205079174269, -0.36738398660439503, -0.49979033003030837, -0.39576263259690886, 0.1781506018963112, -0.26277185015365967, -0.3689161257668946, -0.37456396070319437, 0.20410347052948855, -0.3402381677930387, 0.4568268369339468, 0.20199965621927574, -0.35755834495807626, -0.4782142832621186, 0.6231267265654017, -0.519000343251757, 0.462299884267642, -0.6807454598834912, -0.017155090751560083, 0.21363598380383145, -2.062766078991398, 0.01633354326346093, 0.24799359615451688, -1.3438098587453713, -2.151732714643089, -1.1431374277306978, 3.0678144846026725, 0.9283740036174845, -0.691561729853818, 0.23697575591190836, 0.09858013510999691, 0.32033580841935155, 0.6697106947661643, -0.26580922198514206, 1.3890772035818648, 0.26522342593706616, -1.4198197018793768, 0.7567311582241579, -1.1957304820245929, 1.1918523825339464, 0.6157613597069098, -0.0800886966783609, -2.2828682769538107, -0.5648717595051926, -0.6146012812152711, 0.19326405042095007, 0.3873424986248119, 1.017665064039261, -0.3470201650193588, 0.4118845215718552, -1.106348267226092, 0.0331592707198416, 0.6761307496474251, -0.20396873820562722, -0.957415418371761, 0.6757815792216959, 0.18072676758537135, -2.0012673875571383, -0.11208749228531337, -0.4786536265959214, -0.36829301635397255, 0.6574908246567928, -1.5606425020858157, 0.5510499023626103, 0.19435077088121863, -1.19625680578932, -0.8356798765209633, -0.5850781817005484, -0.3917719546678553, -0.1319977845443499, 0.9840390040053323, 0.4658596160937338, -0.7945775721661494, -1.2622370193141013, 1.2736822846533589, -0.9461466405514767, 0.046601966316260034, 1.6929117795253026, -0.5489825252631977, -0.425742032544478, -0.5561324776456861, 0.3210296737519044, 1.2682602209377674, -0.5542222607844454, 0.6883370761950413, -0.07894409429969389, -1.8079241498430116, 0.13593054487570186, -0.5498181424220184, -0.9023612814949838, 0.5817344087036664, -0.5236317862734511, 0.7512175267686196, -0.602658289697537, 0.22387516087550943, 0.2513744346947537, -0.8027716425518208, 0.4895274146324001, 0.6433434874721786, -0.6434071110872523, 1.238274474994896, 0.5713246386667983, 1.4694257122455774, -0.35687681616250344, 0.03341314610643386, 1.296663449991005, -0.543448441315483, 0.4091378645134639, -0.002491244149099765, -1.1719726729782605, -1.1946285227153084, -0.2697218354360158, -0.8885926740709295, 0.0048944850713035235, 0.012410411047039839, -1.3157534450056187, -0.009485405653105919, 0.6392642384156842, 0.2487791742373891, -0.32575142092051196, -0.1428579175666789, -0.6787031888293353, 0.7214606310594059, -0.1062393233074851, 0.5079722610483866, -0.35286878643265185, -0.06238860257628655, 0.081006802340676, 0.8014751351241385, 2.258778921633252, -1.002449203834971, 0.7026684267038773, -0.619356918019414, -1.269914856390126, 0.21742327019696422, 0.13322353514115115, -0.3268573751507193, 1.3744259884501677, -0.5905883154865517, -1.0598752256718387, 0.08227198422687738, -0.4997605419166371, -1.0951984589411352, 0.7384295060700389, 0.020342989039961526, -0.6341379314584127, -0.2230416659637012, -1.039148722543721, 0.4125429978493297, -0.5047017858770291, 0.40257522857661504, 0.7963748019186054, 0.06749074533852059, 1.6159190227754667, 1.212080869783197, -0.2425776400399642, -0.17961664406244487, 1.4755787622026804, -0.6187819685921292, -0.5108972980486077, 0.9843675469520903, -0.5696257254678512, 0.42184960744038735, -0.05557167380831385, -0.8829786803876467, -2.189961439639245, 1.0653523021685747, -0.1306097725380283, 0.05533232050883082, -0.189504246130835, -1.3846379642045188, 2.936885347430455, -0.010442808512449768, 2.191732677598364, 0.7261312875418215, -0.4896679369269553, -1.4793643122763696, -0.04469748391925844, -0.8761778917815218, 0.8930119270345472, -0.22065876651382654, 0.6504881453570438, -0.38987852704331016, 0.7868580246222553, 1.0694187694343067, -0.536246939589221, -0.24460525731532515, -0.42750663146533147, -0.455550161122629, -0.6014860119489512, 0.7339187954126805, -1.3914256619762824, 0.5215903430274744, -0.5626297059014113, -0.2601860180434848, -0.35427210898137174, 0.2871791881405464, -1.3310458185949814, -1.3001783403251999, -0.9339582799772673, 0.3636210732122306, 0.005433834125052355, 0.7223300634880819, -0.7731223140656349, 0.40795436302694027, -0.6485621484554848, 0.8055317717808715, -1.7905857921125745, -0.7415067644461597, 0.32762350541622387, -1.3679259053854884, 0.6523639443361271, 1.054476949249394, -2.4457771431804014, 2.1007359761356037, -1.086355128973108, 1.703188072281985, 0.4812979234365285, 0.004323410163447399], [-0.3626683591166077, -1.0327258282640577, 1.5287419393682637, 1.2756546151201, -0.8499981699492903, -0.0480744152866587, -0.7434265262277163, -0.25334725646591155, -0.9450435590875778, -0.9134104942601978, -1.2139331563841154, 1.0774924129961103, 0.7539526591685144, -0.29574328705768366, 1.2238655541421934, -1.0504177693770456, -0.023291604050677407, 2.96991358963439, 0.2299296464147244, 0.58856364913088, -1.544864038423378, -0.1116802756260621, 0.5324425620807769, -2.33185561949146, -0.6160427365474771, 0.5621809680104279, -1.1512033813251636, -0.43489388750638236, -0.6651233848983504, 0.30868185098127743, 0.7424136109900153, -0.12688796390941123, 0.45257279820729496, 1.6157144877443061, 0.8922711429652341, -0.9323074696113351, -1.1687663115090838, 0.6521379006605262, 0.7442662043404039, -0.12487420657609039, 1.6769451621758102, -0.1233385699037134, 1.7284160807268354, -0.3962242011317497, -1.4066770378422138, 1.724879175470689, 1.1641128260561835, -0.9038594682118801, -0.0430167803128865, 0.4569571462042158, 1.727377058694043, 0.4784631219729207, 0.15552759879325823, 0.07742559482340713, -0.22128603186372836, -0.21700281622913523, 1.100463954905427, 0.6041263952461052, 0.0993055366993553, 