{"sizes": [784, 20, 10], "num_layers": 3, "biases": [[[-0.776659637327367], [-0.9258591700436434], [-0.12521764024649248], [-0.9055396524674297], [-0.13281208124360153], [-0.34388830200336606], [-0.7776928255663729], [-1.1752264154512164], [0.9653676998537264], [0.5800599325747668], [0.27774250776209347], [-1.4154437755160307], [1.092507822621649], [-0.017843643110485873], [0.4432751817501128], [-0.36690050525340784], [1.1846903148403924], [0.2822283870133279], [0.8893729474496122], [0.8807791969139177]], [[1.4022218325049647], [0.6883992720481802], [-0.22690690811225514], [-1.6636533320821312], [0.2667403531945525], [0.48248196537726057], [0.41320289394495774], [-1.2114703425239322], [1.127977229632711], [-0.9319132547225997]]], "weights": [[[1.3406066832531183, -0.40042719787933184, -0.3599426889054627, -0.8299999601125442, 1.4675239119648134, 0.03231678804438139, 0.04717893507282403, -0.4220828620734482, -0.6601910037725146, 1.1690949228608698, 1.085893097210468, -1.060672777069796, -0.43493598925300136, 0.3150778519325448, -0.18982794608837, 0.4083912141413993, -0.856879794941136, 0.8448060618029404, 0.784758965744083, 0.8189319914204621, -3.0400476705099093, 0.37530726042641493, -0.6706713489008881, -0.6042296476698756, -0.35334904115743265, 0.48405436167754773, -0.38580203190401, 0.09436322476452029, 0.3292158859695053, 2.3829088156730625, 0.4256273327932821, -0.6381478600260991, 2.8933659957209135, 0.755485869099456, -1.8259163363631863, 1.5962444320062434, -0.8053437584551814, -0.3549754519758041, 1.029908358644453, -0.014375826642941028, 0.40468969687846734, 0.8874481902058723, -1.0063364894792792, -1.0195463567573952, 0.0516798247993007, 1.3645780186278769, 0.0055607042700394575, -0.7474721466716466, -1.262878135444207, -0.6118542228014073, 0.26289883849950646, 0.40438416413057393, 1.759593393561154, 1.3422809518907062, 0.22375869687991587, -0.448685465925775, -1.1781245024425366, 0.783963840210634, 1.292064608143987, 1.1499318034665802, -0.6200950173041415, -0.9396911856752331, -1.693559541941886, -0.20574362991124295, -0.2760076783751358, -0.7856306476374784, 0.25514885199507226, -1.2064382414080752, -0.1674522256901144, 0.8472454239689501, 0.4194760519283523, -0.7881305663818335, -0.7273864221334615, -0.5048810882405457, -0.6401674945890218, -0.17514280357795262, 0.01769962728788183, 1.1244004559502292, 1.1814637973642257, 1.2185644472576471, 1.3631536630403005, -0.6714180331256956, -1.303727901305187, -0.2765146688100222, 1.344891325398532, -1.2522534083974477, -0.7948668759537924, 1.061354928660936, -0.13751351901990227, 1.1187043409986015, 0.11986144553831328, 2.0047638617738985, 1.3222329752444468, -0.6490856572611126, 0.897701625347208, -0.5529307540961569, 0.6889962041824119, -1.583319023751863, 1.3011254322011667, -1.6806808661457953, 2.105936277014661, 0.40526835340406037, -0.9293616639083655, -1.130921061160818, 0.5058155240390226, 1.6718507306253827, 0.5632883872161603, 1.3165896357539812, -0.5615576050975868, -0.2401708274388098, 1.5026810810857814, 1.5314378768605044, 1.0137172661162783, 0.6371287391811868, -0.009728306889178832, 0.6377934726408997, 1.817705977157361, -1.3868546131698618, 1.5239620028681227, 0.006007708329302888, 0.5472129419404393, -0.3579229718029176, -0.7424316606084448, -0.9732724297221647, 0.26564848802740704, -1.1878826596180843, 0.2822262251342885, 0.1578088620664278, 0.16613764662938507, -0.29620088555527047, -1.5685013280843232, 3.1773057700076053, -0.3840305808699723, 1.2336683938448867, 0.14405724487807178, -1.2253362465298683, -2.098203696732651, 1.025526716068936, -0.6301573273024896, -1.264645496255224, 0.0634517601902073, 0.4327971181074446, 0.9217799328058994, 0.9117323276596659, 1.1684869515251386, 0.06063145189361336, 0.04377435337276887, 1.6805994501416222, 0.3155966167845724, -2.18758540955085, 0.37508788809656135, 1.5070704096163527, -0.4508410903234019, -2.12031684786226, 0.9977072631301812, 0.403164758037826, -0.4379660414217025, -1.7157853513588222, 1.2718153400984726, 1.6728779362326298, -0.46544897240517935, -1.553060374569398, -1.162524670820721, -2.114614780207311, -1.242129377979674, 1.380250127565482, -1.7610679292752478, -0.46351261029444685, -1.7016006836932394, -1.0854079335425664, -0.3372950359040353, -0.9387225727926259, 2.207067114679161, -0.15366717960308748, 2.148543301952444, -2.1117105650011343, -1.2429002130387377, -0.37417745116311263, -1.6704231748157918, -2.0515930184889815, 1.9649766031025209, 0.9323592111205345, 0.1407862846358725, -0.12025598650293466, -0.14405458840414292, -0.6721575074107302, 0.9233116753022684, 1.3992580773258958, 0.8055034618492085, 0.5317112177430061, 0.01651913754520753, 0.45096893975887387, 0.7646450585314539, -0.08126950950847457, 1.5606052630398835, -0.14536814912934706, 0.6296341482904848, 0.429818520916702, -0.3287614485606186, -0.8949584742605905, -0.05727020332416047, 0.3941841486840915, 1.840787314258411, 1.2541933927795856, -2.2733877611777733, -0.2409892441309006, 0.3383825699607091, -2.1267075676915494, -1.7062998881700064, -1.8100698864673563, 0.9087782310919245, -0.4495427056089458, -0.10391367480578179, -1.9765046880032648, 0.519597617562767, -0.34959413869365746, -0.7236768245987659, 0.8263663281668472, 0.5720613496146891, -0.16698787747371574, -0.24194518689504466, -0.6220092212128892, -0.8563798575096415, -0.3709090708164987, 0.269933616460217, 2.520378147045616, 0.009662530862836404, -0.7038948731865262, 0.5949421856106283, -0.6046770461700002, -1.250643253694805, -0.7775180599033867, 2.9693859335216537, 0.21199380631277856, 0.9624604574359445, 0.5848428142776887, 0.07381109925252564, 0.6949992424418249, 1.572522544000062, 0.04222028086229944, 0.5705491895569315, 0.3462671724993521, 0.3146426176496674, 0.36845232820326396, -1.2580614044459857, 0.26869364758036113, -1.051928303895685, 1.4118769646256017, 2.411761206870585, 0.2434293657599968, 0.6588726144093092, -0.9600679726306456, 0.6227641212134586, -1.2848278092555994, -0.7328890534275122, -0.45224872952970735, 1.1903316322770296, 0.729612292671777, 0.274994606551923, 1.518281336352188, -0.18920093177240774, 0.3924892648500656, 0.413992414352438, 0.7513241690785086, -2.553513917813881, -1.3163676861574067, 0.8224090713826524, -0.5609259450236862, -1.0167561214488, 0.7656907128676652, -0.7209303322138974, -1.5859121385984796, -0.5956118368973901, -0.5429927008771853, 1.5706431977802005, 0.14500766341799382, -0.5159238855769759, -0.23226193519119706, -0.7334473691377372, 2.501037863630882, -0.8044308547896911, -1.6527128283773964, -1.0975091282255174, -0.4304201184970847, 0.17634967782942393, -0.9820793539687567, -0.9029790084408986, -0.8519558064198397, -0.003681208175736899, 1.0351396893744855, -1.6542517687417246, 0.7431920339193782, 0.22906666981582574, -0.6806294083746164, 0.3743764990380954, 0.04512268811184086, 0.7504821383341178, 1.3229888357310482, -0.01455717385222005, -0.7894518271807456, -0.4858893134461292, 2.2395293564614582, 0.4846083088529217, -1.3228169859045165, 1.015459203255415, 1.9861288148731857, -0.9250007087513876, 0.6492011639463716, -0.40713868544598336, 1.6743373644688853, 0.38544601549487195, 1.2344718649604787, 0.5665357690995486, 0.5487817010911197, -1.0966008897078265, 0.47976162553683316, 0.4712633221459813, 0.43017858294791045, 0.3634323002148884, -0.07696701325467831, 0.5414255572295533, 0.7172821542864053, -0.7488792079929214, 0.24992057120352193, 0.0030288723439154397, -0.37219756634848966, -0.24165883652009684, -0.9944562283192617, 0.2865505821476334, -0.19105885160456865, -1.4859381538776615, -2.1104180498476177, -0.3455594895030621, 1.25289772313566, 0.5046809349541065, 0.0186678495346721, 0.8211897410192819, -1.2187856013301843, -1.71076437965419, -0.15963595021588803, -0.2081788013930155, 0.10745827216582249, 0.32660865821148877, -0.6734445750648886, -0.5090636898334522, 0.013473862077990345, -0.7468331399309793, 0.21609262179463282, 0.11766745150991977, -0.838618270654945, -1.5977977722466965, -2.8712004011519734, 0.18271200864315132, -0.5231711096806634, -0.738175012042385, 1.2635110525486626, -2.021695711555317, 2.330411599004838, -0.4948095802568041, 1.0913375209713905, 1.4654976610443011, -1.3319367551084857, -1.0607950925173477, 0.33625425308917656, 0.8487917719780905, -0.6874319786781341, -0.37864716220096045, 0.35097136627749337, 0.5909418761739669, -0.47374144104356236, -0.6141574775632171, 0.7260521051755092, -1.874609230879465, -0.5164078592056736, 0.5904670133283466, -0.8827301777511338, 0.21613408487725597, -0.3897172926315462, -1.0649394327921133, -0.10897474086961194, -0.09668154812314012, 0.09977416050222611, 1.5210371117685781, 0.5621491874432579, -0.5152572769907467, -2.0488018577899694, 0.08286221550497105, 0.5607328339685833, 1.4487103369475756, -0.11329222258496756, -1.0485712871994222, 0.6828472239502675, -0.7780953827160118, -0.9703864886964051, 0.08259827126541, -0.39309837189761104, 1.2590955441244502, 1.1689197306946686, 1.3551587403720857, -0.6065379199142377, -0.6143082793394093, -0.9447924791645502, 2.6829156244448527, 2.9915898383690642, -1.446156261601358, -1.5363545441315472, -0.617044443009838, -0.16590396761444162, 0.17857281313404091, -1.3202862262253627, -1.4025928576803623, 0.1764870687522114, 0.6956153944577741, 1.8486217803681553, -0.2647292938062524, -0.8473252122038769, -1.9301765983334267, -1.516000484343046, -0.9714749498225358, 0.6591561760974785, -0.5019485826217491, 1.2490846765072665, -0.7549945553778091, -2.763407143620081, -1.5425147149360565, -0.007841087257227932, -0.1710817457860738, -1.8457312738113956, 0.45710600372105736, -0.15310367508999803, 0.44584956111663754, 0.02914518020669741, -0.6107871408860088, -0.5804542654184854, 0.8776184578575573, 0.7993137244820344, -0.04527281906143959, 0.759633902396197, 1.051662497878617, 1.5422490453491826, -0.2361690642359224, -0.7327219543544391, 0.41024157726223265, 0.6114764894433867, 0.5753131056134339, 1.695771016434497, 0.19031496037185244, 0.1117993777568192, -0.23112310889951465, 0.4012680276631604, 0.4681017109543721, -0.08760422266831629, 0.6517857910235908, -0.20312650116481357, 0.1649756997643083, 0.8056306277956553, 2.459573847718593, -1.354421429401008, 1.004390447073485, -0.6825365398444722, 1.305724407490032, 0.006217640161024699, -1.415611127439316, -0.12677750945672728, -0.701030997909958, 1.732607429898314, -0.48190841781941113, 0.13253484474230887, -2.320215179396525, -0.41766671188809196, 1.7339181342423295, 0.1446787160597985, -0.45410315928327194, 1.1181949431312916, 2.20488158579212, 0.3217320029604807, -1.1926485866146694, 0.5767506581688966, 0.7179117508337227, -0.2518111061477173, 0.832959608682575, 0.5219877642441154, 1.7651680121058766, -0.9943258019884711, -0.5265726963430227, 0.6630213592174864, 0.3400389327946975, -1.1850960072591592, 2.4091107253694912, 1.2423643699031235, -1.2543388155692947, 0.9147757798891326, -0.1616292003422312, -0.25685175501369506, 1.8360539571653938, 1.5606630306316935, 0.1348024958450506, 1.6938516279561169, -1.3728670526593607, -0.2291209648048965, 0.0943936225552232, -0.4374381560159076, 0.29961478862895496, -0.06721520191093583, -2.380198091362535, 0.7788347398552524, -0.17965412273186465, 0.2752055753872612, -0.5948404917313737, 0.12852836728393485, -0.006218195308868864, -0.5807350781932892, -0.7098715698682819, -0.008551663967061182, 0.9587287754001211, -0.3444903930644126, 1.0676297429162378, 1.5534910548279377, 0.5854573902396265, -1.80739396000143, -1.0517298620094706, -1.247397170567835, -0.1336532427152524, 0.7693733982048458, -0.25160548168668295, -0.5706501079598764, 0.13680644272163398, -0.2772564601234546, -0.3236239051746188, -0.7507127571819592, -1.2672057218886303, 0.9993950230042506, 0.8842050976751223, -0.14939481202317353, 1.1866998545349239, -0.6867506499923608, -0.02467398959805354, 0.4037940816375641, 1.6453464800774322, -1.4838714744401174, 1.375847161526042, -0.7319565951769221, -1.4310033159961182, 0.23085972741572017, 1.272705298419347, -0.8274762968392549, 0.3589693366570609, -0.004816552557904634, -1.2534501013618728, 2.2362332179885707, 1.6195049052436892, -0.4552535581096178, 0.04433081045043637, 0.9726537182884754, -0.3746482345205061, 1.6738414595232194, 0.16242131615811373, 0.7494447057614604, -0.404455871514927, 1.5879036405099842, -1.3321704974505328, -1.2156542396337577, -2.143791157541885, -0.007429038158306322, 1.1817334634834384, -1.0071836825421652, -0.6630414404524773, -0.44384598889783644, -1.5230793945442802, 0.14471717553354876, 1.6491173672474606, 0.2065704858669908, 0.8654266759190552, -1.4261009959873816, 2.0739017454013062, 1.1499537017955859, 1.4790144807565395, 0.9726152041967924, 0.9993737304675981, 0.2490599271314814, 1.7678243600737629, 1.3693260473623494, 0.5117729251339413, 0.45492363486116283, 0.5206550779434735, -1.497293833820592, -0.801744271624744, 0.1696034059382941, 0.11759358307546285, 1.0823726170639254, 0.01173337583677558, 0.18763104935267447, 1.350520761409535, -0.40204732957528516, -0.5584892375304243, -0.2902885620505874, 0.1698678609325794, -0.9326947004289643, -0.9195327929378254, 0.03030532447015914, -1.9086615380714522, 0.036012637243451426, 1.7565692071368855, 0.9465338314948117, 0.08705192956717216, 0.19970490441199973, -0.969105056971056, 0.8792424724312555, -0.802303129200036, -1.4050975661094047, -0.5007179735419275, 0.8944690359260532, 0.18052343856357744, -0.7036974162499838, 0.03559823623390031, -1.2902598506741194, 1.6538996938686887, -0.06431227897955111, 1.592220743635206, -0.11810055985869505, 1.7167809406487613, -0.506934247430105, -0.07166753534570731, 1.4440931464389137, 0.8006181393805126, 0.7439839107776017, 1.3013088057167987, -0.32882909496657464, 0.8490095285775242, 0.04775736987124904, -0.6202009247013628, 0.46315551853522524, -1.010226996967669, 0.29827198980393993, 1.6884133968522248, 0.29602473911848604, 0.06144348474443804, -0.8531551352203423, -1.6300149389586387, 0.30870927018345506, 0.5440095044632095, 0.49709900085246533, 1.600218677902335, -0.762583575032878, -0.5303512848954042, -1.262013832246215, -0.41152292532444723, -0.5008682701718951, -0.07125473826849346, 0.3006849678680313, 1.4621242417957232, -0.3161479994884913, -0.2712299068915977, 2.8710155732461717, 0.5606445953780455, 0.2809275951105703, 0.6234860965183348, 0.7846115732227116, -1.6734185937486508, 0.358105045855289, -0.2643609197083956, -0.6371448463622849, 0.7315575465309042, 0.8133564465409739, 0.6633475800163222, -0.41589264445718344, -0.005989574888506945, -0.26364428716571514, -0.37263759194899543, 0.057432109847114804, 0.05542902571099398, 1.8678532977507614, 0.20202681724001706, 0.4666838975897372, -0.35055735910807123, 0.5741887816025008, 0.42686227070149807, -0.7117391885819281, 1.0364974033445762, -0.27493754485751626, -0.5859963824714641, 1.1153843101803653, 1.2444235272318627, -0.2608217630373267, 0.0160422275419868, 0.5315336537710579, -0.22424220238804618, -0.5010488473113878, -0.6473361448433597, 0.13236897200768724, -1.3552788889861938, 0.33527978837427314, 0.5816461899205982, -0.7699830339755117, 1.7209750612547294, 1.1008878220933798, 0.29431269558167017, 0.6484105325028583, 0.30124020833633997, 1.2934172289855577, -0.23999272190494966, -0.7967604021727857, -0.40959527049610217, 0.00029241781268444237, -1.324847540012737, 1.3021079801152413, 0.5096527202413389, 1.4419275086874979, 1.045421527533846, -1.0229459326830057, -1.0022342254892351, 0.5621016879763615, 0.7407550266744797, -0.3205380813788997, 0.5018843667514249, 0.042228645621348454, -0.38393874084151636, 1.4092318128049879, 1.2146262380159003, 1.6367190881507119, 0.05200847960483214, 1.2237372278660967, -0.44111324591738016, -0.5871710349235799, -0.7929076498331454, 0.09507479731998271, 1.720750311727532, 0.345709774873378, 1.8263242358150582, -0.5176125273320932, -2.281787958650457, -0.0665543437857832, 0.9760877863298053, -2.433063612384823, -1.5706947932885402, 0.16224554990664586, 0.8554541811163677, -0.6915834309464017, -0.8143778837900043, 0.11335404725903715, -1.122996581526808, -0.09223311160728927, 0.6069013837978953, 0.5996343210774051, -0.24932674597246224, -0.3125106542844146, -0.7467254934730593, -0.7584280501176561, 0.5001077229882737, -1.1174675073566704, 0.2848961227181698, 1.0322014797878094, -1.6910951116514206, 0.4802888462228318, 1.0338760278513845, 0.5299682069836097, 0.048009424644511814, 0.2533517953342699, -0.09980642360961539, -0.5556690717790472, -3.4450251111775874, 1.0711479889473412, 1.0140575399648686, -0.07202319674707305, 2.5716270030049837, 0.5301676071360653, -1.0666538001128962, 0.8082058492950267, -1.6525355948073885, 1.0408513377525626, 0.36274645559333313, 0.777317534039593, 0.04940214678234996, -0.5940091131999679, -1.0622861804067487, 2.344317554581491, 0.49424125229154536, -0.28915318529585926, -0.7211228667370326, -0.8024261092124005, 0.6524007799874597, -0.5343063117260127, 0.43363622021458215, -1.044239047081453], [0.5167241198984099, 0.8514434641334325, 0.9809310926741651, 0.8167764179395666, -0.4180119374527261, 0.5318066118551087, -0.29072663058765463, -0.11437869097969217, -1.033323473664002, 0.46032353761801725, 0.25031268521967537, 0.4518676597983729, -0.3369701480663847, 0.5399034620187253, 0.013457003662754957, -2.1867166252523593, -0.1864761993388451, 0.6813854112205943, 0.16491095613658102, -1.0074563567997148, 0.2779976960517477, -0.1679252171739725, 1.704414605853298, 0.4243276607609107, -0.9215082587421025, 0.190259753594767, -0.33828388669801923, 1.9323191289688624, 1.0625696578792243, -0.20922742174088046, -0.3121919983814357, 2.662748496214785, -1.6574839279168967, 0.5696943232642434, -0.5790471130713248, -1.8483659424483059, -0.7080230087898823, -0.8538542727853268, 1.1997710435542837, -0.9919786293509141, -1.942047750787226, 1.3931669396884705, -0.502256203966836, -0.42898929150511306, -0.8690521019589996, 1.4206585108317997, 0.6602236608537316, -0.49313632092247606, -0.43887492444118725, -0.6152078651596895, -0.5376335880047015, -0.44919050167982466, 1.4060190364209932, 0.844306194289296, -0.34381748184475225, -1.1122287793177899, 0.49231133755292467, -0.5602158585498529, -0.33752746371507497, -1.296955229834476, -1.4553687095546464, 1.5868015490022116, 0.40539139676026387, -1.2072732532260226, -0.13486054973766903, 0.49829415777921393, 0.06618595116773208, 0.13941422453498672, -0.7436748328660521, 1.1951508532275554, 0.4467375656146511, -0.2934119329064346, 1.5012505781414078, 1.5361977810157819, -0.4277719362098864, -0.4509071088493998, 0.8846679791398371, 0.6056001195555589, 0.9614899810893751, 0.6145415701844232, 0.5284975723731861, 0.35993017336610217, 0.48531057225159846, -0.5857007352295849, 0.3889844049223642, 1.0673550234217266, 1.2930235858833163, -0.7047208091733482, -1.0611951912034465, -0.39053525198409283, -0.8032682132626326, 1.26986461115986, -0.5463581339062351, -1.6524503649744164, -0.1340880403782665, -0.4725457064443851, -0.8536213137000556, -2.1200435970262985, -0.5626788410868516, 1.0271943411133302, -1.6323455499806145, 0.20287046270557, -0.27414755238897487, -0.2900941806864945, 1.1323832198752324, -0.6010974560472879, -1.1785727767714567, -0.42733733466684853, 0.8026599572236692, 1.5078198051339031, -0.4248182581462444, -0.7942853646959421, -2.0305969379153948, 0.8697917698380677, 1.652158080127326, 0.09934111820648045, 0.9419934187876928, -2.251794133488146, -0.5570012440842776, -0.9258509407775115, 0.3236556610510732, -1.4548777789290623, 1.94274752467728, -1.192619145668079, 0.39467257937059025, 0.42058127557522235, 0.3485236158677425, -1.719714432689518, -0.9987031655397322, -0.5714460957452523, 1.2429415132007324, -0.41796503487792175, -0.02244231009108658, -0.10991229156432858, -0.014340403714273014, 0.9729066248500529, 0.9481194914227422, 0.39135806589241784, 0.881423013022, 0.23250865040943436, -0.3838011707490743, 0.6425769750991955, 0.5493693425325976, -1.2578894721324605, 1.4838506068950317, -0.22700121604027074, 0.8671987189867036, -1.6800523573016877, 0.13526139514860228, -0.948458836828926, -0.8611297457112003, -1.121707445261967, -0.4877454546036925, 1.664190586178376, -0.7781969650350095, -0.9664379625537602, -1.0621110984681648, 0.39901320222461445, 0.1408705087220074, 1.712644235235883, 0.7786302055577816, -0.054743627703024274, -0.0472470830174271, -0.9935949679891616, 0.785143966899805, 1.3352499416820518, -1.2533341104443196, -0.6991082668897006, 0.4327532764835127, -0.1930964084309079, -0.36512875057546956, -0.4407632047874324, 0.704549000753688, 0.12383046980041279, 0.08460052135121114, -0.6595168758519078, 0.1766852383088077, -1.031276871722719, 0.24767533111738485, 1.4252053454584621, 0.1635548724434028, -0.39628331363779157, -3.2336668902327648, -2.957663013395225, -0.22947235252592663, 0.5611470604292075, -1.8357638971203951, -1.5613988512116643, 0.44262450177150575, -0.09662508561000016, 0.5252002154736547, 0.4875726649962177, -0.9235701402059833, -0.1041789732001658, -0.4436165414124969, 1.3791842102937848, 1.809351770045679, -0.9398418922168723, 0.6389988775711598, 0.25988858507317614, 1.059045468871804, -0.1911174677214426, -1.1437375650773336, 0.4146549570537386, 0.45437515736479156, 0.7464034247783524, 0.987794005406346, -0.9635586546475853, 1.1878354449642858, 0.18561309872670637, 0.20462651513322444, -0.24819244889003164, -0.3452216964913623, 1.416938024146323, 0.8453460167627735, 0.00720049856996306, 0.22131582843018036, -1.4328881438011618, 1.1905100817825902, 2.21600743070534, -0.5470634297070308, 0.5956324522562417, 0.04790442258726309, -0.10953616858472476, -0.8718148985520251, 1.3181934263483401, -0.3328341172053765, 0.5511696010464543, 1.1765562910552498, -0.31020021584798424, -0.8377075912311726, -0.3171086531041134, -1.8111047693544824, -0.19845114594372207, -0.036790352682972975, 1.8294307765668258, -2.759257509061242, 1.0681995104026056, 0.7823988676298016, 0.7189167381504599, 0.9489259621644631, 0.26799600070872326, 0.10660354768251924, -1.8996894371206194, -0.01598403682909499, -1.8762624638829908, -1.7978071386359302, 1.7146878127199878, -1.1037993228845069, -2.575620343644148, -0.9441661922348894, -0.17145589515872003, -0.34968333057935974, -0.9785625601180417, -0.13633617222752129, -1.2235257853043358, -0.14831955507646793, 0.33146502619919954, 0.5332640479349972, 0.371568582206909, -0.3357306824167882, 0.19017048301534162, -1.330838107673329, 0.43794392153337103, 0.990449641956543, -1.645744856425921, -1.6280890913926422, -1.2242236144577294, 1.0207364550165443, 0.7742514232601948, 2.59635329349341, 0.3611753612932881, -2.67276131724136, -0.5773672923072203, 2.087393120852207, -0.48279523479511494, 0.9344430807206858, -0.2797655381801691, 0.9196130684016876, 2.109408311617347, -0.6533465192672565, 1.8142631311079869, -0.5220747317779671, 0.9510023281675851, -0.652241794412342, 1.328075630042688, 2.159236883357855, 0.2709929883519378, 1.3976823052659655, 0.5026467281470979, 1.6944470212607847, 0.470080716398737, 0.38773937841354994, -0.08510718984773989, 0.09922756889401696, 0.20035393274685107, 0.8812755753486315, -0.42601506454971005, 0.287831256134665, 0.003133429662806682, 0.7404252886600202, -0.8724113022685439, -1.503191922349817, 1.0746143541683486, 0.43697318532064067, -0.24287278643090388, -0.03821169624346802, -0.15400169002578779, 1.5531433606043956, -0.20768139379226772, 0.21208564041401723, 1.6457826521861294, 0.3074569580558146, 0.15837803988733565, -0.13968873236523552, -0.06973366454278766, -0.8892584414254955, -1.2996475524204671, -0.2465199042962775, 2.6739677635412846, -0.408611270828942, 1.8434168879854294, -0.6623685860055982, -0.3980717587005122, -0.7186601513711439, 1.3596723837150564, 0.31816686056951493, -1.3519429697696346, 1.109565516399723, 0.5823341482068912, -2.351322207310835, -0.058422125596236905, -1.2764121363080714, 0.8074065608846795, 1.0489375629357918, -0.8810299120020298, -0.051767113032214734, 0.19644436689904868, -1.4309487073070806, -1.5147755070520805, -0.4502204718032464, 1.4535121921342096, 1.68409981545588, 0.5597514728125961, 0.2759089324998719, -1.3744646698871752, 0.08100630443306883, -0.8803714215489853, -1.5872048137284642, 0.2091054017675645, 0.7005334239401148, -0.9088959972173325, 0.7923657539352312, -2.125748699188383, 1.2871370661140384, 0.8660251696890263, -0.09692450452562085, 1.5623630946577869, -0.1485525031537906, -1.4716588355007592, -0.4477501595414854, 0.8577182217985345, -1.6850034946404298, 1.2943074547412339, -0.6772789606834142, -1.3250842574460993, 0.5156869907259083, 1.5952395401536015, -1.318664629527323, 1.2247879954495484, 1.2330110599380006, -1.7159392865158687, 1.6287231094293995, -1.3434054058654, 0.5569828207747625, -0.3599040325644602, -0.4923598100856833, 0.08328647920194683, 0.24670846237419236, -0.4955763861162866, 0.3831963936322915, -0.15288733677675148, -0.024108865973409114, -0.24776493899885232, 0.2964742311137053, 0.670250365380897, -0.9844475614586677, 0.1306200215320968, 1.3756402129743555, -0.8437554227704674, -0.9330213556344165, -1.4689377501619616, 0.72910807796109, 0.20664346448967766, -0.192279482464788, 0.9409204118953487, 0.5842812709174144, -0.3658640736149187, 0.30512519934356624, -0.3623794208253709, -0.28499233145847835, -0.6322351018254498, 1.679328614532827, 0.3376467392145262, 1.2456234556262369, 0.008896963854731621, 0.34406377498025564, -2.629954972435325, -1.3858751693792368, 1.3026517247869367, -0.22474503518503872, -0.8280043455629053, -1.2076736950108142, 0.18864470138860542, -0.6191424395187903, -2.737392991649515, 0.18563587233103218, -1.5108124721418295, 1.1395437952636391, 0.5788121068096642, 1.2660439517045106, -1.1789070609312056, -0.09946165991946512, -0.6831073648316388, -0.12824027359513235, -0.13411738973615397, -0.6102488000469971, -0.43022557932494904, 0.684128590563087, -0.9279301862933581, 1.115394681461396, -0.004122746134735526, -0.5254372659771995, 0.8082187729209149, -0.7980653228291944, -2.3077357246719, 1.2983739865446833, 0.3453273590654158, -0.7535481766054608, 0.8508729117823687, -1.0800629860699267, -0.616457562149162, -1.7551666546198132, 0.6138602735094878, -0.3217778748394248, 1.4488295894939174, -0.27943386417132554, -1.3883277360350006, -1.7543828789784923, 1.4178762429864595, 0.25634483160075683, 0.772859235280962, -0.8663036026224095, 0.7001521490894963, 1.7101648373117198, -1.0743727862251433, 1.2939223243923792, 0.4664009015815842, 0.602212263717023, 0.10755549288775584, 0.5693925267339042, 0.916500313471505, -2.623488544368568, -0.2254069753612022, 0.44611894570967703, -0.7498302097120944, 1.4703267097107195, 0.07200163244915989, 0.5746028078275969, -0.5360645029888158, -0.42048926725674657, 1.1766906237041328, 2.2184250907695997, -1.2857169266405195, 1.233663644555548, 2.676625616622858, 0.10313542045431749, -0.03802579834869122, -0.23676970033218936, 0.8599567491330697, 0.4497686915982542, 0.6812633440311396, 0.09272599048974628, -0.557888666373418, -2.936086577540418, -0.9336705481411539, 1.3007465275142711, -1.5652849316281827, 1.350399966993229, 0.8076734619853887, 0.7320349674052188, 1.8072628207110872, 0.042477456080276046, -0.0277912843441343, -1.143290942421801, 0.4958176774419578, 0.9676658766510498, -0.22680592373608563, -0.4950481394476448, 1.4099799491840437, 2.6474892581469205, -0.9168487837483636, 0.31015605150271464, 0.5164172700236734, 1.7702113896796001, 2.251827424715841, -2.364160003590891, -2.552341084209549, -0.47137929181410304, -0.6702311152978992, -0.3774689923632656, -0.4706725233929813, -1.4307682004586408, 1.195503558435815, 0.13411661734155064, 1.0535137776518013, -1.1380181296463179, 0.7080757532753403, 1.173575852479068, -2.0807737301655607, -1.193303731876283, 0.04455171990903356, -0.13382884046563492, -0.9314282572465407, -1.0540085459055601, -0.1458164279170901, 0.3789432793228509, -0.7063912156309395, -0.30148014959688263, 1.6545606112020619, 1.6680710021890077, -0.663591079809905, 1.659178921997153, -1.302825070004062, 0.009744524243693105, 0.7395598175247258, 0.0611463981605741, -3.1093820012669626, 1.2600174611793293, -0.1543009834692496, 0.8414885766234123, 0.8978972768140806, 0.0414753508075464, 0.6093967407435297, 0.175489648736769, 0.40594433395871155, -0.06391908740482631, 0.4722757512733307, 0.8913416233477182, -0.707827708482873, -0.6304152950521147, -1.4316708755488408, 0.590263205215245, 1.1509107048512408, 2.00145226301482, 1.2444976168058042, 1.3992063080232209, -0.19553270833123326, 0.6695827379665076, 1.9836538070880492, 1.9742807180393653, 0.2799817295291139, 0.19228052987890765, 0.1407491724351608, 0.4662055740831806, -0.23248726186661178, 0.05362004856503277, 0.11222221202696746, -0.6660003210684103, -0.22577149981152908, 0.5503246577124532, -0.10363969736321973, 2.342882349633436, 0.948631768552663, -0.696489414442146, 0.802863047523777, 0.734297111124144, -2.29707802642058, -1.5283416198373398, 0.20798490794313118, -0.14544254490877848, -1.410047727990803, -0.41917717222655987, -2.0484018028946713, -1.1218865783742233, -1.6163026571570933, 0.8043569702539245, 1.7395227992594808, -1.2448023232415206, -0.17742809373561913, -0.06663213462897581, -0.26954863355320474, -0.26834761725125106, -0.8588104350305905, -0.6922068257145084, -1.308264626766736, -0.4791834860207862, 1.3676703574288223, -0.06877112492536896, -0.41013830916199484, -0.07431412645020927, 1.145107908473941, 0.4483509084412224, 1.0752294915025964, -0.8663339853861071, -0.2669974132748674, -0.7606240036984958, 0.9486544168041033, -2.0781131567905486, -0.21085758618435899, -0.6032993927818293, 0.9359468195009893, 1.6628294774962027, 2.009734641446947, 0.1102792148090218, -1.418552337409462, 0.8614588960286146, 0.88980243263784, -0.5497630392689719, -0.3401205268167486, -0.09448107207608113, 0.08441094012471376, -1.1242469691913655, 0.025199161118733313, -1.3884393556241574, 1.6162454859966422, 0.06668879940475082, -0.5262068277930612, 0.9325591584494577, 0.2345054481356665, -0.5693262945329093, 0.47963916110970106, -1.183565490045375, 0.31760138916610436, 1.7426107741428767, -1.0422367089159126, 1.173645234205414, -0.025850863822661784, -0.7611415149289225, 0.04985325290115926, 1.5587915987360341, 0.3148208072760946, 0.17784616863827163, 0.27007311225796315, 0.3591121417100078, -0.5234133492001531, 0.8659681907118543, -0.14939023676459343, 0.8662726539008095, -0.12245019384828591, -1.2394225018187708, 0.4779852622710315, 1.7746055934787406, 0.9904256086959151, -0.07332587850120756, 0.21299054051558305, -1.0942501806879048, -0.5092069554525783, 0.38305470402991626, -1.7360447239721175, -0.41870856955019126, 1.3058367822579091, -0.6616236492305329, 1.5410149400395372, 1.3863489571711671, -1.0060726577700347, 0.34691328122007464, 1.3820549407168758, 0.6855635214755252, 1.0225125003700266, -0.15305800965036193, 0.964699598791084, 0.08786063331012296, 0.9613298218817763, 1.0283194997241043, -0.36880946484103017, 0.7191651289291086, -1.007449683102295, 0.008034589553987075, -0.553094327796816, -0.03946015774436172, -1.2342861637178055, 0.485486040221622, -2.072045566775816, -0.6326563089488522, -3.0885554487223574, -0.2990077161734999, 1.5434105923979846, 0.9566045488048756, -0.3045757451451564, -0.01848488525882128, -2.258029803433719, -1.1602361306937423, 0.33345698265364965, -1.2848627404814896, -0.4120908724472304, 0.23425649107224014, -0.6408070361761954, -0.9605891367114596, 0.002134216165593698, -1.358168114776341, -1.128028905291533, -0.000977143083635088, -0.730807049053243, 0.8598431628383362, -0.6413792711612437, -0.22701815209655354, -0.3352474388464212, 0.5945489728633245, -0.09009491671591302, -0.92039468095465, 0.5278364238233437, -0.2504313385860504, -1.252794117464824, 1.7507788626321696, 0.05192226528923087, 0.5879154472485808, 0.5771528847703017, -0.5816468564851195, 0.20303028793514463, -0.12496204104831965, -0.08087567990332703, 0.6066853087520033, -0.22439401168909018, -1.0731910191270193, -0.6313145496066072, 0.5653912330749464, -0.8791598491068772, -0.043783281865005644, 0.163157497351459, 0.18662486818227178, -2.2285835545265926, -1.136784389174712, -1.7040524528028111, -2.416204905202078, -1.6352071582656922, 0.07604460278928554, 0.8437441217600251, 1.5810444906456789, -0.9711441326872537, -0.41620808249182617, -0.10876445218967708, 1.2830866340417924, 0.05294212166137527, -1.3445035364416182, 0.5915902344094031, -0.1994478639716134, -0.4429959206548189, -0.35916093011182937, 0.4973727720840881, 0.9964207859172148, 1.764949030302575, 0.852757162958132, -1.6350290339003741, 0.12299970601081744, 0.6461733450175148, 0.8730587403372975, -0.6120755721540314, 0.09691585683182803, 0.17763142402933382, -0.6190471440358658, 1.2623014172824396, -1.4461288172859805, -0.5300334777962568, 0.8299449034287516, 0.20065091249522254, 0.15364243192245453, 1.000505066213787, 0.22467883080318746, 0.30728484921310106, 1.7430586437409026, -0.8101130382018792, 1.8669671689097573, 1.320188134247118, 0.5408047692834307, -0.5743279618682843, -1.2263072361323824, -1.1628144982437036, -0.7373101479112627, -1.0664739249590556, -0.18434883735712956, 1.063528611177362, -0.8426240223350134, 0.5172911256848038], [-0.06070610302697809, -0.46026342494389055, 0.2287236239003582, 2.7817921134529553, -0.8173078888390616, -1.3722797616459859, -1.4901808157990577, -2.385089582219442, -1.3781145501233691, 2.186393066799294, -0.30407744413170157, 0.5720983671902523, 0.6191780576920244, -0.07988927131879339, -2.776811284899976, 0.30824909642754006, -0.5716231936555297, 0.20130273076072833, 1.7555681641562113, -1.4631190985697902, 1.1996410639600132, -0.14348091468698573, 0.9264870187846298, 0.9816704740973663, -0.7125650660865662, -1.1591524897273497, -1.1255278981919659, 0.3832540513452878, 0.047536800540701696, 0.6200278479308641, -1.1898299637484673, 0.6427953989550715, 0.5343244374537403, -0.02491808971669832, 0.9733272393044974, 0.5413584154442647, 1.1902541075892614, 1.4117759807266377, 0.11165017776868263, 0.6045048324400477, -0.2844268730394406, -1.3139857279010911, -0.386845975397261, -0.7371638878401792, -0.6613377291104681, -0.3098159377922657, -0.3264273285531049, 0.6571982353505215, 0.2587106768165265, -1.3043816462953706, -0.42662166911944, 1.5969438068564163, 0.32380656721314705, -1.3552140441314262, 0.2491073762066885, -0.7720443534388067, 0.7815793300964005, -0.8147919595862303, 0.15531693398491506, 0.707553801130488, -0.9039683557638793, -1.8504537116376936, 0.5031626371049894, -0.44937402858553166, -1.183433618734708, -0.2806393920090554, 1.3450965217764643, -0.09530508811641428, 1.1797232094990298, -0.7395677617154892, 0.6871944939191268, 0.3564604415034642, 0.631108939331577, 1.874500639680149, 0.8323309301684942, 1.344046901579184, 0.5712955519660474, 1.546992808396735, -2.02456419442526, -1.3434065797478996, 0.6118932553020364, -2.270784744606404, -0.36715150824132675, -0.9230724527761343, 0.7096758795351134, -0.44959284906017266, -0.048588193207185326, 0.11509152579637552, 1.9621720376022465, 0.7648690869555345, -0.26016596282417875, -0.316178225036575, 0.9454198816595547, -0.4354541278546021, 0.25143969265610927, 1.7540953905955332, 0.012619859089658654, -0.8792270347856422, -0.7132589388016843, -0.024738230962511907, -0.42226418458909254, 1.133206087497282, -0.42523475726265675, 0.45505472642474604, -0.3262168223902132, 0.016997262508485652, -1.3618349954154765, 0.17077616659892644, 0.08121474996873855, -0.4622566111388954, 1.1893014541097127, 1.284582490245883, -1.1130104330359947, -1.0692171627116844, 0.023069799897260917, -1.256816748655304, 0.8498510850798994, 0.38770916567710395, 0.9081169460762971, 0.13078994090628282, 0.8426216100273016, 1.9153207452530236, 0.43109794685553926, 0.39342576471043644, 0.6986080935954359, -1.243415683293324, 0.8215617615192019, -0.23552312041298376, 1.189191069013863, 0.04427051314308746, 0.5267304099232847, -0.197181992761633, 1.1321437158451708, -1.5730199448418067, 0.5320839150282143, 0.5492440411206004, 0.4516965868341639, -0.6096326543482777, -2.23908036407956, 1.2652888108995994, -1.020266089934113, 0.36860446534096153, -0.6265756412781432, -0.20122383145965442, 0.15826770569037282, -0.533477277074027, 1.4126983671482645, 0.9640826031071632, -0.09051394279968647, -2.204313207999908, -0.7288169688353853, 0.058013417752805004, 0.234008827572116, -1.4398512914708093, 0.183269209233295, 1.5905417893380038, -0.018373341502218303, 1.7305648117571792, 0.20788649621298574, 0.06167300958053373, 0.6245523513767343, -1.4464154667471212, 0.5868114090919109, -1.0230506661273515, 0.11045652556988558, 1.3622352582591495, 0.2943896918492019, 0.4092757237923535, 0.5006430514834026, 1.30945253210224, -0.006268745656944427, -0.5619101256150933, -1.3088560466445185, 1.1023010942234905, 1.7096514600211155, 0.13394917871101358, 1.2430663246910447, -2.230469956483369, 0.5310653092663796, 0.3408914088448019, -1.0260232460782828, 1.2363403963143373, 1.2324743073311846, 1.0396135968613005, 0.228299364188888, 0.887475562143313, 1.6020197933028022, 0.24223956027513746, 2.561376795462932, -0.9074521060521573, -0.8561214310461805, -0.6469881151503768, 0.7836780287888775, 0.20883179612672506, -0.1536901014658, 1.3556098199686508, 2.5239739739377813, -0.31857170889239644, 0.6546664193893456, -1.1283022048252043, 0.0019703078265929444, 1.2382646392976915, 1.7533451233097561, 1.8821997394316696, 0.1456395564986497, 1.4243416852183342, 0.4696127672724235, 0.6095739543945224, -0.037614590080039326, 0.04279348366914276, -1.4668018519106254, 0.680109474706561, 0.15123971002126307, -0.4325660740375102, 1.450868810690444, 2.5864580329276983, -0.21625223797989612, 0.1278979509475021, 1.2739783090841053, 0.08552771950360322, -0.7056024190227511, -1.4642378792398465, -0.6345178127742674, -1.3782528660092668, 0.7134044204676677, -0.2157151123958607, -1.4413856935338052, -0.9209152074607125, -0.23502892885210236, 0.4752785620946574, 0.42815546816931305, 0.4709170657140132, 0.1341626860463936, -0.399562279041682, 0.8566436393331214, -0.04205138270976761, -0.35360502790528975, -1.8516434826412587, 0.632562281675731, -0.24248498873614616, -0.5791837878352959, -0.1649229391632223, 0.9974735056796502, 0.9891166135642897, 0.14649546947245906, -0.20404512956516704, 0.5037658727696714, -0.6342686131505421, -0.13896706304370254, -0.4290676831042616, -1.0268438616812359, -1.5653435003327885, -0.5775797531100166, -0.5596549934095467, -0.226658391396215, -0.3910864465526905, -0.8102034467184253, -1.0509666966906994, 0.451605274370405, -1.9846069369421138, 0.44404457309282264, -1.46859078071546, -1.2479966553484685, 0.41877830910775343, 0.5763072886706737, -0.011152425258324683, 1.5197975548961837, -0.33572529195315204, -0.4501475407919873, 0.046695269364012686, 0.13756497290103875, -1.3899005525911716, -0.3357151013633008, -0.16365113318577965, -0.0038378863901371595, 0.9669875038970042, -0.6459726131332071, 0.8966256520820951, 0.5195898309066546, 0.45259038863826784, -1.6231600663978296, 0.7583654173167874, -0.6096016994587008, -1.4645937178985864, -0.9681776328021592, -0.34156024506110294, 1.4188690620092086, 0.8208722120018674, 1.6358854422195515, 0.3947052097107491, -0.026961712217898937, -0.2511799472793271, -0.36362531124396097, -0.9025698988027977, 0.46937443534023815, 1.2734370308172518, -1.7517399856510931, 0.1964336986970649, -0.219862724189002, 0.580969290253991, -0.24164868385448177, -0.29315810348400795, -1.4726407904767198, 1.3356966024664334, -0.7688624908974023, -1.8090737574241937, 0.3239286300949194, 1.0228087231113583, 0.11924869668468487, -1.9131860321188257, 0.595450088411457, -0.42082097982869743, 1.5331546178522653, -1.3931573241660329, -0.6365625811445474, -0.8617493332545544, 1.3825933334218174, 0.892449299351299, 0.0772479032596315, 0.20360613985017503, -1.362709621425536, -0.972517513246555, 0.09195591954287129, -1.031822976464254, -1.249582985822384, 0.9162795220790859, -0.09106477481659878, -0.24991459675736452, -1.1320018153758122, -0.10390042942777221, 0.4358867137699322, -2.5146378002026126, -0.4727718810947306, -1.135762130280924, -1.6334682993042013, -0.6332135044069909, -0.06558906291518778, 0.7853105746527803, -0.6494468998769088, -0.5856908292854871, -0.8214211747893047, -1.3635955658988166, 0.26985009996713727, -0.23737593489486844, 0.1447125303221278, 1.0928349948927858, 1.401038935788452, 1.3396213204879772, -0.23441243310347595, -0.2832416727751068, -0.41765709748156027, -0.1560259633694598, 0.49940121846628954, -0.7668682160457356, 0.7388522205946096, 0.4709411424614731, 0.44330089426470654, 0.1426240577774549, -1.7495101096418084, 0.6235059588470183, -1.4629629205376171, 0.251085432930202, 0.8547609882354011, 1.040170428761452, 1.8113337941935141, -0.572009698376684, -0.5822174705058053, -2.1536765690118918, 0.0889195091087205, 1.741475364472298, -0.1981523658497017, -0.3805647663699365, 0.3502428793125948, 0.6154236936092174, 0.9567544055687601, 1.1942557076463938, 0.46937777778428796, 0.009532833070526343, 1.5270983875766386, -0.5413322763829806, 2.1284148200990667, 1.6732270774239835, 0.3866224348210597, -0.7692063881514304, -0.1447061776870263, -0.8169777414642723, 0.2563980185811779, 1.9294694617187544, 1.172530316881639, 0.4387150528774509, 0.6750109846128575, 1.1062824166118364, 1.9091809960923796, -0.4880389264321978, 0.8833692788867422, -2.0107709237292086, -0.4789152196383825, -0.629488525435829, -1.1392505766959693, 1.5912126268068612, 1.1159906770232395, -0.06776752854243086, -0.07054122179806499, 0.029845618803082796, -1.9031305404455388, -0.5165824368377921, 1.1317694741751634, 1.7323725310244795, 1.5882987483465276, 1.5966936712374347, -0.9190140385121457, -0.15657363860404946, 1.7687741176331009, -1.3650307069420335, -1.3127640936585, -0.3836633865141528, 0.340919139925991, 0.010393691617136668, 1.7624523878723093, 0.962197099981763, 0.818894969646116, 0.13731258293402185, 0.5729030771953151, 1.2744128200056748, -0.8666234993306268, -1.2498898008178225, 0.6562831540328022, -0.8438122325655281, 0.036479767247665586, -0.35391451387109363, -2.6880115990978775, -0.21803837566586926, -0.8442261578531869, 0.08987434081192947, -0.6170637646344153, -0.93305681872245, -0.6507441213772622, 1.6689907723967141, 2.812039819651357, 0.8016887109816654, 0.8906320367937757, 1.958249161277907, -1.7753860933449455, -1.5823443591701802, 1.2494606779290054, -0.10482893671863432, 0.05541421844994313, 0.2181586739640607, -0.023521614699653602, 0.6587781545122476, -0.13797305305335605, 1.7261532099448922, 0.9798826748618616, 0.09075045812698111, 0.2596610289288354, -0.6358417606042523, -0.017023176939492606, -0.9447265658228555, 0.5505955877823275, 0.456786861960536, -0.25326691490293884, 0.7414765782622719, 0.6726890712585685, -0.02247484135488767, 0.2503088227392961, 0.05685417227343478, 1.1132726132510409, -0.35903224195119565, -0.5098369505005993, 0.9571691530815146, 1.2512326328767982, -0.1515142357027726, -0.18136280893628787, -0.7430679684304815, -0.22801431862754745, 0.9072462928400908, 1.8447665645194835, 2.011697788894317, 0.4403162986992824, -1.2598185060961447, 0.2843329452469237, -0.14299584449001537, -2.8602396172350892, -0.46520719002603506, -1.031895777200761, 0.06732641365606262, -1.3210758048143008, -0.017824678561316133, -0.8919137121215284, 0.17010659725612434, 0.896004225755094, -2.113277966248197, 1.1162634313631516, 0.12722186694579016, -1.373166539885688, 2.121301985092732, 0.8869358603451365, 0.23463678213479033, 0.6136772453503758, -0.0005813888536711948, -0.03343640888795533, -0.1680855177704166, 1.140508996884709, -0.03997687418176803, -0.32378876326798767, -0.5227802090654787, -2.074696228640604, 0.5512738253697522, 0.051268418831412345, -0.14039949763938403, -0.9428658918093915, 1.4530359374430297, -0.6713782510633545, -0.7571981561653951, 1.170596023804367, 0.3394149593596032, -2.2972607721722587, -0.13596704796149878, 0.5311278367111406, -0.5946467196604881, -1.1386581263355147, -1.2945327410280485, -0.6316076979689446, 0.798109562439214, 0.7814946116809329, 0.5698722674045024, 0.20934630678598465, 0.5106249595535527, -0.7775431003521452, -0.9115930632333783, -0.09571201960812269, -0.5121331847493441, 0.8661694404852103, 0.9539331000527447, 0.03895730754624468, -0.7608670066436475, 0.01753811802168924, -0.2965425934999096, 1.7132334987470623, -1.6966641203544206, -1.0947253006151154, -1.557794229267368, -1.124916225347289, -0.08504553841626773, 1.467101201777515, 1.964474413831067, -0.5392056572733908, 0.09313469874716142, -0.8614233046091835, -0.9459911531726981, 0.5132437949520077, 0.6171802129015692, -0.4376892025162004, -0.2547823636349179, -0.19552992983445983, 0.5892830514636803, -0.030847470886964094, 1.7154957096114263, 1.1871706309946963, 0.26171156774369914, 1.2516994997887467, -0.8799529702340908, 0.5603192148319761, -0.07602916623196604, -0.4149843404137768, 0.6404405165202666, 0.7430850302510912, -0.4067537639118302, 1.635309749180336, -0.05361589967206994, 0.6133663837254414, 0.15147298848946192, -0.707069240729297, 0.0019877436654610115, -0.29844036964873705, -1.515324319382808, -0.0361359390316794, -1.957985991279049, -1.2398083268019044, -0.19848255763348704, -1.7832968908468463, 0.3075111498167776, -1.6334593836234308, 1.383922844753766, -0.9435263405666945, -0.06198756349572509, -0.5183438369337506, 1.370046039809699, 0.1944846897808755, -0.5660623199106585, -0.8710564436750005, 1.7486231887331294, -0.12700569155561556, 0.31354377641445946, -1.6914215544556004, 0.34894939308224243, -2.36029653668785, 2.817900689658501, -1.2057280769039982, 0.04893645393866299, -0.3545675435789621, -0.40350390192827656, -1.8703282129545376, 0.4459470318798493, 0.9782195625368504, -0.898677745261126, 0.8708367442386666, -1.3461111009806372, 1.8101570460883647, -1.2448624916106033, 0.004485060603813315, -0.32538604624595924, 0.12228304000260566, -1.1625440570039918, 0.0521125493380521, 0.029084361473608728, 0.03909777670177664, -1.794256863236339, -0.6798151527464104, 0.388070270291425, 0.6517780280604658, -0.1648047830521937, 0.6165612267465774, -1.0369599404180796, -0.6316336312364044, 2.1875922527897993, 0.6840834499028933, -0.055657025234544764, -1.7992580373825409, 1.2295918429050818, -0.31363862549723337, -1.8957169830707925, 0.3138043789528352, -1.2933613975531317, 0.34714166679482195, 1.1385311016755548, 0.711883209017195, -0.9838538102701551, -0.45674396137817946, -0.22594869269513865, 1.1825380925329474, 1.0055162436664795, 0.3500927618776404, -0.8961200962533162, 0.48116416281477303, 0.40288331502946934, -0.7180458893448541, -1.428225267239286, -1.3806510106329963, 0.6161856077375383, 0.8888529708695987, 0.1524362342526654, 0.0601144852987856, 0.575325791970448, 0.9239192384391787, 0.21542584317812202, -0.6633160468431597, -1.5593230176007962, -0.03768132274251503, -0.37142760705010236, -0.34720764136168136, 1.2076809674541156, 0.05663666599432254, 0.06356032163349154, -1.3433969120460698, -0.437316925675486, -0.9659492457206003, 0.9743814151258697, -0.1329152434564796, -0.5288044173753145, 0.8491763544207472, 0.5844763424861772, 1.3429645078093067, -0.2912383494707182, -1.6943450050845927, 0.8378304811577856, -0.7444575249765626, 0.12736996184306437, 0.8340657077620266, -0.41317735935465405, -1.1298832436484807, -0.9355359805167476, -0.48849194390621287, -1.5019004031546028, -1.8283089441900613, 0.33952509349481996, -0.08420480474642553, 1.0019839545198972, 0.7122538232303872, -1.0514834487045357, -0.4032083761190302, 0.5936013929778335, -1.2074693206861873, -0.16629768090892272, -0.3030172920004902, -0.020589673790111764, 0.04848874543983732, -0.7328389986618893, 0.3160713698134221, -0.05161105640415972, -0.019937295847657962, 0.3221056414928312, -1.212328284047783, -0.5831946674458829, 0.04216093828388201, 0.5502450974926947, -0.9568117332932594, -1.1164121553563984, 0.8294457284390352, 0.3802077919383412, -1.8010813177006713, 0.10732307948397445, 0.6194784867245038, -0.461443893486335, 0.862509588434214, -0.180540660854478, 0.37814311081276936, 0.7219692577514824, -0.44051461053269075, -0.49006476161124835, 0.946789985488121, -0.8251596960839185, 0.4226968548098616, -1.416076073256512, 0.3000482313092055, -0.5853369848062036, 0.6729906250110467, 0.6528102585973707, 1.223730365884785, 1.0591422390216598, 0.5528481493287126, 1.2685461324305514, -0.4077626350929041, -0.7437583610524866, -0.5383079968898165, -0.7891516126251823, -0.5027609784395131, -0.5394734126782602, -0.33788747699013466, 0.24964219446045402, 0.7555931045252957, -1.574640143659237, -1.4819433066968946, 0.3334315979706332, -0.7548835288750362, 2.0027862464878283, -1.3232964437958779, -0.6015365198928947, 0.3936582436359819, 0.22863985304921983, -0.347410061316569, -0.19270301454195055, 1.4399080903329358, -0.6140070721686471, 0.6520323186784103, -2.0052697107718642, 0.6320294793411511, 0.5927822724649084, 0.736973716998969, -0.6809105110377942, 1.4510665389583028, 0.24752796368474195, 0.9226117238769702, 0.34104225650147457, 0.08181228705827458, -2.72243622627626, -0.38834286488585396, 1.428294563004604, -0.4959242740463533, -0.6408229844649885, 0.782056101418034, 0.4172174481825953, 1.3155609505788282, 2.2896398162637954, -1.8444955611943186, 1.555170308033138, 0.06402153142955265, -1.4764253843913016, 0.8936030858636531, 1.1412791452175242, 1.3669965309290788, 0.017608985308033502, 2.0907890576659867, 0.9068405932051249], [-0.9330007227467741, -0.3008469993514413, -1.7449716413366998, 0.696289430234465, 1.0138879910684455, -0.2415641814786626, -0.09353819975784988, -0.3913413610349054, 0.03437288261238007, -1.7089053097322875, 1.646392595935238, 0.5376147477033741, -0.9477761100576471, 0.7983169349279181, -2.899659711641181, 0.24512812784840768, 1.5175171336329227, -0.7801678195908228, -0.5823479062652094, -0.8592610749025711, -1.5104391804798702, -0.3404379802118718, -1.0601177649947486, -0.7117415873744903, 0.5872693957060645, -0.34922219547044947, 0.9232804803224836, -0.17682068123596856, -0.2801691211649781, 0.8620319367473968, 1.393998115866691, 2.0229207026281615, 0.05875466563182773, -0.3025061985082347, 0.31762504039762246, 0.07735212901959487, -1.6254940296014806, -0.3483394003929471, -0.014464555512585705, 0.5817876864368074, -0.29587580044813067, 0.34912054757880745, -0.013261822241181486, 1.3624591714999805, 0.774194303199737, -0.11466290676168239, 0.23147002499886274, -0.36903262236367734, 0.9778147644419837, 0.8259947856435973, 0.9598118362217533, 0.5267957081151284, -0.5149454231355837, 0.9034163072156961, -0.7065088801965022, -1.1322125671207146, -2.0612545872371206, -0.5638074495099314, -0.03809202115328163, 0.8797026157404678, -0.20449552689305456, -1.9700407947070953, -0.6478501378279435, 0.18782432994806267, -0.33194037187935166, 0.8656895639139135, -0.404617601313826, -2.156404229621957, -0.8575140386728025, 0.17394827583919853, -0.6478421569908508, 0.5980416872686084, -0.05244776014834689, 0.9030035750878087, 0.05208325602736318, 0.4772844226803368, -2.0183101361008857, -0.46731102839460725, -0.12980334265949742, -0.14135261369593194, -0.039420899331132284, -1.1319857042294594, 1.4524570434956878, -2.053233471413635, -0.02177324790518669, 1.2659317517778046, 0.2661953618859931, -0.3748022724135162, -0.42232954302311126, -0.5746186336001805, 1.030144892558193, 0.2513946078985869, 0.3474279245797308, 0.5975375147283901, -0.15766358032977296, -0.08775070486494083, -1.8492458392237892, 0.5156913888193487, 1.2439078911904327, -1.2471309615904327, 1.1747044416216417, 0.703655651853888, 0.0022995992339947665, 2.49137412203918, 1.4883825180474668, 1.134802193659961, 2.194890426415769, 1.0082371252435915, -1.2218018307655607, 0.1614007020127939, -0.20884210923265648, -0.17861011884936695, -1.3427263620004766, 2.221123767304508, -0.03884288322170547, 0.911865199809084, -0.8840347459553519, -0.2729095391446682, 1.5460487120408104, -0.3714125051036506, -0.7955708737866956, -0.8227971833175121, -0.4257947867235031, 0.5074871029257094, 0.32226541915299306, -0.5151131947496577, 0.9611656944582354, 0.7310805246480061, 1.108392104403808, -0.5189518323201671, 0.9443844633551869, 1.4150628225856217, -0.5754176891346213, -0.12083491955756767, -1.4851508568327718, 0.4428102483703586, 0.8369344292385006, -0.5593145168239857, -1.3575805389499505, -1.8619877392641566, -0.8923796769604293, 0.12328034976991752, -0.4778035393019278, 0.27295163154098484, 0.7483472583121604, 1.4712163770766622, 0.7227418580201986, -0.9153674319406605, -0.2956761618077745, -0.2978400605032411, 0.23371094630058312, 0.1313943515544921, -1.6505783693024307, 0.8971591334566891, 1.5758353799635223, -1.4792280887932578, 0.1327626248691964, 0.30318720612007344, -0.30906271847405997, 0.013219967984348414, 1.2587093030080287, 2.2428589881141683, 0.05282157162174203, 0.7089999884610088, -0.07413600753113327, -0.6785636414160263, -1.0641086565581686, -0.017819439234332896, 0.5351192152925421, -0.32221473402510903, -0.38498232768675567, -0.9519861906270166, 0.5778167620361592, -1.1186745148842172, -2.223723631453102, 0.654069940841583, 0.024458035723800238, -0.4626801625864517, 0.06551528445105775, -1.7554862829162146, -1.0568728265444556, -0.1772976896826989, -0.33890142852377186, 0.5457652432982216, 1.1360324332071354, -0.15954198758901886, -0.6547523015352483, 0.539864632809644, 0.32274127987842005, 1.4099896861137298, 0.9419363773863569, 0.2031906805296703, 0.6924498071706285, 0.17657577553553183, 0.4391572089472641, 0.24378670524738702, 2.51120354607635, -1.1141846204269077, 0.028228409402956425, -2.1679531698660424, 0.6154950384015175, 0.009421608184396319, 0.16775462265445124, 0.07450931681970091, -0.9874983233898968, -0.416613152781514, -0.6548299860026705, 0.03408183992452937, 0.4932840906733723, -0.7928118790514516, 1.179217250654685, 1.052306353430686, -0.7264400083752739, -0.2213276041244068, 0.044435880112589705, -0.8976590583065348, -1.2095330243827742, -0.21733567530240708, 0.019053151626606975, 1.0997840810422328, 0.9442357047203637, -0.6846762556454796, -1.9061459308081965, -0.6456444483182453, -0.437305024697383, -0.5207047820638178, 0.3155765747069708, -1.1614192537596442, 0.49674902212602273, -1.1759576470482012, 0.5101957633317646, -0.8078518842391372, 0.9783679363990663, -1.0010731884155355, 0.06800550839956127, 0.4121172420007967, -1.229833770842211, 0.0400383670846152, -0.796105312630177, 1.845911906674175, 0.21428705824335825, -0.8322831657253187, -3.1188669078969875, 0.22574871368340405, 0.17967247589747404, -1.5304011274316254, -0.1495634273117561, 0.06950283100494233, 0.20858407653292418, 0.6129936868920175, 1.9482742786687375, -0.9003466939934346, 1.4156522805244656, 1.7670483164248627, -0.20616032227128803, -0.19980823102509765, -0.5700278223969545, 0.8024264233020754, -2.253955924033348, 0.02171779082850413, -0.24508776853174025, 0.6242334314267493, -0.7846204931302025, -1.1721952022398274, 1.065222483549562, 0.7809077221225534, 0.16217354003487328, 1.1396633357538166, 0.7915866325917761, -0.025479657127122808, 1.092647971562019, -1.0208924096417606, 0.5100472070616114, 0.6364586530556271, 0.5234643248127934, 1.1382557097469022, -0.34606703728730903, 1.0543286861532555, 1.4625420983311042, -0.7161610532916253, -0.4562431381664779, 1.2895854653555279, -0.4428189372057108, -1.654455741315914, -0.4590586680636105, 0.2453844045228913, 0.7229126544150146, 1.1795729315211558, 1.370506997977167, 0.9707776765222701, -1.0772544931095158, 1.7424376148100418, -0.8932623816162891, 2.286739185728879, -2.6830243013743633, 0.55703564820983, 1.0828393054216645, -0.23439997943826735, 0.7484429331218154, -0.6080061854978711, -0.5938471528441668, 1.6349742576811532, -0.5721495873850425, -0.031393111764575564, -0.4615849868144013, -0.8948015130712839, -1.1018898015132441, 0.8119303239606575, -0.7246547959766622, -0.2530513594912669, 0.9778044730805749, -1.4393363771495022, -0.0020134343602391767, 0.5624205375414895, -0.8844802301657863, -0.045413894262620116, -0.7424381265952847, 0.2369200516756733, -0.534527412839525, 0.4944834803590009, -2.2838451726071898, 0.16353481990505428, 1.3331827755652348, 1.1584083179453177, -0.3115873746437427, 0.0886458350846173, 0.1552893922027012, 1.485368196939897, -0.7497685061805304, -0.31471242137836397, -0.5575561378020335, 1.8606128208121546, 0.25662181042485455, -1.6155877478775085, 0.5305395749281703, 0.25867777500201283, -1.3693273880864225, -0.7911186858674147, -0.8579406032322328, -1.381856861378116, -1.0373634140674433, -1.3172599681801704, -0.15975363041067817, 0.5283446870305359, 1.1216454508128848, -1.7815114983418168, -0.17284769959854715, 0.15740193814413178, 0.09045202587933772, 1.7601139622090471, -1.506057097211899, 2.0331093749295803, -0.2818857954417048, 0.21842511648495075, 1.4563862096014544, 0.29009119273947087, -0.5193857868572269, 1.1267637977088711, 1.2112247581418765, 0.8518432246379136, -1.491389812986018, 0.5631991511294571, 0.17216402170210632, -0.9251587373689674, -0.7070892267477016, 1.3668315648492544, -0.20454666112577277, -0.8970849275145816, -1.1780794966783714, 1.1582957571003993, -0.44421682780799376, 1.4905656390404567, 0.7374642044214282, 0.19148272103162128, -0.6330086050071356, -1.3871571047911209, -1.6540508276216654, 0.7644256008632274, -0.5422525954874895, -0.21435812004471194, 0.06277356591238752, 0.3393564756123712, -0.4086452602479937, -0.5966962645382902, 0.17552773931204485, 1.873918458955556, -0.6895133768041497, -1.4803861519435157, 0.7372946898579438, -0.016894443102747222, 0.67802474507986, 0.3788894243081622, 0.5211958264672122, -1.3015806613308825, -2.317595307868556, -0.007451662827691313, -0.9621978396001019, -1.1411545399815703, 0.29552005733232084, 0.13110734204176228, -0.0025191158968777107, -1.151694017370375, 1.0068656342099984, 0.5897339822108307, -1.5616115076132422, 1.7828434253043046, -1.9743439011722639, 0.03975599248065587, -0.9837749752778799, 0.1461999811112006, -0.8567710416759731, 1.3055920251128155, 0.5113374616867439, -1.0257271593791752, -1.6468456145094916, -0.19705804753158523, 0.4455185987142412, 0.2611888344966037, 0.6735112992657473, 0.79609774776911, 2.025606979884501, 1.5412784373704966, 1.5144627106905908, -0.47039132043060694, -0.8756838953135292, -0.1464986019179028, -0.2525969141090635, 2.472996907721323, -1.251868587794446, -0.42905880088603515, 0.9269828888259889, 0.4925662909388447, 0.4363970656010099, -0.44652594524322625, 0.37772696250590365, 0.8137882912251835, -0.6249876331129242, -1.1184226480943427, 0.29875274098591736, -0.7596176300249292, -0.24652464900567553, 0.9497600430537358, -0.9238544899330221, -0.15000079433113525, 0.6985595054467599, -0.548017626179667, -0.37568398726041274, -0.3969788860884482, -0.6867320301561795, -0.010248056638013177, -0.5024177300489149, -1.7095192110263064, -0.1643516874131983, 1.0860301439307227, -1.1133789724104968, 0.08028970492082263, 0.3885317243340903, 0.48700153458067225, 0.23997762078600995, -0.4758107002594063, -2.071862809664116, -1.9022625452031723, 0.1406700805066249, 0.7187896863288483, -0.23102958537929022, 0.27368886390501057, 0.29247472383058365, -0.3865166353948528, 0.7086347084431495, -0.5629005390211945, -1.308314070583224, 2.4566032526259365, 0.6126583373263238, 0.7219909399229638, 0.6597712501343959, -0.43648921748461317, -2.224755816344386, -0.5009473116780641, -0.022434350140952995, 1.980746808016724, -1.5835478378284715, 1.0662752895290561, 0.2760342501709191, -1.5469809191361763, 0.6087767888416039, 0.6322923271167118, 0.4177618591135926, -1.2667793065842414, -0.9737481800204634, -0.5629278187672441, 0.69076177187033, -1.0371942275547372, 0.03487420616211746, -1.1074093187491405, 0.4542723927281954, -0.01696648264884035, -0.05030367659335454, 0.034101582486944934, 0.41345064126020975, 0.3456686082293817, 0.2637578683904489, -0.2038679817573239, 0.10215319811810165, 0.20431299795686783, -0.43297005079129813, -1.2207688449608984, 0.09194909551337879, -0.13908857739070624, 0.21924563038099962, -2.1822841094160084, -0.4830357219752737, -0.27654449383149116, 0.15069508688775715, 0.7868047067819822, -0.40997506748321483, -0.5846370250433702, -0.9993371917842222, 0.14461925029239872, -0.1533277822460743, 0.887370501298115, -0.9783636858602295, 0.19688695420261307, 0.7695951489819054, -0.8841166019996137, -0.11545257513840268, 1.5910694499935245, -0.0634117874125222, -2.0772181319984626, -0.12718388324492733, -0.5390633977700057, -0.16555022041901524, 1.235678084734814, -0.76039986984596, -0.8366369690943802, 0.04996298954366173, 0.6585958076301177, 0.2318849644024753, 0.6857796310014768, -1.1972147050867883, -0.6621947235012348, -1.0301262305781689, 0.9490231379582537, 1.3289209285966512, -0.2729762906396826, 0.40144157452889684, -1.6772672241725493, 0.3760245673752378, -0.8093686283532395, 0.5317143423558568, -1.643991509980263, -0.4671182255714962, -0.3825401573403461, -1.8490018096382215, -1.1585342866564186, -0.8222484343901372, 1.1343814697241157, -0.6936686467653105, 0.5197368304752712, -0.6447736975150881, -0.6524888274458048, 0.09714173803805717, -1.1561175522151823, 0.3984586161804545, 1.3726353938393596, 0.3955155620733138, 0.12922897905338107, -0.7662416479790403, -1.0105633802266647, 1.9108557282613794, -0.7560570461936701, -0.06034819288256059, 0.3717791084229662, 1.321648764531296, 0.37695725356223103, -0.6116399602588714, 0.3804874724756593, 0.9980623393447756, -0.16899705372098195, 1.543692311287384, 1.5215794624131351, -0.15821324728672775, 0.3813589226044277, -0.5780852846274023, -1.5511221332632101, -0.809167696186103, -0.8388803632555835, 0.641819446891444, 1.3118606529811239, 0.5836095575448828, 0.35497961836911185, -0.9909143808506145, -1.212033743956836, 0.7660274564881064, -1.086617565142582, -0.3784820557847023, 0.06987872179525598, -0.28261662383644437, 0.8079713887340197, -1.3728568044608083, -0.0025109324436126184, 0.6400351833579743, 0.6602819706384911, -1.8330594131019284, 0.5968283727666036, -1.2287636085471876, 0.03759807877506513, -0.5295394371033676, 0.9335085452600429, -0.1501755739090362, -0.21309875664617778, -0.5869085494950234, 0.39134834011655806, 0.49631822413619464, 0.5920215389905502, -0.17699580415284824, 0.6112319782585617, -0.33670072984190436, 0.8952753805160861, -0.26121637290357175, 0.633736852325354, 0.24860121427334084, -1.3210935475915442, -0.25640193581435344, -3.0872551948587974, -0.05888848039584335, 1.316072885986584, 0.4421384566266944, 1.2257221506576623, -0.892485415909369, -2.014748725216389, 0.6914914016072682, 0.3638732437416761, -1.3238479727503494, -0.23412323513352523, 0.7857813439368049, 0.2356444665645695, 1.9831112879921227, -0.6404899920838133, -0.6028124982255874, -0.4551806708528013, 0.0858230158235655, 0.4408191593375486, -0.4272807963791761, 0.9190641322132712, 0.6735927161117544, 1.0946469886060126, 0.5416546228662151, 0.4418191113646821, -1.4429550628737433, -0.3311471784934399, -1.0310308851521068, -0.7632583136543774, -1.1230548001371465, -0.48199933644569015, 0.1973735035506825, 0.6444106993391914, -1.8529744327005022, 0.3754323241838004, 0.7361981185689623, 1.0406573979864295, 0.3925045524857717, -0.11045608341211033, 0.34174369654927406, -2.829159805547925, 0.32184039802392506, 0.911411463822583, -0.23853734640851496, 0.9613678101590629, -0.6156243756953309, 0.16576878751574203, 1.2729136934957146, 0.2610123247649931, -0.15305306895675, -0.24992341775569482, -0.2456255778114218, 0.4192998254428152, 0.23726523112045336, -1.154713061751928, -0.4605581483197674, -1.0472019916977113, 0.9436250944100689, 1.4720630610891245, -0.7657004302427631, 1.0018335061243882, -1.5782746351130783, 0.5387858114340371, -0.46563520941085784, -0.7129936742071428, -0.8373179962708083, -1.9607944625421891, 0.23989063481333536, -0.21988345365414108, -0.8892054014170258, -0.9569646735634181, -1.2078148036137493, 1.1914275872391422, 0.8691017876467048, -1.1332147468331017, -0.28564764096925266, 0.6336554646891395, -1.317908392307975, -1.1653677069803414, -0.06243391781600584, -0.5216883569739996, 0.9308995355087164, 0.743012860505553, -0.47182550010358876, 1.2497664683276004, -0.31338479998276203, -0.11309120809233218, -0.2959416416529165, -0.23796133034504885, -1.4154050100697697, -2.7557980412804324, 0.07760965297346709, -0.48895007150289255, -0.9065773464020142, -0.05046934249612246, 0.31129182414192363, -0.6698047440518378, -0.8365136018306842, 0.12501707971803086, -0.5924600909918757, 0.9142623209531299, -0.18964823627814145, 0.006890863649352122, -0.014404423432076123, 0.30031820148111643, 1.1707716177511853, -0.6062967731447582, -2.5207131674369627, 0.17273701111135284, 1.2024376363248979, 1.2096608276602305, 0.6822640547824559, -1.3882830425279475, -2.7042016897226424, -1.1649055331555418, 0.03337922776257817, -0.3386621388125407, 0.3407461370348925, -1.1491413171589842, 0.968328671633956, 0.6138782708541078, 0.33941402241303165, 0.5438845842185789, 1.2002810161150272, -0.5189368387876692, -1.3213276014254183, -0.8725901082931343, -0.8531882495285283, -0.299739710624818, -0.3911884678908825, 1.156972412872068, -0.7206066522229101, -0.43548427582504834, -0.6945257165374586, -0.39549791881584695, -0.45529575514730436, 0.22792422578599672, -0.1172363709043728, -1.271927488900922, -1.4359867716967922, 0.32682404674060694, 2.1262699377725527, -1.1075476864004083, -1.4030450295418981, 0.4744914430612075, 0.2431945587885686, 1.0022858824174248, 0.8883081217875778, -0.45870532824791566, 0.927381965144872, 1.0202236634480462, 0.014168390721767864, -0.3790358536856138, 0.15400613548128975, -0.3098248013775465, 0.6879592568235329, 0.19817842527986332, 0.584242825653312, -0.11122732429626833, -1.5403969978951872, 0.9294543828954399], [1.8936414448383518, -2.004236229448519, 1.3816369206201122, -0.2721034665539109, -1.7370515973871148, -0.9338028139601869, -1.4829007959072908, 0.04591669999391479, -2.824905975926803, 0.9832799660762293, -0.5960957246489954, 0.830120608871607, 0.2866350452677783, 2.0270654760836813, 0.5447783689629127, -0.16220281836232503, 1.1928631472824849, -0.015349002137670615, 0.2938711960198735, -0.7150306775288262, 0.08214631635433584, 0.4582684804361414, -0.373884909308745, -0.6354710705689951, 0.26068039024163214, -0.6601483051996095, 0.79300251699305, -0.5994586611913801, -0.24313568075560127, -1.0198988224364693, -0.964711610839292, 1.7542841228939738, -1.4571336619997781, -0.9156401957750376, 0.7975595228439673, 1.2699807983560072, 0.7409246686561931, 1.3288670785509866, 0.8544139033708525, 0.8115976603055826, -1.1178000965609272, -0.37767248164824535, 0.29805858434946664, 0.3436234837606179, -1.1496450197583314, -1.2991513278160023, -1.0377541452473158, 0.906812482236147, -1.5001346640663384, 0.9516019034560012, 0.7045775676324961, 1.6708479469990196, -1.0240894751463614, 0.1908982148932145, 1.1787788540036102, -0.8363431872208712, 0.8755348149847048, -0.7355230898964521, -0.15972376768021201, 0.4948693458688436, -2.0929544638548783, 0.03722365478371331, 0.062120655539969726, -0.3166919713443072, -1.5923744483572628, 0.21173326509152773, -1.5156622192363087, 0.5184420959017242, 0.19645430054133692, -0.04557576042148559, -0.3493407729840619, -0.6587149336442567, 0.9568357743389009, 0.17426923307932915, -0.24628695246826396, -0.27123227390096805, 0.5147592162995119, 0.14506282092868722, -1.271424304051958, 0.14890057759987843, -1.8590358786320504, 0.7730378174366047, 3.54929682233555, 1.1646381834437194, -0.6452387164587754, -0.1923537763625573, -0.82167909266774, -0.2679221247831473, -0.4718723432675604, -0.9843891173649424, -0.7997347261876145, 1.30290348162394, 0.7500425135539568, -1.0368107058660685, 0.1324872902917101, 0.6403435702068156, -0.8620134326384796, -0.5860564489507836, -0.5743228909866445, 0.888009747820085, -2.6009205655867533, 0.34550124119230313, 1.386517266596976, -0.37076404215591346, -1.1972369689747047, 0.20794259328196552, -2.2158997678305585, -0.725240275175654, -0.6861403587399036, -0.2939755842437735, -1.1503403834006518, -0.4386791725994468, 0.6328374391770937, -0.3265511982051914, -1.9550779319695826, 0.3587215351477846, 1.1913500577037959, 0.07029684452078304, 1.1665235720561367, 0.15971014640159856, -0.3581463013947342, 1.2347385119879808, -0.43656009470349294, -0.3553990097401473, -0.4657574545450811, -1.0479232997730907, 0.9533814248397074, 0.4550588475579639, -1.16613575031145, 0.07153686485286524, -0.6145852173231868, 1.7373758940796562, -0.10583694953883878, -0.4143905801682135, -0.6978384961305529, -0.26303967915787824, 1.9361497996367785, 0.8254922073744437, 0.23893919661405105, 0.18999886419510387, -0.3245158615492491, -3.4812460371151013, -0.0868229361925808, -0.6150791826163607, 0.6115349619237214, -0.4881742374113483, 0.40928891020782326, 0.973517758193229, 0.8661707366736927, 1.3507551012032597, -0.4285964179664319, -0.4332056303475565, -0.8553441698110779, -0.8832235053039884, 0.7121490433023168, 0.6212999602315882, -1.1147750928182114, -0.1897546841677563, 0.4574228289659677, 0.5607832908471487, 0.43764065703247934, -0.04006338717475622, -0.10630633923992623, -0.05801473863343091, -0.5229900184509106, 1.3797039227264174, 0.8474371665938744, 0.31749914587858763, 0.6270944613200873, -0.23858246855038345, -1.4205238339414208, 0.82241599635041, 0.021772714983301168, 0.16001909770830927, 2.32173105619763, -1.2765839075648628, -0.35134466320747093, 0.18056992972414215, -0.32357205473205203, 0.4048322052732406, -0.9817856110709062, 0.6219895103296617, 1.04563986402921, -0.13944608449507614, -1.6335333846128082, -0.3907787173006183, 1.1508416407167343, -1.4021961920345234, -1.5543200766934917, 1.1716376799718191, 0.3577301148547868, 1.328020937399483, -1.182508649082769, 0.34762114330865557, -0.4256253757340411, 0.607786567399255, 1.210302683116287, -0.9989317915146745, 0.29517336631883095, -1.732591810041745, 1.0980247124191673, -1.4663316358498235, -1.021606896795935, 0.007947391532358654, -0.4632628239436266, -0.06722633670386748, 1.043380279955497, 0.27655190532261503, 2.21701139944158, 0.8541673968373156, -0.10334582626633222, 0.6632708270467049, 0.004873448080078446, 0.6381855218682794, -0.5259094560667411, -1.6054969450400831, 0.8662336775412719, -1.1063251025473555, 0.13721418960689255, 0.034795006096623865, -0.6487384714630441, 0.6168988493074401, -0.5842637861766952, -0.8096695348243861, 0.870634878426078, -0.33838030144259973, -0.06027299258724246, 0.0869218856946489, -0.26106223682751456, 0.5692275551263741, -0.5000246449671966, 0.3438671640038106, -1.2089444410678403, 0.08904870934129598, 0.7253718496731528, -1.1214469783176069, -0.9408224660516213, -0.5531969625390141, 1.8644938554949495, 0.9459565195238582, 0.3743987121514055, -0.05866231666281265, -0.11160136315752985, 0.8084157564063041, -1.7428705640984539, -1.023075122389402, -0.760663628359817, -0.3287459820363945, 0.6993657212220248, 0.923273737888224, -0.29578449913262167, -0.3565539138312058, 0.7545492147197146, 0.13465148091021212, 2.531068818530935, -0.3148724215529627, -0.38959074937828103, -0.5496208418444063, -1.1853055470390734, 1.0748313916276566, -0.8103123757856707, -1.1257174744758367, -1.3236846294851603, 0.11434686029464372, 0.739958365700357, -0.29045427300380144, -1.3793287261104912, -0.09728920059337907, -0.18438675817812764, 0.8252415334680671, -0.07579325333445705, -0.23042626242679917, -0.9962952843924434, 0.15812916366688004, -0.5862091729389949, 0.03513298006581714, 0.7758833685832668, 0.8072471409739115, -1.037364801202228, 0.43348228399665484, -0.9874147774495627, 0.2135294414301364, -0.6872135831307297, -0.410613438911295, -0.05029495278075071, 0.3686459068894995, 0.5305011560331776, 1.39028042109634, -0.6169162615044158, 0.16637664912128758, -2.477863881401808, -1.6449739592883408, -1.183674723756762, -0.05562360957711124, 1.4211227787103817, 1.3755086305450643, -0.6650764683663132, 0.9871438346117242, 1.1304020933191519, -0.5561819591822352, -1.0096703760659713, -0.8561525966582108, 0.18657727283723285, -0.9064796412045999, 3.141593771268201, 0.38192621428771795, -0.6459015052351204, -0.6632021298328853, -2.5701473937677424, 1.100382070061232, -2.1990797700999156, 0.34043175860234, -0.8099810640683568, -1.1802838555377335, -1.1525336969027595, 0.37182136069303867, 0.5138395489949894, 0.7931859826578685, -0.0011375687336226982, -2.152671889836397, -0.329215177344444, -0.03198097990373863, 0.43777092779120186, 1.7995914183537445, -0.5136164540251691, -2.1213926439306268, -0.2054525313732664, -2.3764647406955306, 0.2756120022879889, 0.07875933185067767, -0.5460187062552184, 0.40542406344134024, 1.5688128679991558, -0.7025411697913624, 0.8284270244151264, -0.27345226177732385, 0.48413581162615293, 0.5607468335424104, 0.5622566428076738, 0.2542073167770853, 0.9230184653747598, 0.9344997805639462, -0.6546104807989654, -1.07826402069014, -0.6328009321228398, 0.28078813715410367, 0.7946699355663127, 2.058914578217292, -0.04789185635828714, -0.08952959954380907, 0.6403216248968692, 0.24450872881716978, 0.28389436501914256, 0.10752828726381626, 1.1939447729320518, 2.933400697086331, 1.370987710834027, -0.7451911657302914, -0.7498848490301159, -0.46258452546389556, -0.40796707018737827, -0.8260943268519116, -0.26113835626372417, 1.1055719523292313, 0.07385230307774827, -0.7871114988202846, 1.3367045619441509, -0.09717528189504679, -1.5805223363177796, -0.9961044909317994, -1.03680175916852, 0.9214705104397661, 0.7525211591607048, 0.0804907285879027, -0.9547993706045433, 1.3685436776970996, -0.7128538399710717, 0.16945053381239528, -1.1198395169105755, -1.019157459881994, 1.108710508069284, -0.5137563538672136, -0.023367056914790248, 0.8262601535641029, 0.22379098364668012, 0.5979268499976543, -0.865123878360129, -1.4043945618656346, -1.9040595760048162, -1.1006965117415615, 1.4156662130151336, -0.5801764114661149, 1.1710275414108038, -1.3776516933189449, 0.8721669143695178, 0.505547673432153, -0.11083112152412584, -0.1133833856765241, 1.6059133744491372, 0.1499257056435182, 0.40115798564111604, -0.1544340198470746, 1.6098051988556799, -0.13460884507312992, -1.3302349913812017, 0.7336919497997716, 0.49542460820996986, 2.183586050502379, -0.326673698567706, 0.3897815785673613, -0.8894428590647446, 1.4882606204308595, -0.9324579828956913, 0.17922591153834125, -0.37883360679258143, -0.6318858344013256, -0.05431290656342975, 1.2560676230187862, -1.0188160253666338, -1.3209754817036798, -0.06584216923154883, -0.3387033995794612, -1.2288043578799803, -0.1218168593119302, -0.941841357179581, -0.6373238301171148, 0.7870667275488022, 0.2380696554388336, -0.6141215486334527, 0.16170158574823207, 0.35339771912794793, 0.45022176989506374, -0.15481203460573242, 0.8422928785909845, -1.0037435925622562, -1.2528179102143335, 0.22580769905101042, 0.33325283597387345, -1.8645097985993475, -0.597040124253305, 1.5988748239211041, 0.9712435483687589, -0.18808618738611893, 0.4527518332499548, -1.871591192981083, -0.7561949757283686, 0.19639347570136528, -0.9191063086824716, 0.13622834920759572, -0.30813869457951437, 0.25591598225743656, -0.5413484409221994, 1.4519268130175165, 0.4605767317927164, -0.2866626298424249, 3.717857446228687, 0.3498494391586035, -0.7636137434532291, 1.4891865408346474, 0.6028562121410627, 0.837436200160826, 1.1878383046988965, 1.8951748881146202, -0.3714149260286566, -0.07030817145016403, -1.3382383874443482, 0.6788118733182429, 0.6606735219596214, 3.4154587557517493, 2.773728975668502, -0.8523667047574862, -1.1211421003362796, 0.9715147166666247, -1.247689954232175, -0.21943053978826252, 0.6141316132836554, 0.857139825589437, 1.2767847478437018, 0.21003958876173648, 0.21811393612740837, 2.5900791842456505, 0.9185398138189362, -0.5173416965594424, 0.3185443787239684, -0.171558034895932, -0.7898236700146738, 0.39518588537393956, -0.7667013932369151, 1.5723321558301708, 0.7579866857281926, 0.4883268012803106, -0.19882399828206673, 0.5369681169673185, 0.6899529859224971, -0.5040786693976601, 0.8529756390692903, -0.7209405721826465, 0.2244594217755359, -0.2670434369171371, -0.3644537861134622, 0.11582939643083237, -0.46731883226486814, 1.3949341511041586, -1.940058696156337, 1.648529672062932, -0.5306682806863634, 0.26890107303868427, -0.3099171291273794, -0.772018946360055, -1.2294315744921225, 1.5367552060728407, 0.7221818122368407, 1.9395153053796834, 0.1533535879505231, 0.32625822265228527, 0.7201015801247537, 1.241758833172513, 0.4694615707916954, -0.20907898482976162, -0.8623867794227176, 0.31812020519484846, -0.5740138868343438, -0.08819414131264189, 0.36079027851074497, 1.7759972064239127, 0.7614424019966709, -0.8302330830225747, -0.17209334130606596, 1.7570087129921337, -1.8593087383412916, 0.6343826060695065, -1.3705346001130014, -1.1395648535362715, -0.13867091669015, 0.23446286075530906, 2.0601932802147997, 1.977511866569364, -0.23212230660513627, -0.22481576714672144, 0.37716192998170667, -1.1453203240832068, -1.662819974152498, 1.5235916129990204, 1.6203332081390824, 0.5297497687712381, -1.0013245417756507, 1.9243645412877068, 1.128708345573762, -0.3942872393789584, -0.20258492060031105, -0.3977393323249227, -1.2286985287938526, 1.0409800494819799, 1.7686033664519316, -1.6795245241513823, -0.20992869421351765, -0.9479285141092452, 0.3253752621223816, 1.1659333315252949, -0.8614403747414073, 0.38170580593702275, -0.2703874605984806, 0.8941072533538242, 1.4517166683636156, -1.6519807247595202, -0.437565262027016, -1.0817211594162353, 1.031726020955899, 0.39241153506697896, 1.8491224194110834, 1.4579648521986766, 0.6453197950830585, 2.330622966901221, 0.13133603698205462, 1.102959024602823, 1.7898129578795736, 0.34512727689523476, 0.8853585364807683, 0.3100247305434196, -1.9525132424228542, -1.43792087556178, 0.7199114232983999, -0.4418461337135062, 2.1028480489990784, -0.07048296499746884, -0.8143994915154249, 1.0896566388355517, 0.69624734977387, 0.01130363880370746, 0.43903682134376926, 0.7942902573108226, 1.443573203838403, -0.8264513160499841, -1.1835736639154695, 1.2866966007892373, 1.5578820613539714, -0.03254492933612417, -0.7210351935390916, 0.073921754210562, 1.3149844222763507, 0.07794602439898311, -0.4444873564134275, 0.8669353593415434, 1.7971886464279694, 0.7268307474607196, 0.0767826196609443, -0.1818732618148362, 0.3515092256574024, 0.11091165265904636, 0.2640416718140517, 0.14775996990919116, 0.18922642424345612, -0.2387214652055883, 0.5482110449420238, -1.2069210350401358, -0.6240848229175214, 0.779070782965106, 0.06232980804067869, -1.3773847426348227, 0.8973552635600627, -0.5145142847232881, -0.5499612887679651, -0.990466891684109, 0.6610076189433176, 0.3046868449289792, -0.21157388796372087, -0.8122993377942741, 0.3706114447189182, -0.014335372511701833, -0.8998547370354785, -1.305046951559935, 0.5622524707291041, -0.8623308309126582, -0.19678773780628644, -0.9941456123710197, 0.2054124932487854, 0.8495665655462092, -0.5352455837561692, 1.911139997466297, -1.3472271839321086, 0.5941680497850734, -1.5544043405116286, 0.4213099014821166, -0.7469285162463555, 0.6241240929756307, 0.9230503952216527, 0.1303187764373736, 0.654234380428068, 0.15033158442826908, -0.36571925841592523, 0.19169928763950217, -1.473983003619937, -0.8837330109671617, 1.3074205194653097, -0.9842786448153298, 1.7664310957380072, -0.531009049471922, -0.5900184517132602, 1.2136209388409642, -0.18040110649287042, 1.156752331295097, -1.7638219117273284, -1.3476077377339033, -1.2017224478596635, 0.41805985942195856, -1.223425652597997, 1.2375655865232376, 0.26631000883034406, 0.9597387938462295, -0.1584728733400206, 0.003597184344934485, 1.2510093436423295, 1.8828228223944041, 1.2184868331288867, 1.2222097624467685, 0.19693419380734192, -0.9985565814357612, 1.971874209452897, 0.3556670892058785, -0.5439311375736918, 0.15530490241503891, 1.058575336471486, 1.0083513636190562, 0.10020918469981556, -0.2797900065081432, -0.7083512791415183, 0.27658632928437726, -0.2863170650380408, 1.9512113975342036, -0.3891204375980206, -3.248092681651382, -1.4748283677570417, -1.4936335442302953, 0.5878923085642024, -0.47807640434930376, 0.7879061732952162, -0.09286700627962718, -1.183948998647879, -0.14571276179071144, -1.0374761441563178, 1.1959040944606476, -0.07725276546584077, -1.3064368739669259, 1.067979960433139, 0.42101383713495844, -0.8063598488362188, -2.0926956991415495, 0.48579066635456475, 0.8915788454327581, -0.8135855905715563, 0.598962486454803, 0.0840672572936008, 1.0336909769634846, 1.3289265585627987, 1.7130250009805403, 1.147983419307726, -0.7587796533742509, -0.6540384796014019, 0.6693915330222087, 1.5263692014489132, -0.5067613085504287, 0.1320227840463683, -0.40529357591583315, 0.313498941623969, 0.41201543195629164, 0.9508351629125689, 0.04358338772251556, -1.1356456453759285, 1.0828254824046226, 0.21078009881380158, -0.5669522875601001, 1.3588418652678484, 1.4578828105928194, -0.7077149372796225, -0.6954191350705239, 0.6213547985505314, -0.7287473025145474, -0.5016523055465392, 0.48170657475706125, -0.8162965630716486, -0.31165922820028896, -0.6152238044273378, -1.3034424397968494, 0.7310525887936306, -1.3648563397150648, -2.151940875835219, 1.386840812018052, 1.3431738416437253, 1.322420291368586, -1.1255752874155909, -0.5049457915379447, 0.40092297280139144, -0.5164368599912006, -1.495562983139925, 0.2965313699307857, 0.37414272899069473, -0.2418372189978548, -0.780123310157584, 0.31063975708497354, 1.2952462895815873, 0.2834362190749961, -1.2671874775659422, 0.0905761702846027, 0.4989383252589606, -0.37167549381513176, 0.15466457637862524, 1.7637359217179895, 0.14005322902771936, -1.530066770850449, 2.4236866339876744, 3.315141691403044, -0.9806972022065553, -0.1648100015139655, 1.6268682351638162, 0.28051288702166627, -2.453801103583336, 0.47094348201673847, -1.0423219813032705, 0.414155334144016, 0.6710156320062269, -0.031350341517371705, 0.24760940193798747, -1.8351808035076058, -0.7135094742112775], [0.2949646147494183, -1.5835103045722874, 1.089347012937108, -2.183527526141247, -0.9440020825407566, -0.15358069596558008, -0.7735467001630578, -1.521918076821868, -0.4355933186592442, 0.9828226188871823, 0.7993553351838532, -0.3024660204219849, -0.10894906810885613, -1.037638869361378, -1.0366353678865385, -0.5895826873627327, 0.2750523516812869, -0.5740475614140687, -0.18510991543504188, -1.391509603627965, 2.5168993758696083, -0.7397538548510424, 0.4212533709787042, -1.115976742459045, -0.8068467702656617, 0.5894474193516915, -1.1764051647384264, 0.3528526123874602, 1.9385583663154586, -0.4129999328048239, -1.8977048806800552, 0.8955628667577151, 0.6250025471022311, 0.2027044672351049, -0.8851079130283923, 0.7386016745126672, 1.2194438066775417, 0.907897653327199, 0.6517708108560937, -0.808495141253812, 0.11107940613058022, -0.3494478944833363, 1.4492661952019794, 1.3659472962892887, 0.12992367564323853, 0.3878464806910268, -2.190332411843235, -0.4259308980451812, -0.5668262692360692, -0.8438309909764099, 0.9240036459741237, 0.41460773791242717, -0.31036780787204443, 0.2499489664076499, 0.40494472754333405, -0.11551115075829164, 1.0213089842099736, 0.40528440485499634, -0.27065729867790683, 0.0737310993998508, 0.052027662505973606, -1.4532408398748302, 1.4876654306835628, 1.6854619147527352, -1.103029778791121, 0.7703456687463159, 0.12594341120365826, -0.6620693662269608, 0.7551199612681008, -0.0904068289744936, -1.3341573994871965, -1.5313808390284849, 0.9935274767330798, -0.4514236112132666, -1.835994728954637, 1.526648127785798, 1.2972101524639663, -1.3961119459446891, -0.827813198545734, 1.54414343665481, -0.41592329399075256, -0.037752798557438544, 0.7090967581453894, -0.3800913049697725, 1.1242082198044852, 0.7672696026340066, 0.4855455260064688, 0.7139434497952787, 1.1264697471212992, 0.4548300754705351, -1.0138402985843935, -0.0144655499618512, -0.954074257423637, -0.14833645496860248, -1.7733758389521106, 0.3960612773578681, -1.522622067710818, 0.29851626128115916, -1.1045110229172737, -1.3227534382398565, 0.8084674026347409, 1.0241183236630353, -0.06551117817639708, 0.8403136311281678, 0.08417719309626914, 0.5899410359839081, 1.5128205774997094, -1.1858062862443266, 0.06276591804774381, -0.4395829628079167, 0.5046720273158044, 0.4746184638858871, -0.35003648305000107, 0.17568253462068623, 1.2776824600896286, -0.816719195394966, 0.925349322698582, 0.9927866840025372, -1.146911320182901, -0.9208121108251567, -0.8113576647113051, 0.3796401524709626, 0.761686697304967, -0.35993637072416973, 1.100189242240271, 0.3007955373320234, -1.1480167333593065, 0.057462768271424804, -0.32153967242985004, -0.4138048743459188, 0.6179759897741712, -0.5693313332200063, -0.3106589142033649, -1.0597255280240714, 2.5604617365106517, -1.7290861180557706, -0.7909613927826937, -0.4889762317723941, 1.691772748410109, -0.4806024065719628, 0.17883244011452584, 1.3525765184003717, 0.5681566116830512, 0.04836257761350697, 2.1687946398097995, -1.623315956595397, -0.5823089000883138, -1.2231754955908427, 0.5425145367052868, 0.6492443148224043, 1.248706117753665, -0.20286841985074386, 2.1124992444972315, 1.3511924921840512, 0.08761776396450295, -2.177108470681844, -0.9129746923378403, -0.36419186663944225, -1.329984289759209, 0.7507038199814974, 0.8432745378717357, 1.4771940548276878, 2.029653367002388, 0.9036802995668634, 0.9570487454772811, -1.3011045637940672, 0.311094601392741, -0.765996177538526, 0.1261322888943594, -0.7241745666107438, -0.774027205362176, -0.2614040421964621, 1.5413596448822047, 0.6260395247986754, 1.4940647086888608, -0.39533229451332524, 1.0055715655278192, -0.37905651980973304, 1.021687017327494, 0.01922918761746679, 1.6319228928912974, 0.3171132140807346, -0.6239713705253471, 0.09759580854656147, 0.12679027650566774, 0.603299646691088, -0.31807148542286046, -1.6129309528491047, 0.5674223798561112, -1.0491410601165718, 0.6929064316703211, -1.559061836466265, 0.6405053455861331, 0.741634683571575, -1.4783596570624022, -1.4480830403265945, -0.7628467026804011, 0.30222265654943453, -0.602408800367162, -0.030315832411554295, 0.8694161035433097, 0.16586848551550618, 1.625455449674419, -1.4043064924151285, 0.21798790408631796, 0.6030901513762619, -0.8810075600571895, 0.990365470530174, -0.031537552516018905, 0.6360929294789003, -1.165059984223959, 0.5332687122731191, -1.1730473611355055, 0.6509111634816218, 0.6738569966900867, -0.20096093491435582, 1.2849169028561238, 0.18344286557222883, 0.18843521541133695, 0.63352312322309, 0.6366080848143981, 0.4845561132935251, 1.3998544228044538, 0.8876811045663237, -1.1994755846667435, 0.10755779250050654, -0.3779218661320297, 1.479221264086576, -1.0468817611470527, -0.46520063284446606, -0.7367708665401239, -1.732228298280624, -0.23807832679390467, 0.8000752766925702, 2.2301918112056756, 0.5338782598739678, 1.0630908200708054, -0.3907327276736876, 0.6084505035059851, 0.45645156164622935, 0.3549612522710516, 0.533764216605969, 1.4353400502836815, 1.1565019228636124, -0.8405823215666395, -1.166018569696968, 2.4501888260910434, 1.4193868735304351, 0.7551992481569433, -1.0023315670886914, 0.4058340341323177, -0.9313399764221669, 1.0884711604436155, 0.634738327243519, 0.6325246902427425, 0.9675452487512755, -1.7352631018000677, -0.7529770068636651, 0.23118371805918309, 0.1653729912074485, -1.6388969331089882, 0.3606030647729283, -0.15657337312472208, -0.8694721282125657, -1.3999987924195627, 0.2629392090117929, -0.03826781218443312, 0.4715411001801898, -0.08386163424922267, 0.9754487530169237, 0.13665596888067247, -1.686962780896974, 0.6240458278990673, -0.9661269221196059, 0.9843362510085766, -1.1453069269426237, -0.4247113720356149, 0.3676871327665301, 1.0641178649931404, 0.7404191629132056, 0.07841506078566042, -0.8790951698117148, -0.956000764019717, -0.04275433518783649, 0.021150095872041943, -0.36521416228187764, -0.8041176200828778, -0.21165144951509016, 1.1832561575543679, 1.0806241741207112, -0.6444395206799509, -1.75917947391313, -0.9738099487779411, 0.43327620046410886, 0.07767918749111359, -0.5111438130241583, -2.947683272275292, 0.3823678174727388, -0.6902907453147241, 0.5794031028434011, -0.12931221862665243, 1.3469225459753826, 0.8379147431143923, -0.10755995182003406, -0.20282327511195114, 0.6290530116392092, 0.11115964245873103, 0.1961458733963434, -0.5450834401973993, 1.498792316516436, 1.0010087008154094, 1.2530767515943413, -1.1598273121413893, 0.9202543665480808, -0.698658536588949, 1.5777438923217, -0.968737324173531, -1.0580947041200863, -0.23965505016853111, -0.7753886000080421, -0.9033748442985072, 1.7640633817873879, -0.029391858733155085, -1.1247024415961298, -0.764216499088872, 1.331169796069088, -1.1823196869933144, 0.24598754213445398, 0.39513335706842306, 0.3955663647195646, 1.374167976609201, 1.6345105947512504, 1.3032849588050575, 1.7062967137498481, -0.8772214713073254, 1.141250813329004, -0.830699922931447, -0.4738040235140083, 1.5503432847292027, 0.7451525835227361, 0.9439827943268086, -1.5158595720780859, -0.3056568264858408, -0.13508541003703822, -2.124886505913961, -0.6364775593521221, -2.5838978576715883, 0.2066903696742448, -0.34367817775726583, 1.7943115593583583, 0.9827011556855119, 1.8762321734355782, -0.11424197561861282, -1.788624031140981, -0.010903813222389818, -0.6029512096469727, -0.3572786184228756, -0.6653314937954361, -1.1648764569101158, -0.10970523330420844, -1.8076292721405234, -0.2273975523162287, 0.09652672779466788, -0.8988650883899734, 0.08789731735837018, -0.5952348967023336, -0.3988414139557576, -0.2755434171725074, -0.9329880063158527, 0.2997148680295169, -1.1969995418569792, 0.4801353423067925, 0.7690218216477356, -1.7697810779537027, 1.3030125168417772, 2.150645783250583, -0.2793246592319409, 1.7375373384778054, 0.7953504283218534, -0.6520943199863125, -0.21495422004279044, -2.014067820032686, 0.7703405312117886, -1.8332781422103908, -0.21185914220026214, -0.1798735842977803, -0.773780324737686, -0.9020399476730582, -0.03957985306891679, 0.47124233828240997, 0.7218575614948527, -0.21173865923130314, -0.5893871641409311, -1.6882397153451236, 0.3708654943022085, -0.45252250100433394, 0.4899421271169425, 0.4954994592825153, 1.402875522003106, 1.0346882734265819, 0.49678264334773425, 0.5186420508358741, 0.21979195447437241, 1.0084527884702479, -0.6968922897800823, 0.9344828938667852, -1.0094969525380828, -2.217250195118032, 0.36444438760074344, 0.8401050205699395, 0.4237511500057287, 0.615998143659233, 0.09408961371740752, 1.0650128295670573, -0.5908126858723399, 0.036393915579525225, 1.1506858499351516, -0.8382116213140545, -0.01749934179320903, -0.9958046257091224, 0.526851529903064, 0.7162573261529634, -0.13397063581426757, -0.5173161882171249, 0.2235207632184448, 0.6541335526276213, -1.7208964431485483, 0.024028040642429492, 1.3961645463843997, -0.43490786265684833, 1.2516941635796763, -2.643089707439585, -0.45238897919125237, 2.4986971639299753, -1.2987561518634085, 0.6738099282803265, -0.534370961470771, 1.3399135073790034, 0.5706838119047964, -0.8600382795954881, 0.6549634158896823, -1.5303418611358188, 0.8382173295343257, 0.46772372041747146, -0.46297842467294664, 1.097221388742827, -0.2924915142466745, 1.571101505515262, -0.6943457798722463, -0.8971843276930209, 0.39440924529650057, -0.13571995161511555, 0.6306065813031497, 1.4448624015415612, 0.12568014318404164, -0.6975692919251123, -2.250464698300782, 0.8930428245945656, -0.8887022338684947, 0.38902774814602464, -0.14837634723261559, 0.03657928436567619, -1.2177981783218976, -0.3437675689254744, -0.2906393446360741, -1.3332679670038674, 0.8545987504788803, -0.051393738666448266, -0.21670620082646236, 0.9960316257841662, -0.191576014825312, 1.018782265869906, 0.2912437798103855, 0.01634813528988066, -0.24963827913455436, 0.5727713100224603, -0.7634047878662475, -1.4628192985288997, -0.15684155370893127, -0.13191056996496345, -0.39920927914546117, -0.1977044303653883, 2.305643033838682, -0.41973555608741203, 0.8834446727542752, 0.14513027911043208, -0.4904894248880503, -0.36053031365877514, -1.4621804396537244, 0.18220448141977288, -0.47368243306756513, 0.3957953034210273, 0.5300378569804002, -0.4199371021382526, 0.6315863354923067, 0.6442129975157069, -1.0166103548786911, 1.375085792043666, 0.146997458242335, -1.3859253558239044, 1.5022545240326586, 0.15812264743001392, 0.6491411487197174, 0.8627864081920528, 0.1426328289135027, -0.6552076476229455, 0.23534618858197104, -0.10522913085642048, 0.08042197441090151, 1.212043013549873, 0.2330415839115925, 1.4074226056211203, -0.4344704264465441, -0.8425210271561637, 0.9619037024563672, -1.950613710582624, 0.8761658619129716, -0.5953293038421981, -0.8541222683460012, -0.6949788549648466, 0.04827890734374711, 0.6566045403743701, -0.33537945538240505, -0.14803218484306588, 1.0642083710962433, -0.8868876101330812, -0.5446719334707881, 3.7359224215441302, -3.426048530445056, 0.5396451844258735, -1.1207809989031883, 0.2988330994382517, 0.37229891447749125, 0.75400504180222, -1.1798755494396027, -0.07928960936846677, 0.14754778582639094, -0.04523240250243367, 0.7233781297171965, -0.6515680102360975, -0.49164716986129675, -0.2067862407085092, -0.7830513539101256, 0.38759841508275406, 0.002081951940426207, 0.8276557150014126, -0.04719991876036802, 0.7268929351621332, 1.8385940021187508, -1.0810683025701209, -1.424309442976342, -1.357785078818221, -0.3577199283451145, 0.037346277273464776, 1.6032967501778814, -0.8825417415236043, 1.731056606390481, -0.4909703950653487, -0.7187635459673553, 0.20047300561427367, -0.935679042323447, -1.1960599297939694, 1.1946618922186591, -1.1957891941028047, -1.7424483586714594, 0.7157627431439391, 0.9592646360606963, -0.10994833456122702, 1.9610101628777292, 0.789523124768083, 1.4094158973727555, -0.009690655720652381, -0.5248236310367083, -0.40479644372597684, -1.0303595570234287, 0.3152314404030407, -1.1542996898016693, -0.9518604316751692, 0.4188909157618615, 1.908943784721543, 0.5246679701454354, 0.8470755924080465, -0.17909867491389425, 1.8160720170513536, 0.28820447685563044, -2.297841354165628, 0.9944590659973747, 0.9061215276750904, -1.282005341308015, 0.6716428254329745, -2.0528222349404586, 0.9222198803999988, 1.9087320987851715, -0.3936111958560668, 1.1407746790273865, 0.33393654665433836, 0.07173360388228685, 0.03419157161217048, -0.06586130845420361, 0.1423664969824097, -1.572860352489087, -0.14430072681668127, -1.540108475912511, -1.5316896014489616, 0.583539180941501, 0.6709072897509841, 2.0716824365596946, -1.225684806855483, 1.30594984361473, -0.8004152942092988, -0.8236026186149132, -0.4300275901416567, 1.0074222823314225, -0.29231502927347336, 1.9204367796787165, 0.00424490765909603, 0.24210636969516894, -1.34375406107891, -1.0052132722508773, 0.02488614699270766, -0.5295406508063791, -0.2939791952776487, -0.25620751974292294, 1.5488364867853048, 1.1496695433215465, -1.7278887084872525, 0.36811480957246406, -0.5117469587260733, -0.6831190536179408, -0.896933186648066, 0.21137071697939178, 1.5385670965616642, 0.0503296730825508, -0.14400784450093893, -0.37017909872978294, -0.5498408553321937, 0.4540553664207707, 0.10907798627510223, -0.5292459978353595, 1.0546933312442286, 1.5013655793418819, -0.8617466336312017, -0.07413301051836686, 0.3540767225241386, 0.05878107950242899, 1.746674118180112, -0.8953690540667014, -1.2703351014861237, 0.10839328211273021, 0.8040358524856004, -1.2398118397812485, 1.1467875131329273, -0.4519692416610136, 0.35792121757056555, -1.3686668293602386, 0.6268538796262673, 0.06902998237845756, 1.0164612559331776, -1.5161310932805379, 0.4300954706198092, -1.6986802254175593, -0.8816107759228927, 0.09125954179774334, -0.6514729045410301, 0.11001023323099415, -0.008640287936483302, -3.1711690508654384, -0.3068790425764242, -0.03963265073357303, -0.030207202433092318, -1.147958349151742, 1.4721571487370908, 0.37617779973483106, 0.20258818220160327, -1.1906105204261492, -1.5735465873467624, -0.5251841175078141, -1.5884604082848863, 0.815380668969193, 0.15805552767055311, -0.7268600284780149, 0.2434790155691192, -0.48098388500026895, -0.5653351799155473, -1.094983056457911, 0.8970875379679261, -0.3057624000027117, -0.6561659084071143, 1.336293208718229, -0.8729221652709785, -0.32300611494707626, 1.1616602333451729, 2.3388346641107227, -3.2743150469928066, -0.01858673299838282, 0.9027491416284509, 1.4844475486117323, -0.47849556237985696, 1.1307203304203122, -1.3272739295249785, -0.0034735546184980408, -0.7339429767907648, -1.4056845788685028, 0.050223809239917636, -0.9406111136379147, -0.5465489159301209, -1.5924301842143596, 0.3205786558601001, 1.0620133894086874, 0.9799489846944265, 0.7733535008547043, -0.5944593204948425, -1.4449324298432407, 1.5258130712403233, -0.7074006112756956, -0.9918266426577866, -0.3900256115598808, -1.0026373645117235, 1.1124922955843577, -1.247899109898253, -1.8376455092335227, -0.2661773926947394, -0.10810349263815845, 0.4654920677952927, -0.8659513574010156, 0.05243734184792828, 0.5708303943890128, 0.004830199825451412, -1.015639635336909, -1.061475920279487, -0.46019907638404767, 0.4638870671135416, -0.45578519283707497, 1.5402997317901754, -2.3069490408676874, 0.26261090666833853, -0.3299999022745185, -0.3617167658861624, 1.2041959295800835, -0.47860619367779467, 1.2892934360351636, 0.5734808460906874, 0.34762079420841496, -0.32195059738962206, 2.0543324126695635, -1.0977788787805385, -1.8296959427661128, -0.5819967714844686, 2.181996058609149, 0.19838742819296157, -0.30384498151305483, -0.5236740438879267, -1.6385247557045854, -0.8047032136648191, -0.955738976132688, 0.7758806459615274, -1.733250330964792, 0.7516376393606337, 0.013553997383861658, 0.7196252644804004, 0.7653674953078928, -0.3384158705937238, -1.4925072003470494, 0.4734275749296537, 0.5879897787276646, 0.5451469585120622, 0.16812626245801984, 1.9732443139965408, 0.7395961843537322, -0.8151919526145666, 0.3750486489860926, -0.889491652193016, -1.2102346777101713, 0.3412970055612621, 0.1740822767001722, 1.1735872752684897, 1.047104603800451, 0.7957672454369495, 0.42336049902530115, 0.8830427831346294, -0.09662591332533124, -1.2811468352963542, -1.358516642535691, 2.2381153715505873], [0.6666172298562227, 0.29952165775816963, -0.9446635652906777, 0.43696136407686265, -0.22940900823776586, 0.5699829283534984, -0.7911853707431618, 1.5961227745721431, 0.18097655784970337, 1.274384561501053, 0.551626290593549, -0.2389378403651294, -0.8763709719692026, -0.1901151610378281, 0.7356236328076347, 0.39825826059649627, -0.43957081893155886, -0.6776903842267824, -1.3648282134625322, -0.5473237140702785, 1.0383128536492263, 0.25517470341032045, -1.070143073766016, -0.08456014561900618, -1.0079875007863457, -2.3447481490143622, -0.5187726702558271, 0.4477400821595949, 0.4451971044477809, -0.11201764753527765, 1.2913393350923101, -1.610884301527329, 0.9881195156377588, -0.8186792500256458, 0.21535884909510292, -0.23105609385906958, -0.5002248768334243, -0.16980463915303468, -0.7182692134087194, 0.602697499751752, 0.8000442849962108, -0.11430251236745162, 2.0143568750975924, 1.232760359661312, -1.2894356662851305, -1.9199061184711732, 0.19212917318167516, -0.2909433400050688, -0.08753062540219952, -0.5926551196118514, -0.3451519443857558, 0.4349231144615234, -0.7165917254583853, -0.346762417100695, -1.4286938320742357, 1.23867565219626, 0.5663878228195413, -0.7009082465996731, -1.122826975153668, -2.144801864683635, 2.326028879887571, -1.059164236464327, 1.407463255484265, 1.8046685243721445, 1.024985350479725, 2.9581798829526393, 1.2288240877700443, 0.5957453561809501, -1.2730694200117667, -0.8483109059018987, 0.21743967291518898, -0.06586167806082258, -1.5158525164416599, 0.26430554332466133, -0.4778645661975594, -0.7652458414591762, 0.1621704006984581, 0.5552384740223604, 0.2511986513034168, -0.9218731523872904, 0.41638794718472055, -0.45031812503282886, -0.375051586554862, -1.1288579611696947, 1.1393757951108967, 0.053356532089712076, -0.3963791129847463, 0.6925279436300792, -1.373896996104273, 0.7337789591738678, -0.7300735362463789, -1.6070875722709057, 2.0269484753317246, -1.2053847729559883, 0.3435899782563864, 1.809063332905557, 0.23452189327118586, 0.20721411711513146, -1.8044202155335582, 0.272471857909973, 0.28643135962338073, 0.14176448293892355, 0.4748982854748302, 0.9139263004183061, -0.06372110260996029, 0.8938693999139935, -1.7591400075092094, 0.8912292759789973, -0.7522731104488691, 